{"learner":{"attributes":{"best_iteration":"189","best_score":"2.909992702869888"},"feature_names":["skeleton_length","index","scale_ratio","intersection3","intersection4","intersection5","intersection6","endpoint","Area","Peri","distance_average","distance_min","distance_max","zunguri","area_per_skeleton","peri_per_skeleton","area_per_peri","estimated_width","estimated_columns","estimated_pitch","scaling_factor","theoretical_led_count","branch_correction_factor","corrected_skeleton_length","branch_adjusted_led","final_skeleton_length"],"feature_types":["float","float","float","float","float","float","float","float","float","float","float","float","float","float","float","float","float","float","int","float","float","float","float","float","float","float"],"gradient_booster":{"model":{"gbtree_model_param":{"num_parallel_tree":"1","num_trees":"210"},"iteration_indptr":[0,1,2,3,4,5,6,7,8,9,10,11,12,13,14,15,16,17,18,19,20,21,22,23,24,25,26,27,28,29,30,31,32,33,34,35,36,37,38,39,40,41,42,43,44,45,46,47,48,49,50,51,52,53,54,55,56,57,58,59,60,61,62,63,64,65,66,67,68,69,70,71,72,73,74,75,76,77,78,79,80,81,82,83,84,85,86,87,88,89,90,91,92,93,94,95,96,97,98,99,100,101,102,103,104,105,106,107,108,109,110,111,112,113,114,115,116,117,118,119,120,121,122,123,124,125,126,127,128,129,130,131,132,133,134,135,136,137,138,139,140,141,142,143,144,145,146,147,148,149,150,151,152,153,154,155,156,157,158,159,160,161,162,163,164,165,166,167,168,169,170,171,172,173,174,175,176,177,178,179,180,181,182,183,184,185,186,187,188,189,190,191,192,193,194,195,196,197,198,199,200,201,202,203,204,205,206,207,208,209,210],"tree_info":[0,0,0,0,0,0,0,0,0,0,0,0,0,0,0,0,0,0,0,0,0,0,0,0,0,0,0,0,0,0,0,0,0,0,0,0,0,0,0,0,0,0,0,0,0,0,0,0,0,0,0,0,0,0,0,0,0,0,0,0,0,0,0,0,0,0,0,0,0,0,0,0,0,0,0,0,0,0,0,0,0,0,0,0,0,0,0,0,0,0,0,0,0,0,0,0,0,0,0,0,0,0,0,0,0,0,0,0,0,0,0,0,0,0,0,0,0,0,0,0,0,0,0,0,0,0,0,0,0,0,0,0,0,0,0,0,0,0,0,0,0,0,0,0,0,0,0,0,0,0,0,0,0,0,0,0,0,0,0,0,0,0,0,0,0,0,0,0,0,0,0,0,0,0,0,0,0,0,0,0,0,0,0,0,0,0,0,0,0,0,0,0,0,0,0,0,0,0,0,0,0,0,0,0,0,0,0,0,0,0],"trees":[{"base_weights":[-1.4788894E-2,-7.540394E0,5.579102E0,-1.079635E1,-4.435251E0,2.8616421E0,9.87679E0,-1.1473158E1,-5.3792906E0,-5.7605195E0,-9.8094726E-1,1.613461E0,6.711965E0,9.1418085E0,1.8628506E1,-1.3041731E0,-1.0260246E0,-1.3341885E0,-7.0974364E0,-7.74459E0,-4.622365E0,-2.1658869E0,1.7884611E0,1.1737199E-1,4.1822996E0,4.5197797E0,7.960439E0,6.4353843E0,1.0506175E1,3.2461533E-1,2.1685715E1,1.0130769E0,-4.0461545E0,-7.467308E-1,-2.7256414E-1,-8.501832E-1,-5.541881E-1,-5.6886396E0,-2.9398606E0,-3.183517E0,-5.4696405E-1,-2.7692312E-1,2.1793518E0,-8.88572E-1,1.5444901E0,-1.1678369E-1,4.646898E0,3.3076873E-1,7.2919407E0,3.438461E0,8.432307E0,4.4249997E0,8.487606E0,7.317249E0,1.1366433E1,2.271065E1,4.1307688E-1,-5.4538465E-1,-2.0907699E-1,-5.953316E-1,-3.0461544E-1,6.1307687E-1,-3.2957074E-1,-1.1820518E-1,-3.562877E-1,7.397431E-2,-2.4211542E-1,2.7974355E-1,-9.076966E-3,-1.85503E-1,5.669464E-3,-6.51539E-2,2.3167828E-1,1.2692304E-1,-1.1043961E-1,5.0346154E-1,9.1538414E-2,-2.2230773E-1,3.5813183E-1,2.2461534E-1,8.002564E-1,9.961535E-2,4.9961534E-1,1.2581319E0,7.578321E-1,1.31958E-1,5.41282E-1,6.434798E-1,1.0645193E0,4.5025635E-1,1.0020193E0,2.4496155E0,1.076844E0,6.630769E-1,2.3489742E0],"categories":[],"categories_nodes":[],"categories_segments":[],"categories_sizes":[],"default_left":[0,0,0,0,0,0,0,0,0,0,0,0,0,0,0,0,0,0,0,0,0,0,0,0,0,0,0,0,0,0,0,0,0,0,0,0,0,0,0,0,0,0,0,0,0,0,0,0,0,0,0,0,0,0,0,0,0,0,0,0,0,0,0,0,0,0,0,0,0,0,0,0,0,0,0,0,0,0,0,0,0,0,0,0,0,0,0,0,0,0,0,0,0,0,0],"id":0,"left_children":[1,3,5,7,9,11,13,15,17,19,21,23,25,27,29,-1,-1,31,33,35,37,39,41,43,45,47,49,51,53,-1,55,-1,57,-1,-1,-1,-1,59,61,63,65,-1,67,69,71,73,75,77,79,81,83,85,87,89,91,93,-1,-1,-1,-1,-1,-1,-1,-1,-1,-1,-1,-1,-1,-1,-1,-1,-1,-1,-1,-1,-1,-1,-1,-1,-1,-1,-1,-1,-1,-1,-1,-1,-1,-1,-1,-1,-1,-1,-1],"loss_changes":[4.403406E4,4.459746E3,6.97774E3,7.3218555E2,1.0465874E3,1.7617151E3,1.3192285E3,2.2914844E2,1.7038947E2,3.3782275E2,2.1721413E2,1.0751785E3,2.0909229E2,7.282871E2,7.265708E2,0E0,0E0,3.2021533E2,7.7335815E0,4.9890625E1,1.761665E2,7.366908E1,4.160733E1,2.5697495E2,2.0672217E2,4.0326727E2,8.931055E1,2.7058276E2,3.0451074E2,0E0,1.5540137E2,0E0,9.863434E0,0E0,0E0,0E0,0E0,2.6426514E1,1.6194275E2,1.65737E1,4.777832E1,0E0,2.7183968E1,9.620887E1,1.2717828E2,1.6442541E1,1.2934619E2,1.3261842E2,5.6298706E1,2.1054382E1,7.979834E1,1.14888E2,8.9240234E1,2.0449292E2,5.963506E2,4.0932617E0,0E0,0E0,0E0,0E0,0E0,0E0,0E0,0E0,0E0,0E0,0E0,0E0,0E0,0E0,0E0,0E0,0E0,0E0,0E0,0E0,0E0,0E0,0E0,0E0,0E0,0E0,0E0,0E0,0E0,0E0,0E0,0E0,0E0,0E0,0E0,0E0,0E0,0E0,0E0],"parents":[2147483647,0,0,1,1,2,2,3,3,4,4,5,5,6,6,7,7,8,8,9,9,10,10,11,11,12,12,13,13,14,14,17,17,18,18,19,19,20,20,21,21,22,22,23,23,24,24,25,25,26,26,27,27,28,28,30,30,32,32,37,37,38,38,39,39,40,40,42,42,43,43,44,44,45,45,46,46,47,47,48,48,49,49,50,50,51,51,52,52,53,53,54,54,55,55],"right_children":[2,4,6,8,10,12,14,16,18,20,22,24,26,28,30,-1,-1,32,34,36,38,40,42,44,46,48,50,52,54,-1,56,-1,58,-1,-1,-1,-1,60,62,64,66,-1,68,70,72,74,76,78,80,82,84,86,88,90,92,94,-1,-1,-1,-1,-1,-1,-1,-1,-1,-1,-1,-1,-1,-1,-1,-1,-1,-1,-1,-1,-1,-1,-1,-1,-1,-1,-1,-1,-1,-1,-1,-1,-1,-1,-1,-1,-1,-1,-1],"split_conditions":[3.238319E2,1.7782777E2,4.8954364E2,7.8848815E0,8.893777E0,8.933812E0,1.4240507E0,1.0759931E2,3.5271317E-1,8.3765434E1,9.21466E-1,4.2727603E2,3.9378174E2,2.5346237E2,1.04577465E1,-1.3041731E0,-1.0260246E0,1.1181103E1,2.3821783E1,8.008602E0,7.3439236E0,9.133069E1,1.8141936E2,1.059184E1,6.4089484E0,1.3074742E1,2.289855E-1,1.0172084E1,1.3874206E1,3.2461533E-1,1.1E1,1.0130769E0,1.2E1,-7.467308E-1,-2.7256414E-1,-8.501832E-1,-5.541881E-1,9.949745E0,1.9387102E0,9.918902E0,7.1748877E-1,-2.7692312E-1,1.9E1,7.1748877E-1,2.0199492E0,1.3671909E1,4.8224332E2,7.224607E-1,3.3465662E2,4E0,1.8438894E0,5.532995E-1,7.112676E-1,4E0,1.4013303E1,4.9476456E2,4.1307688E-1,-5.4538465E-1,-2.0907699E-1,-5.953316E-1,-3.0461544E-1,6.1307687E-1,-3.2957074E-1,-1.1820518E-1,-3.562877E-1,7.397431E-2,-2.4211542E-1,2.7974355E-1,-9.076966E-3,-1.85503E-1,5.669464E-3,-6.51539E-2,2.3167828E-1,1.2692304E-1,-1.1043961E-1,5.0346154E-1,9.1538414E-2,-2.2230773E-1,3.5813183E-1,2.2461534E-1,8.002564E-1,9.961535E-2,4.9961534E-1,1.2581319E0,7.578321E-1,1.31958E-1,5.41282E-1,6.434798E-1,1.0645193E0,4.5025635E-1,1.0020193E0,2.4496155E0,1.076844E0,6.630769E-1,2.3489742E0],"split_indices":[9,9,9,13,13,13,2,9,2,0,2,9,9,0,12,0,0,0,12,13,13,0,9,12,13,12,2,12,17,0,1,0,1,0,0,0,0,12,15,13,2,0,1,2,15,17,9,2,9,7,15,2,2,7,17,9,0,0,0,0,0,0,0,0,0,0,0,0,0,0,0,0,0,0,0,0,0,0,0,0,0,0,0,0,0,0,0,0,0,0,0,0,0,0,0],"split_type":[0,0,0,0,0,0,0,0,0,0,0,0,0,0,0,0,0,0,0,0,0,0,0,0,0,0,0,0,0,0,0,0,0,0,0,0,0,0,0,0,0,0,0,0,0,0,0,0,0,0,0,0,0,0,0,0,0,0,0,0,0,0,0,0,0,0,0,0,0,0,0,0,0,0,0,0,0,0,0,0,0,0,0,0,0,0,0,0,0,0,0,0,0,0,0],"sum_hessian":[1.044E3,4.45E2,5.99E2,2.16E2,2.29E2,3.68E2,2.31E2,1.91E2,2.5E1,1.65E2,6.4E1,2.79E2,8.9E1,2.15E2,1.6E1,7.9E1,1.12E2,8E0,1.7E1,5.8E1,1.07E2,4.5E1,1.9E1,1.77E2,1.02E2,3.4E1,5.5E1,7.4E1,1.41E2,3E0,1.3E1,1E0,7E0,1.5E1,2E0,4.1E1,1.7E1,6.4E1,4.3E1,2.7E1,1.8E1,1E0,1.8E1,1.04E2,7.3E1,1E1,9.2E1,1.4E1,2E1,6E0,4.9E1,3.9E1,3.5E1,3.2E1,1.09E2,1.2E1,1E0,3E0,4E0,5.7E1,7E0,1E0,4.2E1,5E0,2.2E1,1.1E1,7E0,1.4E1,4E0,5.1E1,5.3E1,1.9E1,5.4E1,4E0,6E0,8.3E1,9E0,8E0,6E0,3E0,1.7E1,3E0,3E0,6E0,4.3E1,1E1,2.9E1,2E1,1.5E1,1.7E1,1.5E1,3E0,1.06E2,1E0,1.1E1],"tree_param":{"num_deleted":"0","num_feature":"26","num_nodes":"95","size_leaf_vector":"1"}},{"base_weights":[-7.981301E-2,-7.295008E0,4.61869E0,-1.0115083E1,-4.438684E0,1.2436222E0,8.065867E0,-1.1271484E0,-8.396167E0,-5.3492403E0,-2.314276E0,1.9503686E-1,3.9689744E0,6.4271398E0,9.759403E0,-8.462142E0,-1.3441394E-1,3.4382045E0,-5.500048E0,-2.5311165E0,1.491902E0,-6.2130886E-1,1.3019649E0,5.2518697E0,2.6812901E0,3.9375632E0,7.4580517E0,4.5103254E0,1.0874158E1,-2.3441394E-1,-8.5058784E-1,5.8242303E-1,-6.1692353E-2,-6.091264E0,-4.1143427E0,-2.677098E0,2.9908976E-1,2.5372463E-1,-7.720654E-2,-1.4428334E0,2.0799646E-1,2.3086374E0,-2.7758163E-1,2.366665E0,6.2891536E0,8.2241434E-1,3.8433383E0,4.273526E0,8.0090845E-1,3.131764E0,7.850514E0,1.8429899E0,5.306914E0,1.0039037E1,1.8455477E1,-6.7882967E-1,-4.7381997E-1,-8.271845E-2,-4.502058E-1,-1.5966234E-1,-3.36952E-1,1.4821293E-2,-2.5229952E-1,-1.686641E-1,1.3070183E-1,3.463603E-1,1.3206165E-1,-1.19876444E-1,2.503725E-1,4.961433E-1,1.08209126E-1,6.63536E-1,8.1277095E-2,1.996149E-1,-1.0284894E-1,-1.4279677E-1,4.537014E-1,4.843237E-1,1.8421857E-1,3.4233388E-2,1.1120384E-1,7.985479E-2,3.8944015E-1,6.101348E-1,9.020223E-1,-2.7024096E-2,2.1977718E-1,6.739294E-1,3.6626872E-1,2.4698875E0,9.551482E-1,2.1113875E0,4.295128E-1],"categories":[],"categories_nodes":[],"categories_segments":[],"categories_sizes":[],"default_left":[0,0,0,0,0,0,0,0,0,0,0,0,0,0,0,0,0,0,0,0,0,0,0,0,0,0,0,0,0,0,0,0,0,0,0,0,0,0,0,0,0,0,0,0,0,0,0,0,0,0,0,0,0,0,0,0,0,0,0,0,0,0,0,0,0,0,0,0,0,0,0,0,0,0,0,0,0,0,0,0,0,0,0,0,0,0,0,0,0,0,0,0,0],"id":1,"left_children":[1,3,5,7,9,11,13,-1,15,17,19,21,23,25,27,29,-1,31,33,35,37,39,41,43,45,47,49,51,53,-1,-1,-1,-1,55,57,59,-1,-1,-1,61,63,65,67,69,71,73,75,77,79,81,83,85,87,89,91,-1,-1,-1,-1,-1,-1,-1,-1,-1,-1,-1,-1,-1,-1,-1,-1,-1,-1,-1,-1,-1,-1,-1,-1,-1,-1,-1,-1,-1,-1,-1,-1,-1,-1,-1,-1,-1,-1],"loss_changes":[3.4985496E4,3.2320527E3,7.260573E3,3.0889648E2,3.8146997E2,9.0472076E2,7.93209E2,0E0,2.7656738E1,2.0729736E2,5.587613E1,2.0871326E2,1.3049768E2,3.8013916E2,8.2713184E2,1.7202148E0,0E0,3.3140762E1,8.861279E1,5.6342285E1,1.1601938E1,9.103579E1,1.5667236E2,1.12939575E2,9.5737366E1,4.7705994E1,1.6448047E2,4.8997925E1,5.906279E2,0E0,0E0,0E0,0E0,5.722339E1,5.3094666E1,3.8264038E1,0E0,0E0,0E0,1.1575676E2,1.4167712E2,6.3415314E1,1.0279247E2,3.7358147E1,5.2636963E1,4.342671E1,1.0917374E2,5.1356384E1,3.299322E-1,1.5994217E1,1.52146E2,6.784567E0,2.3734192E1,5.683281E2,3.2085425E2,0E0,0E0,0E0,0E0,0E0,0E0,0E0,0E0,0E0,0E0,0E0,0E0,0E0,0E0,0E0,0E0,0E0,0E0,0E0,0E0,0E0,0E0,0E0,0E0,0E0,0E0,0E0,0E0,0E0,0E0,0E0,0E0,0E0,0E0,0E0,0E0,0E0,0E0],"parents":[2147483647,0,0,1,1,2,2,3,3,4,4,5,5,6,6,8,8,9,9,10,10,11,11,12,12,13,13,14,14,15,15,17,17,18,18,19,19,20,20,21,21,22,22,23,23,24,24,25,25,26,26,27,27,28,28,33,33,34,34,35,35,39,39,40,40,41,41,42,42,43,43,44,44,45,45,46,46,47,47,48,48,49,49,50,50,51,51,52,52,53,53,54,54],"right_children":[2,4,6,8,10,12,14,-1,16,18,20,22,24,26,28,30,-1,32,34,36,38,40,42,44,46,48,50,52,54,-1,-1,-1,-1,56,58,60,-1,-1,-1,62,64,66,68,70,72,74,76,78,80,82,84,86,88,90,92,-1,-1,-1,-1,-1,-1,-1,-1,-1,-1,-1,-1,-1,-1,-1,-1,-1,-1,-1,-1,-1,-1,-1,-1,-1,-1,-1,-1,-1,-1,-1,-1,-1,-1,-1,-1,-1,-1],"split_conditions":[2.4961433E3,1.2463447E3,3.592386E3,8.380767E2,2.1628813E3,4.3401093E2,2.544221E2,-1.1271484E0,2E0,1.9387102E0,3.683126E2,8.119048E-1,2.207768E0,1.0752E1,8.786127E-1,6.312842E0,-1.3441394E-1,1.2887325E2,1.2E1,2.096774E0,7.797619E-1,1.0752E1,1.338983E0,4.8466256E-1,6.059023E0,1.0012761E1,7.1653545E-1,4.1118276E3,1.4240507E0,-2.3441394E-1,-8.5058784E-1,5.8242303E-1,-6.1692353E-2,1.816115E3,2.6836583E-1,1.7170351E1,2.9908976E-1,2.5372463E-1,-7.720654E-2,7.1370754E0,2.9893106E2,6.417105E0,8.903947E0,1E0,1.778007E1,8.4375E-1,3.88E-1,2.4272728E2,2.1938693E2,8.476956E0,4.5140762E2,3.728629E3,4.189189E-1,3.6795186E3,1.6220276E1,-6.7882967E-1,-4.7381997E-1,-8.271845E-2,-4.502058E-1,-1.5966234E-1,-3.36952E-1,1.4821293E-2,-2.5229952E-1,-1.686641E-1,1.3070183E-1,3.463603E-1,1.3206165E-1,-1.19876444E-1,2.503725E-1,4.961433E-1,1.08209126E-1,6.63536E-1,8.1277095E-2,1.996149E-1,-1.0284894E-1,-1.4279677E-1,4.537014E-1,4.843237E-1,1.8421857E-1,3.4233388E-2,1.1120384E-1,7.985479E-2,3.8944015E-1,6.101348E-1,9.020223E-1,-2.7024096E-2,2.1977718E-1,6.739294E-1,3.6626872E-1,2.4698875E0,9.551482E-1,2.1113875E0,4.295128E-1],"split_indices":[8,8,8,8,8,9,0,0,3,15,9,2,15,12,11,10,0,0,1,2,2,12,2,2,11,10,11,8,2,0,0,0,0,8,2,14,0,0,0,13,9,11,13,1,24,2,2,0,0,10,9,8,2,8,14,0,0,0,0,0,0,0,0,0,0,0,0,0,0,0,0,0,0,0,0,0,0,0,0,0,0,0,0,0,0,0,0,0,0,0,0,0,0],"split_type":[0,0,0,0,0,0,0,0,0,0,0,0,0,0,0,0,0,0,0,0,0,0,0,0,0,0,0,0,0,0,0,0,0,0,0,0,0,0,0,0,0,0,0,0,0,0,0,0,0,0,0,0,0,0,0,0,0,0,0,0,0,0,0,0,0,0,0,0,0,0,0,0,0,0,0,0,0,0,0,0,0,0,0,0,0,0,0,0,0,0,0,0,0],"sum_hessian":[1.03E3,4.06E2,6.24E2,2.03E2,2.03E2,3.16E2,3.08E2,1.18E2,8.5E1,1.41E2,6.2E1,2.29E2,8.7E1,1.59E2,1.49E2,8.4E1,1E0,2E0,1.39E2,5.9E1,3E0,1.32E2,9.7E1,4.2E1,4.5E1,4.8E1,1.11E2,2.7E1,1.22E2,1E0,8.3E1,1E0,1E0,9.5E1,4.4E1,5.8E1,1E0,2E0,1E0,6.6E1,6.6E1,5.9E1,3.8E1,1.2E1,3E1,1.8E1,2.7E1,4.3E1,5E0,1E1,1.01E2,7E0,2E1,1.12E2,1E1,6E1,3.5E1,5E0,3.9E1,2.4E1,3.4E1,2.7E1,3.9E1,2.4E1,4.2E1,2.6E1,3.3E1,2.9E1,9E0,3E0,9E0,2.8E1,2E0,1.1E1,7E0,3E0,2.4E1,3.4E1,9E0,3E0,2E0,3E0,7E0,4.3E1,5.8E1,1E0,6E0,9E0,1.1E1,2E0,1.1E2,8E0,2E0],"tree_param":{"num_deleted":"0","num_feature":"26","num_nodes":"93","size_leaf_vector":"1"}},{"base_weights":[-9.596524E-3,-5.498795E0,5.3862185E0,-8.823654E0,-2.560434E0,2.079243E0,7.515634E0,-1.0144495E0,-7.3264465E0,-4.258203E0,-1.1650993E0,3.099711E0,6.944052E-1,6.0811024E0,9.336374E0,-7.6312274E-1,-5.2037086E0,1.477604E0,-4.4121785E0,-2.0051339E0,-1.7915535E-1,3.9871696E-1,3.7350116E0,-4.7480112E-1,1.3184763E0,3.4716103E0,6.833067E0,8.347835E0,1.5567151E1,-5.429556E0,-6.3215084E-2,5.5330193E-1,-1.6852075E-1,-4.513926E0,-2.571474E-1,-2.1001074E0,2.8413528E-1,-2.3888323E0,2.5683284E-1,3.2857544E0,-7.4061525E-1,3.9985113E0,-2.0977162E-1,-1.2621453E0,3.1307142E0,-1.2596653E0,1.6916813E0,5.609494E0,2.3548775E0,5.3042564E0,1.0191652E1,6.5489335E0,9.752156E0,5.9816976E0,1.7871445E1,-9.395897E-2,-5.645205E-1,-5.37183E-1,-3.7664208E-1,1.4604305E-1,-1.3498168E-1,-1.81505E-1,-4.199458E-1,-3.3090854E-1,2.5394497E-2,6.463673E-2,-1.7844294E-1,4.12132E-1,-8.138191E-2,2.8496706E-1,-1.12531856E-1,4.955299E-3,4.1783533E-1,2.4488996E-1,-1.0777E-1,-5.0910342E-2,-2.1526888E-1,-8.14871E-2,5.3322244E-1,4.9016494E-2,-1.5939502E-1,1.3123448E-1,3.92851E-1,2.9568216E-1,7.2168964E-1,5.2898943E-2,3.7141457E-1,3.2862493E-1,6.261954E-1,1.4541888E0,7.5866467E-1,5.805097E-1,1.0366796E0,1.1726826E0,7.222773E-1,6.8592066E-1,1.1858304E-1,1.8836206E0,2.6147732E-1],"categories":[],"categories_nodes":[],"categories_segments":[],"categories_sizes":[],"default_left":[0,0,0,0,0,0,0,0,0,0,0,0,0,0,0,0,0,0,0,0,0,0,0,0,0,0,0,0,0,0,0,0,0,0,0,0,0,0,0,0,0,0,0,0,0,0,0,0,0,0,0,0,0,0,0,0,0,0,0,0,0,0,0,0,0,0,0,0,0,0,0,0,0,0,0,0,0,0,0,0,0,0,0,0,0,0,0,0,0,0,0,0,0,0,0,0,0,0,0],"id":2,"left_children":[1,3,5,7,9,11,13,-1,15,17,19,21,23,25,27,-1,29,31,33,35,37,39,41,43,45,47,49,51,53,55,-1,-1,-1,57,59,61,-1,63,65,67,69,71,73,75,77,79,81,83,85,87,89,91,93,95,97,-1,-1,-1,-1,-1,-1,-1,-1,-1,-1,-1,-1,-1,-1,-1,-1,-1,-1,-1,-1,-1,-1,-1,-1,-1,-1,-1,-1,-1,-1,-1,-1,-1,-1,-1,-1,-1,-1,-1,-1,-1,-1,-1,-1],"loss_changes":[3.1129264E4,5.06625E3,3.7156328E3,4.0645703E2,6.530663E2,2.9282324E2,7.8271875E2,0E0,3.5348145E1,1.1720972E2,1.2696927E2,2.0401074E2,6.638051E1,3.3433838E2,7.2996875E2,0E0,1.4546112E1,6.101512E1,4.9938965E1,4.4096985E1,7.019104E1,8.163107E1,1.0204407E2,9.460555E1,5.8942474E1,8.865405E1,6.68376E2,2.4523047E2,2.882915E2,1.049762E1,0E0,0E0,0E0,5.5166992E1,9.467231E0,4.0848053E1,0E0,3.0330124E1,4.9543247E1,2.766298E1,2.7895863E1,6.399756E1,1.8654812E1,1.6744526E1,5.6914284E1,5.571213E0,3.8442917E1,3.7338287E1,7.206708E1,1.697981E2,3.7475537E2,1.0007495E2,2.4804932E2,1.2103729E1,1.5466895E2,0E0,0E0,0E0,0E0,0E0,0E0,0E0,0E0,0E0,0E0,0E0,0E0,0E0,0E0,0E0,0E0,0E0,0E0,0E0,0E0,0E0,0E0,0E0,0E0,0E0,0E0,0E0,0E0,0E0,0E0,0E0,0E0,0E0,0E0,0E0,0E0,0E0,0E0,0E0,0E0,0E0,0E0,0E0,0E0],"parents":[2147483647,0,0,1,1,2,2,3,3,4,4,5,5,6,6,8,8,9,9,10,10,11,11,12,12,13,13,14,14,16,16,17,17,18,18,19,19,20,20,21,21,22,22,23,23,24,24,25,25,26,26,27,27,28,28,29,29,33,33,34,34,35,35,37,37,38,38,39,39,40,40,41,41,42,42,43,43,44,44,45,45,46,46,47,47,48,48,49,49,50,50,51,51,52,52,53,53,54,54],"right_children":[2,4,6,8,10,12,14,-1,16,18,20,22,24,26,28,-1,30,32,34,36,38,40,42,44,46,48,50,52,54,56,-1,-1,-1,58,60,62,-1,64,66,68,70,72,74,76,78,80,82,84,86,88,90,92,94,96,98,-1,-1,-1,-1,-1,-1,-1,-1,-1,-1,-1,-1,-1,-1,-1,-1,-1,-1,-1,-1,-1,-1,-1,-1,-1,-1,-1,-1,-1,-1,-1,-1,-1,-1,-1,-1,-1,-1,-1,-1,-1,-1,-1,-1],"split_conditions":[2.8231343E3,1.4572228E3,3.6184194E3,8.380767E2,2.1725488E3,7.864881E0,4.4624043E3,-1.0144495E0,7.224609E1,1.9387102E0,3.4160568E2,4.0356082E-1,6.838488E-1,1.1550387E0,1.2676767E0,-7.6312274E-1,2.2682805E2,2.6909092E-1,3.238319E2,1.5945946E0,3.539823E-1,6.4619656E0,6.814815E0,4E0,1.7232943E1,2.4080365E2,2.5848047E2,3.2205882E0,4.9623798E2,2E0,-6.3215084E-2,5.5330193E-1,-1.6852075E-1,5.0526315E-1,3.5526314E-1,1.382643E0,2.8413528E-1,4.1097247E2,1.338983E0,1.3671909E1,3.806325E2,1.3086064E1,4.1140796E2,5.197368E-1,2.2404382E0,8.4375E-1,3.4905044E3,3.88728E3,4.1118276E3,1.046174E1,1.9420216E1,4.9179487E3,2.1864197E1,1.4281524E0,3.7344238E2,-9.395897E-2,-5.645205E-1,-5.37183E-1,-3.7664208E-1,1.4604305E-1,-1.3498168E-1,-1.81505E-1,-4.199458E-1,-3.3090854E-1,2.5394497E-2,6.463673E-2,-1.7844294E-1,4.12132E-1,-8.138191E-2,2.8496706E-1,-1.12531856E-1,4.955299E-3,4.1783533E-1,2.4488996E-1,-1.0777E-1,-5.0910342E-2,-2.1526888E-1,-8.14871E-2,5.3322244E-1,4.9016494E-2,-1.5939502E-1,1.3123448E-1,3.92851E-1,2.9568216E-1,7.2168964E-1,5.2898943E-2,3.7141457E-1,3.2862493E-1,6.261954E-1,1.4541888E0,7.5866467E-1,5.805097E-1,1.0366796E0,1.1726826E0,7.222773E-1,6.8592066E-1,1.1858304E-1,1.8836206E0,2.6147732E-1],"split_indices":[8,8,8,8,8,13,8,0,23,15,9,2,2,11,2,0,9,2,9,2,2,13,11,7,14,23,25,11,9,7,0,0,0,2,2,2,0,9,2,14,9,14,9,2,15,2,8,8,8,12,24,8,21,2,23,0,0,0,0,0,0,0,0,0,0,0,0,0,0,0,0,0,0,0,0,0,0,0,0,0,0,0,0,0,0,0,0,0,0,0,0,0,0,0,0,0,0,0,0],"split_type":[0,0,0,0,0,0,0,0,0,0,0,0,0,0,0,0,0,0,0,0,0,0,0,0,0,0,0,0,0,0,0,0,0,0,0,0,0,0,0,0,0,0,0,0,0,0,0,0,0,0,0,0,0,0,0,0,0,0,0,0,0,0,0,0,0,0,0,0,0,0,0,0,0,0,0,0,0,0,0,0,0,0,0,0,0,0,0,0,0,0,0,0,0,0,0,0,0,0,0],"sum_hessian":[1.049E3,5.2E2,5.29E2,2.43E2,2.77E2,2.08E2,3.21E2,1.26E2,1.17E2,1.24E2,1.53E2,1.19E2,8.9E1,1.82E2,1.39E2,1E2,1.7E1,3E0,1.21E2,8.2E1,7.1E1,2.3E1,9.6E1,3.1E1,5.8E1,4.2E1,1.4E2,1.22E2,1.7E1,1.6E1,1E0,1E0,2E0,1.18E2,3E0,8.1E1,1E0,1.1E1,6E1,6E0,1.7E1,9E1,6E0,2.6E1,5E0,7E0,5.1E1,1.3E1,2.9E1,9.8E1,4.2E1,5.6E1,6.6E1,4E0,1.3E1,1E0,1.5E1,5.2E1,6.6E1,1E0,2E0,7.3E1,8E0,8E0,3E0,5.1E1,9E0,5E0,1E0,1E0,1.6E1,4E0,8.6E1,1E0,5E0,1.5E1,1.1E1,2E0,3E0,1E0,6E0,4.5E1,6E0,6E0,7E0,1.3E1,1.6E1,3.3E1,6.5E1,1.4E1,2.8E1,4.9E1,7E0,3.5E1,3.1E1,3E0,1E0,1.2E1,1E0],"tree_param":{"num_deleted":"0","num_feature":"26","num_nodes":"99","size_leaf_vector":"1"}},{"base_weights":[1.07762195E-1,-5.435254E0,4.2119794E0,-8.110709E0,-3.1157584E0,2.698481E0,8.128505E0,-8.423275E0,-2.3472834E0,-4.314441E0,-1.0324377E0,1.5932678E0,6.1997538E0,7.3045797E0,1.4156735E1,-9.786293E-1,-7.469699E-1,1.0047151E0,-4.3965187E0,-4.7734222E0,-1.7878809E0,-1.5059292E0,1.2157379E0,3.0913505E-1,3.2264154E0,4.5876584E0,7.39749E0,4.303248E0,8.403203E0,1.51402645E1,3.8311535E-1,-1.2195247E-1,-4.5822653E-1,-5.9850645E0,-4.019512E0,5.256368E-1,-2.3045733E0,-3.1342537E0,-7.081701E-1,-3.1743264E-1,2.480701E0,-5.565978E-1,1.5822002E0,2.4749298E0,5.0881486E0,-4.3717614E-1,5.198643E0,6.2854805E0,1.0436271E0,2.93362E0,6.566337E0,1.2503532E1,7.443098E0,1.5619873E-1,1.5885034E1,-6.069754E-1,-9.94672E-2,-4.7901684E-1,-3.2068202E-1,5.5037893E-2,-2.593677E-1,-5.880033E-2,-3.3344582E-1,-2.4133268E-1,-5.868692E-3,3.1749216E-1,-8.583414E-2,1.0033261E-1,-1.0410321E-1,2.9298365E-1,5.3324122E-2,2.872532E-1,-3.35922E-2,6.3492745E-1,1.06241636E-1,-1.358012E-1,3.377448E-2,5.319565E-1,7.0424275E-3,2.1849898E-1,6.7409176E-1,1.7729859E-1,6.877114E-1,1.9408786E-1,7.1209556E-1,3.4443924E0,9.365515E-1,1.7164412E-1,7.9041845E-1,1.6606165E0,2.4840347E-1],"categories":[],"categories_nodes":[],"categories_segments":[],"categories_sizes":[],"default_left":[0,0,0,0,0,0,0,0,0,0,0,0,0,0,0,0,0,0,0,0,0,0,0,0,0,0,0,0,0,0,0,0,0,0,0,0,0,0,0,0,0,0,0,0,0,0,0,0,0,0,0,0,0,0,0,0,0,0,0,0,0,0,0,0,0,0,0,0,0,0,0,0,0,0,0,0,0,0,0,0,0,0,0,0,0,0,0,0,0,0,0],"id":3,"left_children":[1,3,5,7,9,11,13,15,17,19,21,23,25,27,29,-1,-1,-1,31,33,35,37,39,41,43,45,47,49,51,53,-1,-1,-1,55,57,-1,59,61,63,-1,65,67,69,71,73,75,77,79,-1,81,83,85,87,-1,89,-1,-1,-1,-1,-1,-1,-1,-1,-1,-1,-1,-1,-1,-1,-1,-1,-1,-1,-1,-1,-1,-1,-1,-1,-1,-1,-1,-1,-1,-1,-1,-1,-1,-1,-1,-1],"loss_changes":[2.3796252E4,2.7351455E3,3.539503E3,3.5025195E2,5.943489E2,1.6726421E3,7.2390234E2,1.7862305E2,3.483967E2,1.670752E2,9.659963E1,6.949123E2,1.6567383E2,4.5387158E2,1.3305273E2,0E0,0E0,0E0,3.22937E-1,9.1866455E1,1.0281125E2,9.3522964E1,9.665751E1,2.0708235E2,1.9091455E2,1.470434E2,1.2872192E2,1.0996973E2,3.301089E2,1.4535864E2,0E0,0E0,0E0,1.3119873E1,3.5196167E1,0E0,2.1440895E1,9.881561E0,5.6092163E1,0E0,3.309124E1,8.5684494E1,1.0552611E2,1.19684326E2,2.0066833E2,4.8421383E0,2.5131104E1,6.8416504E1,0E0,1.15096695E2,2.3753357E1,9.811709E2,2.2311475E2,0E0,1.1146265E2,0E0,0E0,0E0,0E0,0E0,0E0,0E0,0E0,0E0,0E0,0E0,0E0,0E0,0E0,0E0,0E0,0E0,0E0,0E0,0E0,0E0,0E0,0E0,0E0,0E0,0E0,0E0,0E0,0E0,0E0,0E0,0E0,0E0,0E0,0E0,0E0],"parents":[2147483647,0,0,1,1,2,2,3,3,4,4,5,5,6,6,7,7,8,8,9,9,10,10,11,11,12,12,13,13,14,14,18,18,19,19,20,20,21,21,22,22,23,23,24,24,25,25,26,26,27,27,28,28,29,29,33,33,34,34,36,36,37,37,38,38,40,40,41,41,42,42,43,43,44,44,45,45,46,46,47,47,49,49,50,50,51,51,52,52,54,54],"right_children":[2,4,6,8,10,12,14,16,18,20,22,24,26,28,30,-1,-1,-1,32,34,36,38,40,42,44,46,48,50,52,54,-1,-1,-1,56,58,-1,60,62,64,-1,66,68,70,72,74,76,78,80,-1,82,84,86,88,-1,90,-1,-1,-1,-1,-1,-1,-1,-1,-1,-1,-1,-1,-1,-1,-1,-1,-1,-1,-1,-1,-1,-1,-1,-1,-1,-1,-1,-1,-1,-1,-1,-1,-1,-1,-1,-1],"split_conditions":[3.238319E2,1.7782777E2,5.286913E2,9.558327E0,8.335278E0,8.903947E0,1.2328767E0,1.0759931E2,2.6836583E-1,1.0978701E1,1.2729592E0,4.3401093E2,1.8518817E2,6.8093567E0,7.7643294E0,-9.786293E-1,-7.469699E-1,1.0047151E0,5.529954E-1,8.5696335E1,7.5883617E0,3E0,1.0130921E1,1.0694445E1,1.084047E1,2.2651707E1,8.4375E-1,6.4645764E2,6.9432383E0,8.833652E0,3.8311535E-1,-1.2195247E-1,-4.5822653E-1,2E0,5.225225E-1,5.256368E-1,1.1238281E1,1.7029703E1,8.933812E0,-3.1743264E-1,1.9E1,3E0,7.8551745E0,1.3727598E0,1.7477571E1,3E0,1.7770079E2,2.289855E-1,1.0436271E0,1.0301399E1,7.645631E0,5.331286E2,1.6836037E1,1.5619873E-1,3.3540582E2,-6.069754E-1,-9.94672E-2,-4.7901684E-1,-3.2068202E-1,5.5037893E-2,-2.593677E-1,-5.880033E-2,-3.3344582E-1,-2.4133268E-1,-5.868692E-3,3.1749216E-1,-8.583414E-2,1.0033261E-1,-1.0410321E-1,2.9298365E-1,5.3324122E-2,2.872532E-1,-3.35922E-2,6.3492745E-1,1.06241636E-1,-1.358012E-1,3.377448E-2,5.319565E-1,7.0424275E-3,2.1849898E-1,6.7409176E-1,1.7729859E-1,6.877114E-1,1.9408786E-1,7.1209556E-1,3.4443924E0,9.365515E-1,1.7164412E-1,7.9041845E-1,1.6606165E0,2.4840347E-1],"split_indices":[9,9,9,16,16,16,2,9,2,12,2,9,23,10,10,0,0,0,0,0,10,1,21,12,12,17,2,9,16,12,0,0,0,3,2,0,12,0,16,0,1,1,16,2,21,1,0,2,0,12,12,9,21,0,0,0,0,0,0,0,0,0,0,0,0,0,0,0,0,0,0,0,0,0,0,0,0,0,0,0,0,0,0,0,0,0,0,0,0,0,0],"split_type":[0,0,0,0,0,0,0,0,0,0,0,0,0,0,0,0,0,0,0,0,0,0,0,0,0,0,0,0,0,0,0,0,0,0,0,0,0,0,0,0,0,0,0,0,0,0,0,0,0,0,0,0,0,0,0,0,0,0,0,0,0,0,0,0,0,0,0,0,0,0,0,0,0,0,0,0,0,0,0,0,0,0,0,0,0,0,0,0,0,0,0],"sum_hessian":[1.044E3,4.44E2,6E2,2.05E2,2.39E2,4.34E2,1.66E2,1.94E2,1.1E1,1.51E2,8.8E1,3.31E2,1.03E2,1.48E2,1.8E1,7.6E1,1.18E2,1E0,1E1,1.27E2,2.4E1,7.3E1,1.5E1,1.86E2,1.45E2,4.6E1,5.7E1,4.1E1,1.07E2,1.6E1,2E0,1E0,9E0,4.6E1,8.1E1,1E0,2.3E1,2.3E1,5E1,3E0,1.2E1,1.11E2,7.5E1,1.05E2,4E1,5E0,4.1E1,4.4E1,1.3E1,2.7E1,1.4E1,1.8E1,8.9E1,1E0,1.5E1,4.5E1,1E0,3.9E1,4.2E1,2E0,2.1E1,2E0,2.1E1,1.3E1,3.7E1,1E1,2E0,2.6E1,8.5E1,3.2E1,4.3E1,9.2E1,1.3E1,3E1,1E1,2E0,3E0,4E1,1E0,5E0,3.9E1,2.2E1,5E0,2E0,1.2E1,1E0,1.7E1,7E0,8.2E1,1.4E1,1E0],"tree_param":{"num_deleted":"0","num_feature":"26","num_nodes":"91","size_leaf_vector":"1"}},{"base_weights":[1.4958028E-1,-5.126182E0,3.7171621E0,-7.3650804E0,-3.0553606E0,1.1189361E0,6.158777E0,-8.219005E-1,-6.081762E0,-4.3186646E0,-2.1767685E0,-1.8922114E-1,1.6853197E0,5.100706E0,7.730052E0,-6.1304746E0,-9.4493836E-2,-4.5973315E0,1.3181399E0,-2.8317957E0,-1.4464047E0,4.1552883E-1,-1.5416187E0,2.6064603E0,4.4440112E-1,4.0787425E0,6.92115E0,3.272173E0,7.2748284E0,-6.1617935E-1,-1.7155254E-1,-1.5491809E0,-5.0224047E0,9.5447934E-1,-3.0997217E-1,5.233085E-1,-3.1036525E0,1.4194665E0,-1.65924E0,-1.063477E0,1.3689945E0,2.313619E-1,-1.7655064E0,3.8360623E-1,3.0906522E0,-1.3492149E-2,2.8024862E0,4.8704515E0,2.608554E0,3.9823172E0,7.95626E0,3.2129924E0,8.141263E0,2.4955876E-3,-1.8765038E-1,-5.0742435E-1,-5.4315776E-2,-3.163877E-1,3.1828704E-1,-3.095021E-2,-3.283104E-1,-4.1223478E-2,2.8113458E-1,-2.2933494E-1,-6.503889E-2,-2.3609404E-1,4.0790487E-2,2.0254505E-1,-1.4975107E-1,-2.2953705E-1,1.3771064E-2,1.4988314E-1,-1.2060695E-1,2.1959229E-1,4.177219E-1,-5.2542895E-2,1.5985975E-1,-4.6451006E-2,3.6662778E-1,2.2945082E-1,5.458642E-1,1.7096905E-2,3.857921E-1,6.250107E-2,4.7763306E-1,9.2300874E-1,4.666248E-1,2.084816E-1,5.640733E-1,4.2491522E-1,8.851801E-1],"categories":[],"categories_nodes":[],"categories_segments":[],"categories_sizes":[],"default_left":[0,0,0,0,0,0,0,0,0,0,0,0,0,0,0,0,0,0,0,0,0,0,0,0,0,0,0,0,0,0,0,0,0,0,0,0,0,0,0,0,0,0,0,0,0,0,0,0,0,0,0,0,0,0,0,0,0,0,0,0,0,0,0,0,0,0,0,0,0,0,0,0,0,0,0,0,0,0,0,0,0,0,0,0,0,0,0,0,0,0,0],"id":4,"left_children":[1,3,5,7,9,11,13,-1,15,17,19,21,23,25,27,29,-1,31,33,35,37,39,41,43,45,47,49,-1,51,-1,-1,53,55,-1,-1,57,59,61,63,65,67,-1,69,71,73,75,77,79,81,83,85,87,89,-1,-1,-1,-1,-1,-1,-1,-1,-1,-1,-1,-1,-1,-1,-1,-1,-1,-1,-1,-1,-1,-1,-1,-1,-1,-1,-1,-1,-1,-1,-1,-1,-1,-1,-1,-1,-1,-1],"loss_changes":[1.9781715E4,1.9422715E3,3.9699863E3,1.7104297E2,2.3635376E2,2.264487E2,4.9628125E2,0E0,1.4769287E1,1.4775903E2,5.9104553E1,7.68144E1,2.4200854E2,3.3531494E2,1.2141865E3,2.5585938E-1,0E0,1.0299158E2,2.119518E2,6.481763E1,4.202652E1,9.3148224E1,2.9060966E1,1.2977411E2,9.9653824E1,1.3553442E2,1.7702075E2,0E0,4.1965967E2,0E0,0E0,6.414999E0,1.4096924E1,0E0,0E0,6.89099E1,3.0715149E1,1.41463785E1,3.7237076E1,5.079401E1,7.83553E1,0E0,2.8768372E1,4.2612427E1,8.740814E1,6.5105095E1,4.435325E1,1.1094177E2,1.4207315E2,4.978952E1,1.6508594E2,5.3201645E1,2.4868799E2,0E0,0E0,0E0,0E0,0E0,0E0,0E0,0E0,0E0,0E0,0E0,0E0,0E0,0E0,0E0,0E0,0E0,0E0,0E0,0E0,0E0,0E0,0E0,0E0,0E0,0E0,0E0,0E0,0E0,0E0,0E0,0E0,0E0,0E0,0E0,0E0,0E0,0E0],"parents":[2147483647,0,0,1,1,2,2,3,3,4,4,5,5,6,6,8,8,9,9,10,10,11,11,12,12,13,13,14,14,15,15,17,17,18,18,19,19,20,20,21,21,22,22,23,23,24,24,25,25,26,26,28,28,31,31,32,32,35,35,36,36,37,37,38,38,39,39,40,40,42,42,43,43,44,44,45,45,46,46,47,47,48,48,49,49,50,50,51,51,52,52],"right_children":[2,4,6,8,10,12,14,-1,16,18,20,22,24,26,28,30,-1,32,34,36,38,40,42,44,46,48,50,-1,52,-1,-1,54,56,-1,-1,58,60,62,64,66,68,-1,70,72,74,76,78,80,82,84,86,88,90,-1,-1,-1,-1,-1,-1,-1,-1,-1,-1,-1,-1,-1,-1,-1,-1,-1,-1,-1,-1,-1,-1,-1,-1,-1,-1,-1,-1,-1,-1,-1,-1,-1,-1,-1,-1,-1,-1],"split_conditions":[2.5295251E3,1.2463447E3,3.6184194E3,8.380767E2,1.7753113E3,2.843993E3,2.7484473E2,-8.219005E-1,2E0,9.558327E0,2.1725488E3,6.814815E0,7.864881E0,8.4375E-1,3.6795186E3,2.9E1,-9.4493836E-2,1.4281524E0,1.3E1,5.738758E-1,2.184513E3,2.514186E0,2.6798308E-1,4.293629E-1,1.4E1,5.4310346E-1,1.0172084E1,3.272173E0,8.786127E-1,-6.1617935E-1,-1.7155254E-1,6.2106557E0,2.6E1,9.5447934E-1,-3.0997217E-1,2.1443737E-1,1.7858036E3,3.8414633E-1,1.407461E2,1.0645162E1,1.382643E0,2.313619E-1,1.1E1,6E0,1.0172084E1,1.3074742E1,4.472441E-1,1.0486917E1,8.598078E0,6.5770946E0,7.8625593E0,4.624518E3,4.0167385E3,2.4955876E-3,-1.8765038E-1,-5.0742435E-1,-5.4315776E-2,-3.163877E-1,3.1828704E-1,-3.095021E-2,-3.283104E-1,-4.1223478E-2,2.8113458E-1,-2.2933494E-1,-6.503889E-2,-2.3609404E-1,4.0790487E-2,2.0254505E-1,-1.4975107E-1,-2.2953705E-1,1.3771064E-2,1.4988314E-1,-1.2060695E-1,2.1959229E-1,4.177219E-1,-5.2542895E-2,1.5985975E-1,-4.6451006E-2,3.6662778E-1,2.2945082E-1,5.458642E-1,1.7096905E-2,3.857921E-1,6.250107E-2,4.7763306E-1,9.2300874E-1,4.666248E-1,2.084816E-1,5.640733E-1,4.2491522E-1,8.851801E-1],"split_indices":[8,8,8,8,8,8,23,0,3,13,8,11,13,2,8,1,0,11,1,11,8,11,2,2,1,2,12,0,11,0,0,13,1,0,0,2,8,2,0,12,2,0,1,1,12,12,2,12,13,13,11,8,8,0,0,0,0,0,0,0,0,0,0,0,0,0,0,0,0,0,0,0,0,0,0,0,0,0,0,0,0,0,0,0,0,0,0,0,0,0,0],"split_type":[0,0,0,0,0,0,0,0,0,0,0,0,0,0,0,0,0,0,0,0,0,0,0,0,0,0,0,0,0,0,0,0,0,0,0,0,0,0,0,0,0,0,0,0,0,0,0,0,0,0,0,0,0,0,0,0,0,0,0,0,0,0,0,0,0,0,0,0,0,0,0,0,0,0,0,0,0,0,0,0,0,0,0,0,0,0,0,0,0,0,0],"sum_hessian":[1.049E3,4.23E2,6.26E2,2.02E2,2.21E2,3.04E2,3.22E2,1.18E2,8.4E1,8.9E1,1.32E2,9.2E1,2.12E2,1.95E2,1.27E2,8.3E1,1E0,8.5E1,4E0,6.8E1,6.4E1,6.4E1,2.8E1,1.21E2,9.1E1,1.27E2,6.8E1,1E0,1.26E2,8.2E1,1E0,1.1E1,7.4E1,1E0,3E0,5E0,6.3E1,4E0,6E1,2.5E1,3.9E1,1E0,2.7E1,2.2E1,9.9E1,7.7E1,1.4E1,8.1E1,4.6E1,1.9E1,4.9E1,2.3E1,1.03E2,2E0,9E0,7.3E1,1E0,2E0,3E0,4E0,5.9E1,2E0,2E0,3.6E1,2.4E1,1.3E1,1.2E1,3.2E1,7E0,2.1E1,6E0,1.3E1,9E0,5.6E1,4.3E1,5.9E1,1.8E1,3E0,1.1E1,1.6E1,6.5E1,1.6E1,3E1,4E0,1.5E1,3.4E1,1.5E1,1.7E1,6E0,1.7E1,8.6E1],"tree_param":{"num_deleted":"0","num_feature":"26","num_nodes":"91","size_leaf_vector":"1"}},{"base_weights":[8.905525E-2,-3.947575E0,3.854589E0,-6.6673617E0,-2.0502646E0,1.604226E0,5.5663652E0,-7.3358564E0,-5.2111907E0,-3.3761747E0,-9.470608E-1,6.3603497E-1,2.930448E0,1.5438937E1,5.3829346E0,-8.286544E0,-6.6821605E-1,-5.2705827E0,-5.6596346E-2,9.067554E-1,-3.5386655E0,-1.7874943E0,-2.9418087E-1,2.7258985E0,4.295198E-1,4.351243E0,2.2687917E0,3.7308521E0,3.1085641E0,4.2529416E0,6.713566E0,-8.362905E-1,-2.1460812E-1,-5.3256583E-1,-7.677891E-2,-3.8121612E0,-7.131543E-1,-2.1375375E0,-5.439725E-1,2.1732299E-1,-2.177036E0,-8.463308E-2,3.1366768E0,8.511454E-1,-7.210412E-1,6.031553E0,2.7056205E0,1.9372072E0,6.1056304E-1,1.0504953E-1,5.8359617E-1,3.0706503E0,5.5957475E0,6.0532002E0,8.443387E0,-3.991729E-1,-3.0323936E-2,4.834406E-1,-1.5866517E-1,-3.0436578E-1,-1.3880242E-1,-1.7314987E-1,1.9050752E-1,-1.1309822E-2,4.8197553E-1,-1.10106766E-1,-3.132898E-1,9.0158045E-2,3.8496405E-1,4.5882184E-2,2.4329856E-1,1.780325E-1,-1.1172342E-1,1.0204355E-1,6.77337E-1,3.5425034E-1,-8.748742E-2,2.1374626E-1,-1.626053E-1,1.7537135E-1,4.5315853E-1,2.0121448E-1,6.1697096E-1,3.0977362E-1,6.779954E-1,9.689164E-1,4.350027E-1],"categories":[],"categories_nodes":[],"categories_segments":[],"categories_sizes":[],"default_left":[0,0,0,0,0,0,0,0,0,0,0,0,0,0,0,0,0,0,0,0,0,0,0,0,0,0,0,0,0,0,0,0,0,0,0,0,0,0,0,0,0,0,0,0,0,0,0,0,0,0,0,0,0,0,0,0,0,0,0,0,0,0,0,0,0,0,0,0,0,0,0,0,0,0,0,0,0,0,0,0,0,0,0,0,0,0,0],"id":5,"left_children":[1,3,5,7,9,11,13,15,17,19,21,23,25,27,29,31,-1,33,-1,-1,35,37,39,41,43,45,47,49,-1,51,53,-1,-1,-1,-1,55,57,59,61,63,65,-1,67,69,71,73,75,77,-1,-1,-1,79,81,83,85,-1,-1,-1,-1,-1,-1,-1,-1,-1,-1,-1,-1,-1,-1,-1,-1,-1,-1,-1,-1,-1,-1,-1,-1,-1,-1,-1,-1,-1,-1,-1,-1],"loss_changes":[1.5747276E4,2.5655996E3,2.055088E3,1.6007227E2,4.2934387E2,2.9695996E2,4.6533496E2,2.8892578E1,1.5193848E1,3.0248096E2,8.870445E1,5.7209682E1,8.159357E1,7.9650696E2,4.2143164E2,5.383789E0,0E0,1.1917236E1,0E0,0E0,9.960669E1,2.9474426E1,9.023625E1,2.0492416E1,6.126496E1,6.57619E1,7.515213E1,1.5750488E1,0E0,2.4390283E2,1.0279541E2,0E0,0E0,0E0,0E0,7.460083E1,7.0340866E1,3.2685333E1,5.272251E1,1.1355063E2,1.6696617E1,0E0,1.3583092E1,5.5689087E1,3.561754E1,4.435141E1,5.430571E1,4.9908325E1,0E0,0E0,0E0,1.6458057E2,1.4308813E2,1.9709497E2,1.3492725E2,0E0,0E0,0E0,0E0,0E0,0E0,0E0,0E0,0E0,0E0,0E0,0E0,0E0,0E0,0E0,0E0,0E0,0E0,0E0,0E0,0E0,0E0,0E0,0E0,0E0,0E0,0E0,0E0,0E0,0E0,0E0,0E0],"parents":[2147483647,0,0,1,1,2,2,3,3,4,4,5,5,6,6,7,7,8,8,9,9,10,10,11,11,12,12,13,13,14,14,15,15,17,17,20,20,21,21,22,22,23,23,24,24,25,25,26,26,27,27,29,29,30,30,35,35,36,36,37,37,38,38,39,39,40,40,42,42,43,43,44,44,45,45,46,46,47,47,51,51,52,52,53,53,54,54],"right_children":[2,4,6,8,10,12,14,16,18,20,22,24,26,28,30,32,-1,34,-1,-1,36,38,40,42,44,46,48,50,-1,52,54,-1,-1,-1,-1,56,58,60,62,64,66,-1,68,70,72,74,76,78,-1,-1,-1,80,82,84,86,-1,-1,-1,-1,-1,-1,-1,-1,-1,-1,-1,-1,-1,-1,-1,-1,-1,-1,-1,-1,-1,-1,-1,-1,-1,-1,-1,-1,-1,-1,-1,-1],"split_conditions":[2.843993E3,1.2555009E3,3.6705613E3,1.3429398E2,2.1725488E3,4.3401093E2,3.6795186E3,9.445228E1,1.1279973E1,1.3932193E2,6.411483E-1,1.4723445E1,3E0,2.5124324E2,4.4624043E3,2.1E1,-6.6821605E-1,9.9577465E0,-5.6596346E-2,9.067554E-1,1.2714286E2,3.7651407E2,1.382643E0,1.3086064E1,1.76576E2,4.616464E2,1.1380046E1,4.2574257E-1,3.1085641E0,5.172347E2,5E-1,-8.362905E-1,-2.1460812E-1,-5.3256583E-1,-7.677891E-2,2.6E1,2.4984169E2,7.625784E0,6.1498256E0,1.2729592E0,2.3900821E0,-8.463308E-2,4.293629E-1,3.4697385E3,7.1613035E0,5.372393E-1,9.0996784E-1,7.625784E0,6.1056304E-1,1.0504953E-1,5.8359617E-1,4.1118276E3,6.275148E0,1.7937853E0,2.345946E1,-3.991729E-1,-3.0323936E-2,4.834406E-1,-1.5866517E-1,-3.0436578E-1,-1.3880242E-1,-1.7314987E-1,1.9050752E-1,-1.1309822E-2,4.8197553E-1,-1.10106766E-1,-3.132898E-1,9.0158045E-2,3.8496405E-1,4.5882184E-2,2.4329856E-1,1.780325E-1,-1.1172342E-1,1.0204355E-1,6.77337E-1,3.5425034E-1,-8.748742E-2,2.1374626E-1,-1.626053E-1,1.7537135E-1,4.5315853E-1,2.0121448E-1,6.1697096E-1,3.0977362E-1,6.779954E-1,9.689164E-1,4.350027E-1],"split_indices":[8,8,8,9,8,9,8,9,21,9,2,14,1,0,8,1,0,11,0,0,0,9,2,14,0,9,12,2,0,9,22,0,0,0,0,1,9,13,11,2,15,0,2,8,13,2,2,13,0,0,0,8,13,11,21,0,0,0,0,0,0,0,0,0,0,0,0,0,0,0,0,0,0,0,0,0,0,0,0,0,0,0,0,0,0,0,0],"split_type":[0,0,0,0,0,0,0,0,0,0,0,0,0,0,0,0,0,0,0,0,0,0,0,0,0,0,0,0,0,0,0,0,0,0,0,0,0,0,0,0,0,0,0,0,0,0,0,0,0,0,0,0,0,0,0,0,0,0,0,0,0,0,0,0,0,0,0,0,0,0,0,0,0,0,0,0,0,0,0,0,0,0,0,0,0,0,0],"sum_hessian":[1.034E3,4.99E2,5.35E2,2.04E2,2.95E2,2.32E2,3.03E2,1.37E2,6.7E1,1.33E2,1.62E2,1.35E2,9.7E1,4E0,2.99E2,5.1E1,8.6E1,6.6E1,1E0,1E0,1.32E2,7E1,9.2E1,1.1E1,1.24E2,2.9E1,6.8E1,3E0,1E0,1.64E2,1.35E2,5E1,1E0,6.5E1,1E0,1.2E2,1.2E1,5.4E1,1.6E1,7.3E1,1.9E1,1E0,1E1,9.1E1,3.3E1,1.3E1,1.6E1,6.4E1,4E0,2E0,1E0,8.9E1,7.5E1,1.01E2,3.4E1,1.14E2,6E0,1E0,1.1E1,2.3E1,3.1E1,1.1E1,5E0,6.9E1,4E0,1E1,9E0,3E0,7E0,7.4E1,1.7E1,4E0,2.9E1,2E0,1.1E1,1.3E1,3E0,6.1E1,3E0,4.8E1,4.1E1,1.1E1,6.4E1,2.1E1,8E1,2.5E1,9E0],"tree_param":{"num_deleted":"0","num_feature":"26","num_nodes":"87","size_leaf_vector":"1"}},{"base_weights":[1.8104412E-1,-3.508355E0,3.6584942E0,-5.890471E0,-1.7878193E0,1.408718E0,5.1080184E0,-6.713573E0,-4.8359E0,-2.7292306E0,-6.973716E-1,5.9563476E-1,2.4113305E0,4.1073184E0,6.6191187E0,-5.3910336E0,-7.1264535E-1,-1.3407466E-2,-4.9324217E0,8.614176E-1,-2.8561773E0,-1.4536635E0,-2.2747687E-1,-1.18088745E-1,1.4301146E0,4.2167234E0,1.6310018E0,2.8520422E0,4.6898437E0,2.145782E1,6.215692E0,-2.141904E-1,-5.649844E-1,-5.208482E-1,-2.782772E0,-3.8029249E0,-2.1525052E0,-2.8586297E0,-5.815168E-1,-1.8781793E0,3.2468873E-1,-4.390315E-1,1.9165586E0,-5.278888E-1,1.8791796E0,4.923404E0,-0E0,6.1501145E-1,2.751647E0,3.438632E0,1.8835819E-1,4.3768864E0,7.810735E-1,2.6053727E-1,2.953136E0,2.2390385E0,6.9371314E0,-2.9379803E-1,-4.1013785E-2,-4.586447E-1,-2.6416573E-1,-2.8357869E-2,-2.300167E-1,-3.0835834E-1,6.577455E-2,2.242019E-1,-1.0360556E-1,-2.2961235E-1,5.5160057E-2,8.364839E-2,-2.039763E-1,2.8370911E-2,-1.6962872E-1,8.718609E-2,2.9794654E-1,7.611172E-2,-2.2469194E-1,1.1107463E-1,3.33533E-1,3.9730075E-1,7.09576E-1,4.5775425E-2,-9.62228E-2,2.25462E-1,-3.6288574E-2,-2.069713E-2,4.1104266E-1,3.827322E-1,2.6780952E-2,3.603822E-1,-3.8824897E-2,4.1295934E-1,7.941312E-1,1.2741402E-1,4.4222608E-1,2.5958654E-1,7.50884E-1],"categories":[],"categories_nodes":[],"categories_segments":[],"categories_sizes":[],"default_left":[0,0,0,0,0,0,0,0,0,0,0,0,0,0,0,0,0,0,0,0,0,0,0,0,0,0,0,0,0,0,0,0,0,0,0,0,0,0,0,0,0,0,0,0,0,0,0,0,0,0,0,0,0,0,0,0,0,0,0,0,0,0,0,0,0,0,0,0,0,0,0,0,0,0,0,0,0,0,0,0,0,0,0,0,0,0,0,0,0,0,0,0,0,0,0,0,0],"id":6,"left_children":[1,3,5,7,9,11,13,15,17,19,21,23,25,27,29,31,-1,-1,33,-1,35,37,39,41,43,45,47,49,51,53,55,-1,-1,-1,57,59,61,63,65,67,69,71,73,75,77,79,81,83,85,87,89,91,-1,-1,-1,93,95,-1,-1,-1,-1,-1,-1,-1,-1,-1,-1,-1,-1,-1,-1,-1,-1,-1,-1,-1,-1,-1,-1,-1,-1,-1,-1,-1,-1,-1,-1,-1,-1,-1,-1,-1,-1,-1,-1,-1,-1],"loss_changes":[1.3458378E4,2.0748462E3,1.7531484E3,1.5126709E2,3.0264233E2,1.7190222E2,4.6772852E2,2.4217285E1,4.2853516E1,2.5298914E2,4.889868E1,7.117505E1,1.2637372E2,1.3211597E2,6.3609424E2,1.4028442E1,0E0,0E0,4.1083008E1,0E0,9.647827E1,6.2936485E1,8.0062294E1,4.3139027E1,4.948703E1,8.3896576E1,7.539343E1,1.0211395E2,9.6450195E1,3.76464E2,3.4790234E2,0E0,0E0,0E0,3.2474823E0,4.721338E1,2.4754456E1,1.8091248E1,4.5838078E1,2.3782272E1,8.145348E1,5.2416687E1,7.0109367E0,2.6232996E1,4.620363E1,2.0252014E1,2.6899214E0,6.0331978E1,1.2988463E2,6.511871E1,2.732269E1,7.6180664E1,0E0,0E0,0E0,3.803412E1,2.4506445E2,0E0,0E0,0E0,0E0,0E0,0E0,0E0,0E0,0E0,0E0,0E0,0E0,0E0,0E0,0E0,0E0,0E0,0E0,0E0,0E0,0E0,0E0,0E0,0E0,0E0,0E0,0E0,0E0,0E0,0E0,0E0,0E0,0E0,0E0,0E0,0E0,0E0,0E0,0E0,0E0],"parents":[2147483647,0,0,1,1,2,2,3,3,4,4,5,5,6,6,7,7,8,8,9,9,10,10,11,11,12,12,13,13,14,14,15,15,18,18,20,20,21,21,22,22,23,23,24,24,25,25,26,26,27,27,28,28,29,29,30,30,34,34,35,35,36,36,37,37,38,38,39,39,40,40,41,41,42,42,43,43,44,44,45,45,46,46,47,47,48,48,49,49,50,50,51,51,55,55,56,56],"right_children":[2,4,6,8,10,12,14,16,18,20,22,24,26,28,30,32,-1,-1,34,-1,36,38,40,42,44,46,48,50,52,54,56,-1,-1,-1,58,60,62,64,66,68,70,72,74,76,78,80,82,84,86,88,90,92,-1,-1,-1,94,96,-1,-1,-1,-1,-1,-1,-1,-1,-1,-1,-1,-1,-1,-1,-1,-1,-1,-1,-1,-1,-1,-1,-1,-1,-1,-1,-1,-1,-1,-1,-1,-1,-1,-1,-1,-1,-1,-1,-1,-1],"split_conditions":[2.843993E3,1.3080085E3,3.629977E3,8.380767E2,2.244934E3,4.3013226E2,2.7484473E2,4.9531016E0,3.5271317E-1,1.3932193E2,1.3478915E2,6E0,3E0,1.0662912E1,3.6795186E3,1.5165273E0,-7.1264535E-1,-1.3407466E-2,6.7466835E1,8.614176E-1,1.7577415E3,2.1892614E1,1.5986159E0,1.3074742E1,1.0183674E1,2.5752432E2,9.690822E0,1.0369015E1,4.939887E3,2.6115625E2,8.541667E-1,-2.141904E-1,-5.649844E-1,-5.208482E-1,2.3E1,9E0,7.8099174E0,8.850619E0,1.0183674E1,1.5900421E1,6.814815E0,2.0912682E1,2.9317133E2,8.443129E0,3.880309E2,1.6378439E1,3E0,3.1949915E3,1.9792134E2,6.069771E2,3.728629E3,5.7354987E2,7.810735E-1,2.6053727E-1,2.953136E0,4.624518E3,5.3403894E2,-2.9379803E-1,-4.1013785E-2,-4.586447E-1,-2.6416573E-1,-2.8357869E-2,-2.300167E-1,-3.0835834E-1,6.577455E-2,2.242019E-1,-1.0360556E-1,-2.2961235E-1,5.5160057E-2,8.364839E-2,-2.039763E-1,2.8370911E-2,-1.6962872E-1,8.718609E-2,2.9794654E-1,7.611172E-2,-2.2469194E-1,1.1107463E-1,3.33533E-1,3.9730075E-1,7.09576E-1,4.5775425E-2,-9.62228E-2,2.25462E-1,-3.6288574E-2,-2.069713E-2,4.1104266E-1,3.827322E-1,2.6780952E-2,3.603822E-1,-3.8824897E-2,4.1295934E-1,7.941312E-1,1.2741402E-1,4.4222608E-1,2.5958654E-1,7.50884E-1],"split_indices":[8,8,8,8,8,9,23,11,11,9,0,1,1,12,8,21,0,0,0,0,8,14,11,12,12,23,12,12,8,0,11,0,0,0,1,1,12,13,12,14,11,14,9,13,9,14,3,8,0,9,8,9,0,0,0,8,9,0,0,0,0,0,0,0,0,0,0,0,0,0,0,0,0,0,0,0,0,0,0,0,0,0,0,0,0,0,0,0,0,0,0,0,0,0,0,0,0],"split_type":[0,0,0,0,0,0,0,0,0,0,0,0,0,0,0,0,0,0,0,0,0,0,0,0,0,0,0,0,0,0,0,0,0,0,0,0,0,0,0,0,0,0,0,0,0,0,0,0,0,0,0,0,0,0,0,0,0,0,0,0,0,0,0,0,0,0,0,0,0,0,0,0,0,0,0,0,0,0,0,0,0,0,0,0,0,0,0,0,0,0,0,0,0,0,0,0,0],"sum_hessian":[1.047E3,5.08E2,5.39E2,2.12E2,2.96E2,2.12E2,3.27E2,1.16E2,9.6E1,1.58E2,1.38E2,1.18E2,9.4E1,1.99E2,1.28E2,3.1E1,8.5E1,2E0,9.4E1,1E0,1.57E2,5.2E1,8.6E1,6.4E1,5.4E1,2.7E1,6.7E1,6.5E1,1.34E2,2E0,1.26E2,3E0,2.8E1,8.2E1,1.2E1,6.5E1,9.2E1,1.9E1,3.3E1,2.1E1,6.5E1,5.6E1,8E0,1E1,4.4E1,2.3E1,4E0,3.6E1,3.1E1,5.3E1,1.2E1,1.24E2,1E1,1E0,1E0,2E1,1.06E2,1.1E1,1E0,3.7E1,2.8E1,7E0,8.5E1,1.8E1,1E0,4E0,2.9E1,1.8E1,3E0,5.4E1,1.1E1,3.6E1,2E1,5E0,3E0,6E0,4E0,3E1,1.4E1,1.8E1,5E0,3E0,1E0,1.3E1,2.3E1,1E1,2.1E1,4.7E1,6E0,1E0,1.1E1,1.18E2,6E0,1.5E1,5E0,1.3E1,9.3E1],"tree_param":{"num_deleted":"0","num_feature":"26","num_nodes":"97","size_leaf_vector":"1"}},{"base_weights":[3.380594E-2,-3.2390175E0,3.0782743E0,-5.3150773E0,-1.679344E0,1.3758433E0,4.687654E0,-6.346344E0,-4.524851E0,-2.4342637E0,-6.0225934E-1,3.0003998E-1,2.5082386E0,4.1676145E0,7.777696E0,-7.177936E0,-5.584022E-1,-4.656492E0,-1.1650978E0,8.183467E-1,-2.5488164E0,2.300864E-1,-1.0333352E0,-6.0824686E-1,7.22391E-1,2.844711E0,4.5838258E-1,5.0482817E0,3.4535067E0,8.725316E0,3.1209555E0,-1.6208409E-1,-7.27889E-1,-4.8058867E0,-2.7572992E0,-1.6555841E-1,-4.8095855E-1,-3.3853588E0,-2.075036E0,-2.4119344E-1,1.9436585E0,-2.71468E0,-4.441787E-1,-1.3896606E0,6.410815E-2,2.342883E0,2.3832536E-1,3.1879432E0,4.9747583E-1,-6.182068E-1,1.4991337E0,1.6701359E0,5.840966E0,-4.8128814E-1,3.6439795E0,1.1876584E0,9.200753E0,3.2127532E-1,4.7165084E-1,-1.2519518E-1,-4.860188E-1,-6.260441E-2,-3.15024E-1,-6.8852142E-3,-5.620433E-2,-3.8215002E-1,-1.5739857E-1,-4.6766553E-2,-2.2332609E-1,-2.0840554E-1,3.3127155E-2,-1.986769E-1,2.695808E-1,-3.5679492E-1,-6.06044E-2,1.0965615E-1,-1.1497857E-1,4.1896354E-2,-1.7393568E-1,1.8514113E-1,-1.5829492E-1,2.8829414E-1,8.366321E-2,9.581697E-2,-5.471721E-2,2.0767915E-1,4.2074472E-1,-1.3678876E-1,3.5401687E-1,1.4363343E-1,-1.7182007E-1,-0E0,3.01478E-1,2.308423E-1,4.95012E-3,4.1033745E-1,7.082454E-1,3.2450345E-1,-1.6598476E-1,3.064321E-1,4.7027478E-1,-3.2554816E-3,1.8640426E-1,2.5494614E-1,9.8663074E-1,-0E0,6.383583E-2],"categories":[],"categories_nodes":[],"categories_segments":[],"categories_sizes":[],"default_left":[0,0,0,0,0,0,0,0,0,0,0,0,0,0,0,0,0,0,0,0,0,0,0,0,0,0,0,0,0,0,0,0,0,0,0,0,0,0,0,0,0,0,0,0,0,0,0,0,0,0,0,0,0,0,0,0,0,0,0,0,0,0,0,0,0,0,0,0,0,0,0,0,0,0,0,0,0,0,0,0,0,0,0,0,0,0,0,0,0,0,0,0,0,0,0,0,0,0,0,0,0,0,0,0,0,0,0],"id":7,"left_children":[1,3,5,7,9,11,13,15,17,19,21,23,25,27,29,31,-1,33,35,-1,37,39,41,43,45,47,49,51,53,55,57,-1,-1,59,61,-1,63,65,67,69,71,73,75,77,79,81,83,85,87,89,91,93,95,97,99,101,103,105,-1,-1,-1,-1,-1,-1,-1,-1,-1,-1,-1,-1,-1,-1,-1,-1,-1,-1,-1,-1,-1,-1,-1,-1,-1,-1,-1,-1,-1,-1,-1,-1,-1,-1,-1,-1,-1,-1,-1,-1,-1,-1,-1,-1,-1,-1,-1,-1,-1],"loss_changes":[1.019317E4,1.5866963E3,1.4450684E3,1.4214795E2,2.2834106E2,3.1448944E2,4.034795E2,1.5062988E1,4.839331E1,2.2219885E2,4.2656967E1,5.185533E1,8.527051E1,1.2950513E2,1.39271E2,9.191406E0,0E0,1.9472168E1,1.0034437E0,0E0,5.782495E1,3.3749496E1,7.5743164E1,2.2813305E1,7.135057E1,8.50553E1,2.2303638E1,2.6530737E2,1.0174988E2,9.912793E1,3.371724E1,0E0,0E0,1.414624E1,6.862213E0,0E0,3.1874835E-2,3.9266296E1,2.615271E1,3.5679806E1,3.203327E1,3.3404953E1,6.540839E1,1.3510147E1,7.360852E1,1.4298805E1,4.1276764E1,9.711902E1,9.0195694E1,2.5095924E1,2.2970478E1,2.1372967E1,1.4886694E2,3.5969597E1,6.2755493E1,2.719831E0,1.0198169E2,4.0213132E-1,0E0,0E0,0E0,0E0,0E0,0E0,0E0,0E0,0E0,0E0,0E0,0E0,0E0,0E0,0E0,0E0,0E0,0E0,0E0,0E0,0E0,0E0,0E0,0E0,0E0,0E0,0E0,0E0,0E0,0E0,0E0,0E0,0E0,0E0,0E0,0E0,0E0,0E0,0E0,0E0,0E0,0E0,0E0,0E0,0E0,0E0,0E0,0E0,0E0],"parents":[2147483647,0,0,1,1,2,2,3,3,4,4,5,5,6,6,7,7,8,8,9,9,10,10,11,11,12,12,13,13,14,14,15,15,17,17,18,18,20,20,21,21,22,22,23,23,24,24,25,25,26,26,27,27,28,28,29,29,30,30,33,33,34,34,36,36,37,37,38,38,39,39,40,40,41,41,42,42,43,43,44,44,45,45,46,46,47,47,48,48,49,49,50,50,51,51,52,52,53,53,54,54,55,55,56,56,57,57],"right_children":[2,4,6,8,10,12,14,16,18,20,22,24,26,28,30,32,-1,34,36,-1,38,40,42,44,46,48,50,52,54,56,58,-1,-1,60,62,-1,64,66,68,70,72,74,76,78,80,82,84,86,88,90,92,94,96,98,100,102,104,106,-1,-1,-1,-1,-1,-1,-1,-1,-1,-1,-1,-1,-1,-1,-1,-1,-1,-1,-1,-1,-1,-1,-1,-1,-1,-1,-1,-1,-1,-1,-1,-1,-1,-1,-1,-1,-1,-1,-1,-1,-1,-1,-1,-1,-1,-1,-1,-1,-1],"split_conditions":[2.8231343E3,1.3526407E3,3.7786797E3,2.2311829E1,2.3349565E3,4.3013226E2,4.8380635E3,5.229729E2,7.8848815E0,1.3932193E2,7.2236576E0,1.0727352E1,1.6836037E1,7.797619E0,3.8813E1,4.268E0,-5.584022E-1,1.9368903E2,2.9718876E1,8.183467E-1,1.7753113E3,1.0008367E1,7.574964E0,6.611111E0,7.988778E0,6.7978725E0,9.062933E0,8.786127E-1,7.7609468E0,1.778007E1,1.3464407E1,-1.6208409E-1,-7.27889E-1,6.3230276E0,4.0914927E0,-1.6555841E-1,6.2660378E1,1.2E1,7.8099174E0,4.1973615E0,2.4476948E3,8E0,1.0183674E1,1.9157492E0,8.443129E0,3.235132E3,3.4930228E2,5.219941E0,8.012958E0,3.5290994E3,3.576607E3,6E0,9.949745E0,1E0,1.3464407E1,2.5215451E2,6.7511387E0,2.3022322E2,4.7165084E-1,-1.2519518E-1,-4.860188E-1,-6.260441E-2,-3.15024E-1,-6.8852142E-3,-5.620433E-2,-3.8215002E-1,-1.5739857E-1,-4.6766553E-2,-2.2332609E-1,-2.0840554E-1,3.3127155E-2,-1.986769E-1,2.695808E-1,-3.5679492E-1,-6.06044E-2,1.0965615E-1,-1.1497857E-1,4.1896354E-2,-1.7393568E-1,1.8514113E-1,-1.5829492E-1,2.8829414E-1,8.366321E-2,9.581697E-2,-5.471721E-2,2.0767915E-1,4.2074472E-1,-1.3678876E-1,3.5401687E-1,1.4363343E-1,-1.7182007E-1,-0E0,3.01478E-1,2.308423E-1,4.95012E-3,4.1033745E-1,7.082454E-1,3.2450345E-1,-1.6598476E-1,3.064321E-1,4.7027478E-1,-3.2554816E-3,1.8640426E-1,2.5494614E-1,9.8663074E-1,-0E0,6.383583E-2],"split_indices":[8,8,8,0,8,9,8,8,13,9,13,12,21,10,24,11,0,9,0,0,8,12,13,11,13,11,12,11,13,24,12,0,0,10,11,0,0,1,12,11,8,1,12,15,13,8,9,11,10,8,8,1,12,1,12,0,13,0,0,0,0,0,0,0,0,0,0,0,0,0,0,0,0,0,0,0,0,0,0,0,0,0,0,0,0,0,0,0,0,0,0,0,0,0,0,0,0,0,0,0,0,0,0,0,0,0,0],"split_type":[0,0,0,0,0,0,0,0,0,0,0,0,0,0,0,0,0,0,0,0,0,0,0,0,0,0,0,0,0,0,0,0,0,0,0,0,0,0,0,0,0,0,0,0,0,0,0,0,0,0,0,0,0,0,0,0,0,0,0,0,0,0,0,0,0,0,0,0,0,0,0,0,0,0,0,0,0,0,0,0,0,0,0,0,0,0,0,0,0,0,0,0,0,0,0,0,0,0,0,0,0,0,0,0,0,0,0],"sum_hessian":[1.021E3,4.92E2,5.29E2,2.1E2,2.82E2,2.58E2,2.71E2,8.8E1,1.22E2,1.65E2,1.17E2,1.33E2,1.25E2,2.34E2,3.7E1,3.8E1,5E1,1.17E2,5E0,1E0,1.64E2,4E1,7.7E1,4.2E1,9.1E1,1.07E2,1.8E1,1.02E2,1.32E2,3E1,7E0,1E0,3.7E1,1.07E2,1E1,2E0,3E0,5.7E1,1.07E2,3.2E1,8E0,1.9E1,5.8E1,1.9E1,2.3E1,2E1,7.1E1,9.3E1,1.4E1,9E0,9E0,2E1,8.2E1,6E0,1.26E2,2E0,2.8E1,3E0,4E0,2E0,1.05E2,2E0,8E0,1E0,2E0,4.5E1,1.2E1,1E1,9.7E1,7E0,2.5E1,1E0,7E0,1.3E1,6E0,1.8E1,4E1,3E0,1.6E1,1.1E1,1.2E1,1.4E1,6E0,3.7E1,3.4E1,4.6E1,4.7E1,9E0,5E0,3E0,6E0,5E0,4E0,1.4E1,6E0,3.6E1,4.6E1,1E0,5E0,8.4E1,4.2E1,1E0,1E0,3E0,2.5E1,2E0,1E0],"tree_param":{"num_deleted":"0","num_feature":"26","num_nodes":"107","size_leaf_vector":"1"}},{"base_weights":[-3.0566708E-3,-2.9495156E0,2.869978E0,-4.7564497E0,-1.517314E0,1.6187215E0,4.849852E0,-5.403121E0,-3.8136032E0,-2.0529735E0,-6.12861E-2,1.166167E0,3.8917587E0,4.1215005E0,9.225268E0,-5.6449825E-1,-4.4376016E-1,-3.9577684E0,-4.0707156E-1,7.774294E-1,-2.1380773E0,-1.064713E0,9.1608727E-1,-1.17988616E-1,1.5995362E0,2.2999601E0,1.2545631E1,5.037181E0,3.3496175E0,1.3482056E1,5.1837997E0,-4.298733E0,-2.75845E0,-1.2054584E-2,-5.2457344E-2,-3.115715E0,-1.6712089E0,3.2870364E-1,-1.5214431E0,1.4615244E0,-8.563767E-1,2.2149951E0,-6.003648E-1,2.36364E0,1.011807E0,1.4938908E0,5.929553E-1,2.8140702E0,6.2833786E0,3.3281748E0,7.0388694E0,2.7784295E0,5.728317E0,1.5459727E0,5.142363E-1,3.1234646E0,8.080447E0,-1.5567087E-1,-4.3982688E-1,-2.8587463E-1,-2.259657E-2,-3.2374746E-1,4.8706036E-2,1.03295505E-1,-1.7773958E-1,-2.570634E-1,-1.917219E-2,2.841141E-1,4.353908E-2,-1.1074221E-1,6.520347E-3,5.6320876E-2,3.7562472E-1,-1.618365E-1,1.2655579E-1,2.826291E-1,-2.4348753E-2,5.4051947E-2,2.7917212E-1,3.460235E-2,2.9531294E-1,-3.6517352E-2,7.4689996E-1,2.2734968E-1,7.16598E-1,1.2142636E0,5.073211E-1,1.4082566E-1,3.642456E-1,7.7399683E-1,2.2337566E-1,4.8768425E-1,1.4105569E-1,1.6441415E-1,9.01888E-1],"categories":[],"categories_nodes":[],"categories_segments":[],"categories_sizes":[],"default_left":[0,0,0,0,0,0,0,0,0,0,0,0,0,0,0,0,0,0,0,0,0,0,0,0,0,0,0,0,0,0,0,0,0,0,0,0,0,0,0,0,0,0,0,0,0,0,0,0,0,0,0,0,0,0,0,0,0,0,0,0,0,0,0,0,0,0,0,0,0,0,0,0,0,0,0,0,0,0,0,0,0,0,0,0,0,0,0,0,0,0,0,0,0,0,0],"id":8,"left_children":[1,3,5,7,9,11,13,15,17,19,21,23,25,27,29,-1,-1,31,33,-1,35,37,39,41,43,45,47,49,51,53,55,57,59,-1,-1,61,63,-1,65,67,69,71,73,75,77,79,-1,-1,81,83,85,87,89,-1,-1,91,93,-1,-1,-1,-1,-1,-1,-1,-1,-1,-1,-1,-1,-1,-1,-1,-1,-1,-1,-1,-1,-1,-1,-1,-1,-1,-1,-1,-1,-1,-1,-1,-1,-1,-1,-1,-1,-1,-1],"loss_changes":[8.744641E3,1.311981E3,1.2871465E3,1.156582E2,2.2272424E2,3.2618848E2,6.0438525E2,4.532715E0,4.4607178E1,1.9085272E2,7.74866E1,1.5059555E2,6.9974786E2,1.0597827E2,4.09948E2,0E0,0E0,2.4648682E1,4.058951E-2,0E0,8.925134E1,8.233992E1,3.998284E1,7.8819275E1,8.798627E1,1.249819E2,6.010211E2,2.4236658E2,1.1638464E2,1.3285156E2,6.912964E1,1.13897705E1,4.8875275E0,0E0,0E0,3.080426E1,4.297238E1,0E0,4.9455643E1,4.232113E1,2.4900146E0,2.800233E1,1.1225499E2,1.0588495E2,9.546455E1,6.3973717E1,0E0,0E0,5.8616486E1,1.6086072E2,2.878053E2,9.0258545E1,1.0825049E2,0E0,0E0,2.552932E1,2.0345642E1,0E0,0E0,0E0,0E0,0E0,0E0,0E0,0E0,0E0,0E0,0E0,0E0,0E0,0E0,0E0,0E0,0E0,0E0,0E0,0E0,0E0,0E0,0E0,0E0,0E0,0E0,0E0,0E0,0E0,0E0,0E0,0E0,0E0,0E0,0E0,0E0,0E0,0E0],"parents":[2147483647,0,0,1,1,2,2,3,3,4,4,5,5,6,6,7,7,8,8,9,9,10,10,11,11,12,12,13,13,14,14,17,17,18,18,20,20,21,21,22,22,23,23,24,24,25,25,26,26,27,27,28,28,29,29,30,30,31,31,32,32,35,35,36,36,38,38,39,39,40,40,41,41,42,42,43,43,44,44,45,45,48,48,49,49,50,50,51,51,52,52,55,55,56,56],"right_children":[2,4,6,8,10,12,14,16,18,20,22,24,26,28,30,-1,-1,32,34,-1,36,38,40,42,44,46,48,50,52,54,56,58,60,-1,-1,62,64,-1,66,68,70,72,74,76,78,80,-1,-1,82,84,86,88,90,-1,-1,92,94,-1,-1,-1,-1,-1,-1,-1,-1,-1,-1,-1,-1,-1,-1,-1,-1,-1,-1,-1,-1,-1,-1,-1,-1,-1,-1,-1,-1,-1,-1,-1,-1,-1,-1,-1,-1,-1,-1],"split_conditions":[2.8231343E3,1.3526407E3,4.1118276E3,4.252252E0,3.4160568E2,5.235206E2,1.2676767E0,8.5419415E2,1.4875463E1,1.3932193E2,6.5924275E-1,5.347222E-1,1.5E1,2.105347E0,2.9326315E0,-5.6449825E-1,-4.4376016E-1,8.5164833E-1,6.2660378E1,7.774294E-1,1.7753113E3,3.5079285E2,1.338983E0,3.8679245E-1,7.573008E0,9.032258E-1,1.8E1,5.372393E-1,1.2E1,7.2816763E0,4.9439404E3,6.3886466E0,1.0387539E1,-1.2054584E-2,-5.2457344E-2,1.2134247E2,5.738758E-1,3.2870364E-1,3.806325E2,5.6438355E0,7.6460023E0,1.2901235E1,6.3068676E0,1.3E1,1.3E1,9.564661E0,5.929553E-1,2.8140702E0,2.2E1,9.400721E0,6.411483E-1,1.1178082E1,2.105384E1,1.5459727E0,5.142363E-1,1.4157304E0,1.2739408E2,-1.5567087E-1,-4.3982688E-1,-2.8587463E-1,-2.259657E-2,-3.2374746E-1,4.8706036E-2,1.03295505E-1,-1.7773958E-1,-2.570634E-1,-1.917219E-2,2.841141E-1,4.353908E-2,-1.1074221E-1,6.520347E-3,5.6320876E-2,3.7562472E-1,-1.618365E-1,1.2655579E-1,2.826291E-1,-2.4348753E-2,5.4051947E-2,2.7917212E-1,3.460235E-2,2.9531294E-1,-3.6517352E-2,7.4689996E-1,2.2734968E-1,7.16598E-1,1.2142636E0,5.073211E-1,1.4082566E-1,3.642456E-1,7.7399683E-1,2.2337566E-1,4.8768425E-1,1.4105569E-1,1.6441415E-1,9.01888E-1],"split_indices":[8,8,8,21,9,9,2,8,12,9,2,2,1,15,11,0,0,2,0,0,8,9,2,11,10,2,1,2,1,10,8,10,10,0,0,0,11,0,9,11,10,12,11,1,1,12,0,0,1,16,2,12,21,0,0,2,0,0,0,0,0,0,0,0,0,0,0,0,0,0,0,0,0,0,0,0,0,0,0,0,0,0,0,0,0,0,0,0,0,0,0,0,0,0,0],"split_type":[0,0,0,0,0,0,0,0,0,0,0,0,0,0,0,0,0,0,0,0,0,0,0,0,0,0,0,0,0,0,0,0,0,0,0,0,0,0,0,0,0,0,0,0,0,0,0,0,0,0,0,0,0,0,0,0,0,0,0,0,0,0,0,0,0,0,0,0,0,0,0,0,0,0,0,0,0,0,0,0,0,0,0,0,0,0,0,0,0,0,0,0,0,0,0],"sum_hessian":[1.031E3,5.09E2,5.22E2,2.24E2,2.85E2,3.21E2,2.01E2,1.3E2,9.4E1,2.08E2,7.7E1,2.69E2,5.2E1,1.74E2,2.7E1,1E2,3E1,9E1,4E0,1E0,2.07E2,3.8E1,3.9E1,6.8E1,2.01E2,4.5E1,7E0,7.7E1,9.7E1,1.2E1,1.5E1,6.8E1,2.2E1,2E0,2E0,6.5E1,1.42E2,3E0,3.5E1,3E1,9E0,1.1E1,5.7E1,8.6E1,1.15E2,3.8E1,7E0,1E0,6E0,4.3E1,3.4E1,8E1,1.7E1,9E0,3E0,1E1,5E0,3E0,6.5E1,2.1E1,1E0,6.3E1,2E0,5E0,1.37E2,1.9E1,1.6E1,1.2E1,1.8E1,7E0,2E0,6E0,5E0,3.7E1,2E1,7.3E1,1.3E1,9.2E1,2.3E1,2.2E1,1.6E1,1E0,5E0,3.5E1,8E0,8E0,2.6E1,3.2E1,4.8E1,1E1,7E0,4E0,6E0,1E0,4E0],"tree_param":{"num_deleted":"0","num_feature":"26","num_nodes":"95","size_leaf_vector":"1"}},{"base_weights":[2.6115889E-2,-2.9529915E0,2.1709986E0,-4.3264837E0,-1.651074E0,1.3345301E0,4.6436925E0,-4.8338223E0,-3.3729184E0,-2.450223E0,-2.4350165E-1,7.4708664E-1,3.2141206E0,2.5971553E0,5.4714427E0,-3.481634E0,-5.063353E0,-3.5078423E0,-7.084439E-1,-4.0742588E-1,-2.1546183E0,-7.9536563E-1,8.653514E-1,8.857431E-2,1.5658242E0,2.43927E0,4.632367E0,1.0470599E0,4.236029E0,2.6733665E0,5.0219483E0,-1.3645631E-1,-3.7259662E-1,-5.8321947E-1,-4.5675978E-1,-3.6496916E0,-1.298911E0,-8.308639E-2,-5.938215E-3,-3.0640414E0,-1.6838924E0,-1.5571444E0,-2.9095137E-1,-7.339063E-1,1.4381471E0,-9.79817E-1,3.8193288E-1,2.5575826E-1,1.9882749E0,1.5147263E0,3.4829817E0,5.5504093E0,1.1484134E0,4.2458367E-1,2.3082453E-1,-2.2913781E-1,5.5686746E0,4.2466288E0,1.0797676E1,-4.2396384E-1,-2.9321083E-1,4.4864845E-3,-1.5966392E-1,-6.20968E-2,-3.170841E-1,-3.8882706E-2,-1.9583438E-1,-8.137651E-2,-3.3871952E-1,-1.3132177E-1,2.2813806E-2,3.7739914E-2,-1.9645616E-1,3.7100263E-2,2.1992552E-1,-1.5699278E-1,1.803775E-2,1.2952968E-2,2.3876567E-1,-6.7526395E-3,4.1910163E-1,2.4312694E-1,6.1921526E-2,-2.7767387E-1,1.9404326E-1,2.4612503E-1,5.293604E-1,2.3304926E-1,5.8284575E-1,-6.537317E-3,2.70699E-1,1.8439385E-1,-1.1243391E-1,2.1324215E-2,-7.759318E-2,6.245266E-1,2.9616052E-2,2.7850717E-1,5.53356E-1,9.9975035E-2,1.158842E0],"categories":[],"categories_nodes":[],"categories_segments":[],"categories_sizes":[],"default_left":[0,0,0,0,0,0,0,0,0,0,0,0,0,0,0,0,0,0,0,0,0,0,0,0,0,0,0,0,0,0,0,0,0,0,0,0,0,0,0,0,0,0,0,0,0,0,0,0,0,0,0,0,0,0,0,0,0,0,0,0,0,0,0,0,0,0,0,0,0,0,0,0,0,0,0,0,0,0,0,0,0,0,0,0,0,0,0,0,0,0,0,0,0,0,0,0,0,0,0,0,0],"id":9,"left_children":[1,3,5,7,9,11,13,15,17,19,21,23,25,27,29,31,33,35,37,-1,39,41,43,45,47,49,51,53,55,-1,57,-1,-1,-1,-1,59,61,-1,-1,63,65,67,69,71,73,75,77,79,81,83,85,87,89,-1,91,93,95,97,99,-1,-1,-1,-1,-1,-1,-1,-1,-1,-1,-1,-1,-1,-1,-1,-1,-1,-1,-1,-1,-1,-1,-1,-1,-1,-1,-1,-1,-1,-1,-1,-1,-1,-1,-1,-1,-1,-1,-1,-1,-1,-1],"loss_changes":[6.6709316E3,7.736904E2,1.2486816E3,8.543677E1,2.5335236E2,4.9959235E2,2.4416846E2,2.3726807E1,2.4774902E1,5.9729065E1,5.147196E1,1.8731963E2,1.0667761E2,1.1189517E2,8.947522E2,6.3038025E0,1.5772705E1,1.7638E1,2.5892735E-1,0E0,4.744873E1,2.0880253E1,2.6775232E1,6.1118248E1,8.505002E1,6.3701385E1,1.1129736E2,6.384616E1,1.3272064E2,0E0,4.3179175E2,0E0,0E0,0E0,0E0,1.563855E1,2.6272888E0,0E0,0E0,8.349487E0,2.8860153E1,2.67528E1,1.898077E1,1.1841209E1,1.5983505E1,2.9177143E1,7.6895424E1,5.031148E1,6.9148315E1,7.8380585E1,4.724466E1,1.1564392E1,1.746714E1,0E0,4.8051872E1,1.6730745E0,5.814093E1,1.6432532E2,8.012744E1,0E0,0E0,0E0,0E0,0E0,0E0,0E0,0E0,0E0,0E0,0E0,0E0,0E0,0E0,0E0,0E0,0E0,0E0,0E0,0E0,0E0,0E0,0E0,0E0,0E0,0E0,0E0,0E0,0E0,0E0,0E0,0E0,0E0,0E0,0E0,0E0,0E0,0E0,0E0,0E0,0E0,0E0],"parents":[2147483647,0,0,1,1,2,2,3,3,4,4,5,5,6,6,7,7,8,8,9,9,10,10,11,11,12,12,13,13,14,14,15,15,16,16,17,17,18,18,20,20,21,21,22,22,23,23,24,24,25,25,26,26,27,27,28,28,30,30,35,35,36,36,39,39,40,40,41,41,42,42,43,43,44,44,45,45,46,46,47,47,48,48,49,49,50,50,51,51,52,52,54,54,55,55,56,56,57,57,58,58],"right_children":[2,4,6,8,10,12,14,16,18,20,22,24,26,28,30,32,34,36,38,-1,40,42,44,46,48,50,52,54,56,-1,58,-1,-1,-1,-1,60,62,-1,-1,64,66,68,70,72,74,76,78,80,82,84,86,88,90,-1,92,94,96,98,100,-1,-1,-1,-1,-1,-1,-1,-1,-1,-1,-1,-1,-1,-1,-1,-1,-1,-1,-1,-1,-1,-1,-1,-1,-1,-1,-1,-1,-1,-1,-1,-1,-1,-1,-1,-1,-1,-1,-1,-1,-1,-1],"split_conditions":[3.238319E2,1.7859459E2,5.286913E2,1.3429398E2,8.335278E0,8.903947E0,1.921746E1,7.027959E0,2.9E1,3.539823E-1,8.786127E-1,4.3401093E2,2.1938092E2,7.988506E-1,5.331286E2,1.5165273E0,9.445228E1,1.1550387E0,5.987603E0,-4.0742588E-1,2.2682805E2,4E0,1.0130921E1,2.013958E0,1.4824478E1,2.458488E1,6.25E-1,3.5714287E-1,6.594378E0,2.6733665E0,1.1661237E0,-1.3645631E-1,-3.7259662E-1,-5.8321947E-1,-4.5675978E-1,7.542478E0,2E0,-8.308639E-2,-5.938215E-3,3.570521E-1,6.807547E0,2.727742E2,2.307812E2,1.2087379E0,8.589041E0,8.341709E-1,1.8977185E2,1.2676767E0,1.1E1,1E0,1.5191902E2,8.947078E0,9.103826E0,4.2458367E-1,6.8492365E0,1E1,1.4109589E0,7.1060543E0,5.6778326E2,-4.2396384E-1,-2.9321083E-1,4.4864845E-3,-1.5966392E-1,-6.20968E-2,-3.170841E-1,-3.8882706E-2,-1.9583438E-1,-8.137651E-2,-3.3871952E-1,-1.3132177E-1,2.2813806E-2,3.7739914E-2,-1.9645616E-1,3.7100263E-2,2.1992552E-1,-1.5699278E-1,1.803775E-2,1.2952968E-2,2.3876567E-1,-6.7526395E-3,4.1910163E-1,2.4312694E-1,6.1921526E-2,-2.7767387E-1,1.9404326E-1,2.4612503E-1,5.293604E-1,2.3304926E-1,5.8284575E-1,-6.537317E-3,2.70699E-1,1.8439385E-1,-1.1243391E-1,2.1324215E-2,-7.759318E-2,6.245266E-1,2.9616052E-2,2.7850717E-1,5.53356E-1,9.9975035E-2,1.158842E0],"split_indices":[9,9,9,9,13,13,24,10,1,2,2,9,23,2,9,21,9,2,21,0,9,1,21,15,14,14,22,2,10,0,2,0,0,0,0,13,1,0,0,2,21,9,9,2,11,2,0,2,1,1,0,13,10,0,13,1,2,10,9,0,0,0,0,0,0,0,0,0,0,0,0,0,0,0,0,0,0,0,0,0,0,0,0,0,0,0,0,0,0,0,0,0,0,0,0,0,0,0,0,0,0],"split_type":[0,0,0,0,0,0,0,0,0,0,0,0,0,0,0,0,0,0,0,0,0,0,0,0,0,0,0,0,0,0,0,0,0,0,0,0,0,0,0,0,0,0,0,0,0,0,0,0,0,0,0,0,0,0,0,0,0,0,0,0,0,0,0,0,0,0,0,0,0,0,0,0,0,0,0,0,0,0,0,0,0,0,0,0,0,0,0,0,0,0,0,0,0,0,0,0,0,0,0,0,0],"sum_hessian":[1.042E3,4.36E2,6.06E2,2.11E2,2.25E2,4.54E2,1.52E2,1.35E2,7.6E1,1.43E2,8.2E1,3.47E2,1.07E2,4.5E1,1.07E2,2.2E1,1.13E2,7.2E1,4E0,2E1,1.23E2,5.5E1,2.7E1,1.93E2,1.54E2,7.1E1,3.6E1,2.4E1,2.1E1,1E0,1.06E2,3E0,1.9E1,4E1,7.3E1,6.7E1,5E0,3E0,1E0,4E1,8.3E1,2.1E1,3.4E1,7E0,2E1,4.1E1,1.52E2,3.8E1,1.16E2,3.9E1,3.2E1,2.8E1,8E0,4E0,2E1,5E0,1.6E1,9.5E1,1.1E1,3.4E1,3.3E1,1E0,4E0,2E0,3.8E1,1.5E1,6.8E1,1.6E1,5E0,1.1E1,2.3E1,4E0,3E0,9E0,1.1E1,2.7E1,1.4E1,1.36E2,1.6E1,3.6E1,2E0,8.7E1,2.9E1,3E0,3.6E1,2.2E1,1E1,3E0,2.5E1,5E0,3E0,9E0,1.1E1,3E0,2E0,1.4E1,2E0,4.6E1,4.9E1,1E0,1E1],"tree_param":{"num_deleted":"0","num_feature":"26","num_nodes":"101","size_leaf_vector":"1"}},{"base_weights":[7.345378E-2,-2.7313287E0,2.028912E0,-3.6158268E0,-1.086634E0,9.804227E-1,3.906291E0,-4.2030134E0,-2.5293627E0,-1.60363E0,5.635651E-1,2.274493E-1,2.046657E0,3.4212306E0,7.6198454E0,-3.4742565E0,-4.4580517E0,-3.7500486E-1,-2.2973747E0,-1.9480913E0,9.051954E-2,-5.395884E-1,2.1506193E0,-4.3757215E-1,1.2163677E0,1.8587629E0,7.479628E-1,1.8316785E0,4.1644654E0,9.37146E0,7.86425E-1,-3.531871E0,-2.7556771E-2,-4.9767214E-1,-3.9096138E0,8.940704E-2,-2.417579E0,-3.508864E-1,-1.5309495E0,-6.205474E-1,1.2471883E0,-1.1965339E0,2.6908E-1,1.3707229E0,4.7799635E-1,-1.8878356E0,9.705476E-2,7.7247477E-1,3.4368527E0,-7.6311535E-1,2.0251575E0,1.4636347E0,5.0674887E0,2.2529163E0,4.9578447E0,6.2372084E0,1.3839147E0,-7.065493E-1,2.548249E-1,-9.23793E-2,-3.5648772E-1,-4.01818E-1,-2.1375906E-1,-4.7163934E-2,3.7257846E-2,-2.4952355E-1,-2.7388439E-2,7.532185E-1,-1.7535537E-1,-1.268214E-1,3.29766E-2,2.7621958E-1,6.2187362E-2,-1.9525988E-1,7.503729E-2,1.8807547E-1,-2.2203742E-2,-2.6653898E-1,-3.7481976E-3,4.2533156E-2,-1.1690154E-1,-3.5954405E-2,1.7537181E-1,6.102418E-1,1.4838289E-1,-1.3853377E-1,2.3684429E-1,6.569819E-1,1.8841588E-1,7.474264E-2,3.2907173E-1,5.6417465E-1,1.0480998E-1,5.391654E-1,1.0236154E-1,2.5396984E0,4.4474435E-1,1.0263177E-2,6.731537E-1,-1.0960891E-1,1.8103523E-2],"categories":[],"categories_nodes":[],"categories_segments":[],"categories_sizes":[],"default_left":[0,0,0,0,0,0,0,0,0,0,0,0,0,0,0,0,0,0,0,0,0,0,0,0,0,0,0,0,0,0,0,0,0,0,0,0,0,0,0,0,0,0,0,0,0,0,0,0,0,0,0,0,0,0,0,0,0,0,0,0,0,0,0,0,0,0,0,0,0,0,0,0,0,0,0,0,0,0,0,0,0,0,0,0,0,0,0,0,0,0,0,0,0,0,0,0,0,0,0,0,0],"id":10,"left_children":[1,3,5,7,9,11,13,15,17,19,21,23,25,27,29,31,33,-1,35,37,39,41,43,45,47,49,-1,51,53,55,57,59,-1,-1,61,63,65,-1,67,69,71,73,-1,75,-1,77,79,81,83,85,87,89,91,93,95,97,-1,99,-1,-1,-1,-1,-1,-1,-1,-1,-1,-1,-1,-1,-1,-1,-1,-1,-1,-1,-1,-1,-1,-1,-1,-1,-1,-1,-1,-1,-1,-1,-1,-1,-1,-1,-1,-1,-1,-1,-1,-1,-1,-1,-1],"loss_changes":[5.5943145E3,6.051321E2,1.1786973E3,1.6222021E2,1.2727339E2,3.1000854E2,3.6010547E2,1.624414E1,1.8532043E1,6.630542E1,6.434907E1,1.5055478E2,1.4849512E2,2.1860327E2,2.788828E2,7.8605347E0,1.5496094E1,0E0,2.4835571E1,5.5324066E1,1.7285982E1,4.9758377E1,2.3592163E1,1.06585236E2,8.7604675E1,6.972919E1,0E0,6.6957855E1,1.8526538E2,1.77729E2,1.776678E1,4.7595215E-1,0E0,0E0,3.4923096E0,9.601781E-1,1.2523865E1,0E0,1.6595964E2,8.51338E0,5.522709E0,2.9553167E1,0E0,1.1144129E1,0E0,5.2863556E1,4.2400616E1,8.741127E1,6.82751E1,2.2668036E1,8.097235E1,7.303379E1,7.2668915E0,1.4817761E2,8.333906E2,3.8048187E1,0E0,1.6729345E0,0E0,0E0,0E0,0E0,0E0,0E0,0E0,0E0,0E0,0E0,0E0,0E0,0E0,0E0,0E0,0E0,0E0,0E0,0E0,0E0,0E0,0E0,0E0,0E0,0E0,0E0,0E0,0E0,0E0,0E0,0E0,0E0,0E0,0E0,0E0,0E0,0E0,0E0,0E0,0E0,0E0,0E0,0E0],"parents":[2147483647,0,0,1,1,2,2,3,3,4,4,5,5,6,6,7,7,8,8,9,9,10,10,11,11,12,12,13,13,14,14,15,15,16,16,18,18,19,19,20,20,21,21,22,22,23,23,24,24,25,25,27,27,28,28,29,29,30,30,31,31,34,34,35,35,36,36,38,38,39,39,40,40,41,41,43,43,45,45,46,46,47,47,48,48,49,49,50,50,51,51,52,52,53,53,54,54,55,55,57,57],"right_children":[2,4,6,8,10,12,14,16,18,20,22,24,26,28,30,32,34,-1,36,38,40,42,44,46,48,50,-1,52,54,56,58,60,-1,-1,62,64,66,-1,68,70,72,74,-1,76,-1,78,80,82,84,86,88,90,92,94,96,98,-1,100,-1,-1,-1,-1,-1,-1,-1,-1,-1,-1,-1,-1,-1,-1,-1,-1,-1,-1,-1,-1,-1,-1,-1,-1,-1,-1,-1,-1,-1,-1,-1,-1,-1,-1,-1,-1,-1,-1,-1,-1,-1,-1,-1],"split_conditions":[1.2714286E2,7.7858353E0,2.3169458E2,6.420987E1,1.0537428E2,1.084047E1,1.2328767E0,4.9531016E0,3.539823E-1,1.1875829E1,2.500544E1,1.9285715E2,1.4859438E0,1.6923126E0,2.9326315E0,5.8159508E1,6.169525E0,-3.7500486E-1,3.570521E-1,4.7619047E0,5.31401E-1,1.2729592E0,2.574013E1,5.0526315E-1,7.507538E0,2.289855E-1,7.479628E-1,9.103826E0,6.8840585E0,2.892983E2,7.384073E0,2.0272251E1,-2.7556771E-2,-4.9767214E-1,7.533584E0,7.658083E1,1.7255E1,-3.508864E-1,1.1181103E1,1.2990187E1,1.2385184E1,1.2208128E2,2.6908E-1,1.2071006E1,4.7799635E-1,6.913215E0,1.382643E0,6.411483E-1,7.0454544E-1,1.31684885E1,2.681388E-1,3.0103125E2,9.863636E0,2.2311828E0,6.8950133E0,9.690822E0,1.3839147E0,2.8388406E2,2.548249E-1,-9.23793E-2,-3.5648772E-1,-4.01818E-1,-2.1375906E-1,-4.7163934E-2,3.7257846E-2,-2.4952355E-1,-2.7388439E-2,7.532185E-1,-1.7535537E-1,-1.268214E-1,3.29766E-2,2.7621958E-1,6.2187362E-2,-1.9525988E-1,7.503729E-2,1.8807547E-1,-2.2203742E-2,-2.6653898E-1,-3.7481976E-3,4.2533156E-2,-1.1690154E-1,-3.5954405E-2,1.7537181E-1,6.102418E-1,1.4838289E-1,-1.3853377E-1,2.3684429E-1,6.569819E-1,1.8841588E-1,7.474264E-2,3.2907173E-1,5.6417465E-1,1.0480998E-1,5.391654E-1,1.0236154E-1,2.5396984E0,4.4474435E-1,1.0263177E-2,6.731537E-1,-1.0960891E-1,1.8103523E-2],"split_indices":[0,13,0,23,0,12,2,11,2,13,14,0,2,11,11,0,13,0,2,21,2,2,24,2,11,2,0,10,10,0,10,0,0,0,13,0,21,0,0,13,13,23,0,11,0,11,2,2,2,12,2,0,10,11,10,12,0,0,0,0,0,0,0,0,0,0,0,0,0,0,0,0,0,0,0,0,0,0,0,0,0,0,0,0,0,0,0,0,0,0,0,0,0,0,0,0,0,0,0,0,0],"split_type":[0,0,0,0,0,0,0,0,0,0,0,0,0,0,0,0,0,0,0,0,0,0,0,0,0,0,0,0,0,0,0,0,0,0,0,0,0,0,0,0,0,0,0,0,0,0,0,0,0,0,0,0,0,0,0,0,0,0,0,0,0,0,0,0,0,0,0,0,0,0,0,0,0,0,0,0,0,0,0,0,0,0,0,0,0,0,0,0,0,0,0,0,0,0,0,0,0,0,0,0,0],"sum_hessian":[1.018E3,4.18E2,6E2,2.71E2,1.47E2,3.86E2,2.14E2,1.74E2,9.7E1,1.12E2,3.5E1,2.27E2,1.59E2,1.91E2,2.3E1,4.9E1,1.25E2,1.3E1,8.4E1,9.3E1,1.9E1,2.1E1,1.4E1,1.36E2,9.1E1,1.55E2,4E0,6.2E1,1.29E2,1.8E1,5E0,4.8E1,1E0,6E1,6.5E1,4E0,8E1,1.8E1,7.5E1,1.2E1,7E0,1.8E1,3E0,1.2E1,2E0,3.6E1,1E2,7.7E1,1.4E1,9E0,1.46E2,5.7E1,5E0,3.9E1,9E1,1.2E1,6E0,3E0,2E0,1E0,4.7E1,6E1,5E0,1E0,3E0,7.7E1,3E0,1E0,7.4E1,7E0,5E0,1E0,6E0,1.3E1,5E0,9E0,3E0,2.5E1,1.1E1,8E1,2E1,3.6E1,4.1E1,5E0,9E0,8E0,1E0,3E0,1.43E2,4.2E1,1.5E1,4E0,1E0,1E1,2.9E1,1E0,8.9E1,1E0,1.1E1,2E0,1E0],"tree_param":{"num_deleted":"0","num_feature":"26","num_nodes":"101","size_leaf_vector":"1"}},{"base_weights":[7.268845E-2,-2.1564648E0,2.1887593E0,-3.2726645E0,-8.178873E-1,8.629347E-1,3.0641088E0,-4.1542554E0,-2.6220088E0,-1.214886E0,-3.535751E-1,1.5304811E0,1.4761703E-1,4.184976E0,2.32363E0,-4.8452067E0,-3.7490425E0,-2.7984564E0,-1.4373025E0,-1.2922144E0,2.3014343E-1,-7.7838826E-1,1.6720437E0,6.737068E-1,2.8474617E0,-1.5871223E0,4.5894527E-1,1.6508945E0,5.2187977E0,1.6015518E0,3.481332E0,-4.923891E-1,-8.776032E-2,-6.190883E-2,-3.8229203E0,-2.9961638E0,-1.7221019E0,-1.8022133E0,-8.6353205E-2,-1.3470937E0,2.6240858E-1,-1.5157541E0,-2.0847176E-1,2.6614003E0,-1.6104351E0,4.4056958E-1,5.5448246E-1,3.2004912E0,-4.5565996E-1,-1.8923029E0,3.3276063E-1,3.5003182E-1,4.9716645E-1,1.8533395E-1,5.22224E0,9.932202E0,4.2051992E0,2.4898367E-1,2.9048598E0,1.2992212E0,3.8811078E0,-3.874529E-1,-1.259471E-1,-3.2726908E-1,-1.854698E-1,-2.2490712E-2,-2.2031164E-1,-0E0,-2.0306504E-1,-5.10158E-2,2.280887E-2,-2.2704947E-1,-1.0941853E-1,-6.0816444E-2,-2.1848841E-1,-6.706131E-2,9.6951775E-2,3.7482935E-1,8.6948074E-2,5.924721E-3,-2.0676675E-1,-7.562048E-2,1.0180911E-1,-1.11418165E-1,3.4665325E-1,-7.197756E-2,-6.3242594E-4,-2.758814E-1,-6.1738946E-2,-4.881298E-2,1.0372708E-1,-2.5762124E-2,9.9426456E-2,2.0868373E-1,-6.746092E-2,5.777292E-1,-1.1413976E-2,7.18777E-1,2.4127133E0,3.3609125E-1,7.3516196E-1,-3.173833E-2,2.5964305E-1,5.1968765E-1,2.1886742E-1,1.7913778E-1,-2.2533286E-1,1.7819537E-1,4.454154E-1],"categories":[],"categories_nodes":[],"categories_segments":[],"categories_sizes":[],"default_left":[0,0,0,0,0,0,0,0,0,0,0,0,0,0,0,0,0,0,0,0,0,0,0,0,0,0,0,0,0,0,0,0,0,0,0,0,0,0,0,0,0,0,0,0,0,0,0,0,0,0,0,0,0,0,0,0,0,0,0,0,0,0,0,0,0,0,0,0,0,0,0,0,0,0,0,0,0,0,0,0,0,0,0,0,0,0,0,0,0,0,0,0,0,0,0,0,0,0,0,0,0,0,0,0,0,0,0,0,0],"id":11,"left_children":[1,3,5,7,9,11,13,15,17,19,21,23,25,27,29,31,33,35,37,39,-1,41,43,45,47,49,51,53,55,57,59,-1,-1,-1,61,63,65,67,69,71,-1,73,75,77,79,81,-1,83,85,87,89,91,-1,93,95,97,99,101,103,105,107,-1,-1,-1,-1,-1,-1,-1,-1,-1,-1,-1,-1,-1,-1,-1,-1,-1,-1,-1,-1,-1,-1,-1,-1,-1,-1,-1,-1,-1,-1,-1,-1,-1,-1,-1,-1,-1,-1,-1,-1,-1,-1,-1,-1,-1,-1,-1,-1],"loss_changes":[4.8915835E3,7.514446E2,6.1438135E2,1.4617334E2,4.199414E1,1.01315384E2,2.5521753E2,1.3173462E1,2.9209473E1,3.6590073E1,9.4147156E1,1.2184857E2,5.678321E1,3.2079077E2,1.5692676E2,7.273987E0,1.4994141E1,2.394812E1,1.0993965E1,2.9627869E1,0E0,3.7332912E1,6.6094406E1,7.418204E1,5.187509E1,1.016021E1,4.147072E1,1.9738428E2,3.8201685E2,2.1402454E2,5.8993835E1,0E0,0E0,0E0,4.5288086E0,3.0032349E1,1.6545837E1,7.513138E0,9.441402E-1,2.5437027E1,0E0,2.2076447E1,2.8928959E1,2.5493546E1,4.1405087E0,4.6412827E1,0E0,4.886496E1,5.1622117E-1,1.3425293E1,2.2962139E0,3.4779167E1,0E0,4.7334194E1,3.3807404E1,4.078036E2,1.7345667E2,8.2152466E1,8.9660706E1,2.6719706E1,6.6019775E1,0E0,0E0,0E0,0E0,0E0,0E0,0E0,0E0,0E0,0E0,0E0,0E0,0E0,0E0,0E0,0E0,0E0,0E0,0E0,0E0,0E0,0E0,0E0,0E0,0E0,0E0,0E0,0E0,0E0,0E0,0E0,0E0,0E0,0E0,0E0,0E0,0E0,0E0,0E0,0E0,0E0,0E0,0E0,0E0,0E0,0E0,0E0,0E0],"parents":[2147483647,0,0,1,1,2,2,3,3,4,4,5,5,6,6,7,7,8,8,9,9,10,10,11,11,12,12,13,13,14,14,15,15,16,16,17,17,18,18,19,19,21,21,22,22,23,23,24,24,25,25,26,26,27,27,28,28,29,29,30,30,34,34,35,35,36,36,37,37,38,38,39,39,41,41,42,42,43,43,44,44,45,45,47,47,48,48,49,49,50,50,51,51,53,53,54,54,55,55,56,56,57,57,58,58,59,59,60,60],"right_children":[2,4,6,8,10,12,14,16,18,20,22,24,26,28,30,32,34,36,38,40,-1,42,44,46,48,50,52,54,56,58,60,-1,-1,-1,62,64,66,68,70,72,-1,74,76,78,80,82,-1,84,86,88,90,92,-1,94,96,98,100,102,104,106,108,-1,-1,-1,-1,-1,-1,-1,-1,-1,-1,-1,-1,-1,-1,-1,-1,-1,-1,-1,-1,-1,-1,-1,-1,-1,-1,-1,-1,-1,-1,-1,-1,-1,-1,-1,-1,-1,-1,-1,-1,-1,-1,-1,-1,-1,-1,-1,-1],"split_conditions":[2.8231343E3,1.7342383E3,3.629977E3,8.380767E2,1.2739408E2,7.701728E0,7.7643294E0,8.836982E1,1.1550387E0,2.813633E3,1.0694445E1,1.0044843E1,7.9998336E0,1.976757E0,8.119048E-1,2E1,4.1368698E2,2.307812E2,1.9368903E2,2.096774E0,2.3014343E-1,1.494186E1,2.813633E3,2.4977624E0,2.5752432E2,9E0,2.5E1,1.0871173E1,2.0210078E0,9.213421E0,1.7148718E2,-4.923891E-1,-8.776032E-2,-6.190883E-2,3E1,1.5E1,1.5351875E3,2E0,3E0,2.4813278E0,2.6240858E-1,6E0,3.696377E2,7.5883617E0,1.575E2,2.0500848E0,5.5448246E-1,6.39686E0,2.5522388E2,1.1178082E1,1.502164E2,7.185629E-1,4.9716645E-1,6.626674E0,3.272794E2,1.3E1,1.2328767E0,1.94843E1,2.105347E0,1.700651E2,1.035337E1,-3.874529E-1,-1.259471E-1,-3.2726908E-1,-1.854698E-1,-2.2490712E-2,-2.2031164E-1,-0E0,-2.0306504E-1,-5.10158E-2,2.280887E-2,-2.2704947E-1,-1.0941853E-1,-6.0816444E-2,-2.1848841E-1,-6.706131E-2,9.6951775E-2,3.7482935E-1,8.6948074E-2,5.924721E-3,-2.0676675E-1,-7.562048E-2,1.0180911E-1,-1.11418165E-1,3.4665325E-1,-7.197756E-2,-6.3242594E-4,-2.758814E-1,-6.1738946E-2,-4.881298E-2,1.0372708E-1,-2.5762124E-2,9.9426456E-2,2.0868373E-1,-6.746092E-2,5.777292E-1,-1.1413976E-2,7.18777E-1,2.4127133E0,3.3609125E-1,7.3516196E-1,-3.173833E-2,2.5964305E-1,5.1968765E-1,2.1886742E-1,1.7913778E-1,-2.2533286E-1,1.7819537E-1,4.454154E-1],"split_indices":[8,8,8,8,0,10,10,9,2,8,12,12,10,15,2,1,8,9,9,2,0,14,8,15,23,1,1,12,15,10,0,0,0,0,1,1,8,1,1,15,0,1,9,10,0,15,0,13,0,12,0,2,0,10,0,1,2,21,15,0,12,0,0,0,0,0,0,0,0,0,0,0,0,0,0,0,0,0,0,0,0,0,0,0,0,0,0,0,0,0,0,0,0,0,0,0,0,0,0,0,0,0,0,0,0,0,0,0,0],"split_type":[0,0,0,0,0,0,0,0,0,0,0,0,0,0,0,0,0,0,0,0,0,0,0,0,0,0,0,0,0,0,0,0,0,0,0,0,0,0,0,0,0,0,0,0,0,0,0,0,0,0,0,0,0,0,0,0,0,0,0,0,0,0,0,0,0,0,0,0,0,0,0,0,0,0,0,0,0,0,0,0,0,0,0,0,0,0,0,0,0,0,0,0,0,0,0,0,0,0,0,0,0,0,0,0,0,0,0,0,0],"sum_hessian":[1.035E3,5.04E2,5.31E2,2.74E2,2.3E2,2.12E2,3.19E2,1.14E2,1.6E2,1.23E2,1.07E2,1.09E2,1.03E2,1.25E2,1.94E2,3.8E1,7.6E1,1.38E2,2.2E1,1.21E2,2E0,8.9E1,1.8E1,6.7E1,4.2E1,1.5E1,8.8E1,3.7E1,8.8E1,1.21E2,7.3E1,3.7E1,1E0,2E0,7.4E1,1.15E2,2.3E1,1.7E1,5E0,1.2E2,1E0,3.8E1,5.1E1,1.4E1,4E0,6.5E1,2E0,3.8E1,4E0,1.3E1,2E0,8.7E1,1E0,2.7E1,1E1,1.4E1,7.4E1,6E1,6.1E1,1.2E1,6.1E1,7.2E1,2E0,9.1E1,2.4E1,6E0,1.7E1,2E0,1.5E1,2E0,3E0,2.4E1,9.6E1,1.7E1,2.1E1,3.7E1,1.4E1,8E0,6E0,1E0,3E0,2.1E1,4.4E1,2E0,3.6E1,2E0,2E0,7E0,6E0,1E0,1E0,4.5E1,4.2E1,8E0,1.9E1,9E0,1E0,1.3E1,1E0,6E1,1.4E1,4.9E1,1.1E1,1.3E1,4.8E1,1.1E1,1E0,1.4E1,4.7E1],"tree_param":{"num_deleted":"0","num_feature":"26","num_nodes":"109","size_leaf_vector":"1"}},{"base_weights":[-3.236101E-2,-2.2604215E0,1.5125098E0,-3.2287161E0,-1.1918468E0,5.580589E-1,2.634859E0,-3.7147434E0,-2.6720197E0,7.31921E-1,-1.2691782E0,1.8565084E-1,1.2873025E0,2.257368E0,4.8331017E0,-4.7792932E-1,-3.4872518E0,-2.9962912E0,-1.5725178E0,-2.0210576E0,-9.23098E-1,1.2720904E-1,4.4346076E-1,5.4331464E-1,2.2968833E0,1.6912702E0,3.3475208E0,2.4655743E0,6.100307E0,-4.985678E-2,-3.511153E0,-3.684474E-2,-3.055393E0,-1.9331776E0,-2.5160685E-1,-2.435358E0,-8.214368E-1,6.634092E-1,-1.0742545E0,-3.0612987E-1,7.602515E-1,8.846416E-1,-2.4944365E0,-5.6670856E-2,3.000823E0,3.9547691E0,1.4695467E0,5.8626456E0,2.4544234E0,4.0063562E0,-7.5345457E-1,9.621762E0,4.557782E0,-3.5458037E-1,-1.17550634E-1,-3.41265E-1,-2.5356105E-1,-9.2434846E-2,-2.1844152E-1,8.302818E-3,-5.483402E-2,-1.3367297E-1,-2.813165E-1,-2.095805E-1,-3.0048845E-2,-9.322002E-2,1.7896901E-1,-1.725709E-1,-6.2233884E-2,-8.938668E-2,1.3162509E-2,1.4457071E-1,-2.3119194E-2,1.5179956E-1,-5.900354E-2,-3.0333024E-1,3.1937905E-2,2.4283326E-1,-5.1242866E-2,3.0195242E-2,3.6171612E-1,1.5860929E-1,4.73363E-1,1.6051851E-1,-2.0592462E-1,6.230405E-1,-6.962692E-2,1.2308762E-1,5.018506E-1,1.467858E-1,4.7623107E-1,1.0155506E-2,-9.6476756E-2,2.5840428E-1,1.0347376E0,1.7763408E-1,6.662931E-1],"categories":[],"categories_nodes":[],"categories_segments":[],"categories_sizes":[],"default_left":[0,0,0,0,0,0,0,0,0,0,0,0,0,0,0,0,0,0,0,0,0,0,0,0,0,0,0,0,0,0,0,0,0,0,0,0,0,0,0,0,0,0,0,0,0,0,0,0,0,0,0,0,0,0,0,0,0,0,0,0,0,0,0,0,0,0,0,0,0,0,0,0,0,0,0,0,0,0,0,0,0,0,0,0,0,0,0,0,0,0,0,0,0,0,0,0,0],"id":12,"left_children":[1,3,5,7,9,11,13,15,17,-1,19,21,23,25,27,-1,29,31,33,35,37,39,-1,41,43,45,47,49,51,-1,53,-1,55,57,59,61,63,65,67,69,71,73,75,77,79,81,83,85,87,89,91,93,95,-1,-1,-1,-1,-1,-1,-1,-1,-1,-1,-1,-1,-1,-1,-1,-1,-1,-1,-1,-1,-1,-1,-1,-1,-1,-1,-1,-1,-1,-1,-1,-1,-1,-1,-1,-1,-1,-1,-1,-1,-1,-1,-1,-1],"loss_changes":[3.6314314E3,4.4269824E2,6.6558484E2,5.0583984E1,1.4492593E2,9.140647E1,2.257085E2,1.1083496E1,3.369397E1,0E0,5.144333E1,5.485094E1,8.409526E1,1.4564929E2,1.0710846E2,0E0,5.0633545E0,1.1422607E1,1.2157913E1,2.9482056E1,3.50467E1,6.1451946E1,0E0,7.151575E1,7.998894E1,7.595273E1,1.7121777E2,8.270102E1,9.5958496E1,0E0,3.4528809E0,0E0,5.793396E0,2.9925308E0,7.8714037E-1,1.5332825E1,1.1080446E1,2.5116455E1,3.725795E1,3.441275E1,6.229842E1,5.7962013E1,1.1854046E1,1.4643473E1,6.0062317E1,1.7688217E1,7.553467E1,5.5545593E1,1.9084637E2,1.3495468E1,1.2683461E0,7.715454E0,1.0442737E2,0E0,0E0,0E0,0E0,0E0,0E0,0E0,0E0,0E0,0E0,0E0,0E0,0E0,0E0,0E0,0E0,0E0,0E0,0E0,0E0,0E0,0E0,0E0,0E0,0E0,0E0,0E0,0E0,0E0,0E0,0E0,0E0,0E0,0E0,0E0,0E0,0E0,0E0,0E0,0E0,0E0,0E0,0E0,0E0],"parents":[2147483647,0,0,1,1,2,2,3,3,4,4,5,5,6,6,7,7,8,8,10,10,11,11,12,12,13,13,14,14,16,16,17,17,18,18,19,19,20,20,21,21,23,23,24,24,25,25,26,26,27,27,28,28,30,30,32,32,33,33,34,34,35,35,36,36,37,37,38,38,39,39,40,40,41,41,42,42,43,43,44,44,45,45,46,46,47,47,48,48,49,49,50,50,51,51,52,52],"right_children":[2,4,6,8,10,12,14,16,18,-1,20,22,24,26,28,-1,30,32,34,36,38,40,-1,42,44,46,48,50,52,-1,54,-1,56,58,60,62,64,66,68,70,72,74,76,78,80,82,84,86,88,90,92,94,96,-1,-1,-1,-1,-1,-1,-1,-1,-1,-1,-1,-1,-1,-1,-1,-1,-1,-1,-1,-1,-1,-1,-1,-1,-1,-1,-1,-1,-1,-1,-1,-1,-1,-1,-1,-1,-1,-1,-1,-1,-1,-1,-1,-1],"split_conditions":[2.5488328E3,1.3080085E3,3.7786797E3,8.380767E2,1.3932193E2,4.3401093E2,4.8257397E3,3.7558533E2,1.6E1,7.31921E-1,1.7753113E3,2.5E1,1.005988E1,8.526786E-1,4.472441E-1,-4.7792932E-1,6.3230276E0,6.3886466E0,5.9219856E1,1.2E1,7.1124067E0,8.341709E-1,4.4346076E-1,7.432351E0,1.418919E0,1.7155963E2,7.1613035E0,4.2574257E-1,6.1885244E-1,-4.985678E-2,3E1,-3.684474E-2,9.970381E0,6.334803E0,7.2161674E1,6.4309134E0,1.5510703E2,7.5098267E0,5.225225E-1,4.0914927E0,1.382643E0,9.629075E0,1.122034E0,6.641954E0,1.9792134E2,9.135484E0,9.066667E0,4.783585E3,5E-1,4.8884355E3,9.016908E0,1.9884236E2,8.526786E-1,-3.5458037E-1,-1.17550634E-1,-3.41265E-1,-2.5356105E-1,-9.2434846E-2,-2.1844152E-1,8.302818E-3,-5.483402E-2,-1.3367297E-1,-2.813165E-1,-2.095805E-1,-3.0048845E-2,-9.322002E-2,1.7896901E-1,-1.725709E-1,-6.2233884E-2,-8.938668E-2,1.3162509E-2,1.4457071E-1,-2.3119194E-2,1.5179956E-1,-5.900354E-2,-3.0333024E-1,3.1937905E-2,2.4283326E-1,-5.1242866E-2,3.0195242E-2,3.6171612E-1,1.5860929E-1,4.73363E-1,1.6051851E-1,-2.0592462E-1,6.230405E-1,-6.962692E-2,1.2308762E-1,5.018506E-1,1.467858E-1,4.7623107E-1,1.0155506E-2,-9.6476756E-2,2.5840428E-1,1.0347376E0,1.7763408E-1,6.662931E-1],"split_indices":[8,8,8,8,9,9,8,8,1,0,8,1,12,2,2,0,10,10,0,1,21,2,0,10,11,23,13,2,2,0,1,0,12,13,0,13,9,0,2,11,2,12,2,10,0,11,11,8,22,8,10,0,2,0,0,0,0,0,0,0,0,0,0,0,0,0,0,0,0,0,0,0,0,0,0,0,0,0,0,0,0,0,0,0,0,0,0,0,0,0,0,0,0,0,0,0,0],"split_type":[0,0,0,0,0,0,0,0,0,0,0,0,0,0,0,0,0,0,0,0,0,0,0,0,0,0,0,0,0,0,0,0,0,0,0,0,0,0,0,0,0,0,0,0,0,0,0,0,0,0,0,0,0,0,0,0,0,0,0,0,0,0,0,0,0,0,0,0,0,0,0,0,0,0,0,0,0,0,0,0,0,0,0,0,0,0,0,0,0,0,0,0,0,0,0,0,0],"sum_hessian":[1.053E3,4.31E2,6.22E2,2.25E2,2.06E2,3.37E2,2.85E2,1.17E2,1.08E2,1E0,2.05E2,2.24E2,1.13E2,2.45E2,4E1,1.7E1,1E2,8.2E1,2.6E1,6.3E1,1.42E2,2.22E2,2E0,6.6E1,4.7E1,1.63E2,8.2E1,1.5E1,2.5E1,1E0,9.9E1,2E0,8E1,2E1,6E0,4.6E1,1.7E1,1.2E1,1.3E2,1.32E2,9E1,6E1,6E0,1.1E1,3.6E1,1.3E1,1.5E2,2E1,6.2E1,1E1,5E0,6E0,1.9E1,9.7E1,2E0,4.4E1,3.6E1,5E0,1.5E1,3E0,3E0,1.3E1,3.3E1,4E0,1.3E1,5E0,7E0,5.2E1,7.8E1,5.6E1,7.6E1,5.3E1,3.7E1,4.2E1,1.8E1,5E0,1E0,1E0,1E1,7E0,2.9E1,4E0,9E0,1.45E2,5E0,1.9E1,1E0,4.3E1,1.9E1,3E0,7E0,1E0,4E0,1E0,5E0,9E0,1E1],"tree_param":{"num_deleted":"0","num_feature":"26","num_nodes":"97","size_leaf_vector":"1"}},{"base_weights":[-3.1499274E-2,-1.9742886E0,1.5305587E0,-3.2823732E0,-1.3722245E0,7.895504E-1,2.7102687E0,-4.3032423E-1,-3.107151E0,-2.162666E0,-7.914692E-1,1.5686718E-1,2.4219608E0,1.2952101E0,3.4760869E0,-2.3497896E0,-3.2225823E0,-1.598711E0,-2.726519E0,2.7409494E0,-8.832023E-1,3.1583515E-1,-1.5044014E0,2.0499132E0,4.133848E0,-1.2364224E-1,2.8289394E0,1.0848417E-2,3.9625201E0,-2.942287E0,-1.5345839E0,-3.2379155E0,-7.256429E-2,-1.8230594E0,-3.7879314E-2,-2.9021957E0,-1.4249429E0,-3.529026E-2,3.627638E-1,-1.5242431E0,-5.701416E-1,2.592622E-1,4.6653423E-1,-1.7685773E0,1.6757831E-1,3.4003034E0,1.6860503E0,6.160465E-1,2.767719E0,2.0246882E0,-1.6100386E0,4.147089E0,1.3643427E0,1.4064238E0,-1.1228813E0,1.6357247E0,4.303239E0,-3.2804343E-1,-9.1375016E-2,-1.4086599E-2,-1.6498691E-1,-3.6063382E-1,-2.931501E-1,-2.1524344E-1,-1.1666222E-1,9.000646E-2,-1.6948114E-1,-2.998253E-1,-8.308567E-2,-2.2261797E-2,-1.8941367E-1,1.4846069E-1,-1.826586E-1,-1.3742034E-1,-2.569644E-2,-6.2453937E-2,4.9222954E-2,-1.8033301E-2,-2.1481176E-1,1.3861182E-1,-6.673077E-2,4.6287546E-1,1.427201E-1,-7.79791E-2,1.8114643E-1,4.0203935E-1,1.2843242E-1,4.899027E-2,4.995942E-1,6.30621E-2,-2.3187676E-1,7.598144E-2,4.694266E-1,2.1051757E-1,-1.2591916E-1,-2.2183621E-2,1.9176176E-1,-1.4176032E-1,-4.656945E-2,2.1975091E-1,-1.8723667E-1,5.2556556E-1,3.0777365E-1],"categories":[],"categories_nodes":[],"categories_segments":[],"categories_sizes":[],"default_left":[0,0,0,0,0,0,0,0,0,0,0,0,0,0,0,0,0,0,0,0,0,0,0,0,0,0,0,0,0,0,0,0,0,0,0,0,0,0,0,0,0,0,0,0,0,0,0,0,0,0,0,0,0,0,0,0,0,0,0,0,0,0,0,0,0,0,0,0,0,0,0,0,0,0,0,0,0,0,0,0,0,0,0,0,0,0,0,0,0,0,0,0,0,0,0,0,0,0,0,0,0,0,0],"id":13,"left_children":[1,3,5,7,9,11,13,-1,15,17,19,21,23,25,27,29,31,33,35,37,39,41,43,45,47,49,51,53,55,57,59,61,-1,63,65,67,69,-1,-1,71,73,75,-1,77,79,81,83,-1,85,87,89,91,93,95,97,99,101,-1,-1,-1,-1,-1,-1,-1,-1,-1,-1,-1,-1,-1,-1,-1,-1,-1,-1,-1,-1,-1,-1,-1,-1,-1,-1,-1,-1,-1,-1,-1,-1,-1,-1,-1,-1,-1,-1,-1,-1,-1,-1,-1,-1,-1,-1],"loss_changes":[3.213831E3,3.667544E2,5.1065076E2,1.2362183E1,1.4718518E2,3.7323535E2,2.3993176E2,0E0,3.2354736E0,3.877295E1,6.3478546E1,6.954747E1,5.5234863E1,1.7688725E2,2.456582E2,5.1802826E0,1.4654541E0,2.4606918E1,1.075177E1,1.5324093E1,3.6048203E1,5.7353436E1,1.0615505E1,3.552362E1,2.912326E1,1.4052899E2,6.908255E1,3.1669504E1,9.384338E1,4.1284637E0,1.3559437E0,1.0792236E0,0E0,1.0562271E1,1.714601E1,8.666107E0,5.007889E0,0E0,0E0,5.732823E1,3.1212303E1,4.9297634E1,0E0,1.1435829E1,5.0662155E0,3.3993866E1,2.285402E1,0E0,1.6604576E1,7.908817E1,4.29196E1,3.2956604E1,4.160744E1,8.086184E0,1.2820606E0,3.9621296E1,1.1254907E2,0E0,0E0,0E0,0E0,0E0,0E0,0E0,0E0,0E0,0E0,0E0,0E0,0E0,0E0,0E0,0E0,0E0,0E0,0E0,0E0,0E0,0E0,0E0,0E0,0E0,0E0,0E0,0E0,0E0,0E0,0E0,0E0,0E0,0E0,0E0,0E0,0E0,0E0,0E0,0E0,0E0,0E0,0E0,0E0,0E0,0E0],"parents":[2147483647,0,0,1,1,2,2,3,3,4,4,5,5,6,6,8,8,9,9,10,10,11,11,12,12,13,13,14,14,15,15,16,16,17,17,18,18,19,19,20,20,21,21,22,22,23,23,24,24,25,25,26,26,27,27,28,28,29,29,30,30,31,31,33,33,34,34,35,35,36,36,39,39,40,40,41,41,43,43,44,44,45,45,46,46,48,48,49,49,50,50,51,51,52,52,53,53,54,54,55,55,56,56],"right_children":[2,4,6,8,10,12,14,-1,16,18,20,22,24,26,28,30,32,34,36,38,40,42,44,46,48,50,52,54,56,58,60,62,-1,64,66,68,70,-1,-1,72,74,76,-1,78,80,82,84,-1,86,88,90,92,94,96,98,100,102,-1,-1,-1,-1,-1,-1,-1,-1,-1,-1,-1,-1,-1,-1,-1,-1,-1,-1,-1,-1,-1,-1,-1,-1,-1,-1,-1,-1,-1,-1,-1,-1,-1,-1,-1,-1,-1,-1,-1,-1,-1,-1,-1,-1,-1,-1],"split_conditions":[3.3973605E2,1.3429398E2,4.9623798E2,7.4809654E1,9.5332365E0,8.717693E0,9.744733E0,-4.3032423E-1,7.027959E0,2.6661382E0,9.629075E0,2.0454636E1,1.6192667E1,5.9541984E0,8.0263156E-1,7.645631E0,3E1,2.621962E0,2.4266885E2,8.988853E1,1.9368903E2,2.621962E0,1.6379776E2,1.1776847E1,1.0752255E1,2.2311828E0,6E0,7.122484E0,2E0,6.4503818E0,7.6923075E0,6.169525E0,-7.256429E-2,1.2714286E2,8.550373E0,1.4E1,7.1060543E0,-3.529026E-2,3.627638E-1,1.3932193E2,3E0,3.7651407E2,4.6653423E-1,3E0,1.6754295E2,9.251497E0,1.1827968E1,6.160465E-1,1.6754295E2,1.6923126E0,6.4309134E0,6.7511387E0,1.7813536E1,2E0,5E-1,4E0,2.1556525E0,-3.2804343E-1,-9.1375016E-2,-1.4086599E-2,-1.6498691E-1,-3.6063382E-1,-2.931501E-1,-2.1524344E-1,-1.1666222E-1,9.000646E-2,-1.6948114E-1,-2.998253E-1,-8.308567E-2,-2.2261797E-2,-1.8941367E-1,1.4846069E-1,-1.826586E-1,-1.3742034E-1,-2.569644E-2,-6.2453937E-2,4.9222954E-2,-1.8033301E-2,-2.1481176E-1,1.3861182E-1,-6.673077E-2,4.6287546E-1,1.427201E-1,-7.79791E-2,1.8114643E-1,4.0203935E-1,1.2843242E-1,4.899027E-2,4.995942E-1,6.30621E-2,-2.3187676E-1,7.598144E-2,4.694266E-1,2.1051757E-1,-1.2591916E-1,-2.2183621E-2,1.9176176E-1,-1.4176032E-1,-4.656945E-2,2.1975091E-1,-1.8723667E-1,5.2556556E-1,3.0777365E-1],"split_indices":[9,9,9,9,12,13,12,0,10,15,12,14,12,11,11,12,1,15,9,0,9,15,0,12,10,11,1,13,1,11,12,13,0,0,12,1,10,0,0,9,1,9,0,1,0,11,12,0,0,11,13,13,14,1,22,3,15,0,0,0,0,0,0,0,0,0,0,0,0,0,0,0,0,0,0,0,0,0,0,0,0,0,0,0,0,0,0,0,0,0,0,0,0,0,0,0,0,0,0,0,0,0,0],"split_type":[0,0,0,0,0,0,0,0,0,0,0,0,0,0,0,0,0,0,0,0,0,0,0,0,0,0,0,0,0,0,0,0,0,0,0,0,0,0,0,0,0,0,0,0,0,0,0,0,0,0,0,0,0,0,0,0,0,0,0,0,0,0,0,0,0,0,0,0,0,0,0,0,0,0,0,0,0,0,0,0,0,0,0,0,0,0,0,0,0,0,0,0,0,0,0,0,0,0,0,0,0,0,0],"sum_hessian":[1.057E3,4.71E2,5.86E2,1.47E2,3.24E2,3.61E2,2.25E2,1.8E1,1.29E2,1.36E2,1.88E2,2.61E2,1E2,8E1,1.45E2,2E1,1.09E2,7E1,6.6E1,4E0,1.84E2,2.39E2,2.2E1,8.4E1,1.6E1,4.2E1,3.8E1,1.8E1,1.27E2,1E1,1E1,1.08E2,1E0,6.1E1,9E0,5.7E1,9E0,1E0,3E0,5.9E1,1.25E2,2.37E2,2E0,1.9E1,3E0,1.6E1,6.8E1,5E0,1.1E1,1.7E1,2.5E1,1.9E1,1.9E1,8E0,1E1,1.7E1,1.1E2,8E0,2E0,1E0,9E0,4.4E1,6.4E1,3.9E1,2.2E1,6E0,3E0,5.4E1,3E0,3E0,6E0,5E0,5.4E1,3.4E1,9.1E1,4.9E1,1.88E2,4E0,1.5E1,1E0,2E0,9E0,7E0,3E0,6.5E1,5E0,6E0,1.2E1,5E0,6E0,1.9E1,3E0,1.6E1,1.5E1,4E0,2E0,6E0,6E0,4E0,1.5E1,2E0,6E1,5E1],"tree_param":{"num_deleted":"0","num_feature":"26","num_nodes":"103","size_leaf_vector":"1"}},{"base_weights":[5.482102E-2,-1.643202E0,1.6464093E0,-2.6821778E0,-8.588722E-1,4.9333456E-1,2.4323816E0,-2.077085E0,-2.9971783E0,-1.3070959E0,-4.4539523E-1,-6.387753E-3,1.0990624E0,2.1148093E0,5.057264E0,-2.1809857E0,-1.03938945E-1,-3.1522284E0,-1.9563093E0,4.788932E-1,-1.386697E0,-3.3594647E-1,-2.374661E0,-4.125109E-1,7.746209E-1,1.6966705E0,3.2955024E-2,4.22594E0,1.8626988E0,3.5358224E0,9.54747E0,-2.3890526E0,-1.111481E0,2.069777E-1,-7.2380275E-2,-3.208941E0,-6.661495E-1,-5.617186E-2,-2.1481042E0,-2.5558038E0,-1.1891993E0,-1.2643414E0,-1.0408716E-1,-2.9830503E-1,-3.3299524E-2,-6.05747E-1,1.1895721E0,1.4106753E0,-7.4509096E-1,2.2401392E0,4.7241813E-1,-1.3382186E0,1.922509E0,2.2960815E0,2.7847097E0,2.052304E0,-2.7722594E-1,-4.9648827E-1,4.263028E0,1.111337E0,3.1998488E-1,-2.609751E-1,-1.6584365E-1,-5.3780317E-2,-1.7700842E-1,2.6823757E-2,-0E0,-3.5490632E-1,-2.7672154E-1,-7.742352E-2,-1.2094612E-2,-4.5481987E-2,3.205621E-2,-1.5981464E-1,-3.3483568E-1,-2.9011843E-1,-1.5349822E-1,6.87902E-1,-1.3156466E-1,1.1023325E-2,-1.8934116E-1,1.0151892E-1,-4.6469748E-2,-2.7692238E-2,-2.0944051E-1,2.6059124E-1,-4.446828E-2,7.370559E-2,3.504417E-1,1.1911223E-3,-1.9786768E-1,1.2733321E-1,3.3316413E-1,-1.7533857E-1,9.463513E-2,-1.5614043E-1,5.6242574E-2,5.3568727E-1,3.2298174E-2,-2.0233624E-1,3.0322608E-1,1.6604301E-1,4.0167746E-1,-2.304252E-1,1.03852116E-1,1.5692675E-1,-1.4302441E-1,4.6504536E-1,1.23514526E-1],"categories":[],"categories_nodes":[],"categories_segments":[],"categories_sizes":[],"default_left":[0,0,0,0,0,0,0,0,0,0,0,0,0,0,0,0,0,0,0,0,0,0,0,0,0,0,0,0,0,0,0,0,0,0,0,0,0,0,0,0,0,0,0,0,0,0,0,0,0,0,0,0,0,0,0,0,0,0,0,0,0,0,0,0,0,0,0,0,0,0,0,0,0,0,0,0,0,0,0,0,0,0,0,0,0,0,0,0,0,0,0,0,0,0,0,0,0,0,0,0,0,0,0,0,0,0,0,0,0],"id":14,"left_children":[1,3,5,7,9,11,13,15,17,19,21,23,25,27,29,31,33,35,37,-1,39,41,43,45,47,49,51,53,55,57,59,61,63,65,-1,67,69,71,73,75,77,79,81,-1,-1,83,85,87,89,91,93,95,97,-1,99,101,103,105,107,-1,-1,-1,-1,-1,-1,-1,-1,-1,-1,-1,-1,-1,-1,-1,-1,-1,-1,-1,-1,-1,-1,-1,-1,-1,-1,-1,-1,-1,-1,-1,-1,-1,-1,-1,-1,-1,-1,-1,-1,-1,-1,-1,-1,-1,-1,-1,-1,-1,-1],"loss_changes":[2.837684E3,4.113114E2,4.8971375E2,3.4818848E1,5.3173645E1,6.701205E1,2.5700354E2,1.5535706E1,1.6078003E1,7.375044E1,3.1238016E1,3.8979984E1,6.348255E1,1.453363E2,1.972074E2,1.34617E1,1.1651235E0,1.4534912E1,7.3120804E0,0E0,2.8449768E1,3.1159075E1,8.61208E0,2.57382E1,4.171566E1,4.125241E1,9.8494705E1,7.435246E2,1.06239136E2,8.166583E1,4.252539E1,5.0810547E0,4.106819E0,4.449509E-2,0E0,7.275757E0,5.255592E-2,6.097765E-1,6.6958694E0,1.8019867E0,1.3091867E2,2.5463451E1,4.8044174E1,0E0,0E0,3.4916924E1,2.2206877E1,3.9304455E1,1.2359997E1,4.172917E1,2.373114E1,1.0310398E1,8.5595566E1,0E0,4.0753357E1,1.7675073E2,6.119476E1,1.1875091E1,2.0648254E1,0E0,0E0,0E0,0E0,0E0,0E0,0E0,0E0,0E0,0E0,0E0,0E0,0E0,0E0,0E0,0E0,0E0,0E0,0E0,0E0,0E0,0E0,0E0,0E0,0E0,0E0,0E0,0E0,0E0,0E0,0E0,0E0,0E0,0E0,0E0,0E0,0E0,0E0,0E0,0E0,0E0,0E0,0E0,0E0,0E0,0E0,0E0,0E0,0E0,0E0],"parents":[2147483647,0,0,1,1,2,2,3,3,4,4,5,5,6,6,7,7,8,8,9,9,10,10,11,11,12,12,13,13,14,14,15,15,16,16,17,17,18,18,20,20,21,21,22,22,23,23,24,24,25,25,26,26,27,27,28,28,29,29,30,30,31,31,32,32,33,33,35,35,36,36,37,37,38,38,39,39,40,40,41,41,42,42,45,45,46,46,47,47,48,48,49,49,50,50,51,51,52,52,54,54,55,55,56,56,57,57,58,58],"right_children":[2,4,6,8,10,12,14,16,18,20,22,24,26,28,30,32,34,36,38,-1,40,42,44,46,48,50,52,54,56,58,60,62,64,66,-1,68,70,72,74,76,78,80,82,-1,-1,84,86,88,90,92,94,96,98,-1,100,102,104,106,108,-1,-1,-1,-1,-1,-1,-1,-1,-1,-1,-1,-1,-1,-1,-1,-1,-1,-1,-1,-1,-1,-1,-1,-1,-1,-1,-1,-1,-1,-1,-1,-1,-1,-1,-1,-1,-1,-1,-1,-1,-1,-1,-1,-1,-1,-1,-1,-1,-1,-1],"split_conditions":[2.8231343E3,1.2872766E3,3.629977E3,5.219941E0,2.1628813E3,8.119048E-1,1.2676767E0,1.2463447E3,7.4937077E0,1.9387102E0,2.4615168E1,2.2003334E2,1.3727598E0,2E0,2.892983E2,1.1243781E0,7.2161674E1,7.462185E1,1.2041311E1,4.788932E-1,2.6817447E-1,9.383073E0,1.3478915E2,3.1085213E1,1.7922388E1,1.5285714E1,1.4240507E0,3.6795186E3,1.0458333E0,1.035337E1,2.9326315E0,1.1082111E1,1.338983E0,6.2660378E1,-7.2380275E-2,1.0008367E1,9.809886E-1,2.8481012E1,7.733333E-1,9.57265E0,2.6836583E-1,5.913984E0,1.1078002E1,-2.9830503E-1,-3.3299524E-2,2.5494505E1,8.347397E0,2.4761284E2,1.3671909E1,9.251497E-1,1.122034E0,8.903947E0,2.9326315E0,2.2960815E0,1.5026667E1,8.526786E-1,1.122034E0,1.3578948E0,1.0815039E1,1.111337E0,3.1998488E-1,-2.609751E-1,-1.6584365E-1,-5.3780317E-2,-1.7700842E-1,2.6823757E-2,-0E0,-3.5490632E-1,-2.7672154E-1,-7.742352E-2,-1.2094612E-2,-4.5481987E-2,3.205621E-2,-1.5981464E-1,-3.3483568E-1,-2.9011843E-1,-1.5349822E-1,6.87902E-1,-1.3156466E-1,1.1023325E-2,-1.8934116E-1,1.0151892E-1,-4.6469748E-2,-2.7692238E-2,-2.0944051E-1,2.6059124E-1,-4.446828E-2,7.370559E-2,3.504417E-1,1.1911223E-3,-1.9786768E-1,1.2733321E-1,3.3316413E-1,-1.7533857E-1,9.463513E-2,-1.5614043E-1,5.6242574E-2,5.3568727E-1,3.2298174E-2,-2.0233624E-1,3.0322608E-1,1.6604301E-1,4.0167746E-1,-2.304252E-1,1.03852116E-1,1.5692675E-1,-1.4302441E-1,4.6504536E-1,1.23514526E-1],"split_indices":[8,8,8,11,8,2,2,8,13,15,24,23,2,7,0,2,0,0,12,0,2,21,0,21,24,21,2,8,2,12,11,12,2,0,0,12,2,0,2,12,2,11,24,0,0,21,13,23,14,2,11,13,11,0,24,2,2,2,13,0,0,0,0,0,0,0,0,0,0,0,0,0,0,0,0,0,0,0,0,0,0,0,0,0,0,0,0,0,0,0,0,0,0,0,0,0,0,0,0,0,0,0,0,0,0,0,0,0,0],"split_type":[0,0,0,0,0,0,0,0,0,0,0,0,0,0,0,0,0,0,0,0,0,0,0,0,0,0,0,0,0,0,0,0,0,0,0,0,0,0,0,0,0,0,0,0,0,0,0,0,0,0,0,0,0,0,0,0,0,0,0,0,0,0,0,0,0,0,0,0,0,0,0,0,0,0,0,0,0,0,0,0,0,0,0,0,0,0,0,0,0,0,0,0,0,0,0,0,0,0,0,0,0,0,0,0,0,0,0,0,0],"sum_hessian":[1.048E3,5.07E2,5.41E2,2.17E2,2.9E2,2.2E2,3.21E2,7.7E1,1.4E2,1.38E2,1.52E2,1.21E2,9.9E1,2.88E2,3.3E1,7.3E1,4E0,1.2E2,2E1,1E0,1.37E2,1.45E2,7E0,8E1,4.1E1,6.3E1,3.6E1,2.9E1,2.59E2,2.6E1,7E0,6E1,1.3E1,3E0,1E0,1.17E2,3E0,2E0,1.8E1,1.8E1,1.19E2,2.8E1,1.17E2,5E0,2E0,7.2E1,8E0,2.9E1,1.2E1,4.3E1,2E1,2.1E1,1.5E1,1E0,2.8E1,2.38E2,2.1E1,4E0,2.2E1,5E0,2E0,4.4E1,1.6E1,8E0,5E0,2E0,1E0,6.2E1,5.5E1,2E0,1E0,1E0,1E0,1.4E1,4E0,1.2E1,6E0,1E0,1.18E2,9E0,1.9E1,2.8E1,8.9E1,6E1,1.2E1,4E0,4E0,2.3E1,6E0,8E0,4E0,2.4E1,1.9E1,3E0,1.7E1,1.9E1,2E0,4E0,1.1E1,1E0,2.7E1,2E2,3.8E1,8E0,1.3E1,1E0,3E0,1.9E1,3E0],"tree_param":{"num_deleted":"0","num_feature":"26","num_nodes":"109","size_leaf_vector":"1"}},{"base_weights":[3.5833098E-2,-1.6392058E0,1.2832495E0,-2.4084477E0,-8.093346E-1,6.919254E-1,2.3733423E0,-2.7758517E0,-1.830656E0,6.535069E-1,-8.734606E-1,4.441901E-1,1.8965969E0,2.03436E0,6.413667E0,-3.2491875E0,-2.4955368E0,-6.095983E-1,-1.9839337E0,-1.0303233E0,1.0359349E0,-2.6176501E-2,8.0204165E-1,1.336834E0,6.4893026E0,1.0009371E0,2.3948874E0,9.459583E-1,2.9824455E0,-1.6477447E0,-3.4319994E-1,-2.0477123E0,-2.888137E0,-9.488364E-1,2.81087E-1,-1.7563559E0,-2.7582736E0,-1.0885521E0,1.0365778E0,-1.4159299E0,1.6696153E0,-1.1248657E0,3.2593632E-1,1.1103204E0,7.771596E-2,4.6235323E0,8.233077E-1,2.1812775E0,2.8326198E-1,-1.0083786E0,1.8997865E0,6.5520277E0,2.1056907E0,4.2221114E-1,4.926191E0,-2.5608513E-1,-2.9770194E-2,-2.6794726E-1,-1.5597413E-1,-3.0651805E-1,-2.0209794E-1,-1.1043822E-1,9.776517E-3,3.8959008E-2,-0E0,-1.8494758E-1,-4.8472505E-2,-3.4619188E-1,-1.2442205E-1,-6.761333E-2,-1.4143936E-1,6.4384653E-3,1.1981394E-1,-5.5351585E-2,-1.951586E-1,2.4524534E-1,2.0042203E-2,3.963969E-3,-1.9078521E-1,2.4326523E-1,-8.870306E-3,1.5352187E-1,1.0279662E-2,3.4254313E-1,-3.0813036E-2,1.6821386E-1,5.3069735E-1,1.2030267E-1,-1.4979546E-1,2.4986294E-1,-1.4240791E-1,1.4316484E-1,-1.4358255E-1,3.247907E-1,5.8648895E-2,1.9390775E-1,7.578717E-1,-2.059642E-1,2.214251E-1,1.0791723E-1,-1.05281666E-1,6.591732E-2,5.803152E-1],"categories":[],"categories_nodes":[],"categories_segments":[],"categories_sizes":[],"default_left":[0,0,0,0,0,0,0,0,0,0,0,0,0,0,0,0,0,0,0,0,0,0,0,0,0,0,0,0,0,0,0,0,0,0,0,0,0,0,0,0,0,0,0,0,0,0,0,0,0,0,0,0,0,0,0,0,0,0,0,0,0,0,0,0,0,0,0,0,0,0,0,0,0,0,0,0,0,0,0,0,0,0,0,0,0,0,0,0,0,0,0,0,0,0,0,0,0,0,0,0,0,0,0],"id":15,"left_children":[1,3,5,7,9,11,13,15,17,-1,19,21,23,25,27,29,31,33,35,37,39,41,43,45,47,49,51,-1,53,55,-1,57,59,61,63,65,67,69,71,73,75,77,79,81,83,85,87,-1,89,91,93,95,97,99,101,-1,-1,-1,-1,-1,-1,-1,-1,-1,-1,-1,-1,-1,-1,-1,-1,-1,-1,-1,-1,-1,-1,-1,-1,-1,-1,-1,-1,-1,-1,-1,-1,-1,-1,-1,-1,-1,-1,-1,-1,-1,-1,-1,-1,-1,-1,-1,-1],"loss_changes":[2.2127283E3,2.8627307E2,3.8932245E2,4.4131958E1,1.082838E2,1.1680716E2,2.7783215E2,1.0025391E1,1.612436E1,0E0,6.636061E1,5.547632E1,1.6278761E2,7.103363E1,1.3776251E2,8.182373E0,9.943176E0,3.959334E0,9.330505E0,2.5444931E1,2.8802303E1,5.576787E1,4.155094E1,9.860488E1,6.5729834E2,9.772669E1,1.6086353E2,0E0,4.217325E1,7.580904E0,0E0,9.885986E0,5.123596E-1,1.6737823E0,1.393016E-1,6.8038177E0,1.3333054E1,2.530812E1,7.390208E-1,5.170851E-1,1.5345154E1,3.217516E1,9.5664665E1,5.5758804E1,7.4994316E1,6.456192E0,4.936966E1,0E0,2.6360025E1,1.9786709E1,6.3219574E1,2.6977081E1,6.697821E1,5.983985E0,1.4238533E1,0E0,0E0,0E0,0E0,0E0,0E0,0E0,0E0,0E0,0E0,0E0,0E0,0E0,0E0,0E0,0E0,0E0,0E0,0E0,0E0,0E0,0E0,0E0,0E0,0E0,0E0,0E0,0E0,0E0,0E0,0E0,0E0,0E0,0E0,0E0,0E0,0E0,0E0,0E0,0E0,0E0,0E0,0E0,0E0,0E0,0E0,0E0,0E0],"parents":[2147483647,0,0,1,1,2,2,3,3,4,4,5,5,6,6,7,7,8,8,10,10,11,11,12,12,13,13,14,14,15,15,16,16,17,17,18,18,19,19,20,20,21,21,22,22,23,23,24,24,25,25,26,26,28,28,29,29,31,31,32,32,33,33,34,34,35,35,36,36,37,37,38,38,39,39,40,40,41,41,42,42,43,43,44,44,45,45,46,46,48,48,49,49,50,50,51,51,52,52,53,53,54,54],"right_children":[2,4,6,8,10,12,14,16,18,-1,20,22,24,26,28,30,32,34,36,38,40,42,44,46,48,50,52,-1,54,56,-1,58,60,62,64,66,68,70,72,74,76,78,80,82,84,86,88,-1,90,92,94,96,98,100,102,-1,-1,-1,-1,-1,-1,-1,-1,-1,-1,-1,-1,-1,-1,-1,-1,-1,-1,-1,-1,-1,-1,-1,-1,-1,-1,-1,-1,-1,-1,-1,-1,-1,-1,-1,-1,-1,-1,-1,-1,-1,-1,-1,-1,-1,-1,-1,-1],"split_conditions":[2.6655955E3,1.3526407E3,4.1118276E3,4.252252E0,1.3932193E2,5.1022946E2,1.4240507E0,5.229729E2,2.6332874E0,6.535069E-1,3.696377E2,6.91689E-1,1.7E1,1.9848862E0,2.9326315E0,1.8323477E1,7.0454544E-1,2.857143E-1,7.9935484E0,2.6E1,2.2358892E0,9.669903E0,1.382643E0,1.5781818E1,1.8E1,5E-1,2.0109603E0,9.459583E-1,4.8380635E3,3.8096225E0,-3.4319994E-1,3.4338138E-1,1.2328767E0,1.7E1,2.9E1,9.383073E0,7.948718E-1,1.7558762E1,6.009259E0,5E0,2.5918247E3,7.1645775E0,1.0252978E1,7.540395E0,1.4857504E1,2E0,5.9543774E2,2.1812775E0,8.5164833E-1,4.638308E2,6.25E-1,4.7205237E2,2.289855E-1,5.7354987E2,2E0,-2.5608513E-1,-2.9770194E-2,-2.6794726E-1,-1.5597413E-1,-3.0651805E-1,-2.0209794E-1,-1.1043822E-1,9.776517E-3,3.8959008E-2,-0E0,-1.8494758E-1,-4.8472505E-2,-3.4619188E-1,-1.2442205E-1,-6.761333E-2,-1.4143936E-1,6.4384653E-3,1.1981394E-1,-5.5351585E-2,-1.951586E-1,2.4524534E-1,2.0042203E-2,3.963969E-3,-1.9078521E-1,2.4326523E-1,-8.870306E-3,1.5352187E-1,1.0279662E-2,3.4254313E-1,-3.0813036E-2,1.6821386E-1,5.3069735E-1,1.2030267E-1,-1.4979546E-1,2.4986294E-1,-1.4240791E-1,1.4316484E-1,-1.4358255E-1,3.247907E-1,5.8648895E-2,1.9390775E-1,7.578717E-1,-2.059642E-1,2.214251E-1,1.0791723E-1,-1.05281666E-1,6.591732E-2,5.803152E-1],"split_indices":[8,8,8,21,9,9,2,8,15,0,9,2,1,15,11,14,2,22,11,1,15,12,2,24,1,22,15,0,8,15,0,2,2,1,1,21,2,14,21,1,8,10,12,11,14,1,9,0,2,9,22,9,2,9,1,0,0,0,0,0,0,0,0,0,0,0,0,0,0,0,0,0,0,0,0,0,0,0,0,0,0,0,0,0,0,0,0,0,0,0,0,0,0,0,0,0,0,0,0,0,0,0,0],"split_type":[0,0,0,0,0,0,0,0,0,0,0,0,0,0,0,0,0,0,0,0,0,0,0,0,0,0,0,0,0,0,0,0,0,0,0,0,0,0,0,0,0,0,0,0,0,0,0,0,0,0,0,0,0,0,0,0,0,0,0,0,0,0,0,0,0,0,0,0,0,0,0,0,0,0,0,0,0,0,0,0,0,0,0,0,0,0,0,0,0,0,0,0,0,0,0,0,0,0,0,0,0,0,0],"sum_hessian":[1.057E3,4.51E2,6.06E2,2.33E2,2.18E2,3.94E2,2.12E2,1.4E2,9.3E1,1E0,2.17E2,3.28E2,6.6E1,1.97E2,1.5E1,4.8E1,9.2E1,1.1E1,8.2E1,2.01E2,1.6E1,1.42E2,1.86E2,6E1,6E0,5.2E1,1.45E2,7E0,8E0,6E0,4.2E1,4.6E1,4.6E1,8E0,3E0,6.6E1,1.6E1,1.96E2,5E0,3E0,1.3E1,3.4E1,1.08E2,1.3E2,5.6E1,7E0,5.3E1,1E0,5E0,1.6E1,3.6E1,8E0,1.37E2,4E0,4E0,3E0,3E0,1.8E1,2.8E1,3.6E1,1E1,7E0,1E0,2E0,1E0,6.1E1,5E0,1E1,6E0,8.8E1,1.08E2,1E0,4E0,2E0,1E0,8E0,5E0,1.4E1,2E1,1.7E1,9.1E1,9.1E1,3.9E1,5E0,5.1E1,2E0,5E0,4.6E1,7E0,2E0,3E0,2E0,1.4E1,1.7E1,1.9E1,2E0,6E0,3E0,1.34E2,3E0,1E0,1E0,3E0],"tree_param":{"num_deleted":"0","num_feature":"26","num_nodes":"103","size_leaf_vector":"1"}},{"base_weights":[4.1577317E-2,-1.3397974E0,1.3064661E0,-2.128006E0,-7.303236E-1,7.0648974E-1,2.1824203E0,-2.3706198E0,-1.7779553E0,6.208315E-1,-7.772986E-1,4.7649857E-1,2.9488528E0,1.9642605E0,3.8871381E0,-1.871759E0,-2.4756174E-1,-2.0188298E0,-1.0380232E0,-1.4694103E0,-5.3252983E-1,3.2026207E-1,2.7321432E0,2.0722136E0,1.6179763E0,1.75033E0,3.5915987E0,6.1790786E0,2.0933685E0,-3.1087217E-1,-1.4244479E0,-2.4897165E0,-1.4579253E0,-1.4728458E0,-2.2850499E-1,-2.3516812E0,-1.1787434E0,-9.9883556E-1,-2.4866098E-1,7.5484574E-1,-9.4588585E-2,5.839381E0,8.411578E-1,2.1986683E-1,3.8767133E0,1.9881469E0,-1.0622181E-1,7.642085E0,1.1852329E0,8.4881765E-1,3.9625832E-1,8.1907195E-1,5.3679156E-1,-3.3353955E-2,-1.7382605E-1,-9.168923E-2,-2.6545417E-1,1.5568078E-2,-1.5667658E-1,-2.0638911E-1,-4.0380295E-2,1.9195069E-3,-1.2789027E-1,-8.9215E-2,-2.4801421E-1,-2.112624E-2,-1.4864986E-1,-1.9221972E-1,-4.5224097E-2,1.5729189E-1,-4.2808495E-2,-7.475114E-2,1.0365589E-1,-1.20713584E-1,2.7621036E-2,2.3078369E-1,6.7704314E-1,2.2822101E-1,-1.9009678E-1,9.9301234E-2,-9.5483474E-2,-2.9477844E-2,5.49037E-1,1.6264884E-1,3.8286442E-1,-1.6589974E-1,1.4471194E-1,8.3013487E-1,1.4636214E-1,-1.2834005E-1,2.2086814E-1,2.158753E-1,-4.319505E-2],"categories":[],"categories_nodes":[],"categories_segments":[],"categories_sizes":[],"default_left":[0,0,0,0,0,0,0,0,0,0,0,0,0,0,0,0,0,0,0,0,0,0,0,0,0,0,0,0,0,0,0,0,0,0,0,0,0,0,0,0,0,0,0,0,0,0,0,0,0,0,0,0,0,0,0,0,0,0,0,0,0,0,0,0,0,0,0,0,0,0,0,0,0,0,0,0,0,0,0,0,0,0,0,0,0,0,0,0,0,0,0,0,0],"id":16,"left_children":[1,3,5,7,9,11,13,15,17,-1,19,21,23,25,27,29,-1,31,33,35,37,39,41,-1,43,45,47,49,51,-1,53,55,57,59,61,63,65,67,69,71,73,75,77,79,81,83,85,87,89,-1,-1,91,-1,-1,-1,-1,-1,-1,-1,-1,-1,-1,-1,-1,-1,-1,-1,-1,-1,-1,-1,-1,-1,-1,-1,-1,-1,-1,-1,-1,-1,-1,-1,-1,-1,-1,-1,-1,-1,-1,-1,-1,-1],"loss_changes":[1.8241658E3,2.3787592E2,2.8459497E2,1.3799438E1,9.652437E1,1.6586253E2,7.396973E1,1.4788818E0,1.4174194E1,0E0,4.679019E1,1.031343E2,6.738594E2,6.2110535E1,8.490677E1,9.504456E0,0E0,1.419986E1,8.29323E0,1.5595566E1,2.7424519E1,5.02573E1,1.0605919E2,0E0,9.031887E1,7.854828E1,2.0449258E2,1.6300873E1,5.7575752E1,0E0,6.402199E0,6.541626E0,6.3562927E0,9.029472E0,2.7523553E0,6.374817E-1,1.6487778E1,3.8764908E1,4.370109E1,5.8363525E1,5.941849E1,6.4834595E0,5.5746635E1,1.8208069E1,7.618291E1,9.7731384E1,5.3073746E1,1.945932E1,4.0824936E1,0E0,0E0,2.1216805E1,0E0,0E0,0E0,0E0,0E0,0E0,0E0,0E0,0E0,0E0,0E0,0E0,0E0,0E0,0E0,0E0,0E0,0E0,0E0,0E0,0E0,0E0,0E0,0E0,0E0,0E0,0E0,0E0,0E0,0E0,0E0,0E0,0E0,0E0,0E0,0E0,0E0,0E0,0E0,0E0,0E0],"parents":[2147483647,0,0,1,1,2,2,3,3,4,4,5,5,6,6,7,7,8,8,10,10,11,11,12,12,13,13,14,14,15,15,17,17,18,18,19,19,20,20,21,21,22,22,24,24,25,25,26,26,27,27,28,28,30,30,31,31,32,32,33,33,34,34,35,35,36,36,37,37,38,38,39,39,40,40,41,41,42,42,43,43,44,44,45,45,46,46,47,47,48,48,51,51],"right_children":[2,4,6,8,10,12,14,16,18,-1,20,22,24,26,28,30,-1,32,34,36,38,40,42,-1,44,46,48,50,52,-1,54,56,58,60,62,64,66,68,70,72,74,76,78,80,82,84,86,88,90,-1,-1,92,-1,-1,-1,-1,-1,-1,-1,-1,-1,-1,-1,-1,-1,-1,-1,-1,-1,-1,-1,-1,-1,-1,-1,-1,-1,-1,-1,-1,-1,-1,-1,-1,-1,-1,-1,-1,-1,-1,-1,-1,-1],"split_conditions":[2.8231343E3,1.3080085E3,4.1118276E3,8.7464966E2,1.3932193E2,1.7E1,4.9179487E3,7.027959E0,8.586956E-1,6.208315E-1,1.816115E3,1.4240507E0,2E0,1.2676767E0,6.837607E-1,2.6798308E-1,-2.4756174E-1,1.0554931E1,1.8854951E2,3.5460994E-1,4.268E0,7.669066E0,2.182234E0,2.0722136E0,3.7786797E3,9.809886E-1,7.2816763E0,1.08793955E1,1.4859438E0,-3.1087217E-1,3.5526314E-1,6.4261513E0,3.5271317E-1,5.7322836E0,1.338983E0,5.3589743E-1,6.4309134E0,1.0401607E1,5.219941E0,4.0356082E-1,1.7170347E1,6.6087356E0,1.5201613E0,3.4799272E3,1.37290325E1,8.526786E-1,2.3855516E1,2.9326315E0,1.155E1,8.4881765E-1,3.9625832E-1,5.435586E2,5.3679156E-1,-3.3353955E-2,-1.7382605E-1,-9.168923E-2,-2.6545417E-1,1.5568078E-2,-1.5667658E-1,-2.0638911E-1,-4.0380295E-2,1.9195069E-3,-1.2789027E-1,-8.9215E-2,-2.4801421E-1,-2.112624E-2,-1.4864986E-1,-1.9221972E-1,-4.5224097E-2,1.5729189E-1,-4.2808495E-2,-7.475114E-2,1.0365589E-1,-1.20713584E-1,2.7621036E-2,2.3078369E-1,6.7704314E-1,2.2822101E-1,-1.9009678E-1,9.9301234E-2,-9.5483474E-2,-2.9477844E-2,5.49037E-1,1.6264884E-1,3.8286442E-1,-1.6589974E-1,1.4471194E-1,8.3013487E-1,1.4636214E-1,-1.2834005E-1,2.2086814E-1,2.158753E-1,-4.319505E-2],"split_indices":[8,8,8,8,9,1,8,10,2,0,8,2,7,2,2,2,0,12,9,2,11,10,11,0,8,2,10,12,2,0,2,10,2,21,2,11,13,12,11,2,17,10,2,8,21,2,24,11,12,0,0,9,0,0,0,0,0,0,0,0,0,0,0,0,0,0,0,0,0,0,0,0,0,0,0,0,0,0,0,0,0,0,0,0,0,0,0,0,0,0,0,0,0],"split_type":[0,0,0,0,0,0,0,0,0,0,0,0,0,0,0,0,0,0,0,0,0,0,0,0,0,0,0,0,0,0,0,0,0,0,0,0,0,0,0,0,0,0,0,0,0,0,0,0,0,0,0,0,0,0,0,0,0,0,0,0,0,0,0,0,0,0,0,0,0,0,0,0,0,0,0,0,0,0,0,0,0,0,0,0,0,0,0,0,0,0,0,0,0],"sum_hessian":[1.042E3,4.98E2,5.44E2,2.16E2,2.82E2,3.24E2,2.2E2,1.24E2,9.2E1,1E0,2.81E2,2.95E2,2.9E1,1.97E2,2.3E1,2.5E1,9.9E1,6.8E1,2.4E1,7.2E1,2.09E2,2.77E2,1.8E1,1E0,2.8E1,1.76E2,2.1E1,9E0,1.4E1,5E0,2E1,3.5E1,3.3E1,1.5E1,9E0,1.6E1,5.6E1,7.8E1,1.31E2,1.35E2,1.42E2,6E0,1.2E1,1.8E1,1E1,1.56E2,2E1,7E0,1.4E1,3E0,6E0,1.1E1,3E0,5E0,1.5E1,4E0,3.1E1,2E0,3.1E1,9E0,6E0,8E0,1E0,2E0,1.4E1,1.4E1,4.2E1,2.8E1,5E1,1.1E1,1.2E2,2.1E1,1.14E2,3.5E1,1.07E2,2E0,4E0,8E0,4E0,1.1E1,7E0,3E0,7E0,1.32E2,2.4E1,1E1,1E1,6E0,1E0,4E0,1E1,5E0,6E0],"tree_param":{"num_deleted":"0","num_feature":"26","num_nodes":"93","size_leaf_vector":"1"}},{"base_weights":[3.203299E-2,-1.1572766E0,1.1450896E0,-1.9660114E0,-6.15781E-1,3.471301E-1,1.6596401E0,-2.7175326E0,-1.7537802E0,-8.896862E-1,-2.1537365E-2,1.8168421E-1,2.3872578E0,1.4614091E0,3.4630678E0,-1.0954455E0,-2.899506E0,-1.7686801E0,2.7254457E-2,-2.4741673E0,-7.806562E-1,-1.3865224E0,3.016658E-1,3.7560883E-1,-1.4844166E0,9.808562E-1,4.0410805E0,-8.111166E-1,1.6096948E0,-3.539017E-2,3.9676826E0,-2.5035915E-1,-1.8237454E-1,-3.2895905E-1,-2.1512909E-1,-4.784827E-1,-1.7978668E0,-6.1804123E-2,-2.5690076E-1,1.2818319E0,-8.977132E-1,5.851631E-3,-1.764879E0,7.632057E-1,-1.0266228E0,1.0568106E0,-1.6668575E-1,-1.6027344E0,3.909704E-2,-7.6668966E-1,2.90174E-1,-3.9515134E-2,4.8629775E0,-1.5220264E0,2.2103019E0,-8.350772E-1,1.7700578E0,-7.379616E-2,6.456446E-2,2.6728635E0,6.393094E0,-3.1929668E-2,-0E0,-1.2832388E-2,-8.89559E-2,-1.8778098E-1,-1.151367E-1,-7.6749496E-2,7.035869E-1,-1.0088616E-1,6.684275E-2,5.091569E-2,-2.2226391E-2,9.896605E-2,-2.0394647E-1,7.1512735E-3,1.7247154E-1,-1.263025E-1,1.80071E-1,2.8912747E-1,5.51456E-2,-1.4039229E-1,3.0235922E-2,-6.116448E-2,-1.8856548E-1,3.3605203E-2,-2.0147823E-1,1.3227724E-1,5.286464E-1,1.5548727E-1,-2.3593779E-1,3.1705495E-2,2.702366E-1,6.219536E-2,-2.0728973E-1,4.2970562E-1,1.4885078E-1,-0E0,3.5584316E-1,2.7301997E-2,7.111476E-1],"categories":[],"categories_nodes":[],"categories_segments":[],"categories_sizes":[],"default_left":[0,0,0,0,0,0,0,0,0,0,0,0,0,0,0,0,0,0,0,0,0,0,0,0,0,0,0,0,0,0,0,0,0,0,0,0,0,0,0,0,0,0,0,0,0,0,0,0,0,0,0,0,0,0,0,0,0,0,0,0,0,0,0,0,0,0,0,0,0,0,0,0,0,0,0,0,0,0,0,0,0,0,0,0,0,0,0,0,0,0,0,0,0,0,0,0,0,0,0,0,0],"id":17,"left_children":[1,3,5,7,9,11,13,15,17,19,21,23,25,27,29,31,33,35,-1,37,39,41,43,45,47,49,51,53,55,57,59,61,-1,-1,-1,63,65,-1,-1,67,69,71,73,75,77,79,81,83,-1,85,-1,-1,87,89,91,93,95,-1,-1,97,99,-1,-1,-1,-1,-1,-1,-1,-1,-1,-1,-1,-1,-1,-1,-1,-1,-1,-1,-1,-1,-1,-1,-1,-1,-1,-1,-1,-1,-1,-1,-1,-1,-1,-1,-1,-1,-1,-1,-1,-1],"loss_changes":[1.3965764E3,2.218736E2,2.2299506E2,2.7324158E1,4.9859016E1,7.187848E1,1.1277765E2,9.116852E0,5.522766E0,3.402179E1,4.3761166E1,6.506628E1,3.2749115E1,1.0248041E2,5.7025635E1,3.0288563E0,3.4700012E0,4.974762E0,0E0,3.8200378E-1,4.891517E1,1.0195694E1,4.9801838E1,6.675934E1,5.4075317E0,3.600656E1,2.7891273E1,4.410648E1,1.12130066E2,2.8780706E0,6.993863E1,5.513221E-2,0E0,0E0,0E0,5.037701E-1,5.6492615E0,0E0,0E0,1.3573775E2,3.343431E1,7.159153E-1,1.3468712E1,3.9601208E1,1.625671E1,7.222569E1,5.914695E1,4.204899E0,0E0,9.102886E0,0E0,0E0,1.3416748E0,4.4972122E1,2.5676556E0,3.3898094E1,1.8156647E2,0E0,0E0,4.705252E1,3.6888916E1,0E0,0E0,0E0,0E0,0E0,0E0,0E0,0E0,0E0,0E0,0E0,0E0,0E0,0E0,0E0,0E0,0E0,0E0,0E0,0E0,0E0,0E0,0E0,0E0,0E0,0E0,0E0,0E0,0E0,0E0,0E0,0E0,0E0,0E0,0E0,0E0,0E0,0E0,0E0,0E0],"parents":[2147483647,0,0,1,1,2,2,3,3,4,4,5,5,6,6,7,7,8,8,9,9,10,10,11,11,12,12,13,13,14,14,15,15,16,16,17,17,19,19,20,20,21,21,22,22,23,23,24,24,25,25,26,26,27,27,28,28,29,29,30,30,31,31,35,35,36,36,39,39,40,40,41,41,42,42,43,43,44,44,45,45,46,46,47,47,49,49,52,52,53,53,54,54,55,55,56,56,59,59,60,60],"right_children":[2,4,6,8,10,12,14,16,18,20,22,24,26,28,30,32,34,36,-1,38,40,42,44,46,48,50,52,54,56,58,60,62,-1,-1,-1,64,66,-1,-1,68,70,72,74,76,78,80,82,84,-1,86,-1,-1,88,90,92,94,96,-1,-1,98,100,-1,-1,-1,-1,-1,-1,-1,-1,-1,-1,-1,-1,-1,-1,-1,-1,-1,-1,-1,-1,-1,-1,-1,-1,-1,-1,-1,-1,-1,-1,-1,-1,-1,-1,-1,-1,-1,-1,-1,-1],"split_conditions":[2.843993E3,1.2463447E3,