{"learner":{"attributes":{"best_iteration":"90","best_score":"16.291278935786398"},"feature_names":["skeleton_length","index","scale_ratio","intersection3","intersection4","intersection5","intersection6","endpoint","Area","Peri","distance_average","distance_min","distance_max","zunguri","area_per_skeleton","peri_per_skeleton","area_per_peri","estimated_width","estimated_columns","estimated_pitch","scaling_factor","theoretical_led_count","branch_correction_factor","corrected_skeleton_length","branch_adjusted_led","final_skeleton_length"],"feature_types":["float","float","float","float","float","float","float","float","float","float","float","float","float","float","float","float","float","float","int","float","float","float","float","float","float","float"],"gradient_booster":{"model":{"gbtree_model_param":{"num_parallel_tree":"1","num_trees":"111"},"iteration_indptr":[0,1,2,3,4,5,6,7,8,9,10,11,12,13,14,15,16,17,18,19,20,21,22,23,24,25,26,27,28,29,30,31,32,33,34,35,36,37,38,39,40,41,42,43,44,45,46,47,48,49,50,51,52,53,54,55,56,57,58,59,60,61,62,63,64,65,66,67,68,69,70,71,72,73,74,75,76,77,78,79,80,81,82,83,84,85,86,87,88,89,90,91,92,93,94,95,96,97,98,99,100,101,102,103,104,105,106,107,108,109,110,111],"tree_info":[0,0,0,0,0,0,0,0,0,0,0,0,0,0,0,0,0,0,0,0,0,0,0,0,0,0,0,0,0,0,0,0,0,0,0,0,0,0,0,0,0,0,0,0,0,0,0,0,0,0,0,0,0,0,0,0,0,0,0,0,0,0,0,0,0,0,0,0,0,0,0,0,0,0,0,0,0,0,0,0,0,0,0,0,0,0,0,0,0,0,0,0,0,0,0,0,0,0,0,0,0,0,0,0,0,0,0,0,0,0,0],"trees":[{"base_weights":[1.5545276E2,1.3730554E2,2.0103502E2,1.301653E2,1.6380345E2,7.85336E0,2.1139514E2,1.24708305E2,7.2593813E0,7.5946345E0,9.842036E0,1.0743446E1,6.6628456E0,6.024381E0,1.3557932E2,5.935241E0,7.2345276E0],"categories":[],"categories_nodes":[],"categories_segments":[],"categories_sizes":[],"default_left":[0,0,0,0,0,0,0,0,0,0,0,0,0,0,0,0,0],"id":0,"left_children":[1,3,5,7,9,-1,11,13,-1,-1,-1,-1,-1,-1,15,-1,-1],"loss_changes":[8.52706E5,1.2322E5,1.03755E5,3.1576E4,3.232E4,0E0,3.658E4,4.3445E3,0E0,0E0,0E0,0E0,0E0,0E0,9.67E2,0E0,0E0],"parents":[2147483647,0,0,1,1,2,2,3,3,4,4,6,6,7,7,14,14],"right_children":[2,4,6,8,10,-1,12,14,-1,-1,-1,-1,-1,-1,16,-1,-1],"split_conditions":[2.9633538E3,1.8605402E2,1.0716923E2,1.2690791E3,1.4275078E1,7.85336E0,3.3249475E2,2.311194E1,7.2593813E0,7.5946345E0,9.842036E0,1.0743446E1,6.6628456E0,6.024381E0,1.6394292E3,5.935241E0,7.2345276E0],"split_indices":[9,21,21,25,10,0,21,12,0,0,0,0,0,0,9,0,0],"split_type":[0,0,0,0,0,0,0,0,0,0,0,0,0,0,0,0,0],"sum_hessian":[1.0633375E3,7.634225E2,2.99915E2,6.0604004E2,1.5738245E2,6.0279926E1,2.396351E2,4.5139008E2,1.5464993E2,1.1979866E2,3.7583786E1,2.2775606E2,1.1879032E1,3.338739E2,1.1751619E2,4.6134266E1,7.138193E1],"tree_param":{"num_deleted":"0","num_feature":"26","num_nodes":"17","size_leaf_vector":"1"}},{"base_weights":[1.4777045E2,1.2882173E2,1.9127435E2,1.2244549E2,1.592799E2,1.5135822E2,2.001989E2,1.1757842E2,6.951407E0,5.7060466E0,1.630091E2,7.949669E0,5.4610023E0,1.0163478E1,6.3555713E0,3.4979973E0,1.1853321E2,7.18995E0,8.768762E0,5.693914E0,1.2721827E2,5.576212E0,6.7737617E0],"categories":[],"categories_nodes":[],"categories_segments":[],"categories_sizes":[],"default_left":[0,0,0,0,0,0,0,0,0,0,0,0,0,0,0,0,0,0,0,0,0,0,0],"id":1,"left_children":[1,3,5,7,9,11,13,15,-1,-1,17,-1,-1,-1,-1,-1,19,-1,-1,-1,21,-1,-1],"loss_changes":[8.32704E5,1.21723E5,8.128E4,3.2486E4,1.965E3,2.306875E3,3.0872E4,1.32465E4,0E0,0E0,1.037E3,0E0,0E0,0E0,0E0,0E0,4.2075E3,0E0,0E0,0E0,4.6985E3,0E0,0E0],"parents":[2147483647,0,0,1,1,2,2,3,3,4,4,5,5,6,6,7,7,10,10,16,16,20,20],"right_children":[2,4,6,8,10,12,14,16,-1,-1,18,-1,-1,-1,-1,-1,20,-1,-1,-1,22,-1,-1],"split_conditions":[2.9633538E3,1.8605402E2,1.0716923E2,2.5945803E3,2.4728518E4,1.2E1,3.3249475E2,2.0477902E4,6.951407E0,5.7060466E0,5E0,7.949669E0,5.4610023E0,1.0163478E1,6.3555713E0,3.4979973E0,2.2392042E1,7.18995E0,8.768762E0,5.693914E0,7.79667E-1,5.576212E0,6.7737617E0],"split_indices":[9,21,21,9,8,1,21,8,0,0,7,0,0,0,0,0,12,0,0,0,11,0,0],"split_type":[0,0,0,0,0,0,0,0,0,0,0,0,0,0,0,0,0,0,0,0,0,0,0],"sum_hessian":[1.0391478E3,7.266246E2,3.1252322E2,6.0500116E2,1.2162346E2,6.0394543E1,2.5212868E2,4.739916E2,1.3100952E2,1.1694166E1,1.0992929E2,4.8776337E1,1.1618207E1,2.4024965E2,1.1879032E1,1.0783234E1,4.6320837E2,4.8006516E1,6.1922775E1,3.1078384E2,1.5242453E2,5.7561096E1,9.4863434E1],"tree_param":{"num_deleted":"0","num_feature":"26","num_nodes":"23","size_leaf_vector":"1"}},{"base_weights":[1.4019858E2,1.210537E2,1.8125627E2,1.1332294E2,6.9216113E0,1.6984302E2,1.0146647E1,3.337941E0,1.1425788E2,7.9328437E0,9.648799E0,3.933638E0,1.1495434E2,6.1330824E0,1.10151146E2,7.043949E0,5.4148097E0],"categories":[],"categories_nodes":[],"categories_segments":[],"categories_sizes":[],"default_left":[0,0,0,0,0,0,0,0,0,0,0,0,0,0,0,0,0],"id":2,"left_children":[1,3,5,7,-1,9,-1,-1,11,-1,-1,-1,13,-1,15,-1,-1],"loss_changes":[7.58148E5,7.5584E4,4.3011E4,1.30455E4,0E0,2.40295E4,0E0,0E0,2.43E3,0E0,0E0,0E0,3.2345E3,0E0,1.1785E3,0E0,0E0],"parents":[2147483647,0,0,1,1,2,2,3,3,5,5,8,8,12,12,14,14],"right_children":[2,4,6,8,-1,10,-1,-1,12,-1,-1,-1,14,-1,16,-1,-1],"split_conditions":[2.918617E4,1.2813182E3,3.8355525E3,2.0477902E4,6.9216113E0,3.860042E4,1.0146647E1,3.337941E0,9.206578E0,7.9328437E0,9.648799E0,3.933638E0,2.6288485E1,6.1330824E0,4.2535213E-1,7.043949E0,5.4148097E0],"split_indices":[8,23,9,8,0,8,0,0,12,0,0,0,14,0,2,0,0],"split_type":[0,0,0,0,0,0,0,0,0,0,0,0,0,0,0,0,0],"sum_hessian":[9.9153894E2,6.7891986E2,3.1261908E2,4.751079E2,2.0381195E2,2.1058865E2,1.0203042E2,1.0783234E1,4.6432468E2,1.4725415E2,6.3334515E1,1.11089325E1,4.5321576E2,1.6455968E2,2.8865607E2,1.2157263E1,2.764988E2],"tree_param":{"num_deleted":"0","num_feature":"26","num_nodes":"17","size_leaf_vector":"1"}},{"base_weights":[1.3284358E2,1.1708559E2,1.7219193E2,1.10327065E2,1.4311102E2,1.3280666E2,1.7952669E2,1.0552025E2,6.031679E0,6.4119515E0,7.781652E0,7.051454E0,4.8909383E0,9.12192E0,5.6966214E0,5.325037E0,3.1852076E0],"categories":[],"categories_nodes":[],"categories_segments":[],"categories_sizes":[],"default_left":[0,0,0,0,0,0,0,0,0,0,0,0,0,0,0,0,0],"id":3,"left_children":[1,3,5,7,9,11,13,15,-1,-1,-1,-1,-1,-1,-1,-1,-1],"loss_changes":[6.09676E5,1.1228E5,5.9371E4,1.6072E4,7.29825E3,2.649375E2,2.50125E4,9.7855E3,0E0,0E0,0E0,0E0,0E0,0E0,0E0,0E0,0E0],"parents":[2147483647,0,0,1,1,2,2,3,3,4,4,5,5,6,6,7,7],"right_children":[2,4,6,8,10,12,14,16,-1,-1,-1,-1,-1,-1,-1,-1,-1],"split_conditions":[2.9633538E3,1.8605402E2,1.0716923E2,1.35E1,5E0,1.2E1,3.3249475E2,1.8829515E3,6.031679E0,6.4119515E0,7.781652E0,7.051454E0,4.8909383E0,9.12192E0,5.6966214E0,5.325037E0,3.1852076E0],"split_indices":[9,21,21,19,7,1,21,9,0,0,0,0,0,0,0,0,0],"split_type":[0,0,0,0,0,0,0,0,0,0,0,0,0,0,0,0,0],"sum_hessian":[1.01491925E3,7.2754095E2,2.8737827E2,5.817243E2,1.4581665E2,4.8122665E1,2.3925562E2,4.0438974E2,1.773346E2,7.180325E1,7.401338E1,3.6504456E1,1.1618207E1,2.2737657E2,1.1879032E1,3.936065E2,1.0783234E1],"tree_param":{"num_deleted":"0","num_feature":"26","num_nodes":"17","size_leaf_vector":"1"}},{"base_weights":[1.280939E2,1.12734314E2,1.6718614E2,7.723184E0,1.0967781E2,1.5483253E2,9.2841E0,1.01968216E2,1.1791381E2,6.3035836E0,8.19669E0,1.02996666E2,3.039463E0,3.4765213E0,1.1931317E2,4.9098296E0,1.1011139E2,5.770977E0,6.5751657E0,4.8168387E0,6.095301E0],"categories":[],"categories_nodes":[],"categories_segments":[],"categories_sizes":[],"default_left":[0,0,0,0,0,0,0,0,0,0,0,0,0,0,0,0,0,0,0,0,0],"id":4,"left_children":[1,3,5,-1,7,9,-1,11,13,-1,-1,15,-1,-1,17,-1,19,-1,-1,-1,-1],"loss_changes":[6.28362E5,8.2085E4,4.0155E4,0E0,3.41E4,2.8221E4,0E0,9.916E3,1.50265E4,0E0,0E0,1.84175E3,0E0,0E0,6.1E2,0E0,1.121925E4,0E0,0E0,0E0,0E0],"parents":[2147483647,0,0,1,1,2,2,4,4,5,5,7,7,8,8,11,11,14,14,16,16],"right_children":[2,4,6,-1,8,10,-1,12,14,-1,-1,16,-1,-1,18,-1,20,-1,-1,-1,-1],"split_conditions":[3.08201E4,8.058566E0,1.9948296E3,7.723184E0,9.9303345E2,4E0,9.2841E0,9.225912E2,9.206578E0,6.3035836E0,8.19669E0,2.5478924E1,3.039463E0,3.4765213E0,2.747788E4,4.9098296E0,8.518519E-1,5.770977E0,6.5751657E0,4.8168387E0,6.095301E0],"split_indices":[8,13,25,0,23,7,0,0,12,0,0,12,0,0,8,0,11,0,0,0,0],"split_type":[0,0,0,0,0,0,0,0,0,0,0,0,0,0,0,0,0,0,0,0,0],"sum_hessian":[1.0770311E3,7.7601953E2,3.010116E2,4.9573616E1,7.2644586E2,1.8610043E2,1.1491117E2,3.8214395E2,3.4430194E2,4.8312664E1,1.3778777E2,3.7136072E2,1.0783234E1,1.11089325E1,3.3319302E2,2.3061586E2,1.4074484E2,2.6048486E2,7.270816E1,6.916376E1,7.158109E1],"tree_param":{"num_deleted":"0","num_feature":"26","num_nodes":"21","size_leaf_vector":"1"}},{"base_weights":[1.19455315E2,1.0513043E2,1.5073819E2,9.969492E1,1.1937184E2,1.3956259E2,1.7344395E2,9.6364555E1,5.5087605E0,1.2283467E2,4.5093856E0,6.0066533E0,1.5056087E2,9.134065E0,6.9445434E0,2.9003875E0,9.726347E1,5.7979465E0,1.3693405E2,7.7065086E0,5.2266746E0,4.899212E0,3.3170502E0,5.065032E0,7.265785E0],"categories":[],"categories_nodes":[],"categories_segments":[],"categories_sizes":[],"default_left":[0,0,0,0,0,0,0,0,0,0,0,0,0,0,0,0,0,0,0,0,0,0,0,0,0],"id":5,"left_children":[1,3,5,7,9,11,13,15,-1,17,-1,-1,19,-1,-1,-1,21,-1,23,-1,-1,-1,-1,-1,-1],"loss_changes":[4.49899E5,4.3483E4,5.79615E4,7.6285E3,8.34125E3,2.9352E4,7.343E3,8.3115E3,0E0,4.845E2,0E0,0E0,6.489E3,0E0,0E0,0E0,2.25975E3,0E0,1.51625E2,0E0,0E0,0E0,0E0,0E0,0E0],"parents":[2147483647,0,0,1,1,2,2,3,3,4,4,5,5,6,6,7,7,9,9,12,12,16,16,18,18],"right_children":[2,4,6,8,10,12,14,16,-1,18,-1,-1,20,-1,-1,-1,22,-1,24,-1,-1,-1,-1,-1,-1],"split_conditions":[2.772264E4,2.5945803E3,8E-1,8.333333E-1,1E0,1.1449925E0,3.1972623E2,2.0477902E4,5.5087605E0,1.0371951E2,4.5093856E0,6.0066533E0,1.2E1,9.134065E0,6.9445434E0,2.9003875E0,1.2447836E3,5.7979465E0,1.1885537E3,7.7065086E0,5.2266746E0,4.899212E0,3.3170502E0,5.065032E0,7.265785E0],"split_indices":[8,9,22,22,4,2,21,8,0,21,0,0,1,0,0,0,0,0,0,0,0,0,0,0,0],"split_type":[0,0,0,0,0,0,0,0,0,0,0,0,0,0,0,0,0,0,0,0,0,0,0,0,0],"sum_hessian":[1.0384962E3,7.153139E2,3.2318237E2,5.235228E2,1.9179108E2,2.2138042E2,1.0180196E2,4.0503607E2,1.1848674E2,1.685702E2,2.3220867E1,8.4338455E1,1.3704196E2,7.693792E1,2.4864044E1,1.0783234E1,3.9425284E2,1.1952705E2,4.904316E1,1.2499384E2,1.2048119E1,3.831439E2,1.11089325E1,1.1837875E1,3.7205284E1],"tree_param":{"num_deleted":"0","num_feature":"26","num_nodes":"25","size_leaf_vector":"1"}},{"base_weights":[1.1694139E2,1.0203196E2,1.5404417E2,9.3885284E1,1.1806913E2,6.4268594E0,1.6031638E2,9.180789E1,6.3986354E0,1.10831024E2,6.848778E0,8.250415E0,5.8000293E0,3.7667167E0,9.38985E1,5.6987243E0,4.293226E0,9.459476E1,3.164894E0,4.9298778E0,4.445398E0],"categories":[],"categories_nodes":[],"categories_segments":[],"categories_sizes":[],"default_left":[0,0,0,0,0,0,0,0,0,0,0,0,0,0,0,0,0,0,0,0,0],"id":6,"left_children":[1,3,5,7,9,-1,11,13,-1,15,-1,-1,-1,-1,17,-1,-1,19,-1,-1,-1],"loss_changes":[5.47917E5,8.4212E4,2.5725E4,2.28065E4,1.78585E4,0E0,2.83535E4,8.8685E3,0E0,4.29925E3,0E0,0E0,0E0,0E0,2.658E3,0E0,0E0,2.1225E2,0E0,0E0,0E0],"parents":[2147483647,0,0,1,1,2,2,3,3,4,4,6,6,7,7,9,9,14,14,17,17],"right_children":[2,4,6,8,10,-1,12,14,-1,16,-1,-1,-1,-1,18,-1,-1,20,-1,-1,-1],"split_conditions":[3.08201E4,1.2813182E3,1.3069348E3,1.4861278E1,3.0448875E3,6.4268594E0,3.1972623E2,2.1282027E4,6.3986354E0,1.4598632E3,6.848778E0,8.250415E0,5.8000293E0,3.7667167E0,1.2600707E3,5.6987243E0,4.293226E0,1.4088861E1,3.164894E0,4.9298778E0,4.445398E0],"split_indices":[8,23,0,13,9,0,21,8,0,0,0,0,0,0,0,0,0,13,0,0,0],"split_type":[0,0,0,0,0,0,0,0,0,0,0,0,0,0,0,0,0,0,0,0,0],"sum_hessian":[1.018036E3,7.288942E2,2.8914175E2,4.879135E2,2.4098073E2,6.1318916E1,2.2782285E2,4.6337604E2,2.453749E1,1.7923906E2,6.174167E1,2.035426E2,2.428024E1,5.637007E1,4.0700595E2,1.5601819E2,2.3220867E1,3.9589703E2,1.11089325E1,2.2273134E2,1.7316568E2],"tree_param":{"num_deleted":"0","num_feature":"26","num_nodes":"21","size_leaf_vector":"1"}},{"base_weights":[1.0604692E2,9.6113434E1,1.3806111E2,9.0429955E1,1.1574373E2,1.2144167E2,1.5150356E2,8.5306786E1,4.97115E0,4.9387465E0,1.21499695E2,6.450822E0,4.479886E0,7.8415422E0,4.5987024E0,2.5953228E0,8.6111305E1,5.2484694E0,6.531723E0,3.9581337E0,4.538272E0],"categories":[],"categories_nodes":[],"categories_segments":[],"categories_sizes":[],"default_left":[0,0,0,0,0,0,0,0,0,0,0,0,0,0,0,0,0,0,0,0,0],"id":7,"left_children":[1,3,5,7,9,11,13,15,-1,-1,17,-1,-1,-1,-1,-1,19,-1,-1,-1,-1],"loss_changes":[3.08813E5,7.60955E4,3.45985E4,1.9415E4,4.60925E3,1.5219375E4,2.58715E4,6.0645E3,0E0,0E0,4.81E3,0E0,0E0,0E0,0E0,0E0,5.14275E3,0E0,0E0,0E0,0E0],"parents":[2147483647,0,0,1,1,2,2,3,3,4,4,5,5,6,6,7,7,10,10,16,16],"right_children":[2,4,6,8,10,12,14,16,-1,-1,18,-1,-1,-1,-1,-1,20,-1,-1,-1,-1],"split_conditions":[2.9633538E3,1.8605402E2,1.4295145E2,1.35E1,1.8414357E0,1.2E1,2.039974E0,2.0477902E4,4.97115E0,4.9387465E0,3E0,6.450822E0,4.479886E0,7.8415422E0,4.5987024E0,2.5953228E0,1.708163E2,5.2484694E0,6.531723E0,3.9581337E0,4.538272E0],"split_indices":[9,21,24,19,15,1,15,8,0,0,3,0,0,0,0,0,24,0,0,0,0],"split_type":[0,0,0,0,0,0,0,0,0,0,0,0,0,0,0,0,0,0,0,0,0],"sum_hessian":[1.0120155E3,7.754252E2,2.3659032E2,6.0568536E2,1.6973984E2,1.1029041E2,1.26299904E2,3.925666E2,2.1311876E2,4.7606583E1,1.22133255E2,8.6624084E1,2.3666325E1,1.1442087E2,1.1879032E1,1.0783234E1,3.8178336E2,4.792749E1,7.4205765E1,1.6039183E2,2.2139154E2],"tree_param":{"num_deleted":"0","num_feature":"26","num_nodes":"21","size_leaf_vector":"1"}},{"base_weights":[1.0406457E2,9.0628845E1,1.3348615E2,8.182412E1,1.0187448E2,1.1905169E2,7.5131125E0,7.682118E1,8.918517E1,4.8226476E0,5.85113E0,6.7574153E0,1.05255486E2,2.4765697E0,3.8939633E0,3.943054E0,4.981609E0,5.6701446E0,4.424957E0],"categories":[],"categories_nodes":[],"categories_segments":[],"categories_sizes":[],"default_left":[0,0,0,0,0,0,0,0,0,0,0,0,0,0,0,0,0,0,0],"id":8,"left_children":[1,3,5,7,9,11,-1,13,15,-1,-1,-1,17,-1,-1,-1,-1,-1,-1],"loss_changes":[3.85301E5,6.02645E4,5.78475E4,7.60825E3,1.331825E4,2.414725E4,0E0,3.0865E3,8.611375E3,0E0,0E0,0E0,3.24825E3,0E0,0E0,0E0,0E0,0E0,0E0],"parents":[2147483647,0,0,1,1,2,2,3,3,4,4,5,5,7,7,8,8,12,12],"right_children":[2,4,6,8,10,12,-1,14,16,-1,-1,-1,18,-1,-1,-1,-1,-1,-1],"split_conditions":[2.9633538E3,1.9642991E3,1.997561E3,2.2392042E1,2.2639117E2,1.7927657E0,7.5131125E0,2.0477902E4,8.518519E-1,4.8226476E0,5.85113E0,6.7574153E0,1.3931896E1,2.4765697E0,3.8939633E0,3.943054E0,4.981609E0,5.6701446E0,4.424957E0],"split_indices":[9,9,23,12,21,11,0,8,11,0,0,0,12,0,0,0,0,0,0],"split_type":[0,0,0,0,0,0,0,0,0,0,0,0,0,0,0,0,0,0,0],"sum_hessian":[1.00447784E3,6.923832E2,3.1209464E2,3.9299347E2,2.993897E2,1.7211671E2,1.3997792E2,2.4080635E2,1.5218712E2,2.259199E2,7.3469826E1,7.5366066E1,9.675064E1,1.0783234E1,2.3002312E2,8.0857925E1,7.13292E1,6.1205284E1,3.5545357E1],"tree_param":{"num_deleted":"0","num_feature":"26","num_nodes":"19","size_leaf_vector":"1"}},{"base_weights":[9.9103485E1,8.5682785E1,1.2734117E2,8.133611E1,1.0318566E2,1.0050295E2,1.3463608E2,7.8702675E1,4.6590533E0,4.319282E0,1.0837664E2,5.3996525E0,4.059268E0,1.391007E2,5.273393E0,7.925769E1,2.5704684E0,4.445572E0,5.9011126E0,1.2106475E2,7.3895235E0,5.1764817E0,7.835306E1,4.1933455E0,6.3383164E0,3.5715764E0,4.0448313E0],"categories":[],"categories_nodes":[],"categories_segments":[],"categories_sizes":[],"default_left":[0,0,0,0,0,0,0,0,0,0,0,0,0,0,0,0,0,0,0,0,0,0,0,0,0,0,0],"id":9,"left_children":[1,3,5,7,9,11,13,15,-1,-1,17,-1,-1,19,-1,21,-1,-1,-1,23,-1,-1,25,-1,-1,-1,-1],"loss_changes":[3.74532E5,4.42445E4,5.0156E4,1.006875E4,2.26925E3,1.8180625E3,1.8216E4,2.9185E3,0E0,0E0,7.931125E3,0E0,0E0,1.593625E4,0E0,1.783E3,0E0,0E0,0E0,5.400625E3,0E0,0E0,1.939E3,0E0,0E0,0E0,0E0],"parents":[2147483647,0,0,1,1,2,2,3,3,4,4,5,5,6,6,7,7,10,10,13,13,15,15,19,19,22,22],"right_children":[2,4,6,8,10,12,14,16,-1,-1,18,-1,-1,20,-1,22,-1,-1,-1,24,-1,-1,26,-1,-1,-1,-1],"split_conditions":[2.9633538E3,1.7877081E2,1.0716923E2,2.5945803E3,1.8414357E0,6E0,3.1972623E2,1.2338269E3,4.6590533E0,4.319282E0,3E0,5.3996525E0,4.059268E0,1.4443388E2,5.273393E0,6.576923E2,2.5704684E0,4.445572E0,5.9011126E0,3.7853323E3,7.3895235E0,5.1764817E0,8.1760004E2,4.1933455E0,6.3383164E0,3.5715764E0,4.0448313E0],"split_indices":[9,21,21,9,15,1,21,0,0,0,3,0,0,24,0,0,0,0,0,9,0,0,23,0,0,0,0],"split_type":[0,0,0,0,0,0,0,0,0,0,0,0,0,0,0,0,0,0,0,0,0,0,0,0,0,0,0],"sum_hessian":[1.0162504E3,6.915962E2,3.2465424E2,5.585498E2,1.3304636E2,7.25518E1,2.5210242E2,4.6323105E2,9.531876E1,3.5583557E1,9.746281E1,4.896173E1,2.3590073E1,2.1535934E2,3.6743076E1,4.5212213E2,1.11089325E1,3.568931E1,6.17735E1,7.488962E1,1.4046973E2,1.2157263E1,4.3996484E2,1.2048119E1,6.2841496E1,1.2607937E2,3.138855E2],"tree_param":{"num_deleted":"0","num_feature":"26","num_nodes":"27","size_leaf_vector":"1"}},{"base_weights":[9.406796E1,8.011726E1,1.2088189E2,7.666567E1,9.532337E1,1.0267711E2,1.3170613E2,7.29107E1,4.2547593E0,4.1337833E0,5.1137443E0,5.724563E0,4.3154826E0,6.8787217E0,5.01671E0,4.937329E0,7.182818E1,2.452559E0,7.237785E1,3.523526E0,4.053748E0],"categories":[],"categories_nodes":[],"categories_segments":[],"categories_sizes":[],"default_left":[0,0,0,0,0,0,0,0,0,0,0,0,0,0,0,0,0,0,0,0,0],"id":10,"left_children":[1,3,5,7,9,11,13,15,-1,-1,-1,-1,-1,-1,-1,-1,17,-1,19,-1,-1],"loss_changes":[3.75115E5,2.83155E4,5.53995E4,1.144475E4,2.18175E3,1.6182E4,2.589525E4,3.87E3,0E0,0E0,0E0,0E0,0E0,0E0,0E0,0E0,1.1915E3,0E0,3.8775E2,0E0,0E0],"parents":[2147483647,0,0,1,1,2,2,3,3,4,4,5,5,6,6,7,7,16,16,18,18],"right_children":[2,4,6,8,10,12,14,16,-1,-1,-1,-1,-1,-1,-1,-1,18,-1,20,-1,-1],"split_conditions":[1.3538108E3,1.8605402E2,1.23234E2,1.6553673E0,2.3295126E1,1.2767227E1,3.1972623E2,6.576923E2,4.2547593E0,4.1337833E0,5.1137443E0,5.724563E0,4.3154826E0,6.8787217E0,5.01671E0,4.937329E0,9.206578E0,2.452559E0,9.7678357E2,3.523526E0,4.053748E0],"split_indices":[0,21,21,2,14,12,21,0,0,0,0,0,0,0,0,0,12,0,0,0,0],"split_type":[0,0,0,0,0,0,0,0,0,0,0,0,0,0,0,0,0,0,0,0,0],"sum_hessian":[1.0278383E3,6.7871625E2,3.491221E2,5.5809705E2,1.2061919E2,1.3409962E2,2.1502246E2,3.9280466E2,1.6529239E2,4.736994E1,7.3249245E1,7.4390564E1,5.970906E1,1.7827939E2,3.6743076E1,1.2157263E1,3.8064737E2,1.11089325E1,3.6953845E2,3.1056635E2,5.8972088E1],"tree_param":{"num_deleted":"0","num_feature":"26","num_nodes":"21","size_leaf_vector":"1"}},{"base_weights":[8.933051E1,7.869651E1,1.1799101E2,6.990079E1,8.957393E1,1.251992E2,1.0547879E2,4.709225E0,6.899124E1,6.2477307E0,8.6433685E1,5.7358723E0,6.8622165E0,3.800249E0,5.627043E0,3.9276314E0,3.3444042E0,2.340058E0,8.769094E1,8.412953E1,5.030131E0,4.292382E0,3.2234604E0],"categories":[],"categories_nodes":[],"categories_segments":[],"categories_sizes":[],"default_left":[0,0,0,0,0,0,0,0,0,0,0,0,0,0,0,0,0,0,0,0,0,0,0],"id":11,"left_children":[1,3,5,7,9,11,13,-1,15,-1,17,-1,-1,-1,-1,-1,-1,-1,19,21,-1,-1,-1],"loss_changes":[3.18945E5,6.91455E4,1.2834E4,3.18525E3,2.79155E4,6.69275E3,1.4739375E4,0E0,3.318125E3,0E0,1.199125E4,0E0,0E0,0E0,0E0,0E0,0E0,0E0,5.8615E3,2.906875E3,0E0,0E0,0E0],"parents":[2147483647,0,0,1,1,2,2,3,3,4,4,5,5,6,6,8,8,10,10,18,18,19,19],"right_children":[2,4,6,8,10,12,14,-1,16,-1,18,-1,-1,-1,-1,-1,-1,-1,20,22,-1,-1,-1],"split_conditions":[3.08201E4,1.9642991E3,2.0131907E0,6.576923E2,7.132353E-1,1.9653009E0,3E0,4.709225E0,2E0,6.2477307E0,9.206578E0,5.7358723E0,6.8622165E0,3.800249E0,5.627043E0,3.9276314E0,3.3444042E0,2.340058E0,3.0448875E3,1.4598632E3,5.030131E0,4.292382E0,3.2234604E0],"split_indices":[8,9,15,0,2,15,7,0,1,0,12,0,0,0,0,0,0,0,9,0,0,0,0],"split_type":[0,0,0,0,0,0,0,0,0,0,0,0,0,0,0,0,0,0,0,0,0,0,0],"sum_hessian":[1.076149E3,7.87658E2,2.8849103E2,4.3962283E2,3.480352E2,1.7731258E2,1.1117846E2,1.2157263E1,4.2746558E2,2.52019E1,3.2283328E2,1.0044952E2,7.686305E1,2.3771595E1,8.740686E1,7.049391E1,3.5697168E2,1.11089325E1,3.1172437E2,2.5024002E2,6.1484344E1,2.2701915E2,2.3220867E1],"tree_param":{"num_deleted":"0","num_feature":"26","num_nodes":"23","size_leaf_vector":"1"}},{"base_weights":[8.636203E1,7.2458115E1,1.1039205E2,6.809175E1,8.3551765E1,1.0333377E2,6.2670856E0,6.517276E1,7.535321E1,4.964998E0,4.0213146E0,8.994956E1,1.1439824E2,6.1819675E1,7.116545E1,3.1243482E0,4.2345924E0,3.5293255E0,4.693745E0,6.420817E0,5.2427454E0,3.1427095E0,1.8639182E0,3.6750996E0,2.2327178E0],"categories":[],"categories_nodes":[],"categories_segments":[],"categories_sizes":[],"default_left":[0,0,0,0,0,0,0,0,0,0,0,0,0,0,0,0,0,0,0,0,0,0,0,0,0],"id":12,"left_children":[1,3,5,7,9,11,-1,13,15,-1,-1,17,19,21,23,-1,-1,-1,-1,-1,-1,-1,-1,-1,-1],"loss_changes":[3.365275E5,2.605325E4,2.6665E4,5.143E3,8.64625E2,2.832725E4,0E0,2.537E3,1.030075E4,0E0,0E0,2.6650625E3,5.0995E3,3.472875E3,3.9865E3,0E0,0E0,0E0,0E0,0E0,0E0,0E0,0E0,0E0,0E0],"parents":[2147483647,0,0,1,1,2,2,3,3,4,4,5,5,7,7,8,8,11,11,12,12,13,13,14,14],"right_children":[2,4,6,8,10,12,-1,14,16,-1,-1,18,20,22,24,-1,-1,-1,-1,-1,-1,-1,-1,-1,-1],"split_conditions":[2.918617E4,1.27361E3,1.9948296E3,2.5478924E1,8.5324234E-1,5E0,6.2670856E0,9.915741E2,7.79667E-1,4.964998E0,4.0213146E0,1.115671E3,6E0,9.1812415E2,1.2600707E3,3.1243482E0,4.2345924E0,3.5293255E0,4.693745E0,6.420817E0,5.2427454E0,3.1427095E0,1.8639182E0,3.6750996E0,2.2327178E0],"split_indices":[8,25,25,12,2,7,0,23,11,0,0,0,7,0,0,0,0,0,0,0,0,0,0,0,0],"split_type":[0,0,0,0,0,0,0,0,0,0,0,0,0,0,0,0,0,0,0,0,0,0,0,0,0],"sum_hessian":[1.0303365E3,6.552391E2,3.7509756E2,4.7532162E2,1.7991742E2,2.6018637E2,1.1491117E2,3.4617944E2,1.291422E2,2.4682674E1,1.5523474E2,1.21893616E2,1.3829277E2,2.2926494E2,1.1691449E2,5.7561096E1,7.158109E1,2.3757973E1,9.813565E1,5.0956238E1,8.7336525E1,2.184817E2,1.0783234E1,1.0580556E2,1.11089325E1],"tree_param":{"num_deleted":"0","num_feature":"26","num_nodes":"25","size_leaf_vector":"1"}},{"base_weights":[8.155474E1,7.192671E1,1.0516743E2,6.650679E1,8.774602E1,9.346959E1,5.837542E0,6.7654434E1,2.3154647E0,8.0603584E1,5.317533E0,5.6663094E0,8.640027E1,5.7913986E1,6.977426E1,3.638467E0,4.497712E0,2.8658009E0,4.4457874E0,2.4587114E0,3.0716622E0,2.1303012E0,7.036849E1,3.614102E0,2.9670537E0],"categories":[],"categories_nodes":[],"categories_segments":[],"categories_sizes":[],"default_left":[0,0,0,0,0,0,0,0,0,0,0,0,0,0,0,0,0,0,0,0,0,0,0,0,0],"id":13,"left_children":[1,3,5,7,9,11,-1,13,-1,15,-1,-1,17,19,21,-1,-1,-1,-1,-1,-1,-1,23,-1,-1],"loss_changes":[2.403455E5,6.081925E4,3.153675E4,1.035975E4,1.7333875E4,1.276675E4,0E0,7.27775E3,0E0,4.0506875E3,0E0,0E0,3.8618125E3,1.5125E2,4.18125E3,0E0,0E0,0E0,0E0,0E0,0E0,0E0,4.865E3,0E0,0E0],"parents":[2147483647,0,0,1,1,2,2,3,3,4,4,5,5,7,7,9,9,12,12,13,13,14,14,22,22],"right_children":[2,4,6,8,10,12,-1,14,-1,16,-1,-1,18,20,22,-1,-1,-1,-1,-1,-1,-1,24,-1,-1],"split_conditions":[2.9633538E3,1.8605402E2,1.997561E3,1.7179848E2,1.4275078E1,1.5557927E3,5.837542E0,1.6100267E3,2.3154647E0,3E0,5.317533E0,5.6663094E0,3.0448875E3,1.3919533E1,9.206578E0,3.638467E0,4.497712E0,2.8658009E0,4.4457874E0,2.4587114E0,3.0716622E0,2.1303012E0,1.3858812E1,3.614102E0,2.9670537E0],"split_indices":[9,21,23,21,10,0,0,9,0,1,0,0,9,10,12,0,0,0,0,0,0,0,10,0,0],"split_type":[0,0,0,0,0,0,0,0,0,0,0,0,0,0,0,0,0,0,0,0,0,0,0,0,0],"sum_hessian":[1.089698E3,7.7695483E2,3.1274316E2,5.825783E2,1.9437654E2,1.6012825E2,1.5261493E2,5.4901807E2,3.356027E1,1.4431982E2,5.0056713E1,3.808379E1,1.22044464E2,1.03214836E2,4.4580322E2,8.332342E1,6.0996407E1,1.1618207E1,1.1042626E2,3.3953205E1,6.9261635E1,1.11089325E1,4.3469427E2,3.6566077E2,6.90335E1],"tree_param":{"num_deleted":"0","num_feature":"26","num_nodes":"25","size_leaf_vector":"1"}},{"base_weights":[7.762038E1,6.7042816E1,9.996993E1,6.0606773E1,7.908513E1,9.242739E1,1.17525894E2,5.1534874E1,6.361313E1,5.4595137E0,7.4846924E1,3.7890527E0,9.656851E1,6.0674953E0,4.3297644E0,1.6726836E0,2.6540651E0,6.2276463E1,3.86307E0,3.8045235E0,2.4907892E0,4.1836886E0,5.045387E0,3.0185077E0,3.5547345E0],"categories":[],"categories_nodes":[],"categories_segments":[],"categories_sizes":[],"default_left":[0,0,0,0,0,0,0,0,0,0,0,0,0,0,0,0,0,0,0,0,0,0,0,0,0],"id":14,"left_children":[1,3,5,7,9,11,13,15,17,-1,19,-1,21,-1,-1,-1,-1,23,-1,-1,-1,-1,-1,-1,-1],"loss_changes":[2.25526E5,4.709E4,3.059925E4,8.712375E3,2.1125E4,8.0745E3,1.39E2,1.414875E3,1.109625E3,0E0,2.54825E3,0E0,1.335375E3,0E0,0E0,0E0,0E0,7.6025E2,0E0,0E0,0E0,0E0,0E0,0E0,0E0],"parents":[2147483647,0,0,1,1,2,2,3,3,4,4,5,5,6,6,7,7,8,8,10,10,12,12,17,17],"right_children":[2,4,6,8,10,12,14,16,18,-1,20,-1,22,-1,-1,-1,-1,24,-1,-1,-1,-1,-1,-1,-1],"split_conditions":[2.918617E4,1.2539634E3,8.333333E-1,2.1818576E4,7.132353E-1,1.1449925E0,1E0,2.0477902E4,1.35E1,5.4595137E0,3E0,3.7890527E0,1.23234E2,6.0674953E0,4.3297644E0,1.6726836E0,2.6540651E0,1.6553673E0,3.86307E0,3.8045235E0,2.4907892E0,4.1836886E0,5.045387E0,3.0185077E0,3.5547345E0],"split_indices":[8,23,22,8,2,2,4,8,19,0,4,0,21,0,0,0,0,2,0,0,0,0,0,0,0],"split_type":[0,0,0,0,0,0,0,0,0,0,0,0,0,0,0,0,0,0,0,0,0,0,0,0,0],"sum_hessian":[9.815517E2,6.6896027E2,3.1259143E2,4.3990808E2,2.2905222E2,2.2304626E2,8.954514E1,1.14036385E2,3.2587167E2,2.52019E1,2.0385031E2,4.8292763E1,1.7475351E2,7.7082306E1,1.2462837E1,1.0783234E1,1.0325315E2,3.0189044E2,2.3981228E1,1.9224765E2,1.160266E1,4.9124275E1,1.2562923E2,2.5470811E2,4.7182335E1],"tree_param":{"num_deleted":"0","num_feature":"26","num_nodes":"25","size_leaf_vector":"1"}},{"base_weights":[7.343019E1,6.4676575E1,9.841668E1,5.9564075E1,7.704485E1,1.0562897E2,8.136297E1,5.8313812E1,4.1981964E0,2.9895792E0,8.260662E1,1.0863912E2,4.106114E0,3.4347005E0,4.449035E0,3.38451E0,5.6772003E1,3.7965696E0,4.8475237E0,4.867271E0,5.7299013E0,5.4609222E1,6.2115276E1,2.3107147E0,2.8041751E0,3.5588303E0,2.7979872E0],"categories":[],"categories_nodes":[],"categories_segments":[],"categories_sizes":[],"default_left":[0,0,0,0,0,0,0,0,0,0,0,0,0,0,0,0,0,0,0,0,0,0,0,0,0,0,0],"id":15,"left_children":[1,3,5,7,9,11,13,15,-1,-1,17,19,-1,-1,-1,-1,21,-1,-1,-1,-1,23,25,-1,-1,-1,-1],"loss_changes":[2.29147E5,4.5987E4,2.54795E4,1.247425E4,1.7155E4,4.58175E3,2.221125E3,4.01675E3,0E0,0E0,9.038125E3,5.25E0,0E0,0E0,0E0,0E0,2.066375E3,0E0,0E0,0E0,0E0,1.6684375E3,3.2104688E3,0E0,0E0,0E0,0E0],"parents":[2147483647,0,0,1,1,2,2,3,3,4,4,5,5,6,6,7,7,10,10,11,11,16,16,21,21,22,22],"right_children":[2,4,6,8,10,12,14,16,-1,-1,18,20,-1,-1,-1,-1,22,-1,-1,-1,-1,24,26,-1,-1,-1,-1],"split_conditions":[3.08201E4,1.27361E3,2.0131907E0,1.4861278E1,1.9486543E0,3.1972623E2,3E0,2E0,4.1981964E0,2.9895792E0,1.0716923E2,1.3879115E2,4.106114E0,3.4347005E0,4.449035E0,3.38451E0,2.5478924E1,3.7965696E0,4.8475237E0,4.867271E0,5.7299013E0,2.1282027E4,2.863124E1,2.3107147E0,2.8041751E0,3.5588303E0,2.7979872E0],"split_indices":[8,25,15,13,15,21,3,1,0,0,21,21,0,0,0,0,12,0,0,0,0,8,12,0,0,0,0],"split_type":[0,0,0,0,0,0,0,0,0,0,0,0,0,0,0,0,0,0,0,0,0,0,0,0,0,0,0],"sum_hessian":[1.0759841E3,7.9949457E2,2.7648953E2,5.698033E2,2.2969131E2,1.9064932E2,8.5840225E1,5.4526575E2,2.453749E1,5.887094E1,1.7082037E2,1.6578528E2,2.4864044E1,3.600978E1,4.9830444E1,7.091356E1,4.743522E2,1.2088046E2,4.993991E1,6.3265945E1,1.0251933E2,3.4570047E2,1.2865175E2,5.650376E1,2.891967E2,4.7749603E1,8.0902145E1],"tree_param":{"num_deleted":"0","num_feature":"26","num_nodes":"27","size_leaf_vector":"1"}},{"base_weights":[7.027346E1,6.144184E1,9.373141E1,5.638424E1,7.230267E1,9.587988E1,3.3164659E0,5.5153152E1,3.9965062E0,4.9638305E0,6.89057E1,7.202651E1,9.7902855E1,5.0221672E1,5.7358887E1,6.9984375E1,2.2385135E0,4.1836743E0,2.7202098E0,3.9468467E0,5.038288E0,2.3144047E0,2.7648418E0,5.7979958E1,1.7294359E0,3.8970115E0,3.3183033E0,2.7833269E0,3.234351E0],"categories":[],"categories_nodes":[],"categories_segments":[],"categories_sizes":[],"default_left":[0,0,0,0,0,0,0,0,0,0,0,0,0,0,0,0,0,0,0,0,0,0,0,0,0,0,0,0,0],"id":16,"left_children":[1,3,5,7,9,11,-1,13,-1,-1,15,17,19,21,23,25,-1,-1,-1,-1,-1,-1,-1,27,-1,-1,-1,-1,-1],"loss_changes":[2.25106E5,4.0523E4,1.14265E4,1.1755125E4,1.644075E4,6.344E3,0E0,2.900875E3,0E0,0E0,2.805375E3,6.567031E2,5.78825E3,8.6875E2,3.089125E3,1.05475E3,0E0,0E0,0E0,0E0,0E0,0E0,0E0,1.811E3,0E0,0E0,0E0,0E0,0E0],"parents":[2147483647,0,0,1,1,2,2,3,3,4,4,5,5,7,7,10,10,11,11,12,12,13,13,14,14,15,15,23,23],"right_children":[2,4,6,8,10,12,-1,14,-1,-1,16,18,20,22,24,26,-1,-1,-1,-1,-1,-1,-1,28,-1,-1,-1,-1,-1],"split_conditions":[3.08201E4,1.2803488E3,3.248323E2,1.4861278E1,7.132353E-1,1.23234E2,3.3164659E0,8.6976E2,3.9965062E0,4.9638305E0,3E0,1.8202054E3,1.3069348E3,1.4354957E1,1.2600707E3,8.194004E0,2.2385135E0,4.1836743E0,2.7202098E0,3.9468467E0,5.038288E0,2.3144047E0,2.7648418E0,2.0142858E0,1.7294359E0,3.8970115E0,3.3183033E0,2.7833269E0,3.234351E0],"split_indices":[8,25,21,13,2,21,0,23,0,0,4,0,0,13,0,10,0,0,0,0,0,0,0,2,0,0,0,0,0],"split_type":[0,0,0,0,0,0,0,0,0,0,0,0,0,0,0,0,0,0,0,0,0,0,0,0,0,0,0,0,0],"sum_hessian":[1.1135891E3,8.116465E2,3.0194266E2,5.5801355E2,2.5363293E2,2.7766245E2,2.428024E1,5.334761E2,2.453749E1,2.52019E1,2.2843105E2,2.4580517E1,2.5308191E2,1.7225691E2,3.6121915E2,2.1682838E2,1.160266E1,1.2532399E1,1.2048119E1,3.695343E1,2.1612848E2,1.0277743E2,6.947948E1,3.5011023E2,1.11089325E1,6.133744E1,1.5549094E2,2.6726785E2,8.284238E1],"tree_param":{"num_deleted":"0","num_feature":"26","num_nodes":"29","size_leaf_vector":"1"}},{"base_weights":[6.5682144E1,5.62391E1,8.695767E1,5.1031693E1,6.788454E1,8.282892E1,5.3009715E0,4.8191235E1,5.594149E1,4.7251105E0,6.3911144E1,8.405372E1,2.6251514E0,1.3630608E0,4.88262E1,5.7663742E1,2.1254632E0,3.242443E0,2.2683172E0,7.47825E1,4.374191E0,2.2745879E0,5.257743E1,2.9506075E0,1.8776602E0,2.5754051E0,3.9182339E0,2.7001023E0,1.6501054E0],"categories":[],"categories_nodes":[],"categories_segments":[],"categories_sizes":[],"default_left":[0,0,0,0,0,0,0,0,0,0,0,0,0,0,0,0,0,0,0,0,0,0,0,0,0,0,0,0,0],"id":17,"left_children":[1,3,5,7,9,11,-1,13,15,-1,17,19,-1,-1,21,23,-1,-1,-1,25,-1,-1,27,-1,-1,-1,-1,-1,-1],"loss_changes":[2.016515E5,3.98605E4,1.5894E4,4.21975E3,1.6957062E4,5.310375E3,0E0,2.936375E3,1.5973125E3,0E0,3.7575E2,1.391625E3,0E0,0E0,1.48175E3,1.915875E3,0E0,0E0,0E0,2.1525E3,0E0,0E0,2.1065E3,0E0,0E0,0E0,0E0,0E0,0E0],"parents":[2147483647,0,0,1,1,2,2,3,3,4,4,5,5,7,7,8,8,10,10,11,11,14,14,15,15,19,19,22,22],"right_children":[2,4,6,8,10,12,-1,14,16,-1,18,20,-1,-1,22,24,-1,-1,-1,26,-1,-1,28,-1,-1,-1,-1,-1,-1],"split_conditions":[2.918617E4,1.2803488E3,3.931404E4,4E0,7.132353E-1,3.3249475E2,5.3009715E0,2.0477902E4,2.3551693E4,4.7251105E0,1.4E1,1.3069348E3,2.6251514E0,1.3630608E0,8.75E2,1.7877081E2,2.1254632E0,3.242443E0,2.2683172E0,1E0,4.374191E0,2.2745879E0,1.2600707E3,2.9506075E0,1.8776602E0,2.5754051E0,3.9182339E0,2.7001023E0,1.6501054E0],"split_indices":[8,25,8,3,2,21,0,8,8,0,1,0,0,0,0,21,0,0,0,1,0,0,0,0,0,0,0,0,0],"split_type":[0,0,0,0,0,0,0,0,0,0,0,0,0,0,0,0,0,0,0,0,0,0,0,0,0,0,0,0,0],"sum_hessian":[1.0272684E3,7.14014E2,3.132545E2,4.9712573E2,2.1688828E2,2.618904E2,5.1364067E1,3.2181998E2,1.7530574E2,2.52019E1,1.9168639E2,2.500114E2,1.1879032E1,1.0783234E1,3.1103674E2,1.5244434E2,2.28614E1,1.8006818E2,1.1618207E1,7.369914E1,1.7631224E2,1.7165816E2,1.3937859E2,1.4103844E2,1.1405907E1,1.1892564E1,6.180658E1,1.2826965E2,1.11089325E1],"tree_param":{"num_deleted":"0","num_feature":"26","num_nodes":"29","size_leaf_vector":"1"}},{"base_weights":[6.2893005E1,5.5035946E1,8.2886475E1,5.322419E1,7.989431E1,9.001337E1,7.196844E1,5.109717E1,6.472765E1,3.3180332E0,4.4961944E0,9.2800316E1,3.4975967E0,2.5810757E0,7.626646E1,4.6457417E1,5.4448826E1,3.4719265E0,2.670974E0,4.164393E0,9.852616E1,3.979695E0,2.3926754E0,1.3006916E0,4.7218117E1,5.1168243E1,3.210856E0,3.5396028E0,5.1015935E0,2.390188E0,1.5744137E0,3.4668992E0,2.5018773E0],"categories":[],"categories_nodes":[],"categories_segments":[],"categories_sizes":[],"default_left":[0,0,0,0,0,0,0,0,0,0,0,0,0,0,0,0,0,0,0,0,0,0,0,0,0,0,0,0,0,0,0,0,0],"id":18,"left_children":[1,3,5,7,9,11,13,15,17,-1,-1,19,-1,-1,21,23,25,-1,-1,-1,27,-1,-1,-1,29,31,-1,-1,-1,-1,-1,-1,-1],"loss_changes":[1.645885E5,3.0665E4,1.6961875E4,1.4432875E4,8.703125E2,3.44725E3,6.888375E3,7.048625E3,2.091875E3,0E0,0E0,1.15E2,0E0,0E0,5.6501875E3,2.88625E3,7.987625E3,0E0,0E0,0E0,1.5248125E3,0E0,0E0,0E0,8.21875E2,2.02325E3,0E0,0E0,0E0,0E0,0E0,0E0,0E0],"parents":[2147483647,0,0,1,1,2,2,3,3,4,4,5,5,6,6,7,7,8,8,11,11,14,14,15,15,16,16,20,20,24,24,25,25],"right_children":[2,4,6,8,10,12,14,16,18,-1,-1,20,-1,-1,22,24,26,-1,-1,-1,28,-1,-1,-1,30,32,-1,-1,-1,-1,-1,-1,-1],"split_conditions":[3.08201E4,3.138199E3,2.0131907E0,1.8605402E2,1.6075385E3,3.1972623E2,3E0,2.319324E4,5.487805E0,3.3180332E0,4.4961944E0,1.3879115E2,3.4975967E0,2.5810757E0,1.7123288E0,2.0477902E4,1.4859438E0,3.4719265E0,2.670974E0,4.164393E0,1.204301E3,3.979695E0,2.3926754E0,1.3006916E0,7.9187045E0,6.576923E2,3.210856E0,3.5396028E0,5.1015935E0,2.390188E0,1.5744137E0,3.4668992E0,2.5018773E0],"split_indices":[8,9,15,21,0,21,7,8,11,0,0,21,0,0,2,8,2,0,0,0,0,0,0,0,11,0,0,0,0,0,0,0,0],"split_type":[0,0,0,0,0,0,0,0,0,0,0,0,0,0,0,0,0,0,0,0,0,0,0,0,0,0,0,0,0,0,0,0,0],"sum_hessian":[1.0760422E3,7.751791E2,3.0086322E2,7.2545856E2,4.972052E1,1.7763664E2,1.2322658E2,6.168664E2,1.08592155E2,2.4417974E1,2.5302546E1,1.527726E2,2.4864044E1,2.3771595E1,9.945499E1,2.6498853E2,3.5187787E2,7.300984E1,3.5582314E1,6.3265945E1,8.950665E1,8.740686E1,1.2048119E1,1.0783234E1,2.5420528E2,2.6810608E2,8.377179E1,1.24322605E1,7.7074394E1,2.4309634E2,1.11089325E1,1.2157263E1,2.5594882E2],"tree_param":{"num_deleted":"0","num_feature":"26","num_nodes":"33","size_leaf_vector":"1"}},{"base_weights":[5.8955643E1,4.9430637E1,7.576691E1,4.6052105E1,5.52888E1,7.227595E1,4.7907767E0,4.3186024E1,5.0931076E1,5.638806E1,1.5021938E0,6.6354614E1,4.11931E0,3.913898E1,5.0601234E1,2.151299E0,2.6967394E0,2.515807E0,2.973892E0,6.189635E1,4.208072E0,1.9943991E0,1.2411764E0,3.306729E0,2.37448E0,6.3165817E1,2.0487096E0,3.2696888E0,2.4275022E0],"categories":[],"categories_nodes":[],"categories_segments":[],"categories_sizes":[],"default_left":[0,0,0,0,0,0,0,0,0,0,0,0,0,0,0,0,0,0,0,0,0,0,0,0,0,0,0,0,0],"id":19,"left_children":[1,3,5,7,9,11,-1,13,15,17,-1,19,-1,21,23,-1,-1,-1,-1,25,-1,-1,-1,-1,-1,27,-1,-1,-1],"loss_changes":[1.625875E5,1.0607E4,1.919175E4,3.763875E3,4.902E3,1.37965E4,0E0,6.2913438E3,1.2819375E3,1.24275E3,0E0,1.13033125E4,0E0,9.5621875E2,1.3781406E3,0E0,0E0,0E0,0E0,1.911375E3,0E0,0E0,0E0,0E0,0E0,1.9674375E3,0E0,0E0,0E0],"parents":[2147483647,0,0,1,1,2,2,3,3,4,4,5,5,7,7,8,8,9,9,11,11,13,13,14,14,19,19,25,25],"right_children":[2,4,6,8,10,12,-1,14,16,18,-1,20,-1,22,24,-1,-1,-1,-1,26,-1,-1,-1,-1,-1,28,-1,-1,-1],"split_conditions":[2.7185017E3,1.9535383E3,3.931404E4,4E0,8.855656E0,1.997561E3,4.7907767E0,1.4390667E1,1.6294543E3,9.172087E0,1.5021938E0,1.0402834E1,4.11931E0,8.982553E2,6.576923E2,2.151299E0,2.6967394E0,2.515807E0,2.973892E0,1E0,4.208072E0,1.9943991E0,1.2411764E0,3.306729E0,2.37448E0,3.5356695E4,2.0487096E0,3.2696888E0,2.4275022E0],"split_indices":[9,9,8,3,11,23,0,13,9,13,0,10,0,0,0,0,0,0,0,4,0,0,0,0,0,8,0,0,0],"split_type":[0,0,0,0,0,0,0,0,0,0,0,0,0,0,0,0,0,0,0,0,0,0,0,0,0,0,0,0,0],"sum_hessian":[1.0379867E3,6.65106E2,3.728807E2,4.2748065E2,2.3762537E2,3.2151663E2,5.1364067E1,2.7553467E2,1.5194598E2,2.2651643E2,1.11089325E1,2.0755147E2,1.13965164E2,1.823378E2,9.319688E1,4.608491E1,1.0586108E2,8.2254585E1,1.4426184E2,1.6958546E2,3.7965996E1,1.7155457E2,1.0783234E1,1.2157263E1,8.103961E1,1.5796725E2,1.1618207E1,1.3404012E2,2.392715E1],"tree_param":{"num_deleted":"0","num_feature":"26","num_nodes":"29","size_leaf_vector":"1"}},{"base_weights":[5.6805542E1,4.8971195E1,7.738435E1,4.694476E1,6.543114E1,6.3145077E1,8.0319374E1,4.6032806E1,3.3379154E0,5.9209686E1,4.4311633E0,2.200418E0,3.3972187E0,8.229198E1,3.1293378E0,4.1147305E1,4.845934E1,2.1561577E0,3.1097612E0,3.599942E0,4.337646E0,4.2442482E1,1.4491327E0,4.582083E1,2.8862526E0,2.5909061E0,2.0372427E0,2.2198792E0,2.7654178E0],"categories":[],"categories_nodes":[],"categories_segments":[],"categories_sizes":[],"default_left":[0,0,0,0,0,0,0,0,0,0,0,0,0,0,0,0,0,0,0,0,0,0,0,0,0,0,0,0,0],"id":20,"left_children":[1,3,5,7,9,11,13,15,-1,17,-1,-1,-1,19,-1,21,23,-1,-1,-1,-1,25,-1,27,-1,-1,-1,-1,-1],"loss_changes":[1.5247275E5,2.04065E4,5.984375E3,8.298E3,5.4885938E3,1.5758594E3,2.37925E3,5.170875E3,0E0,2.6082812E2,0E0,0E0,0E0,2.5055E3,0E0,2.0254062E3,7.0946875E3,0E0,0E0,0E0,0E0,8.1815625E2,0E0,1.780875E3,0E0,0E0,0E0,0E0,0E0],"parents":[2147483647,0,0,1,1,2,2,3,3,4,4,5,5,6,6,7,7,9,9,13,13,15,15,16,16,21,21,23,23],"right_children":[2,4,6,8,10,12,14,16,-1,18,-1,-1,-1,20,-1,22,24,-1,-1,-1,-1,26,-1,28,-1,-1,-1,-1,-1],"split_conditions":[3.08201E4,3.0448875E3,1.2375E3,1.4861278E1,1.6075385E3,3E0,3.1972623E2,2.319324E4,3.3379154E0,1.508811E3,4.4311633E0,2.200418E0,3.3972187E0,1.4443388E2,3.1293378E0,1.679121E2,1.4859438E0,2.1561577E0,3.1097612E0,3.599942E0,4.337646E0,8.607301E0,1.4491327E0,2.0859555E2,2.8862526E0,2.5909061E0,2.0372427E0,2.2198792E0,2.7654178E0],"split_indices":[8,9,0,13,0,3,21,8,0,0,0,0,0,24,0,21,2,0,0,0,0,13,0,21,0,0,0,0,0],"split_type":[0,0,0,0,0,0,0,0,0,0,0,0,0,0,0,0,0,0,0,0,0,0,0,0,0,0,0,0,0],"sum_hessian":[9.6847644E2,7.0389716E2,2.6457928E2,6.3018365E2,7.371353E1,4.9080734E1,2.1549855E2,6.056461E2,2.453749E1,6.0933598E1,1.2779936E1,1.1892564E1,3.7188168E1,1.906345E2,2.4864044E1,2.069866E2,3.9865955E2,1.1971866E1,4.896173E1,6.2841496E1,1.27793015E2,1.8479747E2,2.218914E1,3.1495148E2,8.3708046E1,2.3777683E1,1.6101978E2,2.78834E2,3.6117455E1],"tree_param":{"num_deleted":"0","num_feature":"26","num_nodes":"29","size_leaf_vector":"1"}},{"base_weights":[5.3350143E1,4.5816376E1,6.695401E1,4.3399864E1,5.476336E1,5.4529743E1,7.424354E1,4.135367E1,4.9787926E1,2.2372549E0,5.7593952E1,4.852472E1,3.2425728E0,1.6240755E0,7.622048E1,4.0004612E1,2.5521085E0,1.9743537E0,2.7470558E0,2.302494E0,3.0110366E0,2.6629279E0,2.1369126E0,3.99632E0,2.7681525E0,2.5455573E0,3.914403E1,1.7987998E0,2.0763576E0],"categories":[],"categories_nodes":[],"categories_segments":[],"categories_sizes":[],"default_left":[0,0,0,0,0,0,0,0,0,0,0,0,0,0,0,0,0,0,0,0,0,0,0,0,0,0,0,0,0],"id":21,"left_children":[1,3,5,7,9,11,13,15,17,-1,19,21,-1,-1,23,25,-1,-1,-1,-1,-1,-1,-1,-1,-1,-1,27,-1,-1],"loss_changes":[1.0835425E5,1.279475E4,3.0818875E4,5.21275E3,1.5230312E3,5.886875E3,1.731625E4,3.536375E3,4.7312812E3,0E0,5.3271875E2,3.3776562E2,0E0,0E0,1.3198E4,1.557125E3,0E0,0E0,0E0,0E0,0E0,0E0,0E0,0E0,0E0,0E0,1.1825E3,0E0,0E0],"parents":[2147483647,0,0,1,1,2,2,3,3,4,4,5,5,6,6,7,7,8,8,10,10,11,11,14,14,15,15,26,26],"right_children":[2,4,6,8,10,12,14,16,18,-1,20,22,-1,-1,24,26,-1,-1,-1,-1,-1,-1,-1,-1,-1,-1,28,-1,-1],"split_conditions":[2.7185017E3,2.1268864E2,1.4295145E2,2.5478924E1,8.9295775E-1,1.713467E0,1.7854707E0,2.5945803E3,8.518519E-1,2.2372549E0,1E0,1.3888052E3,3.2425728E0,1.6240755E0,3.3847894E2,1E0,2.5521085E0,1.9743537E0,2.7470558E0,2.302494E0,3.0110366E0,2.6629279E0,2.1369126E0,3.99632E0,2.7681525E0,2.5455573E0,1.7315144E3,1.7987998E0,2.0763576E0],"split_indices":[9,24,24,12,2,2,15,9,11,0,1,0,0,0,24,1,0,0,0,0,0,0,0,0,0,0,9,0,0],"split_type":[0,0,0,0,0,0,0,0,0,0,0,0,0,0,0,0,0,0,0,0,0,0,0,0,0,0,0,0,0],"sum_hessian":[1.0864945E3,7.020769E2,3.8441757E2,5.574092E2,1.4466771E2,1.4529636E2,2.3912122E2,4.278749E2,1.2953429E2,3.5596222E1,1.0907149E2,9.547859E1,4.981777E1,1.160266E1,2.2751855E2,3.801076E2,4.776729E1,4.61015E1,8.3432785E1,2.36742E1,8.539729E1,4.7975E1,4.75036E1,1.9077548E2,3.6743076E1,2.352002E1,3.565876E2,1.6004778E2,1.9653981E2],"tree_param":{"num_deleted":"0","num_feature":"26","num_nodes":"29","size_leaf_vector":"1"}},{"base_weights":[5.0912888E1,4.5016598E1,6.959113E1,4.3407364E1,6.569487E1,1.9052778E0,7.1172935E1,3.9305172E1,4.6780464E1,4.0403676E0,2.923331E0,3.0574882E0,7.482079E1,1.0230695E0,3.990864E1,4.560157E1,3.039182E0,7.783586E1,2.8458638E0,4.3509544E1,3.650819E1,4.296873E1,2.592586E0,4.2349353E0,3.4831312E0,2.2450879E0,1.2445928E0,1.62926E0,1.996712E0,2.0996242E0,2.853419E0],"categories":[],"categories_nodes":[],"categories_segments":[],"categories_sizes":[],"default_left":[0,0,0,0,0,0,0,0,0,0,0,0,0,0,0,0,0,0,0,0,0,0,0,0,0,0,0,0,0,0,0],"id":22,"left_children":[1,3,5,7,9,-1,11,13,15,-1,-1,-1,17,-1,19,21,-1,23,-1,25,27,29,-1,-1,-1,-1,-1,-1,-1,-1,-1],"loss_changes":[1.02143E5,2.139475E4,8.58975E3,7.543375E3,7.742344E2,0E0,3.264625E3,2.7256875E3,3.2683125E3,0E0,0E0,0E0,3.8169375E3,0E0,2.0892812E3,3.3923125E3,0E0,1.2705E3,0E0,2.5308438E3,8.508281E2,9.7921875E2,0E0,0E0,0E0,0E0,0E0,0E0,0E0,0E0,0E0],"parents":[2147483647,0,0,1,1,2,2,3,3,4,4,6,6,7,7,8,8,12,12,14,14,15,15,17,17,19,19,20,20,21,21],"right_children":[2,4,6,8,10,-1,12,14,16,-1,-1,-1,18,-1,20,22,-1,24,-1,26,28,30,-1,-1,-1,-1,-1,-1,-1,-1,-1],"split_conditions":[3.08201E4,3.138199E3,1.4295145E2,2.3453494E4,1E0,1.9052778E0,2.977271E3,2.0477902E4,1.4674231E1,4.0403676E0,2.923331E0,3.0574882E0,3.6574423E2,1.0230695E0,1.2921268E1,1.4859438E0,3.039182E0,1.9996946E0,2.8458638E0,7.9187045E0,1.3976043E1,1.8E1,2.592586E0,4.2349353E0,3.4831312E0,2.2450879E0,1.2445928E0,1.62926E0,1.996712E0,2.0996242E0,2.853419E0],"split_indices":[8,9,24,8,1,0,9,8,13,0,0,0,24,0,10,2,0,15,0,11,10,1,0,0,0,0,0,0,0,0,0],"split_type":[0,0,0,0,0,0,0,0,0,0,0,0,0,0,0,0,0,0,0,0,0,0,0,0,0,0,0,0,0,0,0],"sum_hessian":[9.552137E2,7.2862854E2,2.2658516E2,6.78908E2,4.972052E1,1.2048119E1,2.1453703E2,3.1209534E2,3.6681268E2,1.2779936E1,3.6940582E1,6.2006985E1,1.5253004E2,1.0783234E1,3.013121E2,3.4227518E2,2.453749E1,1.2766601E2,2.4864044E1,1.4057104E2,1.6074106E2,2.4640244E2,9.587275E1,6.4286644E1,6.3379364E1,1.2946211E2,1.11089325E1,7.987676E1,8.0864296E1,2.3418704E2,1.22154E1],"tree_param":{"num_deleted":"0","num_feature":"26","num_nodes":"31","size_leaf_vector":"1"}},{"base_weights":[4.759456E1,4.0764572E1,6.305784E1,3.8506935E1,4.675139E1,2.8749974E0,6.802844E1,3.5167755E1,4.2749035E1,4.8823826E1,1.6197916E0,4.004579E0,3.230824E0,9.7625715E-1,3.5751976E1,1.7676346E0,4.551447E1,2.3562236E0,3.097936E0,3.9189487E1,3.3083076E1,2.713149E0,2.0229604E0,2.0372653E0,1.1875025E0,1.3897179E0,1.75558E0],"categories":[],"categories_nodes":[],"categories_segments":[],"categories_sizes":[],"default_left":[0,0,0,0,0,0,0,0,0,0,0,0,0,0,0,0,0,0,0,0,0,0,0,0,0,0,0],"id":23,"left_children":[1,3,5,7,9,-1,11,13,15,17,-1,-1,-1,-1,19,-1,21,-1,-1,23,25,-1,-1,-1,-1,-1,-1],"loss_changes":[9.3159375E4,6.713E3,3.674E3,5.0524375E3,3.4008438E3,0E0,5.51E2,1.7123125E3,2.4554375E3,2.85625E2,0E0,0E0,0E0,0E0,1.01934375E3,0E0,4.05575E3,0E0,0E0,1.5565781E3,6.133594E2,0E0,0E0,0E0,0E0,0E0,0E0],"parents":[2147483647,0,0,1,1,2,2,3,3,4,4,6,6,7,7,8,8,9,9,14,14,16,16,19,19,20,20],"right_children":[2,4,6,8,10,-1,12,14,16,18,-1,-1,-1,-1,20,-1,22,-1,-1,24,26,-1,-1,-1,-1,-1,-1],"split_conditions":[2.747788E4,1.2813182E3,1.6461592E3,2.1888412E1,1E0,2.8749974E0,1.5557927E3,2.0477902E4,1.3485845E1,2.175508E0,1.6197916E0,4.004579E0,3.230824E0,9.7625715E-1,1.2921268E1,1.7676346E0,1.3694025E1,2.3562236E0,3.097936E0,1.2600707E3,2.7554287E1,2.713149E0,2.0229604E0,2.0372653E0,1.1875025E0,1.3897179E0,1.75558E0],"split_indices":[8,23,23,12,4,0,0,8,16,15,0,0,0,0,10,0,10,0,0,0,14,0,0,0,0,0,0],"split_type":[0,0,0,0,0,0,0,0,0,0,0,0,0,0,0,0,0,0,0,0,0,0,0,0,0,0,0],"sum_hessian":[9.0570844E2,6.307622E2,2.749462E2,4.6346933E2,1.6729291E2,1.3576671E2,1.391795E2,2.6457166E2,1.9889769E2,1.4407204E2,2.3220867E1,2.5712015E1,1.1346748E2,1.0783234E1,2.5378842E2,5.790882E1,1.4098886E2,1.3165007E2,1.2421964E1,1.04892235E2,1.4889618E2,4.8046864E1,9.2942E1,9.37833E1,1.11089325E1,4.5394512E1,1.0350167E2],"tree_param":{"num_deleted":"0","num_feature":"26","num_nodes":"27","size_leaf_vector":"1"}},{"base_weights":[4.688543E1,3.913868E1,6.0242546E1,3.6032425E1,4.983575E1,5.4091747E1,3.4483635E0,3.5308727E1,2.3877125E0,2.1489155E0,5.4727142E1,5.550398E1,1.3781008E0,3.3099174E1,3.8952347E1,2.0093439E0,2.8433363E0,2.4993432E0,3.0854712E0,1.2231212E0,3.4136032E1,3.9979733E1,1.1330309E0,1.6083935E0,1.8580697E0,1.7157601E0,2.1526442E0],"categories":[],"categories_nodes":[],"categories_segments":[],"categories_sizes":[],"default_left":[0,0,0,0,0,0,0,0,0,0,0,0,0,0,0,0,0,0,0,0,0,0,0,0,0,0,0],"id":24,"left_children":[1,3,5,7,9,11,-1,13,-1,-1,15,17,-1,19,21,-1,-1,-1,-1,-1,23,25,-1,-1,-1,-1,-1],"loss_changes":[9.675175E4,1.84235E4,1.5006E4,2.3251875E3,2.1292812E3,6.3070625E3,0E0,2.3279375E3,0E0,0E0,1.284375E1,3.668625E3,0E0,1.7270938E3,1.8356719E3,0E0,0E0,0E0,0E0,0E0,3.0003125E2,1.1769531E3,0E0,0E0,0E0,0E0,0E0],"parents":[2147483647,0,0,1,1,2,2,3,3,4,4,5,5,7,7,10,10,11,11,13,13,14,14,20,20,21,21],"right_children":[2,4,6,8,10,12,-1,14,-1,-1,16,18,-1,20,22,-1,-1,-1,-1,-1,24,26,-1,-1,-1,-1,-1],"split_conditions":[2.7185017E3,2.6489148E4,3.5482094E4,1.4552444E1,5E0,1.6E1,3.4483635E0,9.9303345E2,2.3877125E0,2.1489155E0,8.518519E-1,1.6075385E3,1.3781008E0,2.1282027E4,7.2415686E0,2.0093439E0,2.8433363E0,2.4993432E0,3.0854712E0,1.2231212E0,1.7315144E3,2.1818576E4,1.1330309E0,1.6083935E0,1.8580697E0,1.7157601E0,2.1526442E0],"split_indices":[9,8,8,13,7,3,0,23,0,0,2,0,0,8,11,0,0,0,0,0,9,8,0,0,0,0,0],"split_type":[0,0,0,0,0,0,0,0,0,0,0,0,0,0,0,0,0,0,0,0,0,0,0,0,0,0,0],"sum_hessian":[9.5710706E2,6.082766E2,3.4883047E2,4.7479913E2,1.3347746E2,2.0883736E2,1.399931E2,4.5099292E2,2.3806206E1,5.9670647E1,7.380682E1,1.972347E2,1.160266E1,2.8707324E2,1.639197E2,1.2023025E1,6.17838E1,1.0922709E2,8.800761E1,3.3436752E1,2.5363647E2,1.5281076E2,1.11089325E1,1.6077527E2,9.2861206E1,5.8058704E1,9.475205E1],"tree_param":{"num_deleted":"0","num_feature":"26","num_nodes":"27","size_leaf_vector":"1"}},{"base_weights":[4.407533E1,3.83031E1,6.1281197E1,3.5392757E1,4.486201E1,6.3357323E1,1.9520149E0,3.111804E1,3.7815327E1,4.2173504E1,5.034914E1,2.5552561E0,6.627095E1,8.7562084E-1,3.1773027E1,3.894785E1,1.483877E0,2.170482E0,1.6559515E0,1.9604691E0,2.742179E0,6.1117176E1,3.5652301E0,3.2262314E1,1.0810578E0,1.6278557E0,4.0689594E1,2.837199E0,3.56479E0,1.460901E0,1.7844286E0,1.8990997E0,2.508519E0],"categories":[],"categories_nodes":[],"categories_segments":[],"categories_sizes":[],"default_left":[0,0,0,0,0,0,0,0,0,0,0,0,0,0,0,0,0,0,0,0,0,0,0,0,0,0,0,0,0,0,0,0,0],"id":25,"left_children":[1,3,5,7,9,11,-1,13,15,17,19,-1,21,-1,23,25,-1,-1,-1,-1,-1,27,-1,29,-1,-1,31,-1,-1,-1,-1,-1,-1],"loss_changes":[1.03230125E5,1.363825E4,9.7524375E3,4.5825E3,1.4155312E3,5.186875E3,0E0,1.2786719E3,2.0635E3,4.24875E2,1.5418594E3,0E0,5.68625E2,0E0,2.6379688E2,2.052375E3,0E0,0E0,0E0,0E0,0E0,4.39375E2,0E0,8.74625E2,0E0,0E0,4.1243125E3,0E0,0E0,0E0,0E0,0E0,0E0],"parents":[2147483647,0,0,1,1,2,2,3,3,4,4,5,5,7,7,8,8,9,9,10,10,12,12,14,14,15,15,21,21,23,23,26,26],"right_children":[2,4,6,8,10,12,-1,14,16,18,20,-1,22,-1,24,26,-1,-1,-1,-1,-1,28,-1,30,-1,-1,32,-1,-1,-1,-1,-1,-1],"split_conditions":[3.08201E4,1.2690791E3,3.248323E2,2.2683729E4,1.0517531E2,1.2747748E0,1.9520149E0,2.0477902E4,7.2415686E0,1.3931896E1,3E0,2.5552561E0,8.333333E-1,8.7562084E-1,1.2447836E3,1.1705214E0,1.483877E0,2.170482E0,1.6559515E0,1.9604691E0,2.742179E0,3.9278297E4,3.5652301E0,1.6294543E3,1.0810578E0,1.6278557E0,2.311194E1,2.837199E0,3.56479E0,1.460901E0,1.7844286E0,1.8990997E0,2.508519E0],"split_indices":[8,25,21,8,21,11,0,8,11,12,1,0,22,0,0,11,0,0,0,0,0,8,0,9,0,0,12,0,0,0,0,0,0],"split_type":[0,0,0,0,0,0,0,0,0,0,0,0,0,0,0,0,0,0,0,0,0,0,0,0,0,0,0,0,0,0,0,0,0],"sum_hessian":[1.0623442E3,7.9790625E2,2.6443802E2,5.571343E2,2.4077197E2,2.4015778E2,2.428024E1,2.0658171E2,3.5055258E2,1.6746188E2,7.3310074E1,4.9720222E1,1.9043756E2,1.0783234E1,1.9579848E2,3.043709E2,4.6181664E1,1.4397827E2,2.3483616E1,2.388939E1,4.9420685E1,1.0061889E2,8.981867E1,1.8468954E2,1.11089325E1,6.944204E1,2.3492888E2,7.499988E1,2.561901E1,1.02887436E2,8.180211E1,1.8665906E2,4.826983E1],"tree_param":{"num_deleted":"0","num_feature":"26","num_nodes":"33","size_leaf_vector":"1"}},{"base_weights":[4.1223255E1,3.665559E1,5.821372E1,3.4965282E1,5.271104E1,1.3779619E0,5.989135E1,2.892796E1,3.6749874E1,3.5097604E0,2.4003398E0,5.5889584E1,3.5173223E0,1.2150887E0,3.0976543E1,3.4680378E1,4.02726E1,2.2797236E0,5.8817528E1,1.627496E0,1.174287E0,3.6109444E1,2.6497704E1,1.5370854E0,2.1454215E0,2.5253341E0,3.1104293E0,1.8879416E0,1.5023412E0,1.082567E0,1.6139367E0],"categories":[],"categories_nodes":[],"categories_segments":[],"categories_sizes":[],"default_left":[0,0,0,0,0,0,0,0,0,0,0,0,0,0,0,0,0,0,0,0,0,0,0,0,0,0,0,0,0,0,0],"id":26,"left_children":[1,3,5,7,9,-1,11,13,15,-1,-1,17,-1,-1,19,21,23,-1,25,-1,-1,27,29,-1,-1,-1,-1,-1,-1,-1,-1],"loss_changes":[7.7432625E4,2.0140875E4,9.410375E3,6.8553125E3,2.7851719E3,0E0,4.5465E3,8.685625E2,2.699375E3,0E0,0E0,1.8713125E3,0E0,0E0,5.8708594E2,3.270625E3,3.7536875E3,0E0,6.35625E1,0E0,0E0,1.9085E3,9.036836E2,0E0,0E0,0E0,0E0,0E0,0E0,0E0,0E0],"parents":[2147483647,0,0,1,1,2,2,3,3,4,4,6,6,7,7,8,8,11,11,14,14,15,15,16,16,18,18,21,21,22,22],"right_children":[2,4,6,8,10,-1,12,14,16,-1,-1,18,-1,-1,20,22,24,-1,26,-1,-1,28,30,-1,-1,-1,-1,-1,-1,-1,-1],"split_conditions":[3.08201E4,3.0448875E3,1.23234E2,8.534763E2,7.132353E-1,1.3779619E0,2.0057927E3,1.3976043E1,1.2747748E0,3.5097604E0,2.4003398E0,1.1330049E0,3.5173223E0,1.2150887E0,1.7009685E3,1.144654E0,2.1919104E4,2.2797236E0,1.9653009E0,1.627496E0,1.174287E0,1.4105946E1,2.581289E4,1.5370854E0,2.1454215E0,2.5253341E0,3.1104293E0,1.8879416E0,1.5023412E0,1.082567E0,1.6139367E0],"split_indices":[8,9,21,25,2,0,0,10,2,0,0,2,0,0,9,2,8,0,15,0,0,10,8,0,0,0,0,0,0,0,0],"split_type":[0,0,0,0,0,0,0,0,0,0,0,0,0,0,0,0,0,0,0,0,0,0,0,0,0,0,0,0,0,0,0],"sum_hessian":[1.0246195E3,8.100288E2,2.1459073E2,7.357645E2,7.426428E1,1.2048119E1,2.025426E2,1.7183131E2,5.6393317E2,1.2779936E1,6.1484344E1,1.5108722E2,5.1455383E1,5.673024E1,1.1510108E2,3.621255E2,2.018077E2,3.7147026E1,1.139402E2,9.232389E1,2.2777187E1,3.0534833E2,5.6777164E1,4.6488136E1,1.5531956E2,3.76499E1,7.62903E1,2.3589374E2,6.94546E1,3.3494827E1,2.328234E1],"tree_param":{"num_deleted":"0","num_feature":"26","num_nodes":"31","size_leaf_vector":"1"}},{"base_weights":[3.974796E1,3.388047E1,5.2617157E1,3.0177464E1,4.1009666E1,4.9480797E1,3.250555E0,7.8602076E-1,3.0464912E1,3.865961E1,2.9916449E0,4.513995E1,5.4194656E1,3.1232126E1,1.2119776E0,1.7030232E0,4.0518917E1,2.5627582E0,3.5590107E1,3.195616E0,2.4644077E0,3.376493E1,2.935129E1,1.8799919E0,2.2215939E0,1.4778503E0,2.1425502E0,1.5170221E0,1.9150404E0,1.2526103E0,1.5801139E0],"categories":[],"categories_nodes":[],"categories_segments":[],"categories_sizes":[],"default_left":[0,0,0,0,0,0,0,0,0,0,0,0,0,0,0,0,0,0,0,0,0,0,0,0,0,0,0,0,0,0,0],"id":27,"left_children":[1,3,5,7,9,11,-1,-1,13,15,-1,17,19,21,-1,-1,23,-1,25,-1,-1,27,29,-1,-1,-1,-1,-1,-1,-1,-1],"loss_changes":[8.0327625E4,1.853925E4,9.9190625E3,1.5741875E3,8.873531E3,3.1426875E3,0E0,0E0,1.5504062E3,5.49375E2,0E0,6.849625E3,2.85325E3,1.0370312E3,0E0,0E0,1.00609375E2,0E0,1.4033984E3,0E0,0E0,1.5573594E3,1.6522812E3,0E0,0E0,0E0,0E0,0E0,0E0,0E0,0E0],"parents":[2147483647,0,0,1,1,2,2,3,3,4,4,5,5,8,8,9,9,11,11,12,12,13,13,16,16,18,18,21,21,22,22],"right_children":[2,4,6,8,10,12,-1,-1,14,16,-1,18,20,22,-1,-1,24,-1,26,-1,-1,28,30,-1,-1,-1,-1,-1,-1,-1,-1],"split_conditions":[2.918617E4,1.2813182E3,2.1786584E3,2.0477902E4,1.8328773E3,5E0,3.250555E0,7.8602076E-1,7.2415686E0,1.9486543E0,2.9916449E0,8.605054E0,6E0,2.6511208E1,1.2119776E0,1.7030232E0,1.0371951E2,2.5627582E0,1.9748037E1,3.195616E0,2.4644077E0,2.1919104E4,1.387992E1,1.8799919E0,2.2215939E0,1.4778503E0,2.1425502E0,1.5170221E0,1.9150404E0,1.2526103E0,1.5801139E0],"split_indices":[8,23,23,8,23,7,0,0,11,15,0,10,7,14,0,0,24,0,12,0,0,8,13,0,0,0,0,0,0,0,0],"split_type":[0,0,0,0,0,0,0,0,0,0,0,0,0,0,0,0,0,0,0,0,0,0,0,0,0,0,0,0,0,0,0],"sum_hessian":[1.0867561E3,7.4894403E2,3.3781207E2,4.963879E2,2.5255612E2,2.735941E2,6.4218E1,1.0783234E1,4.8560468E2,2.2725357E2,2.5302546E1,1.4797139E2,1.2562269E2,4.287058E2,5.6898872E1,7.103155E1,1.5622203E2,8.75259E1,6.044548E1,3.8091934E1,8.7530754E1,1.7539732E2,2.5330849E2,9.559417E1,6.0627853E1,3.580609E1,2.4639389E1,1.0436165E2,7.103567E1,9.1265785E1,1.620427E2],"tree_param":{"num_deleted":"0","num_feature":"26","num_nodes":"31","size_leaf_vector":"1"}},{"base_weights":[3.7980396E1,3.3099392E1,4.97653E1,2.953259E1,3.8483837E1,4.37414E1,5.58135E1,2.4184387E1,3.1669603E1,3.4012848E1,4.381162E1,2.469404E0,3.1223265E1,5.8460938E1,2.0980248E0,7.5005513E-1,2.4906452E1,2.891246E1,3.7369255E1,1.2208295E0,1.7307711E0,1.6640557E0,4.5999146E1,1.7523901E0,1.3039969E0,2.349405E0,3.1687467E0,1.0821007E0,1.3839616E0,1.8461713E0,2.706805E1,1.3894424E0,2.1181502E0,1.8359807E0,2.4253738E0,9.8085195E-1,1.4028447E0],"categories":[],"categories_nodes":[],"categories_segments":[],"categories_sizes":[],"default_left":[0,0,0,0,0,0,0,0,0,0,0,0,0,0,0,0,0,0,0,0,0,0,0,0,0,0,0,0,0,0,0,0,0,0,0,0,0],"id":28,"left_children":[1,3,5,7,9,11,13,15,17,19,21,-1,23,25,-1,-1,27,29,31,-1,-1,-1,33,-1,-1,-1,-1,-1,-1,-1,35,-1,-1,-1,-1,-1,-1],"loss_changes":[5.5505375E4,1.23998125E4,8.06225E3,4.119875E3,5.1072188E3,9.001E3,2.6739062E3,4.5477344E2,3.6645938E3,3.7E1,1.2860312E3,0E0,3.55625E1,3.5003438E3,0E0,0E0,4.3570312E2,2.0666562E3,3.3659375E3,0E0,0E0,0E0,5.0846875E2,0E0,0E0,0E0,0E0,0E0,0E0,0E0,7.137031E2,0E0,0E0,0E0,0E0,0E0,0E0],"parents":[2147483647,0,0,1,1,2,2,3,3,4,4,5,5,6,6,7,7,8,8,9,9,10,10,12,12,13,13,16,16,17,17,18,18,22,22,30,30],"right_children":[2,4,6,8,10,12,14,16,18,20,22,-1,24,26,-1,-1,28,30,32,-1,-1,-1,34,-1,-1,-1,-1,-1,-1,-1,36,-1,-1,-1,-1,-1,-1],"split_conditions":[1.5024425E3,1.9642991E3,5E0,1.3812195E1,2.004664E1,9.279438E0,1.3545817E0,1.0868732E1,2.5478924E1,1.1304722E3,1E0,2.469404E0,4E0,8.078424E0,2.0980248E0,7.5005513E-1,1.7148424E3,1E0,8.518519E-1,1.2208295E0,1.7307711E0,1.6640557E0,1.122034E0,1.7523901E0,1.3039969E0,2.349405E0,3.1687467E0,1.0821007E0,1.3839616E0,1.8461713E0,2.7554287E1,1.3894424E0,2.1181502E0,1.8359807E0,2.4253738E0,9.8085195E-1,1.4028447E0],"split_indices":[25,9,7,13,14,10,2,13,12,23,1,0,1,13,0,0,9,1,11,0,0,0,11,0,0,0,0,0,0,0,14,0,0,0,0,0,0],"split_type":[0,0,0,0,0,0,0,0,0,0,0,0,0,0,0,0,0,0,0,0,0,0,0,0,0,0,0,0,0,0,0,0,0,0,0,0,0],"sum_hessian":[9.930043E2,7.0489075E2,2.881135E2,4.2794736E2,2.769434E2,1.4849591E2,1.3961758E2,1.2573456E2,3.022128E2,1.5462498E2,1.223184E2,1.0028853E2,4.820739E1,1.1449482E2,2.5122772E1,1.0783234E1,1.14951324E2,2.0781158E2,9.4401215E1,1.1618207E1,1.4300677E2,2.385143E1,9.846697E1,2.428024E1,2.392715E1,3.7519688E1,7.697513E1,5.6888687E1,5.8062637E1,3.530166E1,1.7250992E2,3.461597E1,5.9785248E1,2.4306007E1,7.4160965E1,2.268892E1,1.49821E2],"tree_param":{"num_deleted":"0","num_feature":"26","num_nodes":"37","size_leaf_vector":"1"}},{"base_weights":[3.603185E1,3.082078E1,4.4691044E1,2.8815643E1,3.7788975E1,3.462637E1,4.9575176E1,2.1538763E0,2.8391235E1,3.5644424E1,2.3182514E0,3.5663914E1,1.0926993E0,5.177572E1,3.4919147E1,2.866561E1,7.157352E-1,1.8775265E0,1.3347311E0,1.9162664E0,1.5445603E0,2.7855327E0,4.4966385E1,1.9496889E0,1.2000874E0,2.5263203E1,3.0038237E1,1.1859118E0,2.3990993E0,1.1071926E0,1.4851663E0,1.5465893E0,1.0548267E0],"categories":[],"categories_nodes":[],"categories_segments":[],"categories_sizes":[],"default_left":[0,0,0,0,0,0,0,0,0,0,0,0,0,0,0,0,0,0,0,0,0,0,0,0,0,0,0,0,0,0,0,0,0],"id":29,"left_children":[1,3,5,7,9,11,13,-1,15,17,-1,19,-1,21,23,25,-1,-1,-1,-1,-1,-1,27,-1,-1,29,31,-1,-1,-1,-1,-1,-1],"loss_changes":[4.6640375E4,8.2231875E3,1.781E4,1.9205625E3,1.0079375E3,9.696719E2,6.7271875E3,0E0,1.549375E3,1.0450156E3,0E0,3.408125E2,0E0,3.592875E3,7.2415625E2,1.5594375E3,0E0,0E0,0E0,0E0,0E0,0E0,4.541625E3,0E0,0E0,1.4052266E3,2.135375E3,0E0,0E0,0E0,0E0,0E0,0E0],"parents":[2147483647,0,0,1,1,2,2,3,3,4,4,5,5,6,6,8,8,9,9,11,11,13,13,14,14,15,15,22,22,25,25,26,26],"right_children":[2,4,6,8,10,12,14,-1,16,18,-1,20,-1,22,24,26,-1,-1,-1,-1,-1,-1,28,-1,-1,30,32,-1,-1,-1,-1,-1,-1],"split_conditions":[2.669531E3,1.7677498E2,1.0716923E2,6.576923E2,1.4275078E1,1E0,3.1972623E2,2.1538763E0,1.7573166E2,2.8225563E1,2.3182514E0,2.080208E0,1.0926993E0,1.3545817E0,1.7334976E3,8.178965E2,7.157352E-1,1.8775265E0,1.3347311E0,1.9162664E0,1.5445603E0,2.7855327E0,1.23234E2,1.9496889E0,1.2000874E0,1.4237045E1,8.855656E0,1.1859118E0,2.3990993E0,1.1071926E0,1.4851663E0,1.5465893E0,1.0548267E0],"split_indices":[9,21,21,0,10,4,21,0,21,14,0,15,0,2,0,25,0,0,0,0,0,0,21,0,0,10,11,0,0,0,0,0,0],"split_type":[0,0,0,0,0,0,0,0,0,0,0,0,0,0,0,0,0,0,0,0,0,0,0,0,0,0,0,0,0,0,0,0,0],"sum_hessian":[1.0636415E3,6.668985E2,3.9674298E2,5.218979E2,1.4500061E2,1.3228854E2,2.6445444E2,1.2157263E1,5.0974063E2,1.2014746E2,2.4853153E1,1.20670334E2,1.1618207E1,2.2771136E2,3.6743076E1,4.989574E2,1.0783234E1,9.638949E1,2.3757973E1,7.2916695E1,4.7753635E1,1.3973596E2,8.79754E1,2.4864044E1,1.1879032E1,1.4907086E2,3.4988654E2,1.2048119E1,7.5927284E1,9.1114426E1,5.795644E1,3.1583246E2,3.4054058E1],"tree_param":{"num_deleted":"0","num_feature":"26","num_nodes":"33","size_leaf_vector":"1"}},{"base_weights":[3.381996E1,2.9313545E1,4.3162804E1,2.8152403E1,4.79183E1,4.7170654E1,3.6222202E1,2.7276701E1,3.8096E1,2.9701648E0,1.9954998E0,4.451807E1,2.8495932E0,3.900187E1,1.1841581E0,3.2131145E1,2.6151066E1,1.4973958E0,2.2254355E0,2.929095E0,4.2933983E1,1.2706901E0,4.293456E1,1.6577901E0,1.0919527E0,2.2875198E1,2.753543E1,1.9648689E0,2.3609192E0,1.835136E0,2.3931499E0,1.4198169E0,1.047449E0,1.256477E0,1.4949058E0],"categories":[],"categories_nodes":[],"categories_segments":[],"categories_sizes":[],"default_left":[0,0,0,0,0,0,0,0,0,0,0,0,0,0,0,0,0,0,0,0,0,0,0,0,0,0,0,0,0,0,0,0,0,0,0],"id":30,"left_children":[1,3,5,7,9,11,13,15,17,-1,-1,19,-1,21,-1,23,25,-1,-1,-1,27,-1,29,-1,-1,31,33,-1,-1,-1,-1,-1,-1,-1,-1],"loss_changes":[4.1016125E4,1.333875E4,7.3013125E3,4.5437188E3,1.1462891E3,2.7095312E3,3.35275E3,2.3927812E3,1.2325547E3,0E0,0E0,1.1099062E3,0E0,4.1950938E3,0E0,3.936172E2,1.5695312E3,0E0,0E0,0E0,4.7484375E2,0E0,5.382969E2,0E0,0E0,9.9653906E2,1.155125E3,0E0,0E0,0E0,0E0,0E0,0E0,0E0,0E0],"parents":[2147483647,0,0,1,1,2,2,3,3,4,4,5,5,6,6,7,7,8,8,11,11,13,13,15,15,16,16,20,20,22,22,25,25,26,26],"right_children":[2,4,6,8,10,12,14,16,18,-1,-1,20,-1,22,-1,24,26,-1,-1,-1,28,-1,30,-1,-1,32,34,-1,-1,-1,-1,-1,-1,-1,-1],"split_conditions":[2.772264E4,3.138199E3,2.0131907E0,2.2639117E2,1E0,3.931404E4,4E0,2E0,3E0,2.9701648E0,1.9954998E0,7.454128E-1,2.8495932E0,2.3177246E3,1.1841581E0,1.7877081E2,2.0107143E0,1.4973958E0,2.2254355E0,2.929095E0,3.276355E3,1.2706901E0,5.833333E-1,1.6577901E0,1.0919527E0,8.3597565E1,2.351762E4,1.9648689E0,2.3609192E0,1.835136E0,2.3931499E0,1.4198169E0,1.047449E0,1.256477E0,1.4949058E0],"split_indices":[8,9,15,21,1,8,1,1,1,0,0,2,0,9,0,21,15,0,0,0,9,0,22,0,0,21,8,0,0,0,0,0,0,0,0],"split_type":[0,0,0,0,0,0,0,0,0,0,0,0,0,0,0,0,0,0,0,0,0,0,0,0,0,0,0,0,0,0,0,0,0,0,0],"sum_hessian":[1.0037588E3,6.7995807E2,3.238007E2,6.4239484E2,3.7563255E1,2.0156651E2,1.22234184E2,5.9386804E2,4.8526756E1,1.2779936E1,2.4783321E1,1.630832E2,3.8483315E1,9.830704E1,2.392715E1,1.06549286E2,4.873188E2,2.388939E1,2.4637363E1,1.2847713E1,1.5023549E2,2.3757973E1,7.4549065E1,9.485512E1,1.1694166E1,1.5003256E2,3.3728622E2,8.680093E1,6.3434566E1,3.667843E1,3.7870632E1,3.5210506E1,1.1482205E2,1.7294328E2,1.6434293E2],"tree_param":{"num_deleted":"0","num_feature":"26","num_nodes":"35","size_leaf_vector":"1"}},{"base_weights":[3.1816814E1,2.6275732E1,3.812753E1,2.5486515E1,2.0344849E0,3.166652E1,4.2723827E1,3.0187078E1,2.4312466E1,2.8324335E0,2.9581896E1,4.0827625E1,2.8960407E0,2.7689692E1,2.1680586E0,2.1007458E1,2.7273344E1,3.115739E1,1.834675E1,4.1731365E1,1.0901314E0,2.9579927E1,1.0925516E0,1.2739601E0,1.9421988E1,1.4424878E0,1.1346295E0,1.6253567E0,1.2926736E0,1.0764903E0,6.7857987E-1,2.112576E0,1.498043E0,1.5546331E0,1.0806146E0,6.254932E-1,9.9344397E-1],"categories":[],"categories_nodes":[],"categories_segments":[],"categories_sizes":[],"default_left":[0,0,0,0,0,0,0,0,0,0,0,0,0,0,0,0,0,0,0,0,0,0,0,0,0,0,0,0,0,0,0,0,0,0,0,0,0],"id":31,"left_children":[1,3,5,7,-1,9,11,13,15,-1,17,19,-1,21,-1,23,25,27,29,31,-1,33,-1,-1,35,-1,-1,-1,-1,-1,-1,-1,-1,-1,-1,-1,-1],"loss_changes":[3.32185E4,4.9110312E3,1.21530625E4,2.0095312E3,0E0,8.362672E3,5.192875E3,1.9283594E3,3.3790156E3,0E0,2.6080625E3,3.1544688E3,0E0,2.5732422E2,0E0,8.808047E2,8.491719E2,2.6475E2,7.195801E1,9.375E1,0E0,3.5933594E1,0E0,0E0,2.0169531E2,0E0,0E0,0E0,0E0,0E0,0E0,0E0,0E0,0E0,0E0,0E0,0E0],"parents":[2147483647,0,0,1,1,2,2,3,3,5,5,6,6,7,7,8,8,10,10,11,11,13,13,15,15,16,16,17,17,18,18,19,19,21,21,24,24],"right_children":[2,4,6,8,-1,10,12,14,16,-1,18,20,-1,22,-1,24,26,28,30,32,-1,34,-1,-1,36,-1,-1,-1,-1,-1,-1,-1,-1,-1,-1,-1,-1],"split_conditions":[1.2564711E3,1.4861278E1,1.23234E2,2E0,2.0344849E0,7.107151E0,2.3057866E3,1.4105946E1,7E0,2.8324335E0,1.0454108E2,3.248323E2,2.8960407E0,1E0,2.1680586E0,3E0,6.1643834E0,2.0479486E0,1.3E1,1.6E1,1.0901314E0,2.4953674E4,1.0925516E0,1.2739601E0,2.0477902E4,1.4424878E0,1.1346295E0,1.6253567E0,1.2926736E0,1.0764903E0,6.7857987E-1,2.112576E0,1.498043E0,1.5546331E0,1.0806146E0,6.254932E-1,9.9344397E-1],"split_indices":[23,13,21,1,0,10,25,10,1,0,21,21,0,1,0,1,11,15,1,3,0,8,0,0,8,0,0,0,0,0,0,0,0,0,0,0,0],"split_type":[0,0,0,0,0,0,0,0,0,0,0,0,0,0,0,0,0,0,0,0,0,0,0,0,0,0,0,0,0,0,0,0,0,0,0,0,0],"sum_hessian":[9.781666E2,5.236182E2,4.545484E2,4.9908075E2,2.453749E1,1.9225322E2,2.622952E2,9.475222E1,4.0432852E2,1.2779936E1,1.7947328E2,2.3649313E2,2.5802044E1,8.22793E1,1.2472924E1,1.9493434E2,2.0939418E2,1.558225E2,2.365078E1,2.246141E2,1.1879032E1,5.904591E1,2.3233387E1,4.702968E1,1.4790466E2,1.5179294E2,5.7601234E1,1.2007922E2,3.5743275E1,1.2048119E1,1.160266E1,2.1260374E2,1.2010359E1,4.7153347E1,1.1892564E1,1.0783234E1,1.3712143E2],"tree_param":{"num_deleted":"0","num_feature":"26","num_nodes":"37","size_leaf_vector":"1"}},{"base_weights":[3.0657362E1,2.706757E1,4.0655407E1,2.531778E1,3.395716E1,3.001844E1,4.4594368E1,2.4066431E1,2.9149534E1,9.913319E-1,3.5028038E1,1.8483218E0,1.0993698E0,4.7667854E1,3.0876562E1,2.7594078E1,2.143969E1,2.2733889E1,1.747288E0,2.7913404E1,1.9287347E0,4.886956E1,1.5726244E0,9.629323E-1,1.7657486E0,1.1581391E0,1.4686459E0,7.092295E-1,2.2437168E1,1.2643713E0,9.754608E-1,1.5795527E0,1.1532404E0,1.9811219E0,5.1814972E1,1.0151031E0,1.2671381E0,2.8986866E0,2.3634703E0],"categories":[],"categories_nodes":[],"categories_segments":[],"categories_sizes":[],"default_left":[0,0,0,0,0,0,0,0,0,0,0,0,0,0,0,0,0,0,0,0,0,0,0,0,0,0,0,0,0,0,0,0,0,0,0,0,0,0,0],"id":32,"left_children":[1,3,5,7,9,11,13,15,17,-1,19,-1,-1,21,23,25,27,29,-1,31,-1,33,-1,-1,-1,-1,-1,-1,35,-1,-1,-1,-1,-1,37,-1,-1,-1,-1],"loss_changes":[3.4898875E4,8.0610625E3,9.663469E3,2.1366562E3,1.5165938E3,3.309086E3,6.5127812E3,3.6052812E3,4.45925E3,0E0,2.32275E3,0E0,0E0,1.4263125E3,1.2435547E3,8.051719E2,1.588875E3,7.097266E1,0E0,1.2383594E2,0E0,1.7575625E3,0E0,0E0,0E0,0E0,0E0,0E0,9.064922E2,0E0,0E0,0E0,0E0,0E0,1.283125E2,0E0,0E0,0E0,0E0],"parents":[2147483647,0,0,1,1,2,2,3,3,4,4,5,5,6,6,7,7,8,8,10,10,13,13,14,14,15,15,16,16,17,17,19,19,21,21,28,28,34,34],"right_children":[2,4,6,8,10,12,14,16,18,-1,20,-1,-1,22,24,26,28,30,-1,32,-1,34,-1,-1,-1,-1,-1,-1,36,-1,-1,-1,-1,-1,38,-1,-1,-1,-1],"split_conditions":[2.977271E3,2.0465942E2,4E0,2.311194E1,1.9642991E3,1.7995552E1,1.4E1,1.2527473E2,8.518519E-1,9.913319E-1,5E0,1.8483218E0,1.0993698E0,3.6574423E2,1.5776296E3,2.4548716E3,2.3086626E1,8.1672375E2,1.747288E0,2.772264E4,1.9287347E0,1.5970506E2,1.5726244E0,9.629323E-1,1.7657486E0,1.1581391E0,1.4686459E0,7.092295E-1,8.7316705E2,1.2643713E0,9.754608E-1,1.5795527E0,1.1532404E0,1.9811219E0,9.766355E-1,1.0151031E0,1.2671381E0,2.8986866E0,2.3634703E0],"split_indices":[9,24,3,12,9,14,1,24,11,0,7,0,0,24,0,9,14,0,0,8,0,24,0,0,0,0,0,0,0,0,0,0,0,0,2,0,0,0,0],"split_type":[0,0,0,0,0,0,0,0,0,0,0,0,0,0,0,0,0,0,0,0,0,0,0,0,0,0,0,0,0,0,0,0,0,0,0,0,0,0,0],"sum_hessian":[1.0025865E3,7.404615E2,2.6212494E2,5.942538E2,1.4620776E2,7.318623E1,1.8893872E2,4.535089E2,1.4074484E2,1.1694166E1,1.345136E2,3.7287216E1,3.5899017E1,1.5231554E2,3.6623184E1,1.8945558E2,2.640533E2,6.916376E1,7.158109E1,4.7727196E1,8.678639E1,1.3991434E2,1.2401206E1,1.1618207E1,2.5004976E1,5.8332546E1,1.3112303E2,3.37918E1,2.3026154E2,3.472836E1,3.44354E1,2.3969227E1,2.3757973E1,3.731572E1,1.0259861E2,1.3739243E2,9.286911E1,3.8548943E1,6.404967E1],"tree_param":{"num_deleted":"0","num_feature":"26","num_nodes":"39","size_leaf_vector":"1"}},{"base_weights":[2.946384E1,2.6101374E1,3.8935936E1,2.566673E0,2.5618904E1,3.424425E1,4.324013E1,2.3561712E1,2.8412233E1,2.5870296E1,2.0250099E0,2.467097E0,3.921072E1,1.8694803E1,2.5146585E1,2.9318079E1,7.9901767E-1,1.0349993E0,1.6137234E0,1.5019683E0,2.1135018E0,1.7069029E1,1.2019075E0,2.7010368E1,9.9594396E-1,3.0963211E1,2.6102331E1,5.6442064E-1,8.8479567E-1,1.08118E0,1.5049882E0,9.7811E-1,1.5791638E0,1.42738E0,1.1231596E0],"categories":[],"categories_nodes":[],"categories_segments":[],"categories_sizes":[],"default_left":[0,0,0,0,0,0,0,0,0,0,0,0,0,0,0,0,0,0,0,0,0,0,0,0,0,0,0,0,0,0,0,0,0,0,0],"id":33,"left_children":[1,3,5,-1,7,9,11,13,15,17,-1,-1,19,21,23,25,-1,-1,-1,-1,-1,27,-1,29,-1,31,33,-1,-1,-1,-1,-1,-1,-1,-1],"loss_changes":[3.2846062E4,8.2566875E3,4.0825312E3,0E0,3.770625E3,6.1200312E3,1.4916562E3,3.0066719E3,3.1658125E3,1.3510352E3,0E0,0E0,1.2192969E3,5.771289E2,2.7446406E3,7.6553125E2,0E0,0E0,0E0,0E0,0E0,1.2396094E2,0E0,3.4371719E3,0E0,7.3478125E2,3.063125E2,0E0,0E0,0E0,0E0,0E0,0E0,0E0,0E0],"parents":[2147483647,0,0,1,1,2,2,4,4,5,5,6,6,7,7,8,8,9,9,12,12,13,13,14,14,15,15,21,21,23,23,25,25,26,26],"right_children":[2,4,6,-1,8,10,12,14,16,18,-1,-1,20,22,24,26,-1,-1,-1,-1,-1,28,-1,30,-1,32,34,-1,-1,-1,-1,-1,-1,-1,-1],"split_conditions":[3.08201E4,7.107151E0,5E0,2.566673E0,1.9642991E3,3.7853323E3,6E0,2.0755611E1,1E0,4E0,2.0250099E0,2.467097E0,6E0,7.5E-1,6.470588E0,7.053704E0,7.9901767E-1,1.0349993E0,1.6137234E0,1.5019683E0,2.1135018E0,2.0477902E4,1.2019075E0,1.5146053E0,9.9594396E-1,9.808891E0,8.873737E0,5.6442064E-1,8.8479567E-1,1.08118E0,1.5049882E0,9.7811E-1,1.5791638E0,1.42738E0,1.1231596E0],"split_indices":[8,10,7,0,9,9,7,12,4,7,0,0,3,22,11,11,0,0,0,0,0,8,0,11,0,12,10,0,0,0,0,0,0,0,0],"split_type":[0,0,0,0,0,0,0,0,0,0,0,0,0,0,0,0,0,0,0,0,0,0,0,0,0,0,0,0,0,0,0,0,0,0,0],"sum_hessian":[1.0628043E3,7.871602E2,2.7564404E2,1.2779936E1,7.743803E2,1.3620387E2,1.3944019E2,4.5144733E2,3.2293298E2,6.0459106E1,7.574477E1,5.0956238E1,8.848395E1,1.140873E2,3.3736002E2,2.9971213E2,2.3220867E1,3.5819714E1,2.4639389E1,2.4863617E1,6.3620327E1,9.0731735E1,2.3355568E1,2.4558128E2,9.177874E1,1.9250656E2,1.0720556E2,1.0783234E1,7.99485E1,9.246059E1,1.531207E2,1.1633634E1,1.8087292E2,5.997751E1,4.7228054E1],"tree_param":{"num_deleted":"0","num_feature":"26","num_nodes":"35","size_leaf_vector":"1"}},{"base_weights":[2.7555487E1,2.5699633E1,2.0154588E0,2.4181091E1,3.293259E1,2.3695988E1,1.7743015E0,1.020079E0,3.5376663E1,2.7226679E1,2.200536E1,1.621087E0,2.008986E0,2.9503004E1,2.4326618E1,1.8293905E1,2.3846663E1,1.2759883E0,1.6070737E0,1.2910271E0,9.4689506E-1,7.609302E-1,1.0314082E0,1.0025039E0,1.2910985E0],"categories":[],"categories_nodes":[],"categories_segments":[],"categories_sizes":[],"default_left":[0,0,0,0,0,0,0,0,0,0,0,0,0,0,0,0,0,0,0,0,0,0,0,0,0],"id":34,"left_children":[1,3,-1,5,7,9,-1,-1,11,13,15,-1,-1,17,19,21,23,-1,-1,-1,-1,-1,-1,-1,-1],"loss_changes":[2.0728312E4,8.04175E3,0E0,2.8164688E3,3.460375E3,3.2396875E3,0E0,0E0,2.8410938E2,6.1790625E2,2.5705312E3,0E0,0E0,3.18125E2,2.6884375E2,7.582578E2,1.6580781E3,0E0,0E0,0E0,0E0,0E0,0E0,0E0,0E0],"parents":[2147483647,0,0,1,1,3,3,4,4,5,5,8,8,9,9,10,10,13,13,14,14,15,15,16,16],"right_children":[2,4,-1,6,8,10,-1,-1,12,14,16,-1,-1,18,20,22,24,-1,-1,-1,-1,-1,-1,-1,-1],"split_conditions":[3.7853323E3,2.1804353E2,2.0154588E0,1.4861278E1,3E0,8.873737E0,1.7743015E0,1.020079E0,2.4743965E1,7E0,2.0071552E1,1.621087E0,2.008986E0,2.7859644E3,2.7993381E3,3E0,8.0877295E2,1.2759883E0,1.6070737E0,1.2910271E0,9.4689506E-1,7.609302E-1,1.0314082E0,1.0025039E0,1.2910985E0],"split_indices":[9,21,0,13,7,10,0,0,12,1,12,0,0,9,9,7,23,0,0,0,0,0,0,0,0],"split_type":[0,0,0,0,0,0,0,0,0,0,0,0,0,0,0,0,0,0,0,0,0,0,0,0,0],"sum_hessian":[9.193641E2,8.052296E2,1.14134476E2,6.691318E2,1.3609789E2,6.4459424E2,2.453749E1,2.3758064E1,1.1233981E2,2.03767E2,4.4082727E2,7.438781E1,3.7952007E1,1.08962845E2,9.4804146E1,1.4985916E2,2.9096808E2,4.7714775E1,6.1248074E1,7.121407E1,2.3590073E1,6.7965385E1,8.189378E1,1.0344556E2,1.8752254E2],"tree_param":{"num_deleted":"0","num_feature":"26","num_nodes":"25","size_leaf_vector":"1"}},{"base_weights":[2.5739735E1,2.2976542E1,3.5259914E1,2.1229477E1,2.9156286E1,2.6880941E1,3.907436E1,2.0190044E1,2.4963087E1,2.5020395E1,3.283108E1,1.5374485E0,8.952486E-1,4.1711266E1,2.4137178E1,2.2996408E1,1.7953379E1,2.1247221E1,1.5353715E0,2.6620869E1,1.0031437E0,1.2312392E0,1.780246E0,1.8242062E0,2.2321162E0,1.4150288E0,8.9438087E-1,2.3627209E1,5.277144E-1,1.4884302E1,2.038787E1,8.987989E-1,1.1614854E0,1.398137E0,9.713203E-1,9.0880936E-1,1.2327559E0,7.824177E-1,5.424234E-1,1.0833653E0,8.5372466E-1],"categories":[],"categories_nodes":[],"categories_segments":[],"categories_sizes":[],"default_left":[0,0,0,0,0,0,0,0,0,0,0,0,0,0,0,0,0,0,0,0,0,0,0,0,0,0,0,0,0,0,0,0,0,0,0,0,0,0,0,0,0],"id":35,"left_children":[1,3,5,7,9,11,13,15,17,19,21,-1,-1,23,25,27,29,31,-1,33,-1,-1,-1,-1,-1,-1,-1,35,-1,37,39,-1,-1,-1,-1,-1,-1,-1,-1,-1,-1],"loss_changes":[2.5803938E4,7.8683438E3,6.1479688E3,1.8795625E3,1.7579375E3,1.9998633E3,4.998375E3,2.6408281E3,2.1115156E3,1.2336328E2,1.0907578E3,0E0,0E0,3.1751562E2,1.3929297E2,1.41225E3,1.7513984E3,1.0410156E2,0E0,3.0191406E1,0E0,0E0,0E0,0E0,0E0,0E0,0E0,6.7034375E2,0E0,2.1094727E2,2.6022266E2,0E0,0E0,0E0,0E0,0E0,0E0,0E0,0E0,0E0,0E0],"parents":[2147483647,0,0,1,1,2,2,3,3,4,4,5,5,6,6,7,7,8,8,9,9,10,10,13,13,14,14,15,15,16,16,17,17,19,19,27,27,29,29,30,30],"right_children":[2,4,6,8,10,12,14,16,18,20,22,-1,-1,24,26,28,30,32,-1,34,-1,-1,-1,-1,-1,-1,-1,36,-1,38,40,-1,-1,-1,-1,-1,-1,-1,-1,-1,-1],"split_conditions":[2.9633538E3,2.0465942E2,1.23234E2,2.5478924E1,5E0,1.3931896E1,3.1972623E2,1.2659341E2,1.006231E0,1.395484E1,1.122034E0,1.5374485E0,8.952486E-1,1.3879115E2,1.7053695E3,8.855656E0,1.39852085E1,5E0,1.5353715E0,1.3069348E3,1.0031437E0,1.2312392E0,1.780246E0,1.8242062E0,2.2321162E0,1.4150288E0,8.9438087E-1,8.310714E1,5.277144E-1,1.8763877E3,6.470588E0,8.987989E-1,1.1614854E0,1.398137E0,9.713203E-1,9.0880936E-1,1.2327559E0,7.824177E-1,5.424234E-1,1.0833653E0,8.5372466E-1],"split_indices":[9,24,21,12,7,12,21,24,11,13,11,0,0,21,0,11,13,3,0,0,0,0,0,0,0,0,0,24,0,9,11,0,0,0,0,0,0,0,0,0,0],"split_type":[0,0,0,0,0,0,0,0,0,0,0,0,0,0,0,0,0,0,0,0,0,0,0,0,0,0,0,0,0,0,0,0,0,0,0,0,0,0,0,0,0],"sum_hessian":[1.01137E3,7.865283E2,2.2484163E2,6.166735E2,1.6985483E2,7.287879E1,1.5196284E2,4.8745474E2,1.2921877E2,8.362605E1,8.622878E1,4.9212463E1,2.3666325E1,1.2762097E2,2.434187E1,2.1201817E2,2.7543655E2,8.134792E1,4.7870842E1,5.986808E1,2.3757973E1,2.4306007E1,6.1922775E1,5.071942E1,7.690155E1,1.2462837E1,1.1879032E1,2.0090924E2,1.11089325E1,1.2504012E2,1.5039642E2,3.455253E1,4.6795395E1,4.7989044E1,1.1879032E1,3.4885475E1,1.6602377E2,1.0265423E2,2.2385895E1,1.044384E2,4.595803E1],"tree_param":{"num_deleted":"0","num_feature":"26","num_nodes":"41","size_leaf_vector":"1"}},{"base_weights":[2.5466232E1,2.2179255E1,3.5550255E1,3.4583076E1,2.1339449E1,3.717168E1,2.4759865E1,2.3018367E0,1.4741988E0,1.8772715E1,2.337405E1,1.5202193E0,3.8885693E1,1.3811889E0,8.5313416E-1,1.6296162E1,2.1826303E1,1.7465773E1,2.4711552E1,1.7342234E0,4.2599586E1,1.0384244E0,1.5190749E1,1.942315E1,1.3308065E0,1.0421132E0,1.4508758E1,2.7608767E1,2.1423174E1,3.510495E1,2.2483194E0,7.1516246E-1,9.795417E-1,7.106546E-1,1.0342482E0,7.810685E-1,5.093574E-1,9.9235404E-1,1.4676845E0,8.359899E-1,1.1538501E0,2.1593075E0,1.215164E0],"categories":[],"categories_nodes":[],"categories_segments":[],"categories_sizes":[],"default_left":[0,0,0,0,0,0,0,0,0,0,0,0,0,0,0,0,0,0,0,0,0,0,0,0,0,0,0,0,0,0,0,0,0,0,0,0,0,0,0,0,0,0,0],"id":36,"left_children":[1,3,5,7,9,11,13,-1,-1,15,17,-1,19,-1,-1,21,23,25,27,-1,29,-1,31,33,-1,-1,35,37,39,41,-1,-1,-1,-1,-1,-1,-1,-1,-1,-1,-1,-1,-1],"loss_changes":[3.5260812E4,7.8214688E3,3.7115938E3,1.573668E3,3.5891875E3,1.453875E3,3.4726953E2,0E0,0E0,2.2590703E3,2.9336875E3,0E0,1.2945938E3,0E0,0E0,6.414844E2,1.2247969E3,5.0928125E2,2.6912188E3,0E0,5.796875E0,0E0,3.373086E2,3.878086E2,0E0,0E0,6.028125E1,1.8470312E3,8.9828125E2,1.230459E3,0E0,0E0,0E0,0E0,0E0,0E0,0E0,0E0,0E0,0E0,0E0,0E0,0E0],"parents":[2147483647,0,0,1,1,2,2,3,3,4,4,5,5,6,6,9,9,10,10,12,12,15,15,16,16,17,17,18,18,20,20,22,22,23,23,26,26,27,27,28,28,29,29],"right_children":[2,4,6,8,10,12,14,-1,-1,16,18,-1,20,-1,-1,22,24,26,28,-1,30,-1,32,34,-1,-1,36,38,40,42,-1,-1,-1,-1,-1,-1,-1,-1,-1,-1,-1,-1,-1],"split_conditions":[3.08201E4,8.058566E0,3.1972623E2,1E0,2.351762E4,1.2747748E0,1.7334976E3,2.3018367E0,1.4741988E0,5E0,1.1705214E0,1.5202193E0,1.3879115E2,1.3811889E0,8.5313416E-1,1.942071E0,2.1927084E4,2.4340578E4,6.470588E0,1.7342234E0,1.5195315E3,1.0384244E0,2.2E1,8.012071E2,1.3308065E0,1.0421132E0,1.0760573E3,1.9410223E0,9.01942E2,1.3738636E3,2.2483194E0,7.1516246E-1,9.795417E-1,7.106546E-1,1.0342482E0,7.810685E-1,5.093574E-1,9.9235404E-1,1.4676845E0,8.359899E-1,1.1538501E0,2.1593075E0,1.215164E0],"split_indices":[8,13,21,1,8,11,0,0,0,7,11,0,21,0,0,15,8,8,11,0,0,0,1,0,0,0,0,15,0,0,0,0,0,0,0,0,0,0,0,0,0,0,0],"split_type":[0,0,0,0,0,0,0,0,0,0,0,0,0,0,0,0,0,0,0,0,0,0,0,0,0,0,0,0,0,0,0,0,0,0,0,0,0,0,0,0,0,0,0],"sum_hessian":[1.0871146E3,8.2230597E2,2.6480865E2,4.9573616E1,7.7273236E2,2.2806558E2,3.6743076E1,1.2779936E1,3.679368E1,3.4627106E2,4.2646127E2,4.9912827E1,1.7815276E2,2.4864044E1,1.1879032E1,1.9475433E2,1.5151674E2,8.135717E1,3.451041E2,8.848113E1,8.9671616E1,3.501793E1,1.597364E2,1.0430333E2,4.721341E1,3.5113113E1,4.6244057E1,1.7948358E2,1.6562051E2,2.535193E1,6.431969E1,1.365192E2,2.3217205E1,2.2773369E1,8.152996E1,3.4641396E1,1.160266E1,3.5246773E1,1.4423682E2,4.6023567E1,1.1959695E2,1.2771298E1,1.2580632E1],"tree_param":{"num_deleted":"0","num_feature":"26","num_nodes":"43","size_leaf_vector":"1"}},{"base_weights":[2.417837E1,2.2189856E1,3.600247E1,2.0515623E1,2.9326946E1,1.6449488E0,2.2037425E0,1.937369E1,2.4064043E1,2.590387E1,3.6962852E1,2.1828018E1,1.7426329E1,2.0458145E1,1.5288606E0,1.4584109E0,2.2184298E1,2.191244E0,1.4199141E0,1.968355E1,2.4397057E1,1.5455038E1,1.955212E1,1.520343E0,1.9029081E1,8.782286E-1,1.2301491E0,8.246338E-1,1.0284737E0,1.3122491E0,1.0014852E0,7.000672E-1,9.030846E-1,1.2120707E0,8.6236924E-1,7.961926E-1,1.0578264E0],"categories":[],"categories_nodes":[],"categories_segments":[],"categories_sizes":[],"default_left":[0,0,0,0,0,0,0,0,0,0,0,0,0,0,0,0,0,0,0,0,0,0,0,0,0,0,0,0,0,0,0,0,0,0,0,0,0],"id":37,"left_children":[1,3,5,7,9,-1,-1,11,13,15,17,19,21,23,-1,-1,25,-1,-1,27,29,31,33,-1,35,-1,-1,-1,-1,-1,-1,-1,-1,-1,-1,-1,-1],"loss_changes":[2.4516E4,1.0435469E4,2.3719219E3,2.5700938E3,3.5555781E3,0E0,0E0,2.3537656E3,3.5636328E3,8.32E2,1.7485312E3,8.8466406E2,1.0508125E3,1.0881797E3,0E0,0E0,2.4518555E2,0E0,0E0,4.9867188E1,3.4471094E2,3.955586E2,1.2198398E3,0E0,3.5305078E2,0E0,0E0,0E0,0E0,0E0,0E0,0E0,0E0,0E0,0E0,0E0,0E0],"parents":[2147483647,0,0,1,1,2,2,3,3,4,4,7,7,8,8,9,9,10,10,11,11,12,12,13,13,16,16,19,19,20,20,21,21,22,22,24,24],"right_children":[2,4,6,8,10,-1,-1,12,14,16,18,20,22,24,-1,-1,26,-1,-1,28,30,32,34,-1,36,-1,-1,-1,-1,-1,-1,-1,-1,-1,-1,-1,-1],"split_conditions":[3.7853323E3,2.5226445E2,2.1786584E3,2.311194E1,6E0,1.6449488E0,2.2037425E0,1.3172176E2,1.1026157E0,3.105106E2,8E0,1.3176136E3,1.6631754E2,6.576923E2,1.5288606E0,1.4584109E0,1.0967295E1,2.191244E0,1.4199141E0,8.310714E1,2.080208E0,1.387992E1,8.896552E-1,1.520343E0,5E0,8.782286E-1,1.2301491E0,8.246338E-1,1.0284737E0,1.3122491E0,1.0014852E0,7.000672E-1,9.030846E-1,1.2120707E0,8.6236924E-1,7.961926E-1,1.0578264E0],"split_indices":[9,24,0,12,1,0,0,24,2,24,1,0,21,0,0,0,10,0,0,24,15,13,2,0,3,0,0,0,0,0,0,0,0,0,0,0,0],"split_type":[0,0,0,0,0,0,0,0,0,0,0,0,0,0,0,0,0,0,0,0,0,0,0,0,0,0,0,0,0,0,0,0,0,0,0,0,0],"sum_hessian":[1.0764028E3,9.2392413E2,1.5247865E2,7.5154236E2,1.7238177E2,1.138289E2,3.8649757E1,5.735198E2,1.780226E2,1.2208452E2,5.029725E1,2.4914728E2,3.2437247E2,1.1727984E2,6.0742752E1,6.133426E1,6.075026E1,2.561901E1,2.4678238E1,1.405793E2,1.08567986E2,1.726665E2,1.5170596E2,1.2157263E1,1.05122574E2,2.3758064E1,3.6992195E1,3.4885475E1,1.0569382E2,7.272035E1,3.5847633E1,1.1501228E2,5.765423E1,4.681215E1,1.04893814E2,4.6246696E1,5.887588E1],"tree_param":{"num_deleted":"0","num_feature":"26","num_nodes":"37","size_leaf_vector":"1"}},{"base_weights":[2.3012402E1,1.9835629E1,3.135743E1,1.8305212E1,2.7623463E1,2.5579231E1,3.548751E1,1.7820705E1,1.465605E0,3.0163572E1,1.0479356E0,1.4054961E0,1.8914265E1,3.7860107E1,2.0832914E1,1.4208743E1,1.9050766E1,1.3343229E0,1.8623947E0,7.529923E-1,1.2258023E0,2.265227E0,1.7313927E0,1.2198809E0,7.7328736E-1,6.2395173E-1,1.5343444E1,1.8154652E1,2.3585176E1,5.7230556E-1,8.2182515E-1,4.2352542E-1,9.2086995E-1,9.542718E-1,1.3686303E0],"categories":[],"categories_nodes":[],"categories_segments":[],"categories_sizes":[],"default_left":[0,0,0,0,0,0,0,0,0,0,0,0,0,0,0,0,0,0,0,0,0,0,0,0,0,0,0,0,0,0,0,0,0,0,0],"id":38,"left_children":[1,3,5,7,9,11,13,15,-1,17,-1,-1,19,21,23,25,27,-1,-1,-1,-1,-1,-1,-1,-1,-1,29,31,33,-1,-1,-1,-1,-1,-1],"loss_changes":[2.7294938E4,8.608875E3,5.9650938E3,2.8930312E3,1.4481641E3,1.5453203E3,4.957922E3,2.4675469E3,0E0,1.1377734E3,0E0,0E0,4.2231055E2,1.8106562E3,9.556348E1,1.1643945E2,1.4220156E3,0E0,0E0,0E0,0E0,0E0,0E0,0E0,0E0,0E0,1.990039E2,8.2109375E2,6.949219E2,0E0,0E0,0E0,0E0,0E0,0E0],"parents":[2147483647,0,0,1,1,2,2,3,3,4,4,5,5,6,6,7,7,9,9,12,12,13,13,14,14,15,15,16,16,26,26,27,27,28,28],"right_children":[2,4,6,8,10,12,14,16,-1,18,-1,-1,20,22,24,26,28,-1,-1,-1,-1,-1,-1,-1,-1,-1,30,32,34,-1,-1,-1,-1,-1,-1],"split_conditions":[2.977271E3,2.5226445E2,1.4443388E2,1.4674231E1,3.105106E2,1.2E1,3.1972623E2,8.534763E2,1.465605E0,2.62126E3,1.0479356E0,1.4054961E0,1.84851E3,9.766355E-1,1.7053695E3,1.3838742E1,2.311194E1,1.3343229E0,1.8623947E0,7.529923E-1,1.2258023E0,2.265227E0,1.7313927E0,1.2198809E0,7.7328736E-1,6.2395173E-1,1.3976043E1,9.206578E0,8.9295775E-1,5.7230556E-1,8.2182515E-1,4.2352542E-1,9.2086995E-1,9.542718E-1,1.3686303E0],"split_indices":[9,24,24,16,24,1,21,25,0,9,0,0,0,2,0,16,12,0,0,0,0,0,0,0,0,0,10,12,2,0,0,0,0,0,0],"split_type":[0,0,0,0,0,0,0,0,0,0,0,0,0,0,0,0,0,0,0,0,0,0,0,0,0,0,0,0,0,0,0,0,0,0,0],"sum_hessian":[1.0526442E3,7.648828E2,2.8776135E2,6.420918E2,1.2279098E2,1.2297661E2,1.6478473E2,6.175543E2,2.453749E1,8.632095E1,3.6470024E1,8.676814E1,3.6208466E1,1.4044287E2,2.434187E1,1.6013303E2,4.574213E2,6.1127693E1,2.5193262E1,2.3666325E1,1.2542139E1,3.8548943E1,1.0189392E2,1.2462837E1,1.1879032E1,6.829219E1,9.184083E1,3.861736E2,7.124769E1,2.268892E1,6.915191E1,1.11089325E1,3.7506467E2,3.535809E1,3.58896E1],"tree_param":{"num_deleted":"0","num_feature":"26","num_nodes":"35","size_leaf_vector":"1"}},{"base_weights":[2.185718E1,1.9103497E1,3.0569092E1,1.663638E1,2.0980438E1,3.209893E1,2.1531744E1,1.7279867E1,3.5941616E-1,1.745322E1,2.2441212E1,2.0275724E1,3.3599716E1,1.2031689E0,7.3762524E-1,1.6582483E1,1.235976E0,1.8279911E1,4.112947E-1,2.0893589E1,2.6896883E1,6.666497E-1,1.2692304E0,2.1238272E0,3.1820755E1,1.4970384E1,1.9758656E1,8.0539936E-1,1.054871E0,9.3428814E-1,1.1559173E0,1.0249606E0,1.4735833E0,2.936011E1,1.9060506E0,6.6160697E-1,8.9420575E-1,1.130598E0,8.2165426E-1,1.5088468E0,1.0533623E0],"categories":[],"categories_nodes":[],"categories_segments":[],"categories_sizes":[],"default_left":[0,0,0,0,0,0,0,0,0,0,0,0,0,0,0,0,0,0,0,0,0,0,0,0,0,0,0,0,0,0,0,0,0,0,0,0,0,0,0,0,0],"id":39,"left_children":[1,3,5,7,9,11,13,15,-1,17,19,21,23,-1,-1,25,-1,27,-1,29,31,-1,-1,-1,33,35,37,-1,-1,-1,-1,-1,-1,39,-1,-1,-1,-1,-1,-1,-1],"loss_changes":[2.3495969E4,3.186E3,2.6044219E3,1.9100156E3,1.8173281E3,2.9008125E3,2.8112695E2,1.2049844E3,0E0,8.3941016E2,1.5010469E3,5.503457E2,1.44325E3,0E0,0E0,1.1778594E3,0E0,3.7838672E2,0E0,6.7597656E2,6.020039E2,0E0,0E0,0E0,1.2267188E3,7.4897656E2,5.123828E2,0E0,0E0,0E0,0E0,0E0,0E0,1.2209375E2,0E0,0E0,0E0,0E0,0E0,0E0,0E0],"parents":[2147483647,0,0,1,1,2,2,3,3,4,4,5,5,6,6,7,7,9,9,10,10,11,11,12,12,15,15,17,17,19,19,20,20,24,24,25,25,26,26,33,33],"right_children":[2,4,6,8,10,12,14,16,-1,18,20,22,24,-1,-1,26,-1,28,-1,30,32,-1,-1,-1,34,36,38,-1,-1,-1,-1,-1,-1,40,-1,-1,-1,-1,-1,-1,-1],"split_conditions":[3.08201E4,9.915741E2,3.6574423E2,9.01942E2,1.9486543E0,1E0,1.7334976E3,1.4674231E1,3.5941616E-1,1.5776296E3,5E0,1.115671E3,9.766355E-1,1.2031689E0,7.3762524E-1,1.7298494E2,1.235976E0,1.2642271E1,4.112947E-1,9.136595E0,2.267644E4,6.666497E-1,1.2692304E0,2.1238272E0,3.9278297E4,1.4397032E1,1.4009093E1,8.0539936E-1,1.054871E0,9.3428814E-1,1.1559173E0,1.0249606E0,1.4735833E0,3.8990355E4,1.9060506E0,6.6160697E-1,8.9420575E-1,1.130598E0,8.2165426E-1,1.5088468E0,1.0533623E0],"split_indices":[8,23,24,0,15,1,0,16,0,0,7,0,2,0,0,24,0,16,0,16,8,0,0,0,8,16,16,0,0,0,0,0,0,8,0,0,0,0,0,0,0],"split_type":[0,0,0,0,0,0,0,0,0,0,0,0,0,0,0,0,0,0,0,0,0,0,0,0,0,0,0,0,0,0,0,0,0,0,0,0,0,0,0,0,0],"sum_hessian":[1.0033769E3,7.648488E2,2.3852805E2,3.3479974E2,4.300491E2,2.0178497E2,3.6743076E1,3.126454E2,2.2154362E1,1.297954E2,3.0025372E2,2.4385513E1,1.7739946E2,2.4864044E1,1.1879032E1,2.8883917E2,2.3806206E1,1.1819273E2,1.160266E1,2.2712222E2,7.313149E1,1.1892564E1,1.2492949E1,2.5769005E1,1.5163046E2,1.954462E2,9.339297E1,7.0596085E1,4.7596657E1,1.1877995E2,1.0834227E2,2.359129E1,4.9540203E1,1.1314714E2,3.8483315E1,1.2595153E2,6.949467E1,4.7095757E1,4.629721E1,1.0056651E2,1.2580632E1],"tree_param":{"num_deleted":"0","num_feature":"26","num_nodes":"41","size_leaf_vector":"1"}},{"base_weights":[2.0578348E1,1.7066374E1,2.5879412E1,1.5590428E1,2.0291834E1,2.2022394E1,3.1588211E1,1.4038093E1,1.9250761E1,1.678714E1,2.3066347E1,1.9230265E1,2.9060434E1,3.492587E1,2.0506975E1,1.1960199E1,1.6141602E1,7.8230566E-1,1.1229941E0,9.9609274E-1,7.015814E-1,2.4136806E1,6.911082E-1,2.306396E1,1.5055645E1,1.584467E0,1.1996468E0,3.6537067E1,1.0045725E0,1.1453364E0,7.036076E-1,8.693945E-1,1.0803808E1,1.7303896E1,9.779592E0,8.6083287E-1,1.2509631E0,8.400574E-1,1.1918232E0,9.240622E-1,1.212455E1,1.9192011E0,1.487778E0,3.709606E-1,5.721471E-1,9.0945494E-1,4.1545305E-1,3.076584E-1,6.2598485E-1,6.6283643E-1,3.9236182E-1],"categories":[],"categories_nodes":[],"categories_segments":[],"categories_sizes":[],"default_left":[0,0,0,0,0,0,0,0,0,0,0,0,0,0,0,0,0,0,0,0,0,0,0,0,0,0,0,0,0,0,0,0,0,0,0,0,0,0,0,0,0,0,0,0,0,0,0,0,0,0,0],"id":40,"left_children":[1,3,5,7,9,11,13,15,17,19,21,23,25,27,29,31,33,-1,-1,-1,-1,35,-1,37,39,-1,-1,41,-1,-1,-1,-1,43,45,47,-1,-1,-1,-1,-1,49,-1,-1,-1,-1,-1,-1,-1,-1,-1,-1],"loss_changes":[1.7577406E4,2.4605156E3,7.7435625E3,2.0273281E3,1.3554922E3,3.9955781E3,4.9073594E3,1.0613672E3,1.00435547E3,4.3113672E2,6.2471484E2,2.3532227E3,7.627734E1,2.0156094E3,2.4938867E2,7.406406E2,8.6264844E2,0E0,0E0,0E0,0E0,8.4546875E1,0E0,5.40625E0,6.1051953E2,0E0,0E0,1.2970312E2,0E0,0E0,0E0,0E0,1.8145996E2,7.771172E2,1.564939E2,0E0,0E0,0E0,0E0,0E0,1.2325537E2,0E0,0E0,0E0,0E0,0E0,0E0,0E0,0E0,0E0,0E0],"parents":[2147483647,0,0,1,1,2,2,3,3,4,4,5,5,6,6,7,7,8,8,9,9,10,10,11,11,12,12,13,13,14,14,15,15,16,16,21,21,23,23,24,24,27,27,32,32,33,33,34,34,40,40],"right_children":[2,4,6,8,10,12,14,16,18,20,22,24,26,28,30,32,34,-1,-1,-1,-1,36,-1,38,40,-1,-1,42,-1,-1,-1,-1,44,46,48,-1,-1,-1,-1,-1,50,-1,-1,-1,-1,-1,-1,-1,-1,-1,-1],"split_conditions":[2.669531E3,2.4743027E4,1.604836E2,2.0142858E0,3E0,3.7853323E3,3.1972623E2,4E0,1E0,1E0,1.3646438E1,6E0,1.2585699E1,1.3545817E0,1.7334976E3,8.548889E0,2.4340578E4,7.8230566E-1,1.1229941E0,9.9609274E-1,7.015814E-1,6.290812E-1,6.911082E-1,2E0,1.4010239E3,1.584467E0,1.1996468E0,2.4717527E3,1.0045725E0,1.1453364E0,7.036076E-1,8.693945E-1,1.7763681E1,1.7877081E2,9.1812415E2,8.6083287E-1,1.2509631E0,8.400574E-1,1.1918232E0,9.240622E-1,1.5E1,1.9192011E0,1.487778E0,3.709606E-1,5.721471E-1,9.0945494E-1,4.1545305E-1,3.076584E-1,6.2598485E-1,6.6283643E-1,3.9236182E-1],"split_indices":[9,8,24,2,7,9,21,3,3,7,11,1,12,2,0,10,8,0,0,0,0,11,0,1,0,0,0,23,0,0,0,0,12,21,0,0,0,0,0,0,1,0,0,0,0,0,0,0,0,0,0],"split_type":[0,0,0,0,0,0,0,0,0,0,0,0,0,0,0,0,0,0,0,0,0,0,0,0,0,0,0,0,0,0,0,0,0,0,0,0,0,0,0,0,0,0,0,0,0,0,0,0,0,0,0],"sum_hessian":[9.675646E2,5.845646E2,3.83E2,4.05114E2,1.7945056E2,2.3150154E2,1.5149846E2,2.8792368E2,1.1719036E2,8.245462E1,9.699594E1,1.6844934E2,6.3052204E1,1.1475539E2,3.6743076E1,1.4827885E2,1.396448E2,5.800508E1,5.9185276E1,3.5607864E1,4.684676E1,8.545672E1,1.153922E1,8.5414055E1,8.3035286E1,3.8017117E1,2.5035088E1,1.0217475E2,1.2580632E1,2.4864044E1,1.1879032E1,2.3532042E1,1.2474682E2,1.1657951E2,2.3065294E1,1.2023025E1,7.343369E1,1.1919352E1,7.3494705E1,3.5794434E1,4.7240852E1,7.660651E1,2.5568249E1,2.1892166E1,1.0285465E2,1.0517361E2,1.1405907E1,1.1371128E1,1.1694166E1,3.563819E1,1.160266E1],"tree_param":{"num_deleted":"0","num_feature":"26","num_nodes":"51","size_leaf_vector":"1"}},{"base_weights":[1.9839611E1,1.6965672E1,2.68761E1,1.5976997E1,2.4552206E1,1.88929E1,2.9197752E1,1.5590222E1,1.269957E0,1.1250347E0,1.6938441E0,1.099647E0,1.5181386E1,3.0837902E1,1.9531006E1,1.4428515E1,1.7805298E1,9.510178E-1,6.248857E-1,1.9755439E0,2.858289E1,1.0902835E0,6.711586E-1,3.7535977E-1,1.4785607E1,1.37850275E1,1.9975485E1,1.3040282E0,1.6028559E0,5.882549E-1,7.732267E-1,7.189832E-1,4.6182773E-1,1.0692471E0,7.601518E-1],"categories":[],"categories_nodes":[],"categories_segments":[],"categories_sizes":[],"default_left":[0,0,0,0,0,0,0,0,0,0,0,0,0,0,0,0,0,0,0,0,0,0,0,0,0,0,0,0,0,0,0,0,0,0,0],"id":41,"left_children":[1,3,5,7,9,11,13,15,-1,-1,-1,-1,17,19,21,23,25,-1,-1,-1,27,-1,-1,-1,29,31,33,-1,-1,-1,-1,-1,-1,-1,-1],"loss_changes":[2.1532406E4,5.410125E3,5.2492188E3,2.1016562E3,8.942969E2,5.0123828E2,3.2069531E3,1.4425781E3,0E0,0E0,0E0,0E0,1.314248E2,2.8491094E3,2.2110449E2,9.7240625E2,1.6700781E3,0E0,0E0,0E0,5.8890625E2,0E0,0E0,0E0,6.6778906E2,8.147949E1,6.277461E2,0E0,0E0,0E0,0E0,0E0,0E0,0E0,0E0],"parents":[2147483647,0,0,1,1,2,2,3,3,4,4,5,5,6,6,7,7,12,12,13,13,14,14,15,15,16,16,20,20,24,24,25,25,26,26],"right_children":[2,4,6,8,10,12,14,16,-1,-1,-1,-1,18,20,22,24,26,-1,-1,-1,28,-1,-1,-1,30,32,34,-1,-1,-1,-1,-1,-1,-1,-1],"split_conditions":[2.977271E3,2.5226445E2,1.0716923E2,1.4861278E1,3.9278297E4,8.194004E0,3.1972623E2,1.6553673E0,1.269957E0,1.1250347E0,1.6938441E0,1.099647E0,8.755365E-1,9.766355E-1,1.1330049E0,8.780398E0,2.1919104E4,9.510178E-1,6.248857E-1,1.9755439E0,1.3879115E2,1.0902835E0,6.711586E-1,3.7535977E-1,8.09841E2,5E-1,2.0490124E0,1.3040282E0,1.6028559E0,5.882549E-1,7.732267E-1,7.189832E-1,4.6182773E-1,1.0692471E0,7.601518E-1],"split_indices":[9,24,21,13,8,10,21,2,0,0,0,0,2,2,2,13,8,0,0,0,21,0,0,0,23,22,15,0,0,0,0,0,0,0,0],"split_type":[0,0,0,0,0,0,0,0,0,0,0,0,0,0,0,0,0,0,0,0,0,0,0,0,0,0,0,0,0,0,0,0,0,0,0],"sum_hessian":[1.0869736E3,7.742128E2,3.1276074E2,6.877332E2,8.647963E1,7.25518E1,2.4020895E2,6.6319574E2,2.453749E1,7.370833E1,1.2771298E1,3.680447E1,3.5747337E1,2.0346588E2,3.6743076E1,4.4005576E2,2.2313997E2,1.2157263E1,2.3590073E1,3.8548943E1,1.6491693E2,2.4864044E1,1.1879032E1,2.2711594E1,4.1734418E2,8.0852E1,1.4228796E2,1.008631E2,6.405384E1,8.0036575E1,3.373076E2,6.953421E1,1.131779E1,1.071109E2,3.5177063E1],"tree_param":{"num_deleted":"0","num_feature":"26","num_nodes":"35","size_leaf_vector":"1"}},{"base_weights":[1.8793158E1,1.6264084E1,2.5910255E1,1.5111182E1,1.8333834E1,2.9035957E1,2.1382906E1,1.4579479E1,1.2089455E0,1.2882017E1,1.9825632E1,1.1802269E0,3.1446125E1,6.2901425E-1,2.3610052E1,1.5710753E1,1.2803225E1,7.056133E-1,3.5702154E-1,1.8038393E1,1.1840496E0,2.71886E1,1.7527373E0,1.3180642E0,1.5839983E1,1.42135105E1,1.1275556E0,9.562919E0,1.4146217E1,9.4387E-1,1.5075134E1,1.0577853E0,1.6058655E0,5.316834E-1,9.832268E-1,5.935628E-1,8.4443533E-1,2.8903756E-1,5.873863E-1,5.4919654E-1,8.255723E-1,8.2630295E-1,5.5455214E-1],"categories":[],"categories_nodes":[],"categories_segments":[],"categories_sizes":[],"default_left":[0,0,0,0,0,0,0,0,0,0,0,0,0,0,0,0,0,0,0,0,0,0,0,0,0,0,0,0,0,0,0,0,0,0,0,0,0,0,0,0,0,0,0],"id":42,"left_children":[1,3,5,7,9,11,13,15,-1,17,19,-1,21,-1,23,25,27,-1,-1,29,-1,31,-1,-1,33,35,-1,37,39,-1,41,-1,-1,-1,-1,-1,-1,-1,-1,-1,-1,-1,-1],"loss_changes":[1.785625E4,1.5084062E3,3.1098125E3,1.9937031E3,1.8852031E3,1.2539844E3,1.8867461E3,7.236797E2,0E0,3.14583E2,9.776797E2,0E0,6.17625E2,0E0,1.4546523E3,2.528586E3,6.6805664E2,0E0,0E0,6.523047E1,0E0,8.4933594E2,0E0,0E0,2.9135303E2,1.2436992E3,0E0,4.0381494E2,7.790996E2,0E0,2.227539E1,0E0,0E0,0E0,0E0,0E0,0E0,0E0,0E0,0E0,0E0,0E0,0E0],"parents":[2147483647,0,0,1,1,2,2,3,3,4,4,5,5,6,6,7,7,9,9,10,10,12,12,14,14,15,15,16,16,19,19,21,21,24,24,25,25,27,27,28,28,30,30],"right_children":[2,4,6,8,10,12,14,16,-1,18,20,-1,22,-1,24,26,28,-1,-1,30,-1,32,-1,-1,34,36,-1,38,40,-1,42,-1,-1,-1,-1,-1,-1,-1,-1,-1,-1,-1,-1],"split_conditions":[3.08201E4,1.2813182E3,2.0131907E0,1.4861278E1,1.9410223E0,1.9452801E0,3E0,8.972018E2,1.2089455E0,1.5776296E3,1.8942432E1,1.1802269E0,3.7606752E0,6.2901425E-1,4E0,8.949963E2,9.2806866E2,7.056133E-1,3.5702154E-1,2.6220896E4,1.1840496E0,6E0,1.7527373E0,1.3180642E0,1.84851E3,4E0,1.1275556E0,1.3594755E1,2.2683729E4,9.4387E-1,7E0,1.0577853E0,1.6058655E0,5.316834E-1,9.832268E-1,5.935628E-1,8.4443533E-1,2.8903756E-1,5.873863E-1,5.4919654E-1,8.255723E-1,8.2630295E-1,5.5455214E-1],"split_indices":[8,23,15,13,15,15,7,0,0,0,14,0,11,0,1,25,0,0,0,8,0,1,0,0,0,7,0,10,8,0,1,0,0,0,0,0,0,0,0,0,0,0,0],"split_type":[0,0,0,0,0,0,0,0,0,0,0,0,0,0,0,0,0,0,0,0,0,0,0,0,0,0,0,0,0,0,0,0,0,0,0,0,0,0,0,0,0,0,0],"sum_hessian":[1.0151464E3,7.5144604E2,2.6370035E2,4.8804095E2,2.6340512E2,1.5275674E2,1.10943596E2,4.6350345E2,2.453749E1,5.87045E1,2.0470062E2,5.030667E1,1.0245007E2,2.3771595E1,8.7172E1,2.7826575E2,1.8523772E2,4.7101837E1,1.160266E1,1.437969E2,6.090372E1,5.09526E1,5.149747E1,6.258174E1,2.4590258E1,2.3085672E2,4.7409027E1,5.6723076E1,1.2851465E2,1.0780237E2,3.5994537E1,2.5316998E1,2.5635601E1,1.2048119E1,1.2542139E1,1.2604678E2,1.0480993E2,2.2154362E1,3.456871E1,5.7460846E1,7.10538E1,2.402267E1,1.1971866E1],"tree_param":{"num_deleted":"0","num_feature":"26","num_nodes":"43","size_leaf_vector":"1"}},{"base_weights":[1.7516E1,1.355643E1,2.1406393E1,1.3019333E1,1.1508656E0,1.9363146E1,2.8094364E1,1.2114507E1,1.5655018E1,1.7856888E0,1.871318E1,1.2607516E0,1.6490649E0,1.1071927E1,1.4136342E1,1.2457823E1,9.9910945E-1,1.7838245E1,2.5851377E1,1.1608309E1,2.7520975E-1,1.223674E1,9.033732E-1,4.030358E-1,6.582017E-1,1.8748508E1,1.1897775E1,1.417801E0,9.496212E-1,5.4528046E-1,6.961281E-1,6.5100867E-1,3.3556378E-1,8.7896043E-1,1.136435E0,6.665285E-1,3.4058675E-1],"categories":[],"categories_nodes":[],"categories_segments":[],"categories_sizes":[],"default_left":[0,0,0,0,0,0,0,0,0,0,0,0,0,0,0,0,0,0,0,0,0,0,0,0,0,0,0,0,0,0,0,0,0,0,0,0,0],"id":43,"left_children":[1,3,5,7,-1,9,11,13,15,-1,17,-1,-1,19,21,23,-1,25,27,29,-1,31,-1,-1,-1,33,35,-1,-1,-1,-1,-1,-1,-1,-1,-1,-1],"loss_changes":[1.5160031E4,2.2311172E3,6.3356875E3,9.363281E2,0E0,3.4566406E3,7.804453E2,5.9179297E2,1.3745215E3,0E0,1.8796875E3,0E0,0E0,6.515996E2,6.5314844E2,1.067041E2,0E0,1.6009062E3,1.1533984E2,1.970957E2,0E0,2.6556445E2,0E0,0E0,0E0,9.482031E2,2.5166895E2,0E0,0E0,0E0,0E0,0E0,0E0,0E0,0E0,0E0,0E0],"parents":[2147483647,0,0,1,1,2,2,3,3,5,5,6,6,7,7,8,8,10,10,13,13,14,14,15,15,17,17,18,18,19,19,21,21,25,25,26,26],"right_children":[2,4,6,8,-1,10,12,14,16,-1,18,-1,-1,20,22,24,-1,26,28,30,-1,32,-1,-1,-1,34,36,-1,-1,-1,-1,-1,-1,-1,-1,-1,-1],"split_conditions":[1.2564711E3,1.4674231E1,3.7972322E3,2.5478924E1,1.1508656E0,7.469733E0,4.249441E3,9.915741E2,8.518519E-1,1.7856888E0,3.860042E4,1.2607516E0,1.6490649E0,9.6507794E2,2.0755611E1,2.1609342E4,9.9910945E-1,9E0,7E0,1.4397031E1,2.7520975E-1,3E0,9.033732E-1,4.030358E-1,6.582017E-1,5E0,1.5E1,1.417801E0,9.496212E-1,5.4528046E-1,6.961281E-1,6.5100867E-1,3.3556378E-1,8.7896043E-1,1.136435E0,6.665285E-1,3.4058675E-1],"split_indices":[23,13,9,12,0,13,9,23,11,0,8,0,0,23,12,8,0,7,1,13,0,3,0,0,0,7,1,0,0,0,0,0,0,0,0,0,0],"split_type":[0,0,0,0,0,0,0,0,0,0,0,0,0,0,0,0,0,0,0,0,0,0,0,0,0,0,0,0,0,0,0,0,0,0,0,0,0],"sum_hessian":[1.0026635E3,4.991745E2,5.03489E2,4.74637E2,2.453749E1,3.8868246E2,1.14806564E2,3.5758792E2,1.1704909E2,1.2779936E1,3.7590253E2,7.615681E1,3.8649757E1,2.4029964E2,1.17288284E2,6.958412E1,4.7464962E1,3.3801294E2,3.788958E1,2.1814526E2,2.2154362E1,8.190105E1,3.5387238E1,1.1405907E1,5.8178215E1,2.9118747E2,4.6825462E1,2.5426743E1,1.2462837E1,1.7181685E2,4.6328415E1,7.049513E1,1.1405907E1,2.2931226E2,6.1875217E1,3.5222805E1,1.160266E1],"tree_param":{"num_deleted":"0","num_feature":"26","num_nodes":"37","size_leaf_vector":"1"}},{"base_weights":[1.7764956E1,1.4906439E1,2.2441525E1,1.31590605E1,1.6447792E1,1.6290697E1,2.5431286E1,1.4248223E1,8.121301E0,1.1324201E0,1.5920073E1,9.1655016E-1,1.3519261E1,1.6344693E0,2.356245E1,1.1738944E1,1.6199955E1,8.861315E0,2.3205113E-1,6.306357E-1,1.6983015E1,8.062506E-1,5.679161E-1,2.4213343E1,5.706617E-1,9.272373E0,1.3972023E1,3.6464417E-1,1.6918839E1,3.9008984E-1,5.544755E-1,1.1591071E0,1.6161264E1,2.490066E1,9.273465E-1,5.146584E-1,3.677492E-1,7.4820846E-1,4.52975E-1,5.463609E-1,9.049554E-1,7.406766E-1,9.2789096E-1,1.1373732E0,1.3374633E0],"categories":[],"categories_nodes":[],"categories_segments":[],"categories_sizes":[],"default_left":[0,0,0,0,0,0,0,0,0,0,0,0,0,0,0,0,0,0,0,0,0,0,0,0,0,0,0,0,0,0,0,0,0,0,0,0,0,0,0,0,0,0,0,0,0],"id":44,"left_children":[1,3,5,7,9,11,13,15,17,-1,19,-1,21,-1,23,25,27,29,-1,-1,31,-1,-1,33,-1,35,37,-1,39,-1,-1,-1,41,43,-1,-1,-1,-1,-1,-1,-1,-1,-1,-1,-1],"loss_changes":[1.3780469E4,1.5491875E3,6.9079688E3,1.5998359E3,7.599453E2,4.962461E2,2.8288594E3,1.0586719E3,1.0464453E2,0E0,9.097969E2,0E0,1.4861914E2,0E0,1.4179688E3,5.024707E2,7.7666406E2,1.8303467E1,0E0,0E0,8.407969E2,0E0,0E0,3.1859375E2,0E0,3.2835938E1,1.4406152E2,0E0,7.1516406E2,0E0,0E0,0E0,4.1294922E2,8.8078125E1,0E0,0E0,0E0,0E0,0E0,0E0,0E0,0E0,0E0,0E0,0E0],"parents":[2147483647,0,0,1,1,2,2,3,3,4,4,5,5,6,6,7,7,8,8,10,10,12,12,14,14,15,15,16,16,17,17,20,20,23,23,25,25,26,26,28,28,32,32,33,33],"right_children":[2,4,6,8,10,12,14,16,18,-1,20,-1,22,-1,24,26,28,30,-1,-1,32,-1,-1,34,-1,36,38,-1,40,-1,-1,-1,42,44,-1,-1,-1,-1,-1,-1,-1,-1,-1,-1,-1],"split_conditions":[2.7185017E3,1.7367971E3,1.0716923E2,1.7009685E3,1.8392142E3,6E0,9.766355E-1,1.6294543E3,8.967855E2,1.1324201E0,1.9642991E3,9.1655016E-1,1.3888052E3,1.6344693E0,3.248323E2,7E0,1E0,8.642744E2,2.3205113E-1,6.306357E-1,1.0314432E3,8.062506E-1,5.679161E-1,1.4E1,5.706617E-1,7.8309235E2,7E0,3.6464417E-1,7.79667E-1,3.9008984E-1,5.544755E-1,1.1591071E0,2.5226445E2,1.3879115E2,9.273465E-1,5.146584E-1,3.677492E-1,7.4820846E-1,4.52975E-1,5.463609E-1,9.049554E-1,7.406766E-1,9.2789096E-1,1.1373732E0,1.3374633E0],"split_indices":[9,9,21,9,9,1,2,9,0,0,9,0,0,0,21,1,7,0,0,0,0,0,0,1,0,0,3,0,11,0,0,0,24,21,0,0,0,0,0,0,0,0,0,0,0],"split_type":[0,0,0,0,0,0,0,0,0,0,0,0,0,0,0,0,0,0,0,0,0,0,0,0,0,0,0,0,0,0,0,0,0,0,0,0,0,0,0,0,0,0,0,0,0],"sum_hessian":[1.0557133E3,6.578557E2,3.9785757E2,3.128831E2,3.4497263E2,1.3227596E2,2.6558163E2,2.5571065E2,5.717243E1,2.3724773E1,3.2124786E2,7.289144E1,5.9384506E1,5.0970905E1,2.1461073E2,1.1501183E2,1.4069882E2,4.58013E1,1.1371128E1,8.133153E1,2.3991634E2,2.3929028E1,3.5455482E1,2.027317E2,1.1879032E1,5.716085E1,5.7850983E1,1.1371128E1,1.293277E2,3.4183094E1,1.1618207E1,2.4853153E1,2.1506319E2,1.7772673E2,2.5004976E1,3.4349037E1,2.2811813E1,4.63773E1,1.1473683E1,2.301331E1,1.0631438E2,1.4232909E2,7.27341E1,8.832095E1,8.940577E1],"tree_param":{"num_deleted":"0","num_feature":"26","num_nodes":"45","size_leaf_vector":"1"}},{"base_weights":[1.619588E1,1.3839147E1,2.2744143E1,1.3256057E1,2.2043541E1,1.4447749E1,2.4425425E1,1.1915924E1,1.4896377E1,7.0058554E-1,1.2056137E0,9.073391E-1,5.0035965E-1,2.5559776E1,7.137584E-1,9.569792E0,1.2801137E1,1.2410111E1,1.6752003E1,1.0272994E0,1.3819044E0,8.443854E0,6.702618E-1,9.8476356E-1,1.2121549E1,1.3040526E1,2.2752109E-1,1.1679599E0,1.6126158E1,3.4944186E-1,5.270675E-1,7.369404E-1,5.161076E-1,6.8552786E-1,2.822207E-1,8.960749E-1,6.7671865E-1],"categories":[],"categories_nodes":[],"categories_segments":[],"categories_sizes":[],"default_left":[0,0,0,0,0,0,0,0,0,0,0,0,0,0,0,0,0,0,0,0,0,0,0,0,0,0,0,0,0,0,0,0,0,0,0,0,0],"id":45,"left_children":[1,3,5,7,9,11,13,15,17,-1,-1,-1,-1,19,-1,21,23,25,27,-1,-1,29,-1,-1,31,33,-1,-1,35,-1,-1,-1,-1,-1,-1,-1,-1],"loss_changes":[1.59085625E4,3.4101719E3,3.496625E3,1.4129766E3,4.8079102E2,6.1683203E2,2.2563281E3,7.1254297E2,1.2729531E3,0E0,0E0,0E0,0E0,1.5477188E3,0E0,3.772539E2,1.1161523E3,6.3855273E2,3.6385547E2,0E0,0E0,2.0102441E2,0E0,0E0,1.1012227E3,5.6503516E2,0E0,0E0,5.366328E2,0E0,0E0,0E0,0E0,0E0,0E0,0E0,0E0],"parents":[2147483647,0,0,1,1,2,2,3,3,4,4,5,5,6,6,7,7,8,8,13,13,15,15,16,16,17,17,18,18,21,21,24,24,25,25,28,28],"right_children":[2,4,6,8,10,12,14,16,18,-1,-1,-1,-1,20,-1,22,24,26,28,-1,-1,30,-1,-1,32,34,-1,-1,36,-1,-1,-1,-1,-1,-1,-1,-1],"split_conditions":[2.977271E3,1.4674231E1,1.0716923E2,2.0709316E3,2.2856805E4,7.7212043E0,3.1972623E2,2.0755611E1,9.136595E0,7.0058554E-1,1.2056137E0,9.073391E-1,5.0035965E-1,1.4443388E2,7.137584E-1,7.5E-1,2.076923E1,7.6892457E0,9.9638007E2,1.0272994E0,1.3819044E0,2.8989702E1,6.702618E-1,9.8476356E-1,2.6511208E1,1.4598632E3,2.2752109E-1,1.1679599E0,2.6535633E4,3.4944186E-1,5.270675E-1,7.369404E-1,5.161076E-1,6.8552786E-1,2.822207E-1,8.960749E-1,6.7671865E-1],"split_indices":[9,13,21,9,8,10,21,12,13,0,0,0,0,24,0,22,12,11,0,0,0,14,0,0,14,0,0,0,8,0,0,0,0,0,0,0,0],"split_type":[0,0,0,0,0,0,0,0,0,0,0,0,0,0,0,0,0,0,0,0,0,0,0,0,0,0,0,0,0,0,0,0,0,0,0,0,0],"sum_hessian":[1.0509547E3,7.7513947E2,2.758152E2,7.261817E2,4.8957733E1,4.8122665E1,2.2769254E2,4.0430997E2,3.2187177E2,1.1648942E1,3.7308792E1,2.453259E1,2.3590073E1,2.034123E2,2.428024E1,1.140873E2,2.9022266E2,1.409154E2,1.8095636E2,6.2841496E1,1.405708E2,9.0731735E1,2.3355568E1,2.3491291E1,2.6673135E2,1.2980647E2,1.11089325E1,1.2472924E1,1.6848344E2,5.6212524E1,3.4519215E1,1.0567182E2,1.6105954E2,1.1820381E2,1.160266E1,9.5972466E1,7.251098E1],"tree_param":{"num_deleted":"0","num_feature":"26","num_nodes":"37","size_leaf_vector":"1"}},{"base_weights":[1.5556451E1,1.4254584E1,2.2666782E1,1.3859281E1,1.3450272E0,2.3935116E1,2.6922944E-1,9.49523E0,1.4212251E1,2.2106407E1,1.4313128E0,3.4355205E-1,5.901885E-1,1.3942737E1,1.1006514E0,1.5630097E0,1.0326362E0,1.4626684E1,1.163756E1,5.968792E-1,7.7029604E-1,5.375086E-1,8.459263E-1],"categories":[],"categories_nodes":[],"categories_segments":[],"categories_sizes":[],"default_left":[0,0,0,0,0,0,0,0,0,0,0,0,0,0,0,0,0,0,0,0,0,0,0],"id":46,"left_children":[1,3,5,7,-1,9,-1,11,13,15,-1,-1,-1,17,-1,-1,-1,19,21,-1,-1,-1,-1],"loss_changes":[9.651547E3,4.1867188E3,3.4838203E3,1.2272031E3,0E0,6.6978906E2,0E0,3.348877E2,1.4069375E3,8.68625E2,0E0,0E0,0E0,1.0763906E3,0E0,0E0,0E0,1.0853203E3,6.8641406E2,0E0,0E0,0E0,0E0],"parents":[2147483647,0,0,1,1,2,2,3,3,5,5,7,7,8,8,9,9,13,13,17,17,18,18],"right_children":[2,4,6,8,-1,10,-1,12,14,16,-1,-1,-1,18,-1,-1,-1,20,22,-1,-1,-1,-1],"split_conditions":[1.997561E3,3.931404E4,1.4E1,1.6294543E3,1.3450272E0,2.1786584E3,2.6922944E-1,1.3553903E1,3.1552639E1,1.6479799E3,1.4313128E0,3.4355205E-1,5.901885E-1,2.8399328E1,1.1006514E0,1.5630097E0,1.0326362E0,8.784091E1,5E0,5.968792E-1,7.7029604E-1,5.375086E-1,8.459263E-1],"split_indices":[23,8,1,9,0,0,0,10,14,0,0,0,0,14,0,0,0,21,7,0,0,0,0],"split_type":[0,0,0,0,0,0,0,0,0,0,0,0,0,0,0,0,0,0,0,0,0,0,0],"sum_hessian":[1.0777573E3,9.135397E2,1.6421759E2,8.879041E2,2.5635601E1,1.5261493E2,1.160266E1,6.85925E1,8.193116E2,1.13965164E2,3.8649757E1,3.4023384E1,3.4569115E1,7.946814E2,2.4630188E1,1.2779936E1,1.0118523E2,6.086261E2,1.8605528E2,1.4049384E2,4.6813226E2,1.6193668E2,2.4118614E1],"tree_param":{"num_deleted":"0","num_feature":"26","num_nodes":"23","size_leaf_vector":"1"}},{"base_weights":[1.4637194E1,1.2092901E1,1.890431E1,1.0997921E1,1.4013105E1,2.068359E1,9.412352E0,1.5269617E1,1.0392371E1,1.5433281E1,5.334723E-1,1.5796338E1,2.2811508E1,7.6249075E0,7.531263E-1,8.4204865E-1,4.8049793E-1,9.760893E0,7.0789796E-1,1.5888642E1,4.4899893E-1,1.6453396E1,5.0634134E-1,2.4020927E1,1.2721124E1,4.1322404E-1,2.5683627E-1,1.0467526E1,5.4773912E0,1.6595104E1,5.846254E-1,5.7211286E-1,8.548355E-1,2.8732418E1,2.2109629E1,7.413873E-1,4.759028E-1,4.1939926E-1,5.863205E-1,1.839997E-1,3.482266E-1,7.197692E-1,9.2394537E-1,1.0694926E0,1.5245111E0,9.877359E-1,1.2852716E0],"categories":[],"categories_nodes":[],"categories_segments":[],"categories_sizes":[],"default_left":[0,0,0,0,0,0,0,0,0,0,0,0,0,0,0,0,0,0,0,0,0,0,0,0,0,0,0,0,0,0,0,0,0,0,0,0,0,0,0,0,0,0,0,0,0,0,0],"id":47,"left_children":[1,3,5,7,9,11,13,15,17,19,-1,21,23,25,-1,-1,-1,27,-1,29,-1,31,-1,33,35,-1,-1,37,39,41,-1,-1,-1,43,45,-1,-1,-1,-1,-1,-1,-1,-1,-1,-1,-1,-1],"loss_changes":[1.0663484E4,1.1669219E3,6.100047E3,8.8678516E2,8.9933594E2,2.8880312E3,4.922129E2,2.6028516E2,7.1016016E2,3.0864844E2,0E0,1.9188477E2,2.3204297E3,3.029663E1,0E0,0E0,0E0,8.80459E2,0E0,2.2580078E2,0E0,7.4708984E1,0E0,