{"learner":{"attributes":{"best_iteration":"30","best_score":"13.203740405446519"},"feature_names":["skeleton_length","index","scale_ratio","intersection3","intersection4","intersection5","intersection6","endpoint","Area","Peri","distance_average","distance_min","distance_max","zunguri","area_per_skeleton","peri_per_skeleton","area_per_peri","estimated_width","estimated_columns","estimated_pitch","scaling_factor","theoretical_led_count","branch_correction_factor","corrected_skeleton_length","branch_adjusted_led","final_skeleton_length"],"feature_types":["float","float","float","float","float","float","float","float","float","float","float","float","float","float","float","float","float","float","int","float","float","float","float","float","float","float"],"gradient_booster":{"model":{"gbtree_model_param":{"num_parallel_tree":"1","num_trees":"51"},"iteration_indptr":[0,1,2,3,4,5,6,7,8,9,10,11,12,13,14,15,16,17,18,19,20,21,22,23,24,25,26,27,28,29,30,31,32,33,34,35,36,37,38,39,40,41,42,43,44,45,46,47,48,49,50,51],"tree_info":[0,0,0,0,0,0,0,0,0,0,0,0,0,0,0,0,0,0,0,0,0,0,0,0,0,0,0,0,0,0,0,0,0,0,0,0,0,0,0,0,0,0,0,0,0,0,0,0,0,0,0],"trees":[{"base_weights":[-7.7640307E-1,-8.265555E0,9.936739E1,-1.8639402E1,1.5660485E1,6.026237E0,1.527106E1,-2.8714775E1,-1.1511902E1,6.6254816E0,3.994629E1,-3.0559923E1,-8.928694E0,-1.4118262E1,1.0969256E1,-1.11819E0,1.5413249E1,5.4605994E0,5.0823673E1,-3.4239116E-1,-3.1969593E1,-1.0739402E0,-7.929336E-2,-1.3376338E0,-1.5914727E1,1.324511E0,-1.2929337E-1,-4.500143E0,9.231306E0,7.0123663E0,2.1157007E1,-2.9293364E-2,7.509422E-1,5.607066E-1,5.5762367E1,-3.252056E0,-6.292934E-1,9.2313063E-1,-1.4239401E0,-1.7714103E0,-2.5736007E-1,9.6059956E-2,-5.953712E-1,1.12106E0,6.0706634E-2,2.7451107E-1,1.3176088E0,2.2637365E0,4.6070662E-1,5.996926E0,1.3107066E0],"categories":[],"categories_nodes":[],"categories_segments":[],"categories_sizes":[],"default_left":[0,0,0,0,0,0,0,0,0,0,0,0,0,0,0,0,0,0,0,0,0,0,0,0,0,0,0,0,0,0,0,0,0,0,0,0,0,0,0,0,0,0,0,0,0,0,0,0,0,0,0],"id":0,"left_children":[1,3,5,7,9,-1,-1,11,13,15,17,19,21,23,25,27,29,31,33,-1,35,-1,-1,37,39,-1,-1,41,43,45,47,-1,-1,-1,49,-1,-1,-1,-1,-1,-1,-1,-1,-1,-1,-1,-1,-1,-1,-1,-1],"loss_changes":[1.18560984E5,3.6778348E4,1.3721867E4,7.062074E3,9.604683E3,0E0,0E0,1.2565391E3,3.7880107E3,2.3323503E3,4.218215E3,1.3406055E3,6.3988525E1,1.2627441E3,2.1366907E2,7.0609766E2,6.208645E2,5.0073265E1,1.690998E3,0E0,3.007578E2,0E0,0E0,1.2228131E3,1.1286621E3,0E0,0E0,1.2528195E2,7.736218E1,1.7265552E2,1.1348242E2,0E0,0E0,0E0,6.422422E2,0E0,0E0,0E0,0E0,0E0,0E0,0E0,0E0,0E0,0E0,0E0,0E0,0E0,0E0,0E0,0E0],"parents":[2147483647,0,0,1,1,2,2,3,3,4,4,7,7,8,8,9,9,10,10,11,11,12,12,13,13,14,14,15,15,16,16,17,17,18,18,20,20,23,23,24,24,27,27,28,28,29,29,30,30,34,34],"right_children":[2,4,6,8,10,-1,-1,12,14,16,18,20,22,24,26,28,30,32,34,-1,36,-1,-1,38,40,-1,-1,42,44,46,48,-1,-1,-1,50,-1,-1,-1,-1,-1,-1,-1,-1,-1,-1,-1,-1,-1,-1,-1,-1],"split_conditions":[1.3920818E3,8.0299066E2,1.3545817E0,1.0504054E3,9.954338E-1,6.026237E0,1.527106E1,7E0,1.6E1,2.0560867E3,1E0,6.2759643E0,4.955689E2,5.308511E2,1.3545817E0,1.157E1,6.0335195E-1,8.455469E2,8.061886E2,-3.4239116E-1,6.823379E0,-1.0739402E0,-7.929336E-2,1.5023255E0,1.2313823E1,1.324511E0,-1.2929337E-1,5.7058823E-1,1.5E1,1.116899E3,1.25E0,-2.9293364E-2,7.509422E-1,5.607066E-1,1.0360778E3,-3.252056E0,-6.292934E-1,9.2313063E-1,-1.4239401E0,-1.7714103E0,-2.5736007E-1,9.6059956E-2,-5.953712E-1,1.12106E0,6.0706634E-2,2.7451107E-1,1.3176088E0,2.2637365E0,4.6070662E-1,5.996926E0,1.3107066E0],"split_indices":[0,0,2,9,2,0,0,7,1,9,7,12,0,0,2,12,2,0,0,0,13,0,0,2,17,0,0,2,1,0,22,0,0,0,0,0,0,0,0,0,0,0,0,0,0,0,0,0,0,0,0],"split_type":[0,0,0,0,0,0,0,0,0,0,0,0,0,0,0,0,0,0,0,0,0,0,0,0,0,0,0,0,0,0,0,0,0,0,0,0,0,0,0,0,0,0,0,0,0,0,0,0,0,0,0],"sum_hessian":[1.56E2,1.46E2,1E1,1.02E2,4.4E1,7E0,3E0,4.1E1,6.1E1,3.3E1,1.1E1,3.7E1,4E0,5.5E1,6E0,1.8E1,1.5E1,3E0,8E0,2E0,3.5E1,3E0,1E0,7E0,4.8E1,5E0,1E0,1.4E1,4E0,7E0,8E0,1E0,2E0,1E0,7E0,3.4E1,1E0,4E0,3E0,4.2E1,6E0,3E0,1.1E1,3E0,1E0,5E0,2E0,7E0,1E0,6E0,1E0],"tree_param":{"num_deleted":"0","num_feature":"26","num_nodes":"51","size_leaf_vector":"1"}},{"base_weights":[2.8234572E0,-8.134944E0,7.556065E1,-1.9857868E1,8.849529E0,3.7728607E1,1.2758015E1,-2.597775E1,-1.2912407E1,4.655647E1,2.37859E0,5.3061466E0,2.1500385E1,-3.1956503E-1,-2.706156E1,-1.6533123E0,-3.3797014E0,-4.4952497E-1,5.450604E0,-2.1580322E0,1.3557389E1,4.231597E-1,2.3348557E1,-2.9118942E1,-1.0876138E1,-9.547432E-1,4.362601E0,-5.3176184E0,7.549396E0,-1.8841217E-1,1.908455E1,2.539825E0,5.4752E-1,-9.922544E-1,-3.0005512E0,-7.532875E-2,-1.273005E0,7.7581537E-1,-1.58567E-1,-1.341205E0,-2.8637907E-1,2.6116955E-1,1.0957217E0,5.99277E-1,-3.2569003E-1,2.100082E0,7.5796556E-1],"categories":[],"categories_nodes":[],"categories_segments":[],"categories_sizes":[],"default_left":[0,0,0,0,0,0,0,0,0,0,0,0,0,0,0,0,0,0,0,0,0,0,0,0,0,0,0,0,0,0,0,0,0,0,0,0,0,0,0,0,0,0,0,0,0,0,0],"id":1,"left_children":[1,3,5,7,9,11,-1,13,15,17,19,-1,21,-1,23,-1,25,-1,-1,27,29,-1,31,33,35,-1,37,39,41,43,45,-1,-1,-1,-1,-1,-1,-1,-1,-1,-1,-1,-1,-1,-1,-1,-1],"loss_changes":[1.2177809E5,2.665816E4,3.453014E4,3.0186035E3,1.3304328E4,2.0864277E3,0E0,9.228418E2,1.2882251E3,3.4967324E3,2.464669E3,0E0,1.5376562E2,0E0,9.779844E2,0E0,6.151993E2,0E0,0E0,1.1134225E3,1.0691387E3,0E0,1.1429639E2,2.7692188E2,1.0166351E2,0E0,1.3410513E2,4.9624634E2,1.2146741E2,1.140787E2,5.8427734E1,0E0,0E0,0E0,0E0,0E0,0E0,0E0,0E0,0E0,0E0,0E0,0E0,0E0,0E0,0E0,0E0],"parents":[2147483647,0,0,1,1,2,2,3,3,4,4,5,5,7,7,8,8,9,9,10,10,12,12,14,14,16,16,19,19,20,20,22,22,23,23,24,24,26,26,27,27,28,28,29,29,30,30],"right_children":[2,4,6,8,10,12,-1,14,16,18,20,-1,22,-1,24,-1,26,-1,-1,28,30,-1,32,34,36,-1,38,40,42,44,46,-1,-1,-1,-1,-1,-1,-1,-1,-1,-1,-1,-1,-1,-1,-1,-1],"split_conditions":[1.0962377E4,6.7564557E2,1.2151898E0,1.0770153E3,4.473143E0,7.193904E0,1.2758015E1,6.2759643E0,1.2313823E1,5.3813867E3,8.585714E-1,5.3061466E0,9.712528E2,-3.1956503E-1,7E0,-1.6533123E0,4.623377E0,-4.4952497E-1,5.450604E0,1.00568054E3,7.7045283E3,4.231597E-1,5.8936296E0,2.6687159E1,3E0,-9.547432E-1,6.319E2,7.7164557E2,1.1019272E3,1.3888888E0,6.0369754E0,2.539825E0,5.4752E-1,-9.922544E-1,-3.0005512E0,-7.532875E-2,-1.273005E0,7.7581537E-1,-1.58567E-1,-1.341205E0,-2.8637907E-1,2.6116955E-1,1.0957217E0,5.99277E-1,-3.2569003E-1,2.100082E0,7.5796556E-1],"split_indices":[8,0,2,9,12,12,0,12,14,8,2,0,0,0,7,0,11,0,0,0,8,0,10,24,1,0,0,0,0,2,10,0,0,0,0,0,0,0,0,0,0,0,0,0,0,0,0],"split_type":[0,0,0,0,0,0,0,0,0,0,0,0,0,0,0,0,0,0,0,0,0,0,0,0,0,0,0,0,0,0,0,0,0,0,0,0,0,0,0,0,0,0,0,0,0,0,0],"sum_hessian":[1.51E2,1.32E2,1.9E1,7.8E1,5.4E1,1.2E1,7E0,4E1,3.8E1,7E0,4.7E1,5E0,7E0,2E0,3.8E1,2.7E1,1.1E1,1E0,6E0,3.4E1,1.3E1,1E0,6E0,3.3E1,5E0,6E0,5E0,2.6E1,8E0,4E0,9E0,5E0,1E0,2E0,3.1E1,1E0,4E0,3E0,2E0,5E0,2.1E1,4E0,4E0,1E0,3E0,7E0,2E0],"tree_param":{"num_deleted":"0","num_feature":"26","num_nodes":"47","size_leaf_vector":"1"}},{"base_weights":[-4.521491E-1,-7.639151E0,6.8876236E1,-1.6467901E1,6.3292527E0,9.563887E1,1.7236251E0,-1.9078924E1,-7.284234E0,4.5021086E0,2.2498975E0,5.4875026E0,1.1725494E1,-2.1156212E1,-8.30599E0,-1.2742244E0,-1.6511132E0,-2.622344E0,1.0792221E1,-2.4365091E1,-1.6583664E1,-1.1610563E1,1.3972156E0,-7.8773675E0,4.8336596E0,-6.4119964E0,6.3460913E0,4.5328765E0,1.8037292E1,-2.5917177E0,-1.1711649E0,-1.8193089E0,-8.438301E-1,-2.9683375E-1,-1.3190131E0,-9.5540965E-1,-2.9826072E-1,6.559957E-3,7.17629E-1,-8.0207056E-1,6.9529647E-1,2.4027601E-1,8.557852E-1,8.74087E-1,-4.9913287E-1,3.6451754E-1,1.9558285E0],"categories":[],"categories_nodes":[],"categories_segments":[],"categories_sizes":[],"default_left":[0,0,0,0,0,0,0,0,0,0,0,0,0,0,0,0,0,0,0,0,0,0,0,0,0,0,0,0,0,0,0,0,0,0,0,0,0,0,0,0,0,0,0,0,0,0,0],"id":2,"left_children":[1,3,5,7,9,11,-1,13,15,-1,17,-1,-1,19,21,-1,23,25,27,29,31,33,-1,35,37,39,41,43,45,-1,-1,-1,-1,-1,-1,-1,-1,-1,-1,-1,-1,-1,-1,-1,-1,-1,-1],"loss_changes":[7.4263E4,1.6753922E4,1.768857E4,1.848625E3,8.25938E3,1.4788047E3,0E0,1.2535527E3,5.924342E2,0E0,2.068511E3,0E0,0E0,3.695E2,1.0454255E3,0E0,4.825152E2,1.1282898E3,7.3227124E2,2.622422E2,1.7155176E2,1.0939221E2,0E0,1.9493317E1,6.582387E1,5.5038214E2,6.555853E1,4.8485913E2,1.0150879E2,0E0,0E0,0E0,0E0,0E0,0E0,0E0,0E0,0E0,0E0,0E0,0E0,0E0,0E0,0E0,0E0,0E0,0E0],"parents":[2147483647,0,0,1,1,2,2,3,3,4,4,5,5,7,7,8,8,10,10,13,13,14,14,16,16,17,17,18,18,19,19,20,20,21,21,23,23,24,24,25,25,26,26,27,27,28,28],"right_children":[2,4,6,8,10,12,-1,14,16,-1,18,-1,-1,20,22,-1,24,26,28,30,32,34,-1,36,38,40,42,44,46,-1,-1,-1,-1,-1,-1,-1,-1,-1,-1,-1,-1,-1,-1,-1,-1,-1,-1],"split_conditions":[1.0962377E4,4.5039745E1,5.4824996E0,4.623377E0,4.473143E0,1.3545817E0,1.7236251E0,1.4240507E0,1.2105078E1,4.5021086E0,8.5714287E-1,5.4875026E0,1.1725494E1,1.0753341E3,3.2722945E0,-1.2742244E0,6.1800474E3,2.0560867E3,6.546076E1,7E0,1.2234942E1,1.4634147E0,1.3972156E0,5.36937E3,6.5716333E0,1.22018795E1,2.1928264E3,7.692308E-1,6.0188184E3,-2.5917177E0,-1.1711649E0,-1.8193089E0,-8.438301E-1,-2.9683375E-1,-1.3190131E0,-9.5540965E-1,-2.9826072E-1,6.559957E-3,7.17629E-1,-8.0207056E-1,6.9529647E-1,2.4027601E-1,8.557852E-1,8.74087E-1,-4.9913287E-1,3.6451754E-1,1.9558285E0],"split_indices":[8,21,13,11,12,2,0,2,14,0,2,0,0,9,11,0,8,9,24,7,14,2,0,8,12,12,9,22,8,0,0,0,0,0,0,0,0,0,0,0,0,0,0,0,0,0,0],"split_type":[0,0,0,0,0,0,0,0,0,0,0,0,0,0,0,0,0,0,0,0,0,0,0,0,0,0,0,0,0,0,0,0,0,0,0,0,0,0,0,0,0,0,0,0,0,0,0],"sum_hessian":[1.47E2,1.34E2,1.3E1,8.2E1,5.2E1,8E0,5E0,6.3E1,1.9E1,4E0,4.8E1,4E0,4E0,5.2E1,1.1E1,9E0,1E1,3.1E1,1.7E1,2.8E1,2.4E1,1E1,1E0,5E0,5E0,2.2E1,9E0,1E1,7E0,2.4E1,4E0,1.9E1,5E0,2E0,8E0,3E0,2E0,2E0,3E0,2E1,2E0,4E0,5E0,7E0,3E0,1E0,6E0],"tree_param":{"num_deleted":"0","num_feature":"26","num_nodes":"47","size_leaf_vector":"1"}},{"base_weights":[-8.572294E-1,-6.753403E0,5.422421E1,-1.6190203E1,6.097167E0,2.0629728E1,8.9656515E0,-5.6584077E0,-1.8897738E1,3.8478245E1,1.7848574E0,8.911385E-1,2.8202126E0,-1.1585987E0,1.5453918E0,-2.2078213E1,-1.1329227E1,4.7081804E0,-6.521541E-1,6.455796E-2,2.3247461E0,-5.0265236E0,1.6398064E0,-2.284477E1,-8.6764544E-1,-1.4323757E0,-1.438948E0,-2.7294245E0,6.958744E0,-1.2370775E0,-1.7240192E-1,-2.391959E0,-1.0302144E0,2.606542E-1,-6.386619E-1,-8.9768517E-1,1.4593071E-1,1.0591425E0,-2.3884684E-2],"categories":[],"categories_nodes":[],"categories_segments":[],"categories_sizes":[],"default_left":[0,0,0,0,0,0,0,0,0,0,0,0,0,0,0,0,0,0,0,0,0,0,0,0,0,0,0,0,0,0,0,0,0,0,0,0,0,0,0],"id":3,"left_children":[1,3,5,7,9,11,-1,13,15,17,19,-1,-1,-1,21,23,25,-1,-1,27,-1,29,-1,31,-1,-1,33,35,37,-1,-1,-1,-1,-1,-1,-1,-1,-1,-1],"loss_changes":[5.0375992E4,1.7077281E4,1.5994328E4,2.2003438E3,8.305529E3,5.435925E2,0E0,7.875286E2,1.2871035E3,3.021208E3,1.9899618E3,0E0,0E0,0E0,9.620569E2,2.5065625E2,5.997637E2,0E0,0E0,1.0017903E3,0E0,1.4704402E2,0E0,3.028789E2,0E0,0E0,1.3711952E2,9.820971E2,3.9576324E2,0E0,0E0,0E0,0E0,0E0,0E0,0E0,0E0,0E0,0E0],"parents":[2147483647,0,0,1,1,2,2,3,3,4,4,5,5,7,7,8,8,9,9,10,10,14,14,15,15,16,16,19,19,21,21,23,23,26,26,27,27,28,28],"right_children":[2,4,6,8,10,12,-1,14,16,18,20,-1,-1,-1,22,24,26,-1,-1,28,-1,30,-1,32,-1,-1,34,36,38,-1,-1,-1,-1,-1,-1,-1,-1,-1,-1],"split_conditions":[1.1853658E3,6.7564557E2,8.585714E-1,6.818182E0,4.4643607E0,1.3197815E3,8.9656515E0,4.589215E0,6.220264E2,8.316506E2,1.2691503E1,8.911385E-1,2.8202126E0,-1.1585987E0,1.2551929E0,7E0,1.2105078E1,4.7081804E0,-6.521541E-1,8.585714E-1,2.3247461E0,1E0,1.6398064E0,1.3252464E1,-8.6764544E-1,-1.4323757E0,1.0696203E0,8.0299066E2,4E0,-1.2370775E0,-1.7240192E-1,-2.391959E0,-1.0302144E0,2.606542E-1,-6.386619E-1,-8.9768517E-1,1.4593071E-1,1.0591425E0,-2.3884684E-2],"split_indices":[0,0,2,12,12,0,0,16,23,0,17,0,0,0,2,7,17,0,0,2,0,7,0,17,0,0,2,0,7,0,0,0,0,0,0,0,0,0,0],"split_type":[0,0,0,0,0,0,0,0,0,0,0,0,0,0,0,0,0,0,0,0,0,0,0,0,0,0,0,0,0,0,0,0,0,0,0,0,0,0,0],"sum_hessian":[1.53E2,1.39E2,1.4E1,8E1,5.9E1,8E0,6E0,1.7E1,6.3E1,6E0,5.3E1,4E0,4E0,9E0,8E0,4.3E1,2E1,5E0,1E0,5E1,3E0,6E0,2E0,4E1,3E0,1.5E1,5E0,3.6E1,1.4E1,1E0,5E0,3.6E1,4E0,3E0,2E0,1.4E1,2.2E1,9E0,5E0],"tree_param":{"num_deleted":"0","num_feature":"26","num_nodes":"39","size_leaf_vector":"1"}},{"base_weights":[9.321052E-1,-6.191307E0,5.0754387E1,3.546165E1,-9.324424E0,2.666225E1,1.0250899E1,3.9559017E1,1.268145E0,-1.40275755E1,-2.2230836E-2,1.5492159E1,4.0818696E0,1.0453643E0,4.220927E0,-1.7588148E1,-8.232207E0,-2.3230925E0,7.291622E0,2.502185E0,9.969505E0,-1.882132E1,-1.9654286E0,-1.1097585E1,-1.8071027E0,-6.1640983E0,3.2025216E0,8.92736E0,-4.482875E-1,3.4451088E-1,1.1553453E0,-2.1068172E0,-1.3346765E0,-4.4111353E-1,3.8586992E-1,-1.1564143E0,-1.3338394E-2,-7.8155625E-1,5.487284E-1,-8.055746E-1,-1.2156948E-1,9.112026E-1,9.574768E-2,1.0622116E0,-3.1127235E-1],"categories":[],"categories_nodes":[],"categories_segments":[],"categories_sizes":[],"default_left":[0,0,0,0,0,0,0,0,0,0,0,0,0,0,0,0,0,0,0,0,0,0,0,0,0,0,0,0,0,0,0,0,0,0,0,0,0,0,0,0,0,0,0,0,0],"id":4,"left_children":[1,3,5,7,9,11,-1,13,-1,15,17,19,-1,-1,-1,21,23,25,27,-1,29,31,33,35,37,39,41,43,-1,-1,-1,-1,-1,-1,-1,-1,-1,-1,-1,-1,-1,-1,-1,-1,-1],"loss_changes":[5.674853E4,1.8598545E4,2.2191543E4,4.2649805E2,5.7294834E3,1.7339297E3,0E0,1.7058496E2,0E0,1.6478594E3,7.737096E2,2.733374E2,0E0,0E0,0E0,9.82E2,6.2301733E2,7.628738E2,2.5232452E2,0E0,4.1371704E1,3.1809375E2,8.829703E1,1.2005835E2,5.690554E2,1.8585297E2,1.8927501E2,2.3786469E2,0E0,0E0,0E0,0E0,0E0,0E0,0E0,0E0,0E0,0E0,0E0,0E0,0E0,0E0,0E0,0E0,0E0],"parents":[2147483647,0,0,1,1,2,2,3,3,4,4,5,5,7,7,9,9,10,10,11,11,15,15,16,16,17,17,18,18,20,20,21,21,22,22,23,23,24,24,25,25,26,26,27,27],"right_children":[2,4,6,8,10,12,-1,14,-1,16,18,20,-1,-1,-1,22,24,26,28,-1,30,32,34,36,38,40,42,44,-1,-1,-1,-1,-1,-1,-1,-1,-1,-1,-1,-1,-1,-1,-1,-1,-1],"split_conditions":[1.0962377E4,4.6158557E0,1.3545817E0,8.491989E3,6.7564557E2,1.3920818E3,1.0250899E1,5.308511E2,1.268145E0,1.2151898E0,8.585714E-1,1E0,4.0818696E0,1.0453643E0,4.220927E0,5.360575E0,1E1,9.299123E3,2.3116884E0,2.502185E0,1.2257347E4,4.2878788E1,9E0,8E0,5.5714756E3,5E0,9.8209274E-1,1.3E1,-4.482875E-1,3.4451088E-1,1.1553453E0,-2.1068172E0,-1.3346765E0,-4.4111353E-1,3.8586992E-1,-1.1564143E0,-1.3338394E-2,-7.8155625E-1,5.487284E-1,-8.055746E-1,-1.2156948E-1,9.112026E-1,9.574768E-2,1.0622116E0,-3.1127235E-1],"split_indices":[8,12,2,8,0,0,0,0,0,2,2,1,0,0,0,11,1,8,2,0,8,24,1,7,8,3,11,7,0,0,0,0,0,0,0,0,0,0,0,0,0,0,0,0,0],"split_type":[0,0,0,0,0,0,0,0,0,0,0,0,0,0,0,0,0,0,0,0,0,0,0,0,0,0,0,0,0,0,0,0,0,0,0,0,0,0,0,0,0,0,0,0,0],"sum_hessian":[1.58E2,1.39E2,1.9E1,9E0,1.3E2,1.4E1,5E0,7E0,2E0,8.6E1,4.4E1,9E0,5E0,1E0,6E0,5.2E1,3.4E1,3.4E1,1E1,2E0,7E0,4.8E1,4E0,2.3E1,1.1E1,2E1,1.4E1,9E0,1E0,2E0,5E0,3.2E1,1.6E1,3E0,1E0,2.2E1,1E0,6E0,5E0,1.4E1,6E0,3E0,1.1E1,8E0,1E0],"tree_param":{"num_deleted":"0","num_feature":"26","num_nodes":"45","size_leaf_vector":"1"}},{"base_weights":[-9.1776244E-2,-6.8524323E0,5.1502274E1,-1.3437371E1,2.9720094E0,2.2792364E1,9.744892E0,-1.6594458E1,-7.4894257E0,2.6671124E1,-7.2923905E-1,1.2805494E1,3.2292798E0,-1.7112318E1,-1.7081497E0,-1.065038E1,-1.3253033E0,3.5243623E0,1.4458898E0,-5.3523464E0,3.421008E0,6.528675E-1,2.10573E0,-2.0300701E1,-1.4798605E1,-3.5113785E-1,8.991539E-2,-1.5762106E0,-8.917197E0,-7.145658E-1,5.6693277E0,-6.868025E0,4.296972E0,-9.7103816E-1,7.298851E0,-2.1464136E0,-6.519869E-1,-1.6213869E-1,-1.5135542E0,-1.2671585E-2,-9.420948E-1,-6.06043E-2,8.9835244E-1,-9.973318E-1,-2.8469753E-1,5.696856E-1,-0E0,4.882802E-1,-4.7768164E-1,1.040901E0,8.8211164E-2],"categories":[],"categories_nodes":[],"categories_segments":[],"categories_sizes":[],"default_left":[0,0,0,0,0,0,0,0,0,0,0,0,0,0,0,0,0,0,0,0,0,0,0,0,0,0,0,0,0,0,0,0,0,0,0,0,0,0,0,0,0,0,0,0,0,0,0,0,0,0,0],"id":5,"left_children":[1,3,5,7,9,11,-1,13,15,17,19,21,-1,23,25,27,29,-1,-1,31,33,-1,-1,35,37,-1,-1,-1,39,-1,41,43,45,47,49,-1,-1,-1,-1,-1,-1,-1,-1,-1,-1,-1,-1,-1,-1,-1,-1],"loss_changes":[5.720442E4,9.421518E3,2.2830238E4,1.5070107E3,5.1973057E3,8.153994E2,0E0,4.0059375E2,6.081918E2,3.2296045E2,1.0162295E3,2.7412598E2,0E0,9.442578E1,1.7523186E1,4.302881E1,5.291935E2,0E0,0E0,3.954004E2,4.8460687E2,0E0,0E0,1.7791992E2,1.291792E2,0E0,0E0,0E0,7.7559326E1,0E0,1.3106903E2,2.4502795E2,2.3506622E1,3.352115E2,2.8904517E2,0E0,0E0,0E0,0E0,0E0,0E0,0E0,0E0,0E0,0E0,0E0,0E0,0E0,0E0,0E0,0E0],"parents":[2147483647,0,0,1,1,2,2,3,3,4,4,5,5,7,7,8,8,9,9,10,10,11,11,13,13,14,14,15,15,16,16,19,19,20,20,23,23,24,24,28,28,30,30,31,31,32,32,33,33,34,34],"right_children":[2,4,6,8,10,12,-1,14,16,18,20,22,-1,24,26,28,30,-1,-1,32,34,-1,-1,36,38,-1,-1,-1,40,-1,42,44,46,48,50,-1,-1,-1,-1,-1,-1,-1,-1,-1,-1,-1,-1,-1,-1,-1,-1],"split_conditions":[1.0962377E4,7.216563E3,1.3545817E0,1.2151898E0,4.6896553E0,1.3660541E3,9.744892E0,2.1970139E0,1E1,8.316506E2,8.229573E3,6.040363E0,3.2292798E0,4.6420255E2,8.0299066E2,4.4389334E2,5.5714756E3,3.5243623E0,1.4458898E0,1.3E1,6E0,6.528675E-1,2.10573E0,5.1277013E0,4.6942337E2,-3.5113785E-1,8.991539E-2,-1.5762106E0,9.808734E2,-7.145658E-1,4.9204544E2,1.3485875E3,7.052915E2,1.1561045E1,9.030793E0,-2.1464136E0,-6.519869E-1,-1.6213869E-1,-1.5135542E0,-1.2671585E-2,-9.420948E-1,-6.06043E-2,8.9835244E-1,-9.973318E-1,-2.8469753E-1,5.696856E-1,-0E0,4.882802E-1,-4.7768164E-1,1.040901E0,8.8211164E-2],"split_indices":[8,8,2,2,12,0,0,15,1,0,8,13,0,0,0,0,8,0,0,1,1,0,0,11,0,0,0,0,9,0,0,9,0,14,12,0,0,0,0,0,0,0,0,0,0,0,0,0,0,0,0],"split_type":[0,0,0,0,0,0,0,0,0,0,0,0,0,0,0,0,0,0,0,0,0,0,0,0,0,0,0,0,0,0,0,0,0,0,0,0,0,0,0,0,0,0,0,0,0,0,0,0,0,0,0],"sum_hessian":[1.62E2,1.44E2,1.8E1,8.6E1,5.8E1,1.2E1,6E0,5.5E1,3.1E1,7E0,5.1E1,7E0,5E0,5.3E1,2E0,2E1,1.1E1,3E0,4E0,2.4E1,2.7E1,5E0,2E0,1.9E1,3.4E1,1E0,1E0,3E0,1.7E1,6E0,5E0,2.1E1,3E0,1.3E1,1.4E1,1.7E1,2E0,1E0,3.3E1,1E0,1.6E1,2E0,3E0,1.1E1,1E1,2E0,1E0,5E0,8E0,9E0,5E0],"tree_param":{"num_deleted":"0","num_feature":"26","num_nodes":"51","size_leaf_vector":"1"}},{"base_weights":[2.470961E-1,-5.1490664E0,3.858051E1,2.1145731E1,-7.422616E0,5.4320206E1,1.5045267E1,-6.8804115E-1,2.8149363E1,-1.2559023E1,-1.0728843E0,5.8443465E0,6.4938E-1,2.1299432E-1,1.638094E1,3.4360101E0,1.177092E0,-1.728542E1,-9.106687E0,-2.6041217E0,6.374343E0,1.774606E0,3.3625558E-1,-1.780782E1,-1.5403168E-1,6.4729457E0,-1.0049992E1,-5.653857E0,1.5814364E0,1.1209541E1,-6.8276334E-1,-1.8636202E0,-4.9353608E-1,-1.9706833E-1,1.1730102E0,-1.15769E0,-1.1835804E-1,-8.4984237E-1,-1.14456646E-1,6.0619074E-1,-1.6343847E-1,1.2195156E0,3.0907357E-1,-3.0011934E-1,6.2214244E-2],"categories":[],"categories_nodes":[],"categories_segments":[],"categories_sizes":[],"default_left":[0,0,0,0,0,0,0,0,0,0,0,0,0,0,0,0,0,0,0,0,0,0,0,0,0,0,0,0,0,0,0,0,0,0,0,0,0,0,0,0,0,0,0,0,0],"id":6,"left_children":[1,3,5,7,9,11,13,-1,15,17,19,-1,-1,-1,21,-1,-1,23,25,27,29,-1,-1,31,-1,33,35,37,39,41,43,-1,-1,-1,-1,-1,-1,-1,-1,-1,-1,-1,-1,-1,-1],"loss_changes":[3.1850557E4,8.226226E3,6.214115E3,2.3549385E3,4.0620127E3,1.7831914E3,1.1851416E2,0E0,5.0643652E2,9.658281E2,6.6622046E2,0E0,0E0,0E0,8.039014E1,0E0,0E0,2.009414E2,6.826572E2,6.2206104E2,3.4993118E2,0E0,0E0,1.9357617E2,0E0,1.5726068E2,5.265503E2,3.4846393E2,3.1292648E2,8.791443E0,1.7231737E1,0E0,0E0,0E0,0E0,0E0,0E0,0E0,0E0,0E0,0E0,0E0,0E0,0E0,0E0],"parents":[2147483647,0,0,1,1,2,2,3,3,4,4,5,5,6,6,8,8,9,9,10,10,14,14,17,17,18,18,19,19,20,20,23,23,25,25,26,26,27,27,28,28,29,29,30,30],"right_children":[2,4,6,8,10,12,14,-1,16,18,20,-1,-1,-1,22,-1,-1,24,26,28,30,-1,-1,32,-1,34,36,38,40,42,44,-1,-1,-1,-1,-1,-1,-1,-1,-1,-1,-1,-1,-1,-1],"split_conditions":[1.0632279E4,4.623377E0,7E-1,7.1262993E3,6.9331357E3,8.50499E0,1.9261947E3,-6.8804115E-1,8.491989E3,4.7630054E2,1.3E1,5.8443465E0,6.4938E-1,2.1299432E-1,1.221844E1,3.4360101E0,1.177092E0,5.6123423E3,5.0511014E2,8.0299066E2,1E1,1.774606E0,3.3625558E-1,1.3903797E1,-1.5403168E-1,4.9204544E2,6E0,1.2234942E1,2.9203475E0,4.6E1,1.2E1,-1.8636202E0,-4.9353608E-1,-1.9706833E-1,1.1730102E0,-1.15769E0,-1.1835804E-1,-8.4984237E-1,-1.14456646E-1,6.0619074E-1,-1.6343847E-1,1.2195156E0,3.0907357E-1,-3.0011934E-1,6.2214244E-2],"split_indices":[8,12,22,8,8,12,9,0,8,0,1,0,0,0,14,0,0,8,23,0,3,0,0,14,0,0,3,14,11,1,3,0,0,0,0,0,0,0,0,0,0,0,0,0,0],"split_type":[0,0,0,0,0,0,0,0,0,0,0,0,0,0,0,0,0,0,0,0,0,0,0,0,0,0,0,0,0,0,0,0,0,0,0,0,0,0,0,0,0,0,0,0,0],"sum_hessian":[1.52E2,1.34E2,1.8E1,1E1,1.24E2,1E1,8E0,2E0,8E0,6.8E1,5.6E1,9E0,1E0,1E0,7E0,5E0,3E0,2.7E1,4.1E1,4.7E1,9E0,6E0,1E0,2.6E1,1E0,2E0,3.9E1,2.7E1,2E1,5E0,4E0,2.4E1,2E0,1E0,1E0,3.3E1,6E0,1.6E1,1.1E1,8E0,1.2E1,4E0,1E0,1E0,3E0],"tree_param":{"num_deleted":"0","num_feature":"26","num_nodes":"45","size_leaf_vector":"1"}},{"base_weights":[8.01057E-1,-4.260978E0,4.867492E1,3.0438326E1,-6.2864113E0,7.2608025E1,1.0935938E1,3.2922223E0,6.4755315E-1,-9.748752E0,5.15952E0,2.8195653E0,9.009827E0,8.550408E-2,1.2456914E1,-1.4626251E1,-6.3407555E0,7.93514E0,-1.19440585E-1,1.3650526E0,3.194427E-1,-1.5891995E1,-6.0129604E0,3.6643705E0,-7.082872E0,1.3803836E0,5.7363977E0,-2.8226368E0,5.967611E-1,-1.7035389E0,-7.3191285E-1,-7.414868E-1,1.1492417E-1,-9.6633494E-2,1.1143596E0,-8.575956E-1,-2.1247609E-1,1.373597E-1,9.450709E-1,-5.5946165E-1,4.9387023E-2],"categories":[],"categories_nodes":[],"categories_segments":[],"categories_sizes":[],"default_left":[0,0,0,0,0,0,0,0,0,0,0,0,0,0,0,0,0,0,0,0,0,0,0,0,0,0,0,0,0,0,0,0,0,0,0,0,0,0,0,0,0],"id":7,"left_children":[1,3,5,7,9,11,13,-1,-1,15,17,-1,-1,-1,19,21,23,25,27,-1,-1,29,31,33,35,-1,37,39,-1,-1,-1,-1,-1,-1,-1,-1,-1,-1,-1,-1,-1],"loss_changes":[3.8016754E4,1.0168852E4,1.2745777E4,2.5904004E2,5.400768E3,4.43884E3,9.534735E1,0E0,0E0,1.6339014E3,4.7060577E2,0E0,0E0,0E0,2.1044739E1,3.6014453E2,4.940691E2,1.8984033E2,2.1398384E2,0E0,0E0,2.2575879E2,7.943324E1,1.849566E2,4.1747803E2,0E0,2.6141772E2,8.6012695E1,0E0,0E0,0E0,0E0,0E0,0E0,0E0,0E0,0E0,0E0,0E0,0E0,0E0],"parents":[2147483647,0,0,1,1,2,2,3,3,4,4,5,5,6,6,9,9,10,10,14,14,15,15,16,16,17,17,18,18,21,21,22,22,23,23,24,24,26,26,27,27],"right_children":[2,4,6,8,10,12,14,-1,-1,16,18,-1,-1,-1,20,22,24,26,28,-1,-1,30,32,34,36,-1,38,40,-1,-1,-1,-1,-1,-1,-1,-1,-1,-1,-1,-1,-1],"split_conditions":[1.2257347E4,4.5221944E0,4.5401597E0,8.491989E3,8.229573E3,4.8746624E0,1E0,3.2922223E0,6.4755315E-1,1.0770153E3,9.030793E0,2.8195653E0,9.009827E0,8.550408E-2,5.8936296E0,4.623377E0,5.297561E2,4.2233706E0,1.27430935E1,1.3650526E0,3.194427E-1,5E0,6.1800474E3,1.1651151E3,7.521951E2,1.3803836E0,7.291139E0,9.299123E3,5.967611E-1,-1.7035389E0,-7.3191285E-1,-7.414868E-1,1.1492417E-1,-9.6633494E-2,1.1143596E0,-8.575956E-1,-2.1247609E-1,1.373597E-1,9.450709E-1,-5.5946165E-1,4.9387023E-2],"split_indices":[8,12,10,8,8,13,3,0,0,9,12,0,0,0,10,11,0,13,12,0,0,3,8,9,0,0,12,8,0,0,0,0,0,0,0,0,0,0,0,0,0],"split_type":[0,0,0,0,0,0,0,0,0,0,0,0,0,0,0,0,0,0,0,0,0,0,0,0,0,0,0,0,0,0,0,0,0,0,0,0,0,0,0,0,0],"sum_hessian":[1.55E2,1.41E2,1.4E1,7E0,1.34E2,8E0,6E0,6E0,1E0,1.03E2,3.1E1,3E0,5E0,1E0,5E0,4.1E1,6.2E1,2E1,1.1E1,4E0,1E0,3.5E1,6E0,4E0,5.8E1,4E0,1.6E1,8E0,3E0,3E1,5E0,5E0,1E0,3E0,1E0,4.4E1,1.4E1,8E0,8E0,4E0,4E0],"tree_param":{"num_deleted":"0","num_feature":"26","num_nodes":"41","size_leaf_vector":"1"}},{"base_weights":[-3.7355788E-2,-3.0468194E0,2.8763035E1,2.236031E1,-5.055815E0,4.611707E0,1.3986673E1,-8.851237E-1,2.682284E1,-8.674141E0,9.2721045E-1,1.5519436E1,8.122894E-2,6.1517555E-1,2.8625257E0,-1.1329783E1,-4.0441194E0,-1.507265E0,6.3902073E0,2.046177E0,8.441682E-1,-1.5491766E1,-8.410189E0,-6.406816E0,1.3119555E0,-4.662991E0,6.6356504E-1,9.366093E0,-1.4147824E0,-4.4357586E-1,-1.6525663E0,8.032315E-2,-9.808593E-1,-8.304621E-1,-2.9425624E-1,1.0925525E0,-4.3546495E-1,-6.193881E-1,-6.486127E-2,-1.6629782E-1,2.5553873E-1,1.0887868E0,-2.8758273E-1,-3.366432E-1,3.1459078E-1],"categories":[],"categories_nodes":[],"categories_segments":[],"categories_sizes":[],"default_left":[0,0,0,0,0,0,0,0,0,0,0,0,0,0,0,0,0,0,0,0,0,0,0,0,0,0,0,0,0,0,0,0,0,0,0,0,0,0,0,0,0,0,0,0,0],"id":8,"left_children":[1,3,5,7,9,-1,11,-1,13,15,17,19,-1,-1,-1,21,23,25,27,-1,-1,29,31,33,35,37,39,41,43,-1,-1,-1,-1,-1,-1,-1,-1,-1,-1,-1,-1,-1,-1,-1,-1],"loss_changes":[1.2826102E4,6.9510557E3,2.9389795E3,1.6320376E3,2.7148843E3,0E0,1.6749927E2,0E0,1.5574756E2,9.1170703E2,6.484975E2,1.0422278E2,0E0,0E0,0E0,4.6273535E2,3.8855832E2,2.3641266E2,3.624475E2,0E0,0E0,1.4178467E2,4.081858E2,1.1250244E2,5.9299695E2,8.1336334E1,9.6768326E1,2.3703674E2,5.511688E1,0E0,0E0,0E0,0E0,0E0,0E0,0E0,0E0,0E0,0E0,0E0,0E0,0E0,0E0,0E0,0E0],"parents":[2147483647,0,0,1,1,2,2,3,3,4,4,6,6,8,8,9,9,10,10,11,11,15,15,16,16,17,17,18,18,21,21,22,22,23,23,24,24,25,25,26,26,27,27,28,28],"right_children":[2,4,6,8,10,-1,12,-1,14,16,18,20,-1,-1,-1,22,24,26,28,-1,-1,30,32,34,36,38,40,42,44,-1,-1,-1,-1,-1,-1,-1,-1,-1,-1,-1,-1,-1,-1,-1,-1],"split_conditions":[1.2257347E4,4.5221944E0,6E0,5.3813867E3,7.017808E2,4.611707E0,1.0696203E0,-8.851237E-1,5.817308E-1,3.0462623E0,8.585714E-1,9.780916E0,8.122894E-2,6.1517555E-1,2.8625257E0,5.23908E2,1.1852272E3,8.6170386E2,1.3888888E0,2.046177E0,8.441682E-1,3.5460994E-1,5.297561E2,1E1,6.009705E2,9.43822E3,4.2935286E0,1.3E1,7.7045283E3,-4.4357586E-1,-1.6525663E0,8.032315E-2,-9.808593E-1,-8.304621E-1,-2.9425624E-1,1.0925525E0,-4.3546495E-1,-6.193881E-1,-6.486127E-2,-1.6629782E-1,2.5553873E-1,1.0887868E0,-2.8758273E-1,-3.366432E-1,3.1459078E-1],"split_indices":[8,12,12,8,0,0,2,0,2,11,2,12,0,0,0,23,9,23,2,0,0,2,23,1,0,8,16,7,8,0,0,0,0,0,0,0,0,0,0,0,0,0,0,0,0],"split_type":[0,0,0,0,0,0,0,0,0,0,0,0,0,0,0,0,0,0,0,0,0,0,0,0,0,0,0,0,0,0,0,0,0,0,0,0,0,0,0,0,0,0,0,0,0],"sum_hessian":[1.46E2,1.33E2,1.3E1,9E0,1.24E2,5E0,8E0,1E0,8E0,7.7E1,4.7E1,7E0,1E0,1E0,7E0,4.8E1,2.9E1,3.3E1,1.4E1,3E0,4E0,1.8E1,3E1,2E1,9E0,1.3E1,2E1,1E1,4E0,2E0,1.6E1,4E0,2.6E1,1.2E1,8E0,3E0,6E0,9E0,4E0,9E0,1.1E1,9E0,1E0,3E0,1E0],"tree_param":{"num_deleted":"0","num_feature":"26","num_nodes":"45","size_leaf_vector":"1"}},{"base_weights":[1.9829576E0,-2.989847E0,4.4134113E1,-7.3613987E0,6.3157024E0,2.0409355E1,8.025715E0,-1.0035903E1,-1.1095314E0,1.402279E0,2.8238321E1,6.306339E0,2.4897192E0,-1.2119377E1,-5.7000213E0,1.1839198E0,-2.5108888E0,-2.7773994E-1,8.6563225E0,3.1289635E0,3.389564E-1,7.13649E-2,7.899353E-1,-1.3487779E1,-8.659174E0,2.3620162E0,-7.0324273E0,-6.402528E0,1.0225905E0,-2.1453662E0,3.8488119E0,1.0781182E0,2.1961181E-1,-1.4661527E0,-4.901487E-1,-9.051609E-1,-1.5325463E-1,-9.983093E-2,3.8482282E-1,-1.0665156E0,-5.758113E-1,-3.8605726E-1,-8.708046E-1,-3.7301853E-1,5.660043E-1,-8.735423E-2,-6.2748593E-1,7.11479E-2,8.3519423E-1],"categories":[],"categories_nodes":[],"categories_segments":[],"categories_sizes":[],"default_left":[0,0,0,0,0,0,0,0,0,0,0,0,0,0,0,0,0,0,0,0,0,0,0,0,0,0,0,0,0,0,0,0,0,0,0,0,0,0,0,0,0,0,0,0,0,0,0,0,0],"id":9,"left_children":[1,3,5,7,9,11,-1,13,15,17,19,21,-1,23,25,-1,27,29,31,-1,-1,-1,-1,33,35,37,39,41,43,45,47,-1,-1,-1,-1,-1,-1,-1,-1,-1,-1,-1,-1,-1,-1,-1,-1,-1,-1],"loss_changes":[3.1787096E4,5.579035E3,1.2064102E4,1.5427705E3,4.696903E3,5.3608203E2,0E0,5.1632715E2,5.550223E2,4.541585E2,4.9704492E2,2.9138275E1,0E0,8.45957E1,2.6414166E2,0E0,3.7836285E2,2.4699933E2,7.1114624E1,0E0,0E0,0E0,0E0,2.1844629E2,2.702063E1,2.4103334E1,2.9531189E1,4.131189E1,3.5191757E2,1.09347534E2,1.3442961E2,0E0,0E0,0E0,0E0,0E0,0E0,0E0,0E0,0E0,0E0,0E0,0E0,0E0,0E0,0E0,0E0,0E0,0E0],"parents":[2147483647,0,0,1,1,2,2,3,3,4,4,5,5,7,7,8,8,9,9,10,10,11,11,13,13,14,14,16,16,17,17,18,18,23,23,24,24,25,25,26,26,27,27,28,28,29,29,30,30],"right_children":[2,4,6,8,10,12,-1,14,16,18,20,22,-1,24,26,-1,28,30,32,-1,-1,-1,-1,34,36,38,40,42,44,46,48,-1,-1,-1,-1,-1,-1,-1,-1,-1,-1,-1,-1,-1,-1,-1,-1,-1,-1],"split_conditions":[1.164819E3,7.521951E2,1.3545817E0,3.8113208E0,1.3888888E0,1.3660541E3,8.025715E0,9.954338E-1,4.563653E0,8.585714E-1,2.2429907E0,6.0335195E-1,2.4897192E0,4.376661E1,1.3545817E0,1.1839198E0,1.2105078E1,2.0560867E3,5.6801305E0,3.1289635E0,3.389564E-1,7.13649E-2,7.899353E-1,5E0,8.92562E-1,3.9618265E2,4.4389334E2,5.451215E0,4.9535196E2,1.8914263E3,4.47148E0,1.0781182E0,2.1961181E-1,-1.4661527E0,-4.901487E-1,-9.051609E-1,-1.5325463E-1,-9.983093E-2,3.8482282E-1,-1.0665156E0,-5.758113E-1,-3.8605726E-1,-8.708046E-1,-3.7301853E-1,5.660043E-1,-8.735423E-2,-6.2748593E-1,7.11479E-2,8.3519423E-1],"split_indices":[0,0,2,11,2,0,0,2,10,2,2,2,0,24,2,0,14,9,13,0,0,0,0,3,2,0,0,13,0,9,13,0,0,0,0,0,0,0,0,0,0,0,0,0,0,0,0,0,0],"split_type":[0,0,0,0,0,0,0,0,0,0,0,0,0,0,0,0,0,0,0,0,0,0,0,0,0,0,0,0,0,0,0,0,0,0,0,0,0,0,0,0,0,0,0,0,0,0,0,0,0],"sum_hessian":[1.5E2,1.35E2,1.5E1,9.2E1,4.3E1,1E1,5E0,6.4E1,2.8E1,3.6E1,7E0,3E0,7E0,4.2E1,2.2E1,2E0,2.6E1,3E1,6E0,6E0,1E0,1E0,2E0,2.8E1,1.4E1,3E0,1.9E1,1.2E1,1.4E1,2.1E1,9E0,4E0,2E0,2.4E1,4E0,1.3E1,1E0,1E0,2E0,3E0,1.6E1,7E0,5E0,7E0,7E0,1.7E1,4E0,6E0,3E0],"tree_param":{"num_deleted":"0","num_feature":"26","num_nodes":"49","size_leaf_vector":"1"}},{"base_weights":[1.3861432E0,-1.713502E0,5.701899E1,-6.7105737E0,7.254597E0,2.4954268E1,8.282015E0,-8.497337E0,-5.53414E-1,3.3705692E0,2.3220459E1,6.5664095E-1,2.788463E0,-1.2426898E1,-5.8612247E0,-4.193824E0,1.8192362E0,1.0926499E0,7.1400175E0,1.1859242E0,3.248013E0,-5.157682E0,-1.3419364E1,3.349259E0,-7.0987663E0,-4.558154E-1,-5.8959123E-2,-2.6379774E0,5.5043936E0,-4.057046E-1,6.670901E0,8.6357565E0,4.6886024E-1,-3.6673692E-1,4.0594783E-1,1.0156033E-1,-6.9799036E-1,-1.3915998E0,-9.48394E-2,8.087788E-3,6.557347E-1,-8.5277313E-1,-4.6579477E-1,5.218908E-2,-4.026303E-1,-2.386495E-2,7.4751824E-1,-1.7801818E-1,6.5431076E-1,8.444069E-1,2.04971E-1,1.0108869E0,2.7690387E-1,-4.2122193E-2,9.392949E-2],"categories":[],"categories_nodes":[],"categories_segments":[],"categories_sizes":[],"default_left":[0,0,0,0,0,0,0,0,0,0,0,0,0,0,0,0,0,0,0,0,0,0,0,0,0,0,0,0,0,0,0,0,0,0,0,0,0,0,0,0,0,0,0,0,0,0,0,0,0,0,0,0,0,0,0],"id":10,"left_children":[1,3,5,7,9,11,-1,13,15,17,19,-1,-1,21,23,25,27,29,31,33,-1,35,37,39,41,-1,-1,43,45,47,49,51,53,-1,-1,-1,-1,-1,-1,-1,-1,-1,-1,-1,-1,-1,-1,-1,-1,-1,-1,-1,-1,-1,-1],"loss_changes":[2.6141988E4,6.501878E3,4.540963E3,1.017521E3,3.1436917E3,8.2868164E1,0E0,6.711655E2,1.9789023E2,3.6059464E2,1.998439E3,0E0,0E0,1.309336E2,5.3707666E2,8.615967E0,2.4476456E2,2.3736246E2,1.546936E2,7.071162E1,0E0,6.3930725E1,1.3395996E2,6.171736E1,9.847339E1,0E0,0E0,3.316021E1,9.30542E1,2.3084427E2,3.0807617E1,8.307068E1,2.1223612E0,0E0,0E0,0E0,0E0,0E0,0E0,0E0,0E0,0E0,0E0,0E0,0E0,0E0,0E0,0E0,0E0,0E0,0E0,0E0,0E0,0E0,0E0],"parents":[2147483647,0,0,1,1,2,2,3,3,4,4,5,5,7,7,8,8,9,9,10,10,13,13,14,14,15,15,16,16,17,17,18,18,19,19,21,21,22,22,23,23,24,24,27,27,28,28,29,29,30,30,31,31,32,32],"right_children":[2,4,6,8,10,12,-1,14,16,18,20,-1,-1,22,24,26,28,30,32,34,-1,36,38,40,42,-1,-1,44,46,48,50,52,54,-1,-1,-1,-1,-1,-1,-1,-1,-1,-1,-1,-1,-1,-1,-1,-1,-1,-1,-1,-1,-1,-1],"split_conditions":[1.4782152E3,8.136585E2,1.3545817E0,4.623377E0,1.3888888E0,7.1428573E-1,8.282015E0,5.254342E2,1.2098493E1,1.0655754E3,2.9203475E0,6.5664095E-1,2.788463E0,5.3097215E0,5.332198E2,6.7564557E2,4.9204544E2,9.954338E-1,1.6E0,1.7710843E0,3.248013E0,7.816092E-1,6.6513267E0,5.2804626E2,8.92562E-1,-4.558154E-1,-5.8959123E-2,4.929247E0,5.7731957E0,1.27430935E1,9.875851E2,3.269221E0,1.116899E3,-3.6673692E-1,4.0594783E-1,1.0156033E-1,-6.9799036E-1,-1.3915998E0,-9.48394E-2,8.087788E-3,6.557347E-1,-8.5277313E-1,-4.6579477E-1,5.218908E-2,-4.026303E-1,-2.386495E-2,7.4751824E-1,-1.7801818E-1,6.5431076E-1,8.444069E-1,2.04971E-1,1.0108869E0,2.7690387E-1,-4.2122193E-2,9.392949E-2],"split_indices":[0,23,2,11,2,2,0,23,14,0,11,0,0,10,23,0,0,2,22,2,0,2,13,0,2,0,0,11,10,12,23,11,0,0,0,0,0,0,0,0,0,0,0,0,0,0,0,0,0,0,0,0,0,0,0],"split_type":[0,0,0,0,0,0,0,0,0,0,0,0,0,0,0,0,0,0,0,0,0,0,0,0,0,0,0,0,0,0,0,0,0,0,0,0,0,0,0,0,0,0,0,0,0,0,0,0,0,0,0,0,0,0,0],"sum_hessian":[1.5E2,1.43E2,7E0,9.2E1,5.1E1,4E0,3E0,7.1E1,2.1E1,4.2E1,9E0,1E0,3E0,2.7E1,4.4E1,8E0,1.3E1,2.7E1,1.5E1,3E0,6E0,4E0,2.3E1,5E0,3.9E1,7E0,1E0,6E0,7E0,2.2E1,5E0,1.2E1,3E0,1E0,2E0,1E0,3E0,2.2E1,1E0,3E0,2E0,2.3E1,1.6E1,2E0,4E0,2E0,5E0,1.9E1,3E0,3E0,2E0,9E0,3E0,1E0,2E0],"tree_param":{"num_deleted":"0","num_feature":"26","num_nodes":"55","size_leaf_vector":"1"}},{"base_weights":[1.2933373E0,-1.6312637E0,4.59204E1,-6.4956317E0,5.8100066E0,2.1809921E1,7.6608634E0,-1.0257496E1,-3.7082076E0,2.3647628E0,1.9672688E1,2.334888E0,6.23809E-1,-1.1339319E1,-3.6778278E0,-6.4083133E0,-6.6704935E-1,4.7865413E-2,9.689282E0,-1.3645741E0,2.684784E1,-1.2282794E1,-3.5793028E0,-6.351034E-1,-6.0165025E-2,-8.027372E-1,-3.4373662E-1,-4.711772E0,2.4019332E0,2.2802086E0,-1.7762274E0,1.1907223E1,2.251594E0,-3.8641736E-1,3.017112E-1,2.953728E0,2.6161608E-1,-1.2818955E0,-3.3297458E-1,-7.084096E-1,1.08525805E-1,-1.0464346E-1,1.3993219E-1,-9.847115E-2,-5.348713E-1,1.1064003E0,3.670659E-2,9.785413E-2,8.429031E-1,-3.9454567E-1,7.4258894E-2,1.3225377E0,6.309997E-2,2.809954E-1,2.382576E-2],"categories":[],"categories_nodes":[],"categories_segments":[],"categories_sizes":[],"default_left":[0,0,0,0,0,0,0,0,0,0,0,0,0,0,0,0,0,0,0,0,0,0,0,0,0,0,0,0,0,0,0,0,0,0,0,0,0,0,0,0,0,0,0,0,0,0,0,0,0,0,0,0,0,0,0],"id":11,"left_children":[1,3,5,7,9,11,-1,13,15,17,19,-1,-1,21,23,25,27,29,31,33,35,37,39,-1,41,-1,-1,43,45,47,49,51,53,-1,-1,-1,-1,-1,-1,-1,-1,-1,-1,-1,-1,-1,-1,-1,-1,-1,-1,-1,-1,-1,-1],"loss_changes":[2.1222988E4,5.575961E3,5.71841E3,9.357561E2,2.864654E3,1.9139404E1,0E0,2.3439844E2,4.4664746E2,8.4707043E2,1.8505308E3,0E0,0E0,1.9605518E2,6.6672066E1,1.1075452E2,3.4670425E2,1.629086E2,1.697301E2,5.5553185E1,5.060371E2,9.490918E1,9.002956E1,0E0,7.1867995E0,0E0,0E0,2.2586731E1,2.7681424E2,1.3487807E2,1.23455734E2,1.2404321E2,3.5223484E0,0E0,0E0,0E0,0E0,0E0,0E0,0E0,0E0,0E0,0E0,0E0,0E0,0E0,0E0,0E0,0E0,0E0,0E0,0E0,0E0,0E0,0E0],"parents":[2147483647,0,0,1,1,2,2,3,3,4,4,5,5,7,7,8,8,9,9,10,10,13,13,14,14,15,15,16,16,17,17,18,18,19,19,20,20,21,21,22,22,24,24,27,27,28,28,29,29,30,30,31,31,32,32],"right_children":[2,4,6,8,10,12,-1,14,16,18,20,-1,-1,22,24,26,28,30,32,34,36,38,40,-1,42,-1,-1,44,46,48,50,52,54,-1,-1,-1,-1,-1,-1,-1,-1,-1,-1,-1,-1,-1,-1,-1,-1,-1,-1,-1,-1,-1,-1],"split_conditions":[1.4782152E3,7.521951E2,1.3545817E0,1.0770153E3,1.3888888E0,5.6261096E0,7.6608634E0,1.327481E1,6E0,1.0632279E4,4.1867847E0,2.334888E0,6.23809E-1,7E0,5.36937E3,2.0512211E0,4.6109347E0,5.974212E-1,1.0696203E0,8.455469E2,2.2429907E0,1.7E1,4.258675E-1,-6.351034E-1,4.5030716E2,-8.027372E-1,-3.4373662E-1,5.119459E3,5.7764272E3,1.1019272E3,7.922078E-1,1.25E0,1.2257347E4,-3.8641736E-1,3.017112E-1,2.953728E0,2.6161608E-1,-1.2818955E0,-3.3297458E-1,-7.084096E-1,1.08525805E-1,-1.0464346E-1,1.3993219E-1,-9.847115E-2,-5.348713E-1,1.1064003E0,3.670659E-2,9.785413E-2,8.429031E-1,-3.9454567E-1,7.4258894E-2,1.3225377E0,6.309997E-2,2.809954E-1,2.382576E-2],"split_indices":[0,0,2,9,2,12,0,14,1,8,10,0,0,7,8,15,13,2,2,0,2,1,2,0,0,0,0,8,8,0,2,22,8,0,0,0,0,0,0,0,0,0,0,0,0,0,0,0,0,0,0,0,0,0,0],"split_type":[0,0,0,0,0,0,0,0,0,0,0,0,0,0,0,0,0,0,0,0,0,0,0,0,0,0,0,0,0,0,0,0,0,0,0,0,0,0,0,0,0,0,0,0,0,0,0,0,0,0,0,0,0,0,0],"sum_hessian":[1.61E2,1.52E2,9E0,9.2E1,6E1,6E0,3E0,3.8E1,5.4E1,4.9E1,1.1E1,5E0,1E0,3.2E1,6E0,2.8E1,2.6E1,3.8E1,1.1E1,3E0,8E0,2.8E1,4E0,3E0,3E0,1.7E1,1.1E1,1.1E1,1.5E1,1.7E1,2.1E1,8E0,3E0,2E0,1E0,7E0,1E0,2.6E1,2E0,2E0,2E0,2E0,1E0,2E0,9E0,2E0,1.3E1,1.5E1,2E0,1.1E1,1E1,7E0,1E0,2E0,1E0],"tree_param":{"num_deleted":"0","num_feature":"26","num_nodes":"55","size_leaf_vector":"1"}},{"base_weights":[-9.383577E-1,-3.1407995E0,2.5560806E1,-7.18433E0,2.8046992E0,7.3020883E0,3.7545307E0,-9.95201E0,-5.599861E0,-6.096872E-1,1.0030233E1,8.3311826E-1,1.0283082E-1,-1.0838835E1,-1.4529368E0,-6.987747E0,-8.3080006E-1,-1.8135673E0,6.6985407E0,1.8624868E0,4.623104E0,-1.1393259E1,-2.5723618E-1,-4.475236E-1,1.0129085E0,-7.9056206E0,-3.0664167E-1,5.47956E-1,-1.7454094E0,-5.33399E0,-4.3883395E-1,9.399647E-1,8.308863E-2,5.48169E0,-2.789962E-1,-3.347487E-1,-1.1943E0,1.2678254E-1,2.0153733E-2,1.5800793E-1,-8.234026E-1,-2.5822657E-1,1.8715332E-1,-6.0517275E-1,5.1282045E-2,-9.650257E-2,4.059042E-1,-2.4016678E-1,6.425783E-1],"categories":[],"categories_nodes":[],"categories_segments":[],"categories_sizes":[],"default_left":[0,0,0,0,0,0,0,0,0,0,0,0,0,0,0,0,0,0,0,0,0,0,0,0,0,0,0,0,0,0,0,0,0,0,0,0,0,0,0,0,0,0,0,0,0,0,0,0,0],"id":12,"left_children":[1,3,5,7,9,11,-1,13,15,17,19,-1,-1,21,23,25,27,29,31,-1,33,35,-1,-1,37,39,-1,-1,41,43,45,-1,-1,47,-1,-1,-1,-1,-1,-1,-1,-1,-1,-1,-1,-1,-1,-1,-1],"loss_changes":[9.124284E3,3.4824639E3,2.3472148E3,3.198506E2,1.4626326E3,2.9234924E1,0E0,2.0913843E2,3.706908E2,3.7238718E2,7.945443E2,0E0,0E0,9.304028E1,3.4689327E1,1.330293E2,8.999186E1,1.7130911E2,8.626184E1,0E0,9.830469E1,6.9069336E1,0E0,0E0,2.1804619E-1,1.227063E2,0E0,0E0,4.4253063E1,4.562207E1,6.75098E1,0E0,0E0,1.05146454E2,0E0,0E0,0E0,0E0,0E0,0E0,0E0,0E0,0E0,0E0,0E0,0E0,0E0,0E0,0E0],"parents":[2147483647,0,0,1,1,2,2,3,3,4,4,5,5,7,7,8,8,9,9,10,10,13,13,14,14,15,15,16,16,17,17,18,18,20,20,21,21,24,24,25,25,28,28,29,29,30,30,33,33],"right_children":[2,4,6,8,10,12,-1,14,16,18,20,-1,-1,22,24,26,28,30,32,-1,34,36,-1,-1,38,40,-1,-1,42,44,46,-1,-1,48,-1,-1,-1,-1,-1,-1,-1,-1,-1,-1,-1,-1,-1,-1,-1],"split_conditions":[1.2257347E4,6.7564557E2,8.585714E-1,9.6430066E2,8.585714E-1,5.8936296E0,3.7545307E0,7E0,1.2342333E1,1.116899E3,4.6896553E0,8.3311826E-1,1.0283082E-1,1.3903797E1,4.6944446E2,2.056926E0,1.2344008E1,7.212577E3,7.880729E0,1.8624868E0,1.3E1,5.6453958E0,-2.5723618E-1,-4.475236E-1,4.7672354E2,3.5526314E-1,-3.0664167E-1,5.47956E-1,6.3933644E0,9.5113635E2,1.27430935E1,9.399647E-1,8.308863E-2,4E0,-2.789962E-1,-3.347487E-1,-1.1943E0,1.2678254E-1,2.0153733E-2,1.5800793E-1,-8.234026E-1,-2.5822657E-1,1.8715332E-1,-6.0517275E-1,5.1282045E-2,-9.650257E-2,4.059042E-1,-2.4016678E-1,6.425783E-1],"split_indices":[8,0,2,9,2,10,0,7,17,0,12,0,0,17,0,2,17,8,12,0,7,13,0,0,0,11,0,0,13,0,12,0,0,1,0,0,0,0,0,0,0,0,0,0,0,0,0,0,0],"split_type":[0,0,0,0,0,0,0,0,0,0,0,0,0,0,0,0,0,0,0,0,0,0,0,0,0,0,0,0,0,0,0,0,0,0,0,0,0,0,0,0,0,0,0,0,0,0,0,0,0],"sum_hessian":[1.54E2,1.43E2,1.1E1,8.5E1,5.8E1,5E0,6E0,2.9E1,5.6E1,4E1,1.8E1,4E0,1E0,2.6E1,3E0,4.3E1,1.3E1,3.5E1,5E0,6E0,1.2E1,2.4E1,2E0,1E0,2E0,3.4E1,9E0,1E0,1.2E1,9E0,2.6E1,3E0,2E0,1.1E1,1E0,2E0,2.2E1,1E0,1E0,1E0,3.3E1,1E1,2E0,8E0,1E0,2.4E1,2E0,1E0,1E1],"tree_param":{"num_deleted":"0","num_feature":"26","num_nodes":"49","size_leaf_vector":"1"}},{"base_weights":[1.5626765E0,-1.945956E0,2.863143E1,-5.183018E0,4.435605E0,7.025975E0,1.9595171E1,-8.047732E0,-2.8889875E0,4.752114E-1,1.3638176E1,2.7933863E1,6.7099113E0,-8.732322E0,-3.2652242E0,-4.8772745E0,1.5739105E0,-3.8416398E0,2.5322914E0,3.6696345E-1,2.0227087E0,1.0675853E0,3.3790746E0,7.5602114E-1,1.0111041E0,-9.923581E0,-3.9124513E0,8.9825404E-1,-6.637396E-1,-5.9368973E0,-1.9900473E0,1.0875338E0,-2.622265E-1,-7.852068E-1,-2.2443473E0,7.5259185E-1,1.5047097E0,-9.209454E-1,3.453254E-1,-1.5509216E-1,2.0753093E0,-1.0302802E0,2.973091E-2,-3.777158E-2,-8.211442E-1,1.03669815E-1,1.9146081E-2,-6.733988E-1,-2.569343E-1,-4.589227E-1,2.54665E-1,-2.5418794E-1,5.241386E-1,-2.5804484E-1,3.402817E-2,3.6924608E-2,5.2714366E-1,-8.639476E-3,-1.415181E-1,2.5050613E-1,5.5790253E-2],"categories":[],"categories_nodes":[],"categories_segments":[],"categories_sizes":[],"default_left":[0,0,0,0,0,0,0,0,0,0,0,0,0,0,0,0,0,0,0,0,0,0,0,0,0,0,0,0,0,0,0,0,0,0,0,0,0,0,0,0,0,0,0,0,0,0,0,0,0,0,0,0,0,0,0,0,0,0,0,0,0],"id":13,"left_children":[1,3,5,7,9,-1,11,13,15,17,19,21,23,25,27,29,31,33,35,37,-1,-1,-1,39,-1,41,43,45,-1,47,49,-1,51,-1,53,-1,55,57,-1,-1,59,-1,-1,-1,-1,-1,-1,-1,-1,-1,-1,-1,-1,-1,-1,-1,-1,-1,-1,-1,-1],"loss_changes":[1.5729145E4,3.0597188E3,5.761385E3,6.1968726E2,1.8143978E3,0E0,1.635687E3,1.1107153E2,5.0492386E2,3.2928113E2,1.3021604E3,6.4558984E2,1.532687E2,1.7223413E2,1.0481574E2,1.0670813E2,3.1132962E2,5.823752E1,1.16056625E2,2.7282656E1,0E0,0E0,0E0,1.5445169E1,0E0,1.16467285E2,1.3280164E2,7.010245E-2,0E0,5.6926636E1,1.533917E2,0E0,2.1379427E2,0E0,9.7890625E0,0E0,9.158305E1,1.7899013E0,0E0,0E0,2.5245E-1,0E0,0E0,0E0,0E0,0E0,0E0,0E0,0E0,0E0,0E0,0E0,0E0,0E0,0E0,0E0,0E0,0E0,0E0,0E0,0E0],"parents":[2147483647,0,0,1,1,2,2,3,3,4,4,6,6,7,7,8,8,9,9,10,10,11,11,12,12,13,13,14,14,15,15,16,16,17,17,18,18,19,19,23,23,25,25,26,26,27,27,29,29,30,30,32,32,34,34,36,36,37,37,40,40],"right_children":[2,4,6,8,10,-1,12,14,16,18,20,22,24,26,28,30,32,34,36,38,-1,-1,-1,40,-1,42,44,46,-1,48,50,-1,52,-1,54,-1,56,58,-1,-1,60,-1,-1,-1,-1,-1,-1,-1,-1,-1,-1,-1,-1,-1,-1,-1,-1,-1,-1,-1,-1],"split_conditions":[2.4115603E3,7.1210126E2,1.8213915E0,1.0770153E3,3.5399806E0,7.025975E0,6E0,5E0,3.8188775E0,3.677409E0,2.0210996E0,3.6799862E0,1.3197815E3,1.2E1,1.0590271E1,1.1456633E1,5.308511E2,4.5380144E0,4.623377E0,8.352102E2,2.0227087E0,1.0675853E0,3.3790746E0,1.1853658E3,1.0111041E0,5.697446E0,2.8E1,6.0411816E0,-6.637396E-1,8.75E-1,7E0,1.0875338E0,5.8192744E0,-7.852068E-1,3E0,7.5259185E-1,1.22018795E1,4E0,3.453254E-1,-1.5509216E-1,1.3053654E3,-1.0302802E0,2.973091E-2,-3.777158E-2,-8.211442E-1,1.03669815E-1,1.9146081E-2,-6.733988E-1,-2.569343E-1,-4.589227E-1,2.54665E-1,-2.5418794E-1,5.241386E-1,-2.5804484E-1,3.402817E-2,3.6924608E-2,5.2714366E-1,-8.639476E-3,-1.415181E-1,2.5050613E-1,5.5790253E-2],"split_indices":[9,0,15,9,11,0,12,3,11,10,15,10,0,1,12,12,0,12,12,0,0,0,0,0,0,11,1,10,0,22,1,0,10,0,3,0,12,1,0,0,0,0,0,0,0,0,0,0,0,0,0,0,0,0,0,0,0,0,0,0,0],"split_type":[0,0,0,0,0,0,0,0,0,0,0,0,0,0,0,0,0,0,0,0,0,0,0,0,0,0,0,0,0,0,0,0,0,0,0,0,0,0,0,0,0,0,0,0,0,0,0,0,0,0,0,0,0,0,0,0,0,0,0,0,0],"sum_hessian":[1.64E2,1.46E2,1.8E1,9.7E1,4.9E1,2E0,1.6E1,4.2E1,5.5E1,3.5E1,1.4E1,9E0,7E0,3.6E1,6E0,3.8E1,1.7E1,1.1E1,2.4E1,5E0,9E0,3E0,6E0,3E0,4E0,2.8E1,8E0,3E0,3E0,2.7E1,1.1E1,2E0,1.5E1,2E0,9E0,3E0,2.1E1,4E0,1E0,1E0,2E0,2.7E1,1E0,5E0,3E0,2E0,1E0,2.1E1,6E0,7E0,4E0,1.1E1,4E0,8E0,1E0,1.7E1,4E0,2E0,2E0,1E0,1E0],"tree_param":{"num_deleted":"0","num_feature":"26","num_nodes":"61","size_leaf_vector":"1"}},{"base_weights":[1.2541199E0,-2.335423E0,2.7912155E1,1.6417301E1,-3.4990952E0,1.0704488E1,5.3409276E0,1.74473E0,4.5536566E-1,-5.864316E0,6.494577E-1,4.0585527E0,1.4857506E0,-7.1722713E0,-1.2135011E0,-1.1630756E0,3.387037E0,7.178299E-2,4.5631313E-1,-8.3340645E0,-4.037905E0,-4.190997E0,1.3238593E0,4.6518257E-1,-3.8788784E0,6.8212934E0,2.009816E0,-1.0275705E0,-6.202808E-1,3.8181555E-2,-4.8967162E-1,-2.2485133E-1,-6.0319734E-1,-1.4791925E-1,3.9229345E-1,-1.1866474E-1,5.3476363E-1,-4.782067E-1,2.5265038E-1,1.5947068E-1,7.7042633E-1,7.335913E-2,3.785221E-1],"categories":[],"categories_nodes":[],"categories_segments":[],"categories_sizes":[],"default_left":[0,0,0,0,0,0,0,0,0,0,0,0,0,0,0,0,0,0,0,0,0,0,0,0,0,0,0,0,0,0,0,0,0,0,0,0,0,0,0,0,0,0,0],"id":14,"left_children":[1,3,5,7,9,11,-1,-1,-1,13,15,17,-1,19,21,23,25,-1,-1,27,29,31,33,35,37,39,41,-1,-1,-1,-1,-1,-1,-1,-1,-1,-1,-1,-1,-1,-1,-1,-1],"loss_changes":[1.4516959E4,2.9803052E3,7.319298E3,1.6107178E1,1.2504851E3,2.6901672E2,0E0,0E0,0E0,4.831853E2,2.3737363E2,6.310295E0,0E0,1.9452441E2,1.4937964E2,1.3038457E2,7.527225E1,0E0,0E0,1.2082959E2,7.4439545E1,1.779358E1,8.618591E1,1.5999654E2,7.594542E1,9.858658E0,3.0758541E1,0E0,0E0,0E0,0E0,0E0,0E0,0E0,0E0,0E0,0E0,0E0,0E0,0E0,0E0,0E0,0E0],"parents":[2147483647,0,0,1,1,2,2,3,3,4,4,5,5,9,9,10,10,11,11,13,13,14,14,15,15,16,16,19,19,20,20,21,21,22,22,23,23,24,24,25,25,26,26],"right_children":[2,4,6,8,10,12,-1,-1,-1,14,16,18,-1,20,22,24,26,-1,-1,28,30,32,34,36,38,40,42,-1,-1,-1,-1,-1,-1,-1,-1,-1,-1,-1,-1,-1,-1,-1,-1],"split_conditions":[1.0921888E4,4.5221944E0,1.3545817E0,8.316506E2,6.755962E2,1.3660541E3,5.3409276E0,1.74473E0,4.5536566E-1,4.623377E0,6.514286E1,9.712528E2,1.4857506E0,1.2151898E0,1.2105078E1,2.054877E0,7.197807E1,7.178299E-2,4.5631313E-1,5.6123423E3,1.3545817E0,6.874152E0,6.1800474E3,9.954338E-1,8.455469E2,8.5784316E-1,9.7629375E3,-1.0275705E0,-6.202808E-1,3.8181555E-2,-4.8967162E-1,-2.2485133E-1,-6.0319734E-1,-1.4791925E-1,3.9229345E-1,-1.1866474E-1,5.3476363E-1,-4.782067E-1,2.5265038E-1,1.5947068E-1,7.7042633E-1,7.335913E-2,3.785221E-1],"split_indices":[8,12,2,0,0,0,0,0,0,11,24,0,0,2,14,15,24,0,0,8,2,12,8,2,0,2,8,0,0,0,0,0,0,0,0,0,0,0,0,0,0,0,0],"split_type":[0,0,0,0,0,0,0,0,0,0,0,0,0,0,0,0,0,0,0,0,0,0,0,0,0,0,0,0,0,0,0,0,0,0,0,0,0,0,0,0,0,0,0],"sum_hessian":[1.5E2,1.33E2,1.7E1,7E0,1.26E2,1.1E1,6E0,6E0,1E0,8E1,4.6E1,5E0,6E0,6.2E1,1.8E1,2.8E1,1.8E1,1E0,4E0,4.4E1,1.8E1,8E0,1E1,1.8E1,1E1,4E0,1.4E1,2.1E1,2.3E1,3E0,1.5E1,5E0,3E0,5E0,5E0,1.4E1,4E0,9E0,1E0,1E0,3E0,9E0,5E0],"tree_param":{"num_deleted":"0","num_feature":"26","num_nodes":"43","size_leaf_vector":"1"}},{"base_weights":[-4.196483E-2,-2.148306E0,1.7672667E1,-4.7191725E0,2.87783E0,1.1698776E1,3.4138112E0,-6.528425E0,-1.4282131E0,1.232324E0,7.3181736E-1,1.4269247E1,4.19808E0,-4.207449E0,-8.020563E0,-3.4563594E0,3.3019567E0,-2.7364033E-1,4.348294E0,1.561725E1,5.884824E0,4.8574635E-1,7.302734E-2,1.8207417E-1,-4.7898293E0,-8.272944E0,3.564026E-2,1.915025E0,-4.5754337E0,-1.1198022E0,1.1344986E1,-8.066641E-1,3.767448E-1,8.3896875E-1,-5.427594E-1,1.7682142E0,6.248385E-1,-1.7015336E-1,1.057877E0,-5.308417E-1,5.764231E-2,-1.0133456E0,-5.947271E-1,-7.20237E-2,2.7788997E-1,-5.439622E-1,-2.0556824E-1,1.0826131E-1,-2.051043E-1,1.3024375E0,3.1034082E-1,-1.7984746E-1,1.0608699E-1,6.013466E-2,-2.6095918E-1],"categories":[],"categories_nodes":[],"categories_segments":[],"categories_sizes":[],"default_left":[0,0,0,0,0,0,0,0,0,0,0,0,0,0,0,0,0,0,0,0,0,0,0,0,0,0,0,0,0,0,0,0,0,0,0,0,0,0,0,0,0,0,0,0,0,0,0,0,0,0,0,0,0,0,0],"id":15,"left_children":[1,3,5,7,9,11,-1,13,15,-1,17,19,21,23,25,27,29,31,33,35,37,-1,-1,-1,39,41,-1,43,45,47,49,51,-1,-1,53,-1,-1,-1,-1,-1,-1,-1,-1,-1,-1,-1,-1,-1,-1,-1,-1,-1,-1,-1,-1],"loss_changes":[5.9691895E3,1.8615431E3,1.268209E3,5.555271E2,9.8290454E2,2.0817432E2,0E0,1.7628735E2,3.4719983E2,0E0,1.506821E2,1.8967285E1,7.3270187E0,1.0029611E2,7.985132E1,1.5930261E2,4.0493436E2,7.382486E1,1.8323831E2,4.1887695E1,1.25717705E2,0E0,0E0,0E0,7.032202E1,8.956836E1,0E0,1.35900135E1,3.379666E1,1.8725159E1,1.3330566E1,5.7548904E1,0E0,0E0,1.359347E1,0E0,0E0,0E0,0E0,0E0,0E0,0E0,0E0,0E0,0E0,0E0,0E0,0E0,0E0,0E0,0E0,0E0,0E0,0E0,0E0],"parents":[2147483647,0,0,1,1,2,2,3,3,4,4,5,5,7,7,8,8,10,10,11,11,12,12,13,13,14,14,15,15,16,16,17,17,18,18,19,19,20,20,24,24,25,25,27,27,28,28,29,29,30,30,31,31,34,34],"right_children":[2,4,6,8,10,12,-1,14,16,-1,18,20,22,24,26,28,30,32,34,36,38,-1,-1,-1,40,42,-1,44,46,48,50,52,-1,-1,54,-1,-1,-1,-1,-1,-1,-1,-1,-1,-1,-1,-1,-1,-1,-1,-1,-1,-1,-1,-1],"split_conditions":[1.1311731E4,7.747464E3,1.3545817E0,1.2151898E0,4.6896553E0,9.780916E0,3.4138112E0,5.3097215E0,3.2722945E0,1.232324E0,1.3E1,1.1363636E0,5.8936296E0,5.1039526E3,5.360575E0,1.3545817E0,1.1620471E3,1.22018795E1,1E1,1.1428572E0,1.3E1,4.8574635E-1,7.302734E-2,1.8207417E-1,6E0,3.232405E1,3.564026E-2,5.5714756E3,2.056926E0,1.2551929E0,1.3E1,9.440816E3,3.767448E-1,8.3896875E-1,8.141264E-1,1.7682142E0,6.248385E-1,-1.7015336E-1,1.057877E0,-5.308417E-1,5.764231E-2,-1.0133456E0,-5.947271E-1,-7.20237E-2,2.7788997E-1,-5.439622E-1,-2.0556824E-1,1.0826131E-1,-2.051043E-1,1.3024375E0,3.1034082E-1,-1.7984746E-1,1.0608699E-1,6.013466E-2,-2.6095918E-1],"split_indices":[8,8,2,2,12,12,0,10,11,0,1,2,10,8,11,2,9,12,3,22,1,0,0,0,3,21,0,8,2,2,1,8,0,0,2,0,0,0,0,0,0,0,0,0,0,0,0,0,0,0,0,0,0,0,0],"split_type":[0,0,0,0,0,0,0,0,0,0,0,0,0,0,0,0,0,0,0,0,0,0,0,0,0,0,0,0,0,0,0,0,0,0,0,0,0,0,0,0,0,0,0,0,0,0,0,0,0,0,0,0,0,0,0],"sum_hessian":[1.58E2,1.42E2,1.6E1,9.4E1,4.8E1,1.3E1,3E0,6E1,3.4E1,8E0,4E1,9E0,4E0,2.5E1,3.5E1,2.4E1,1E1,3.2E1,8E0,7E0,2E0,3E0,1E0,2E0,2.3E1,3.4E1,1E0,4E0,2E1,7E0,3E0,2.9E1,3E0,4E0,4E0,5E0,2E0,1E0,1E0,2.1E1,2E0,1.7E1,1.7E1,1E0,3E0,1.4E1,6E0,2E0,5E0,2E0,1E0,1.9E1,1E1,3E0,1E0],"tree_param":{"num_deleted":"0","num_feature":"26","num_nodes":"55","size_leaf_vector":"1"}},{"base_weights":[7.890686E-1,-1.6794808E0,2.4934914E1,-4.142215E0,2.0622613E0,1.195742E1,4.847842E1,-5.7747235E0,-1.575612E0,-3.1023288E-1,6.7091365E0,5.726522E0,1.8269194E0,2.1024761E0,5.973927E0,-6.285812E0,4.7110566E-1,-3.2191308E0,1.9713534E0,-1.5290776E0,4.743781E0,1.5164257E0,3.6413405E0,1.9260632E0,8.070351E-1,-6.9097676E0,-1.451545E0,1.4662229E0,-6.477135E-1,-4.5053773E0,-1.4419154E0,9.366185E-1,-4.342314E-1,-2.5395343E0,7.136115E-1,6.5060115E0,-3.2860767E-2,5.0289984E0,-3.9730728E-1,6.617096E-2,2.809562E-1,-7.6583266E-1,-4.2670843E-1,-3.7386736E-1,1.1734702E-1,3.385822E-2,1.8107522E-1,-7.4820714E-3,-8.467495E-2,-5.860917E-1,-1.7045057E-1,1.9841607E-1,-1.942846E-1,-1.6116188E-1,2.816879E-1,-5.0697196E-1,-1.3424267E-1,-2.3529122E-2,3.3557823E-1,7.6693875E-1,2.9456634E-2,5.946019E-1,-2.4791138E-1,-3.551006E-1,2.8554937E-1],"categories":[],"categories_nodes":[],"categories_segments":[],"categories_sizes":[],"default_left":[0,0,0,0,0,0,0,0,0,0,0,0,0,0,0,0,0,0,0,0,0,0,0,0,0,0,0,0,0,0,0,0,0,0,0,0,0,0,0,0,0,0,0,0,0,0,0,0,0,0,0,0,0,0,0,0,0,0,0,0,0,0,0,0,0],"id":16,"left_children":[1,3,5,7,9,11,13,15,17,19,21,23,-1,-1,-1,25,27,29,31,33,35,-1,37,39,-1,41,43,45,47,49,51,-1,53,55,57,59,-1,61,63,-1,-1,-1,-1,-1,-1,-1,-1,-1,-1,-1,-1,-1,-1,-1,-1,-1,-1,-1,-1,-1,-1,-1,-1,-1,-1],"loss_changes":[9.640643E3,1.3633428E3,3.9973164E3,3.630763E2,6.5317773E2,3.255896E2,2.8167676E2,1.7592004E2,2.1633298E2,2.5333449E2,4.6167303E2,4.5809708E1,0E0,0E0,0E0,1.399524E2,6.5983243E0,5.0057343E1,2.1842702E2,7.677746E1,7.426541E1,0E0,9.212941E1,2.2619781E0,0E0,5.3169678E1,4.666998E1,3.3749342E-1,1.8656743E-1,4.2407166E1,2.4445503E1,0E0,4.269737E1,6.2217834E1,2.8680428E1,4.0301956E1,0E0,9.770868E1,6.1501194E1,0E0,0E0,0E0,0E0,0E0,0E0,0E0,0E0,0E0,0E0,0E0,0E0,0E0,0E0,0E0,0E0,0E0,0E0,0E0,0E0,0E0,0E0,0E0,0E0,0E0,0E0],"parents":[2147483647,0,0,1,1,2,2,3,3,4,4,5,5,6,6,7,7,8,8,9,9,10,10,11,11,15,15,16,16,17,17,18,18,19,19,20,20,22,22,23,23,25,25,26,26,27,27,28,28,29,29,30,30,32,32,33,33,34,34,35,35,37,37,38,38],"right_children":[2,4,6,8,10,12,14,16,18,20,22,24,-1,-1,-1,26,28,30,32,34,36,-1,38,40,-1,42,44,46,48,50,52,-1,54,56,58,60,-1,62,64,-1,-1,-1,-1,-1,-1,-1,-1,-1,-1,-1,-1,-1,-1,-1,-1,-1,-1,-1,-1,-1,-1,-1,-1,-1,-1],"split_conditions":[1.0962377E4,6.7564557E2,1.3545817E0,1.2151898E0,8.585714E-1,8.585714E-1,1.1854286E3,5.697446E0,3.8188775E0,1.1019272E3,4.4643607E0,1.3197815E3,1.8269194E0,2.1024761E0,5.973927E0,1.2487617E1,6.319E2,1.78E0,4.563653E0,1.1075072E1,2.9266958E0,1.5164257E0,1.3888888E0,4E0,8.070351E-1,4.4922768E1,4E0,4.0912048E2,6.6192E2,5.8429604E0,1E0,9.366185E-1,1.6E1,1.5643921E0,1.27430935E1,1E1,-3.2860767E-2,1.3E1,7.7045283E3,6.617096E-2,2.809562E-1,-7.6583266E-1,-4.2670843E-1,-3.7386736E-1,1.1734702E-1,3.385822E-2,1.8107522E-1,-7.4820714E-3,-8.467495E-2,-5.860917E-1,-1.7045057E-1,1.9841607E-1,-1.942846E-1,-1.6116188E-1,2.816879E-1,-5.0697196E-1,-1.3424267E-1,-2.3529122E-2,3.3557823E-1,7.6693875E-1,2.9456634E-2,5.946019E-1,-2.4791138E-1,-3.551006E-1,2.8554937E-1],"split_indices":[8,0,2,2,2,2,0,11,11,0,12,0,0,0,0,12,0,11,10,12,11,0,2,1,0,24,1,0,0,10,7,0,1,11,12,3,0,7,8,0,0,0,0,0,0,0,0,0,0,0,0,0,0,0,0,0,0,0,0,0,0,0,0,0,0],"split_type":[0,0,0,0,0,0,0,0,0,0,0,0,0,0,0,0,0,0,0,0,0,0,0,0,0,0,0,0,0,0,0,0,0,0,0,0,0,0,0,0,0,0,0,0,0,0,0,0,0,0,0,0,0,0,0,0,0,0,0,0,0,0,0,0,0],"sum_hessian":[1.6E2,1.46E2,1.4E1,8.8E1,5.8E1,1E1,4E0,5.3E1,3.5E1,3.9E1,1.9E1,6E0,4E0,2E0,2E0,4.9E1,4E0,2.4E1,1.1E1,3.2E1,7E0,4E0,1.5E1,3E0,3E0,4.3E1,6E0,2E0,2E0,1.3E1,1.1E1,2E0,9E0,2.2E1,1E1,5E0,2E0,1.1E1,4E0,2E0,1E0,3.2E1,1.1E1,3E0,3E0,1E0,1E0,1E0,1E0,8E0,5E0,1E0,1E1,7E0,2E0,6E0,1.6E1,8E0,2E0,4E0,1E0,1E1,1E0,2E0,2E0],"tree_param":{"num_deleted":"0","num_feature":"26","num_nodes":"65","size_leaf_vector":"1"}},{"base_weights":[9.786409E-1,-1.3383332E0,2.6041311E1,1.0512971E1,-2.1309905E0,8.264637E0,4.5386658E1,-6.822238E-1,1.3545152E0,-3.9860747E0,3.3482668E-1,3.1467109E0,1.0686051E0,2.8626993E0,6.454249E0,-1.0634848E0,-5.0090804E0,5.657451E-1,-5.6542873E-2,6.606743E-2,3.7218317E-1,-2.7857745E0,2.7647762E0,-5.3086133E0,1.8700561E-1,-2.3184645E0,6.963963E-1,-5.605354E-1,-1.6054334E-1,7.6433176E-1,-6.953038E-2,-6.8136305E-1,-3.4798026E-1,-1.350774E-1,1.1831901E-1,-4.7825742E-1,1.747444E-1,4.7013912E-1,1.48465475E-2],"categories":[],"categories_nodes":[],"categories_segments":[],"categories_sizes":[],"default_left":[0,0,0,0,0,0,0,0,0,0,0,0,0,0,0,0,0,0,0,0,0,0,0,0,0,0,0,0,0,0,0,0,0,0,0,0,0,0,0],"id":17,"left_children":[1,3,5,7,9,11,13,-1,-1,15,17,19,-1,-1,-1,21,23,-1,25,-1,-1,27,29,31,33,35,37,-1,-1,-1,-1,-1,-1,-1,-1,-1,-1,-1,-1],"loss_changes":[8.921965E3,1.3461218E3,4.0901768E3,5.6615186E2,6.100814E2,6.4131775E1,6.929785E1,0E0,0E0,2.2129248E2,1.2170055E2,2.8219185E0,0E0,0E0,0E0,1.4616501E2,8.866321E1,0E0,9.5446686E1,0E0,0E0,4.0200882E1,1.2417023E2,1.2113745E2,7.709113E0,1.4892459E2,9.0984344E1,0E0,0E0,0E0,0E0,0E0,0E0,0E0,0E0,0E0,0E0,0E0,0E0],"parents":[2147483647,0,0,1,1,2,2,3,3,4,4,5,5,6,6,9,9,10,10,11,11,15,15,16,16,18,18,21,21,22,22,23,23,24,24,25,25,26,26],"right_children":[2,4,6,8,10,12,14,-1,-1,16,18,20,-1,-1,-1,22,24,-1,26,-1,-1,28,30,32,34,36,38,-1,-1,-1,-1,-1,-1,-1,-1,-1,-1,-1,-1],"split_conditions":[1.2257347E4,4.473143E0,8.786127E-1,5.3813867E3,7.216563E3,1.3660541E3,1.7257285E3,-6.822238E-1,1.3545152E0,6.4140844E0,4.6896553E0,1.1E1,1.0686051E0,2.8626993E0,6.454249E0,5.1514287E0,7E0,5.657451E-1,2E0,6.606743E-2,3.7218317E-1,8.648427E0,5.7764272E3,5.6030474E3,5.968174E2,6.1885244E-1,7.5356436E3,-5.605354E-1,-1.6054334E-1,7.6433176E-1,-6.953038E-2,-6.8136305E-1,-3.4798026E-1,-1.350774E-1,1.1831901E-1,-4.7825742E-1,1.747444E-1,4.7013912E-1,1.48465475E-2],"split_indices":[8,12,2,8,8,0,0,0,0,12,12,7,0,0,0,12,3,0,1,0,0,14,8,8,0,2,8,0,0,0,0,0,0,0,0,0,0,0,0],"split_type":[0,0,0,0,0,0,0,0,0,0,0,0,0,0,0,0,0,0,0,0,0,0,0,0,0,0,0,0,0,0,0,0,0,0,0,0,0,0,0],"sum_hessian":[1.52E2,1.4E2,1.2E1,8E0,1.32E2,7E0,5E0,1E0,7E0,7.5E1,5.7E1,3E0,4E0,4E0,1E0,2E1,5.5E1,3E0,5.4E1,1E0,2E0,1.4E1,6E0,5.2E1,3E0,1.3E1,4.1E1,3E0,1.1E1,2E0,4E0,2.7E1,2.5E1,1E0,2E0,8E0,5E0,4E0,3.7E1],"tree_param":{"num_deleted":"0","num_feature":"26","num_nodes":"39","size_leaf_vector":"1"}},{"base_weights":[8.261015E-1,-1.8266953E0,2.0614052E1,-3.891365E0,1.3187133E0,8.402447E0,4.03336E1,-5.3552146E0,-1.6024643E0,9.701551E0,-4.6915025E-2,3.0997045E0,1.1316697E1,2.6600742E0,6.1315365E0,-6.083029E0,-2.080357E0,-3.6378071E0,-2.2986145E-1,1.1697668E0,4.7560173E-1,-7.271086E-1,3.1214232E0,-1.69375E0,8.4910755E0,1.2058808E0,3.010963E-1,-7.065083E0,-2.6640515E0,-4.0251617E0,2.3043408E0,-4.652981E0,-8.598988E-1,-1.4643623E0,2.6104064E0,4.4569698E-1,-1.1002368E0,-4.3912086E-1,4.991549E-1,3.491791E-1,-3.9612687E-1,1.0420123E0,2.2664903E-1,-7.459162E-1,-7.359309E-2,-5.415365E-1,-9.4288856E-2,-4.8126283E-1,6.935532E-2,2.8619674E-1,2.6573105E-2,-5.170216E-1,-1.6893612E-1,-2.926248E-1,3.6325034E-2,2.7955925E-1,-1.9413988E-1,-3.1102953E-2,6.642664E-1,-1.6201365E-1,2.843089E-1,-1.7227982E-1,1.6559556E-1,-5.3870394E-3,6.27639E-2],"categories":[],"categories_nodes":[],"categories_segments":[],"categories_sizes":[],"default_left":[0,0,0,0,0,0,0,0,0,0,0,0,0,0,0,0,0,0,0,0,0,0,0,0,0,0,0,0,0,0,0,0,0,0,0,0,0,0,0,0,0,0,0,0,0,0,0,0,0,0,0,0,0,0,0,0,0,0,0,0,0,0,0,0,0],"id":18,"left_children":[1,3,5,7,9,11,13,15,17,19,21,23,25,-1,-1,27,29,31,33,-1,-1,35,37,39,41,-1,-1,43,45,47,49,51,53,55,57,-1,59,61,-1,63,-1,-1,-1,-1,-1,-1,-1,-1,-1,-1,-1,-1,-1,-1,-1,-1,-1,-1,-1,-1,-1,-1,-1,-1,-1],"loss_changes":[8.43848E3,9.275696E2,4.2315645E3,2.7887476E2,6.539475E2,1.6437567E2,3.7715137E2,1.1047009E2,9.655716E1,2.1695251E1,1.0978435E2,1.7012126E2,1.1494629E1,0E0,0E0,1.21225464E2,1.032486E2,3.4928436E1,8.084686E1,0E0,0E0,8.580972E1,6.257511E1,2.0273922E1,1.1136795E1,0E0,0E0,7.3505005E1,4.6348137E1,3.347638E1,3.4738464E0,5.908554E0,1.3956526E1,3.7856403E1,8.51591E1,0E0,8.648926E1,1.3617168E1,0E0,4.2788744E-1,0E0,0E0,0E0,0E0,0E0,0E0,0E0,0E0,0E0,0E0,0E0,0E0,0E0,0E0,0E0,0E0,0E0,0E0,0E0,0E0,0E0,0E0,0E0,0E0,0E0],"parents":[2147483647,0,0,1,1,2,2,3,3,4,4,5,5,6,6,7,7,8,8,9,9,10,10,11,11,12,12,15,15,16,16,17,17,18,18,21,21,22,22,23,23,24,24,27,27,28,28,29,29,30,30,31,31,32,32,33,33,34,34,36,36,37,37,39,39],"right_children":[2,4,6,8,10,12,14,16,18,20,22,24,26,-1,-1,28,30,32,34,-1,-1,36,38,40,42,-1,-1,44,46,48,50,52,54,56,58,-1,60,62,-1,64,-1,-1,-1,-1,-1,-1,-1,-1,-1,-1,-1,-1,-1,-1,-1,-1,-1,-1,-1,-1,-1,-1,-1,-1,-1],"split_conditions":[1.0921888E4,7.216563E3,1.3545817E0,1.2151898E0,4.623377E0,1.3660541E3,1.7257285E3,7E0,1.78E0,8.491989E3,1.2151898E0,6.040363E0,1.2307693E0,2.6600742E0,6.1315365E0,5.987141E3,1.5509913E0,5.8429604E0,4.589215E0,1.1697668E0,4.7560173E-1,7.5084326E3,1.78E0,1.1625817E3,1.0360778E3,1.2058808E0,3.010963E-1,5.1277013E0,1.9330523E0,7.1210126E2,4.955689E2,6.646907E3,3.6455698E2,3.33282E0,1.2551929E0,4.4569698E-1,1.27430935E1,6.713897E2,4.991549E-1,9.712528E2,-3.9612687E-1,1.0420123E0,2.2664903E-1,-7.459162E-1,-7.359309E-2,-5.415365E-1,-9.4288856E-2,-4.8126283E-1,6.935532E-2,2.8619674E-1,2.6573105E-2,-5.170216E-1,-1.6893612E-1,-2.926248E-1,3.6325034E-2,2.7955925E-1,-1.9413988E-1,-3.1102953E-2,6.642664E-1,-1.6201365E-1,2.843089E-1,-1.7227982E-1,1.6559556E-1,-5.3870394E-3,6.27639E-2],"split_indices":[8,8,2,2,12,0,0,7,11,8,2,13,22,0,0,8,11,10,13,0,0,8,11,0,0,0,0,11,15,0,0,8,0,10,2,0,12,0,0,0,0,0,0,0,0,0,0,0,0,0,0,0,0,0,0,0,0,0,0,0,0,0,0,0,0],"split_type":[0,0,0,0,0,0,0,0,0,0,0,0,0,0,0,0,0,0,0,0,0,0,0,0,0,0,0,0,0,0,0,0,0,0,0,0,0,0,0,0,0,0,0,0,0,0,0,0,0,0,0,0,0,0,0,0,0,0,0,0,0,0,0,0,0],"sum_hessian":[1.59E2,1.41E2,1.8E1,8.5E1,5.6E1,1.2E1,6E0,5.1E1,3.4E1,7E0,4.9E1,5E0,7E0,5E0,1E0,4.1E1,1E1,1.3E1,2.1E1,4E0,3E0,4.1E1,8E0,3E0,2E0,6E0,1E0,3.1E1,1E1,7E0,3E0,9E0,4E0,1.5E1,6E0,2E0,3.9E1,3E0,5E0,2E0,1E0,1E0,1E0,2.9E1,2E0,3E0,7E0,6E0,1E0,2E0,1E0,7E0,2E0,1E0,3E0,1E0,1.4E1,4E0,2E0,3.5E1,4E0,2E0,1E0,1E0,1E0],"tree_param":{"num_deleted":"0","num_feature":"26","num_nodes":"65","size_leaf_vector":"1"}},{"base_weights":[7.138373E-1,-9.160768E-1,2.7267563E1,-2.5571966E0,3.1102877E0,9.72801E0,4.6735E0,-3.9129963E0,-2.5369763E-1,1.7107507E0,9.006918E0,2.860416E-1,1.0509447E0,-6.9311576E0,-2.8065615E0,-1.5977885E0,3.425977E0,4.0186426E-1,4.2867017E0,1.4088246E0,3.785282E-1,-7.323545E-1,-2.7647896E-2,-4.006898E0,-9.5338744E-1,-2.0706456E0,1.9684444E-1,3.2107142E-1,7.0676494E-1,9.7113794E-1,-4.0631887E-1,5.5740533E0,2.9348525E-1,-2.7634615E-1,2.3803452E-1,-1.6015644E-1,-4.8042208E-1,1.9492714E-1,-2.2510691E-1,-3.0732962E-1,-4.880966E-3,2.7818283E-1,-1.1995969E-1,2.531882E-2,3.4851193E-1,6.1092466E-1,5.9625547E-2,-1.7280884E-2,5.3985294E-2],"categories":[],"categories_nodes":[],"categories_segments":[],"categories_sizes":[],"default_left":[0,0,0,0,0,0,0,0,0,0,0,0,0,0,0,0,0,0,0,0,0,0,0,0,0,0,0,0,0,0,0,0,0,0,0,0,0,0,0,0,0,0,0,0,0,0,0,0,0],"id":19,"left_children":[1,3,5,7,9,11,-1,13,15,17,19,-1,-1,21,23,25,27,29,31,-1,33,-1,-1,35,37,39,-1,41,-1,43,-1,45,47,-1,-1,-1,-1,-1,-1,-1,-1,-1,-1,-1,-1,-1,-1,-1,-1],"loss_changes":[6.7360596E3,9.792372E2,2.612766E3,3.2651422E2,3.3837933E2,8.0114746E-1,0E0,1.9997388E2,2.0312384E2,1.19187065E2,3.4396997E2,0E0,0E0,4.1605774E1,1.06905426E2,5.4675728E1,1.21369446E2,6.718264E1,5.946544E1,0E0,3.169843E1,0E0,0E0,4.9200012E1,8.351939E1,5.4272057E1,0E0,2.9689255E1,0E0,4.025676E1,0E0,1.9663483E1,5.895148E-1,0E0,0E0,0E0,0E0,0E0,0E0,0E0,0E0,0E0,0E0,0E0,0E0,0E0,0E0,0E0,0E0],"parents":[2147483647,0,0,1,1,2,2,3,3,4,4,5,5,7,7,8,8,9,9,10,10,13,13,14,14,15,15,16,16,17,17,18,18,20,20,23,23,24,24,25,25,27,27,29,29,31,31,32,32],"right_children":[2,4,6,8,10,12,-1,14,16,18,20,-1,-1,22,24,26,28,30,32,-1,34,-1,-1,36,38,40,-1,42,-1,44,-1,46,48,-1,-1,-1,-1,-1,-1,-1,-1,-1,-1,-1,-1,-1,-1,-1,-1],"split_conditions":[1.4782152E3,8.0299066E2,1.1363636E0,3.0462623E0,1.3578948E0,7.1748877E-1,4.6735E0,4.6420255E2,1.2E1,1.1853658E3,1.5023255E0,2.860416E-1,1.0509447E0,6.823379E0,7E0,6.3018146E0,1.1802389E3,1.2180311E1,1.6E0,1.4088246E0,1.7710843E0,-7.323545E-1,-2.7647896E-2,4.742904E0,5.297561E2,1.2151898E0,1.9684444E-1,7.816092E-1,7.0676494E-1,8.141264E-1,-4.0631887E-1,5.8936296E0,1.116899E3,-2.7634615E-1,2.3803452E-1,-1.6015644E-1,-4.8042208E-1,1.9492714E-1,-2.2510691E-1,-3.0732962E-1,-4.880966E-3,2.7818283E-1,-1.1995969E-1,2.531882E-2,3.4851193E-1,6.1092466E-1,5.9625547E-2,-1.7280884E-2,5.3985294E-2],"split_indices":[0,0,2,11,2,11,0,0,1,23,2,0,0,13,1,13,9,14,22,0,2,0,0,13,23,2,0,2,0,2,0,10,0,0,0,0,0,0,0,0,0,0,0,0,0,0,0,0,0],"split_type":[0,0,0,0,0,0,0,0,0,0,0,0,0,0,0,0,0,0,0,0,0,0,0,0,0,0,0,0,0,0,0,0,0,0,0,0,0,0,0,0,0,0,0,0,0,0,0,0,0],"sum_hessian":[1.54E2,1.46E2,8E0,1.04E2,4.2E1,5E0,3E0,6.5E1,3.9E1,3.5E1,7E0,1E0,4E0,1.6E1,4.9E1,2.9E1,1E1,2.4E1,1.1E1,4E0,3E0,1.5E1,1E0,2.9E1,2E1,2.6E1,3E0,6E0,4E0,2.2E1,2E0,8E0,3E0,1E0,2E0,8E0,2.1E1,6E0,1.4E1,1.7E1,9E0,2E0,4E0,1.8E1,4E0,7E0,1E0,1E0,2E0],"tree_param":{"num_deleted":"0","num_feature":"26","num_nodes":"49","size_leaf_vector":"1"}},{"base_weights":[3.458004E-1,-1.3477416E0,1.2563282E1,-3.1385102E0,1.3112715E0,7.087517E0,2.2316892E0,-4.5347004E0,-8.721997E-1,8.89537E0,-2.3246524E-1,4.846389E0,1.2909147E0,-5.3225675E0,-1.9963986E0,7.0765793E-1,-2.403795E0,4.1531274E-1,1.0557636E0,4.3260035E-1,-5.4741734E-1,6.588609E0,-1.9624019E0,-2.2262132E0,-5.7469406E0,-2.6256957E0,2.7275842E-1,4.424573E-1,-1.3222793E-1,-3.6570046E0,-1.2761687E0,-1.8912487E0,9.457035E-1,7.8061914E-1,1.518048E0,5.664436E-2,-3.5600466E-1,-5.3115994E-1,2.596373E-1,-2.9279527E-1,-6.172594E-1,-5.5671602E-2,-4.009722E-1,1.2930933E-1,-2.2648382E-1,-8.801109E-2,-3.9564684E-1,-0E0,-1.4069153E-1,-2.3882358E-1,1.0414988E-1,2.8519127E-1,-1.0373878E-1,3.7936706E-2,1.8477051E-1],"categories":[],"categories_nodes":[],"categories_segments":[],"categories_sizes":[],"default_left":[0,0,0,0,0,0,0,0,0,0,0,0,0,0,0,0,0,0,0,0,0,0,0,0,0,0,0,0,0,0,0,0,0,0,0,0,0,0,0,0,0,0,0,0,0,0,0,0,0,0,0,0,0,0,0],"id":20,"left_children":[1,3,5,7,9,11,-1,13,15,17,19,21,-1,23,25,27,29,-1,-1,-1,31,33,35,37,39,41,-1,-1,43,45,47,49,51,-1,53,-1,-1,-1,-1,-1,-1,-1,-1,-1,-1,-1,-1,-1,-1,-1,-1,-1,-1,-1,-1],"loss_changes":[3.0596042E3,6.233162E2,8.0024097E2,2.4231177E2,6.2345026E2,1.0527289E2,0E0,8.463464E1,7.6881454E1,2.5627502E1,6.659675E1,1.438787E2,0E0,3.3713135E1,4.5797882E1,5.096283E1,1.7450157E1,0E0,0E0,0E0,8.816273E1,4.278183E1,1.4436514E1,1.0333965E2,1.8214111E1,3.167334E1,0E0,0E0,4.5580986E1,1.8552628E0,1.5286312E0,3.614538E1,8.252391E1,0E0,2.0245695E-1,0E0,0E0,0E0,0E0,0E0,0E0,0E0,0E0,0E0,0E0,0E0,0E0,0E0,0E0,0E0,0E0,0E0,0E0,0E0,0E0],"parents":[2147483647,0,0,1,1,2,2,3,3,4,4,5,5,7,7,8,8,9,9,10,10,11,11,13,13,14,14,15,15,16,16,20,20,21,21,22,22,23,23,24,24,25,25,28,28,29,29,30,30,31,31,32,32,34,34],"right_children":[2,4,6,8,10,12,-1,14,16,18,20,22,-1,24,26,28,30,-1,-1,-1,32,34,36,38,40,42,-1,-1,44,46,48,50,52,-1,54,-1,-1,-1,-1,-1,-1,-1,-1,-1,-1,-1,-1,-1,-1,-1,-1,-1,-1,-1,-1],"split_conditions":[1.0632279E4,7.216563E3,1.3545817E0,1.2151898E0,4.6896553E0,2.119082E0,2.2316892E0,2.0754523E0,1.5023255E0,8.654622E0,7.5084326E3,1.221844E1,1.2909147E0,5.1039526E3,1.3452555E1,5.636264E0,2.056926E0,4.1531274E-1,1.0557636E0,4.3260035E-1,8.229573E3,1E1,1.1625817E3,5.068726E3,1.9162409E0,4.106485E0,2.7275842E-1,4.424573E-1,1.0868939E3,1.5988373E0,5.119459E3,1.198372E1,9.030793E0,7.8061914E-1,1.3197815E3,5.664436E-2,-3.5600466E-1,-5.3115994E-1,2.596373E-1,-2.9279527E-1,-6.172594E-1,-5.5671602E-2,-4.009722E-1,1.2930933E-1,-2.2648382E-1,-8.801109E-2,-3.9564684E-1,-0E0,-1.4069153E-1,-2.3882358E-1,1.0414988E-1,2.8519127E-1,-1.0373878E-1,3.7936706E-2,1.8477051E-1],"split_indices":[8,8,2,2,12,15,0,15,2,14,8,14,0,8,12,12,2,0,0,0,8,3,0,8,15,10,0,0,9,2,8,12,12,0,0,0,0,0,0,0,0,0,0,0,0,0,0,0,0,0,0,0,0,0,0],"split_type":[0,0,0,0,0,0,0,0,0,0,0,0,0,0,0,0,0,0,0,0,0,0,0,0,0,0,0,0,0,0,0,0,0,0,0,0,0,0,0,0,0,0,0,0,0,0,0,0,0,0,0,0,0,0,0],"sum_hessian":[1.46E2,1.29E2,1.7E1,7.7E1,5.2E1,1.2E1,5E0,4.7E1,3E1,8E0,4.4E1,1E1,2E0,3.5E1,1.2E1,1.5E1,1.5E1,3E0,5E0,2E0,4.2E1,8E0,2E0,5E0,3E1,1.1E1,1E0,2E0,1.3E1,6E0,9E0,2.2E1,2E1,6E0,2E0,1E0,1E0,3E0,2E0,5E0,2.5E1,5E0,6E0,8E0,5E0,1E0,5E0,1E0,8E0,1.9E1,3E0,1E1,1E1,1E0,1E0],"tree_param":{"num_deleted":"0","num_feature":"26","num_nodes":"55","size_leaf_vector":"1"}},{"base_weights":[7.6344454E-1,5.610329E-2,5.4797E0,-1.582861E0,6.6133766E0,-2.7843418E0,8.268E-1,4.0636525E0,1.6543283E1,-4.0315156E0,-9.5588857E-1,9.1772616E-1,-2.910712E-1,2.7776394E0,8.8893795E0,-8.361046E-2,2.0206382E0,3.4466037E-1,-4.326585E0,-1.9710886E0,7.0056087E-1,-2.0492623E0,1.2250483E0,1.2231934E0,6.702297E-1,1.0749701E0,6.740486E-2,2.591205E-1,-1.2345894E-1,9.8838754E-2,-4.5929107E-1,-4.383975E-1,-2.720126E-2,-1.15288965E-1,2.2472599E-1,-3.1468415E-1,1.1076824E-2,-6.4041264E-2,4.3489742E-1,3.3088087E-5,4.1379973E-1],"categories":[],"categories_nodes":[],"categories_segments":[],"categories_sizes":[],"default_left":[0,0,0,0,0,0,0,0,0,0,0,0,0,0,0,0,0,0,0,0,0,0,0,0,0,0,0,0,0,0,0,0,0,0,0,0,0,0,0,0,0],"id":21,"left_children":[1,3,-1,5,7,9,11,13,15,17,19,-1,21,23,25,-1,-1,27,29,31,33,35,37,39,-1,-1,-1,-1,-1,-1,-1,-1,-1,-1,-1,-1,-1,-1,-1,-1,-1],"loss_changes":[5.915566E3,1.6660302E3,0E0,3.6149786E2,7.155873E2,1.8492065E2,3.9561893E2,1.3549649E2,4.0080627E2,6.5161865E1,6.0364883E1,0E0,1.03886734E2,1.2522392E2,6.802756E1,0E0,0E0,1.7526155E1,7.001367E1,8.853481E1,4.28345E1,4.3326653E1,1.2553479E2,6.0179665E1,0E0,0E0,0E0,0E0,0E0,0E0,0E0,0E0,0E0,0E0,0E0,0E0,0E0,0E0,0E0,0E0,0E0],"parents":[2147483647,0,0,1,1,3,3,4,4,5,5,6,6,7,7,8,8,9,9,10,10,12,12,13,13,14,14,17,17,18,18,19,19,20,20,21,21,22,22,23,23],"right_children":[2,4,-1,6,8,10,12,14,16,18,20,-1,22,24,26,-1,-1,28,30,32,34,36,38,40,-1,-1,-1,-1,-1,-1,-1,-1,-1,-1,-1,-1,-1,-1,-1,-1,-1],"split_conditions":[2.2770732E3,2.0109972E3,5.4797E0,1.2151898E0,1.3578948E0,6.592857E2,4.4643607E0,2.1179483E0,7.627734E2,3.781484E-1,9.718436E0,9.1772616E-1,7E0,1.3E1,3E0,-8.361046E-2,2.0206382E0,4.6942337E2,1.8745244E0,2.7091634E0,8.5531116E2,2.056926E0,1.1987128E3,1.3197815E3,6.702297E-1,1.0749701E0,6.740486E-2,2.591205E-1,-1.2345894E-1,9.8838754E-2,-4.5929107E-1,-4.383975E-1,-2.720126E-2,-1.15288965E-1,2.2472599E-1,-3.1468415E-1,1.1076824E-2,-6.4041264E-2,4.3489742E-1,3.3088087E-5,4.1379973E-1],"split_indices":[0,9,0,2,2,0,12,15,0,11,12,0,1,1,1,0,0,0,15,11,23,2,9,0,0,0,0,0,0,0,0,0,0,0,0,0,0,0,0,0,0],"split_type":[0,0,0,0,0,0,0,0,0,0,0,0,0,0,0,0,0,0,0,0,0,0,0,0,0,0,0,0,0,0,0,0,0,0,0,0,0,0,0,0,0],"sum_hessian":[1.54E2,1.53E2,1E0,1.23E2,3E1,8.2E1,4.1E1,2.5E1,5E0,4.8E1,3.4E1,4E0,3.7E1,2.1E1,4E0,1E0,4E0,3E0,4.5E1,2.1E1,1.3E1,1.7E1,2E1,1.6E1,5E0,3E0,1E0,1E0,2E0,2E0,4.3E1,8E0,1.3E1,6E0,7E0,1.1E1,6E0,1.3E1,7E0,1.2E1,4E0],"tree_param":{"num_deleted":"0","num_feature":"26","num_nodes":"41","size_leaf_vector":"1"}},{"base_weights":[3.7827542E-1,-3.1726834E-1,5.2057147E0,-2.7200274E0,2.6625268E0,-3.9173222E0,-1.1229224E0,1.1608406E1,1.4237008E0,-4.323287E0,-4.060145E-1,-3.2294605E0,-5.204148E-1,1.227966E0,3.404815E-1,6.569107E-1,8.198659E0,-1.6411813E0,-4.9031596E0,-2.4250828E-1,1.1847903E0,-4.1333303E-1,-1.2672584E-1,-1.4798392E0,5.309989E-1,3.368782E-1,8.919334E-1,4.3189463E-1,1.060539E0,-3.9250824E-1,9.509557E-2,-5.1850355E-1,-2.2112744E-1,2.4616444E-1,-2.8042602E-3,-1.895787E-1,2.3296884E-1,-6.892606E-2,2.0383327E-1,-6.6510327E-3,3.0691314E-1],"categories":[],"categories_nodes":[],"categories_segments":[],"categories_sizes":[],"default_left":[0,0,0,0,0,0,0,0,0,0,0,0,0,0,0,0,0,0,0,0,0,0,0,0,0,0,0,0,0,0,0,0,0,0,0,0,0,0,0,0,0],"id":22,"left_children":[1,3,-1,5,7,9,11,13,15,17,19,21,23,-1,-1,25,27,29,31,-1,33,-1,-1,35,37,39,-1,-1,-1,-1,-1,-1,-1,-1,-1,-1,-1,-1,-1,-1,-1],"loss_changes":[5.4134272E3,1.0740477E3,0E0,1.5381018E2,7.246898E2,6.476868E1,4.490495E1,6.751709E-1,3.0542688E2,5.66203E1,2.2268904E1,8.410545E0,3.1143238E1,0E0,0E0,1.4150308E2,8.727966E0,5.7311646E1,1.3593323E1,0E0,6.5068336E0,0E0,0E0,2.9726227E1,2.9129925E1,6.002101E1,0E0,0E0,0E0,0E0,0E0,0E0,0E0,0E0,0E0,0E0,0E0,0E0,0E0,0E0,0E0],"parents":[2147483647,0,0,1,1,3,3,4,4,5,5,6,6,7,7,8,8,9,9,10,10,11,11,12,12,15,15,16,16,17,17,18,18,20,20,23,23,24,24,25,25],"right_children":[2,4,-1,6,8,10,12,14,16,18,20,22,24,-1,-1,26,28,30,32,-1,34,-1,-1,36,38,40,-1,-1,-1,-1,-1,-1,-1,-1,-1,-1,-1,-1,-1,-1,-1],"split_conditions":[2.2770732E3,7.216563E3,5.2057147E0,9.954338E-1,4.473143E0,1.2487617E1,1.2729592E0,1.1854286E3,2.47307E3,4.112026E0,2.0069516E0,5.924916E3,5.48047E3,1.227966E0,3.404815E-1,2.1631064E0,5E0,6.543998E0,1.5E1,-2.4250828E-1,4.6942337E2,-4.1333303E-1,-1.2672584E-1,6.301096E2,8E0,1.27430935E1,8.919334E-1,4.3189463E-1,1.060539E0,-3.9250824E-1,9.509557E-2,-5.1850355E-1,-2.2112744E-1,2.4616444E-1,-2.8042602E-3,-1.895787E-1,2.3296884E-1,-6.892606E-2,2.0383327E-1,-6.6510327E-3,3.0691314E-1],"split_indices":[0,8,0,2,12,12,11,0,9,10,15,8,8,0,0,15,1,12,1,0,0,0,0,0,1,12,0,0,0,0,0,0,0,0,0,0,0,0,0,0,0],"split_type":[0,0,0,0,0,0,0,0,0,0,0,0,0,0,0,0,0,0,0,0,0,0,0,0,0,0,0,0,0,0,0,0,0,0,0,0,0,0,0,0,0],"sum_hessian":[1.49E2,1.48E2,1E0,8.2E1,6.6E1,4.6E1,3.6E1,7E0,5.9E1,4.1E1,5E0,7E0,2.9E1,6E0,1E0,5.4E1,5E0,8E0,3.3E1,2E0,3E0,4E0,3E0,1.5E1,1.4E1,5.3E1,1E0,3E0,2E0,4E0,4E0,2.9E1,4E0,1E0,2E0,1.4E1,1E0,8E0,6E0,4.7E1,6E0],"tree_param":{"num_deleted":"0","num_feature":"26","num_nodes":"41","size_leaf_vector":"1"}},{"base_weights":[2.8736526E-1,-7.7515006E-1,8.70937E0,7.572544E-1,-1.3260367E0,1.0358894E1,-1.8581996E0,-3.8157175E0,-3.3666682E-1,1.3363001E1,4.109586E0,5.4143447E-2,-3.378734E-1,-4.931922E0,-2.066397E0,-1.0158572E0,1.2065656E0,6.265844E-1,1.5850605E0,4.8537275E-1,1.4443894E-2,-1.5279299E0,-5.436866E0,-5.866583E-1,-3.6594328E-1,-1.6473045E0,1.4346641E0,-2.0794015E0,1.70812E0,-2.8930876E-1,1.2337716E-1,-5.604427E-1,-1.327945E-1,-1.7449974E-1,1.2725149E-1,3.816075E-1,-1.9631095E-1,4.219974E-1,1.6707366E-2,5.5783387E-2,-3.1777582E-1,2.2576289E-1,-8.115399E-2],"categories":[],"categories_nodes":[],"categories_segments":[],"categories_sizes":[],"default_left":[0,0,0,0,0,0,0,0,0,0,0,0,0,0,0,0,0,0,0,0,0,0,0,0,0,0,0,0,0,0,0,0,0,0,0,0,0,0,0,0,0,0,0],"id":23,"left_children":[1,3,5,-1,7,9,11,13,15,17,19,-1,-1,21,23,25,27,-1,-1,-1,-1,29,31,33,-1,35,37,39,41,-1,-1,-1,-1,-1,-1,-1,-1,-1,-1,-1,-1,-1,-1],"loss_changes":[1.2782328E3,5.934433E2,2.9900244E2,0E0,2.9388593E2,2.061665E2,1.3059269E1,5.5497223E1,9.239555E1,5.7365234E1,1.65029E1,0E0,0E0,2.5372894E1,3.2787697E1,9.6774475E1,4.80132E1,0E0,0E0,0E0,0E0,1.8815971E1,3.5688171E0,2.1649761E1,0E0,9.184885E1,4.475447E1,1.3621151E1,3.520658E1,0E0,0E0,0E0,0E0,0E0,0E0,0E0,0E0,0E0,0E0,0E0,0E0,0E0,0E0],"parents":[2147483647,0,0,1,1,2,2,4,4,5,5,6,6,7,7,8,8,9,9,10,10,13,13,14,14,15,15,16,16,21,21,22,22,23,23,25,25,26,26,27,27,28,28],"right_children":[2,4,6,-1,8,10,12,14,16,18,20,-1,-1,22,24,26,28,-1,-1,-1,-1,30,32,34,-1,36,38,40,42,-1,-1,-1,-1,-1,-1,-1,-1,-1,-1,-1,-1,-1,-1],"split_conditions":[1.0921888E4,4.5221944E0,5.650084E0,7.572544E-1,1.0504054E3,7E-1,1.1625817E3,5.4271226E3,8.485714E2,4.8746624E0,1E1,5.4143447E-2,-3.378734E-1,2.7274698E1,1.0590271E1,1.2342333E1,3.919769E0,6.265844E-1,1.5850605E0,4.8537275E-1,1.4443894E-2,3.8311984E2,5.29551E2,5.8468337E0,-3.6594328E-1,5.0782834E2,7.5356436E3,8.318271E2,1.0260521E4,-2.8930876E-1,1.2337716E-1,-5.604427E-1,-1.327945E-1,-1.7449974E-1,1.2725149E-1,3.816075E-1,-1.9631095E-1,4.219974E-1,1.6707366E-2,5.5783387E-2,-3.1777582E-1,2.2576289E-1,-8.115399E-2],"split_indices":[8,12,10,0,9,22,0,8,23,16,3,0,0,24,12,14,16,0,0,0,0,0,0,10,0,0,8,0,8,0,0,0,0,0,0,0,0,0,0,0,0,0,0],"split_type":[0,0,0,0,0,0,0,0,0,0,0,0,0,0,0,0,0,0,0,0,0,0,0,0,0,0,0,0,0,0,0,0,0,0,0,0,0,0,0,0,0,0,0],"sum_hessian":[1.41E2,1.26E2,1.5E1,7E0,1.19E2,1.3E1,2E0,3.3E1,8.6E1,8E0,5E0,1E0,1E0,1.9E1,1.4E1,6E1,2.6E1,3E0,5E0,4E0,1E0,3E0,1.6E1,8E0,6E0,4.8E1,1.2E1,3E0,2.3E1,2E0,1E0,1.5E1,1E0,5E0,3E0,2E0,4.6E1,3E0,9E0,1E0,2E0,1.9E1,4E0],"tree_param":{"num_deleted":"0","num_feature":"26","num_nodes":"43","size_leaf_vector":"1"}},{"base_weights":[5.0178593E-1,-6.3333666E-1,8.740634E0,5.3765974E0,-1.1215826E0,5.34738E0,1.647362E0,-5.775375E-1,7.268525E-1,-3.675323E0,-4.901548E-1,6.2408533E0,-0E0,-4.689139E0,-1.4535034E0,5.194102E-1,-1.378068E0,3.1315649E0,9.9475443E-1,-3.2097962E-1,3.196338E-1,-4.9336376E0,-4.6083182E-2,3.188392E-1,-2.4447892E0,-3.0732757E-1,2.3102727E0,-2.0529237E0,1.7191043E0,1.3721772E-2,3.5254405E0,-1.1915219E-1,-5.10868E-1,-2.828121E-1,6.9266516E-3,3.9247298E-1,-8.64691E-2,6.895021E-2,4.0497956E-1,3.4117255E-1,-2.2616766E-1,2.8284153E-1,2.4110107E-3,5.1436156E-2,3.9248934E-1],"categories":[],"categories_nodes":[],"categories_segments":[],"categories_sizes":[],"default_left":[0,0,0,0,0,0,0,0,0,0,0,0,0,0,0,0,0,0,0,0,0,0,0,0,0,0,0,0,0,0,0,0,0,0,0,0,0,0,0,0,0,0,0,0,0],"id":24,"left_children":[1,3,5,7,9,11,-1,-1,-1,13,15,17,19,21,23,25,27,29,-1,-1,-1,31,-1,-1,33,35,37,39,41,-1,43,-1,-1,-1,-1,-1,-1,-1,-1,-1,-1,-1,-1,-1,-1],"loss_changes":[1.3904578E3,3.900015E2,3.82047E2,2.5311499E2,1.945073E2,6.7056335E1,0E0,0E0,0E0,4.6630463E1,8.954585E1,1.0584277E2,4.1038734E1,1.3727997E1,4.91336E1,7.049727E1,1.14340225E2,8.585182E0,0E0,0E0,0E0,3.1083374E0,0E0,0E0,8.181515E0,8.092788E1,3.902424E1,5.7794724E1,1.8449314E1,0E0,5.9567566E0,0E0,0E0,0E0,0E0,0E0,0E0,0E0,0E0,0E0,0E0,0E0,0E0,0E0,0E0],"parents":[2147483647,0,0,1,1,2,2,3,3,4,4,5,5,9,9,10,10,11,11,12,12,13,13,14,14,15,15,16,16,17,17,21,21,24,24,25,25,26,26,27,27,28,28,30,30],"right_children":[2,4,6,8,10,12,-1,-1,-1,14,16,18,20,22,24,26,28,30,-1,-1,-1,32,-1,-1,34,36,38,40,42,-1,44,-1,-1,-1,-1,-1,-1,-1,-1,-1,-1,-1,-1,-1,-1],"split_conditions":[1.0921888E4,4.6158557E0,1.3545817E0,5.3813867E3,4.6420255E2,1.1363636E0,1.647362E0,-5.775375E-1,7.268525E-1,2.857143E0,9.030793E0,8.585714E-1,1.1853658E3,6.823379E0,7.816092E-1,8.229573E3,1.27430935E1,1.1311731E4,9.9475443E-1,-3.2097962E-1,3.196338E-1,8.9E-1,-4.6083182E-2,3.188392E-1,5.4218545E3,5.0782834E2,7.7664757E0,5.037429E3,5.854941E0,1.3721772E-2,1.1625817E3,-1.1915219E-1,-5.10868E-1,-2.828121E-1,6.9266516E-3,3.9247298E-1,-8.64691E-2,6.895021E-2,4.0497956E-1,3.4117255E-1,-2.2616766E-1,2.8284153E-1,2.4110107E-3,5.1436156E-2,3.9248934E-1],"split_indices":[8,12,2,8,0,2,0,0,0,11,12,2,0,13,2,8,12,8,0,0,0,11,0,0,8,0,12,8,13,0,0,0,0,0,0,0,0,0,0,0,0,0,0,0,0],"split_type":[0,0,0,0,0,0,0,0,0,0,0,0,0,0,0,0,0,0,0,0,0,0,0,0,0,0,0,0,0,0,0,0,0,0,0,0,0,0,0,0,0,0,0,0,0],"sum_hessian":[1.47E2,1.3E2,1.7E1,9E0,1.21E2,1.3E1,4E0,1E0,8E0,2.3E1,9.8E1,1.1E1,2E0,1.5E1,8E0,4.6E1,5.2E1,7E0,4E0,1E0,1E0,1.4E1,1E0,1E0,7E0,3.2E1,1.4E1,4.3E1,9E0,1E0,6E0,1E0,1.3E1,6E0,1E0,3E0,2.9E1,8E0,6E0,1E0,4.2E1,5E0,4E0,1E0,5E0],"tree_param":{"num_deleted":"0","num_feature":"26","num_nodes":"45","size_leaf_vector":"1"}},{"base_weights":[8.739779E-2,-7.1629184E-1,8.071555E0,-1.7254028E0,8.076462E-1,1.3759735E1,2.7394645E0,-3.5019178E0,-1.0976787E0,5.539306E-1,-2.4903415E-2,1.5296077E0,2.2208436E-1,3.6207569E0,-1.9670562E-1,-1.1926647E-3,-4.021967E0,1.4408178E0,-1.7257017E0,-2.86241E0,7.1646506E-1,4.0446687E0,4.8864286E-2,-4.754135E-2,1.3035508E-2,-2.0542382E-1,3.0289719E-1,-4.182303E0,-4.3779105E-2,-7.454942E-1,3.7479148E0,2.0188892E-1,-2.2706547E0,-6.1843492E-2,-3.892392E-1,3.8128982E0,3.7794715E-1,4.3732086E-1,1.150985E-1,-4.2956385E-1,-1.0211327E-1,-2.1344781E-1,2.2476383E-1,5.938737E-1,5.9511434E-2,-5.9073664E-2,2.1579805E-1,-2.69754E-1,2.9583175E-2,3.3765715E-2,-3.408961E-2,4.419652E-1,9.463188E-2,-1.16968356E-1,1.3981198E-1],"categories":[],"categories_nodes":[],"categories_segments":[],"categories_sizes":[],"default_left":[0,0,0,0,0,0,0,0,0,0,0,0,0,0,0,0,0,0,0,0,0,0,0,0,0,0,0,0,0,0,0,0,0,0,0,0,0,0,0,0,0,0,0,0,0,0,0,0,0,0,0,0,0,0,0],"id":25,"left_children":[1,3,5,7,9,11,13,15,17,-1,19,-1,-1,21,23,25,27,29,31,33,35,37,-1,-1,-1,-1,-1,39,-1,41,43,45,47,49,-1,51,53,-1,-1,-1,-1,-1,-1,-1,-1,-1,-1,-1,-1,-1,-1,-1,-1,-1,-1],"loss_changes":[1.052453E3,2.3062088E2,4.1560413E2,9.606058E1,2.3704987E2,8.8371826E1,2.4343246E1,4.1465515E1,1.1092286E2,0E0,1.1165458E2,0E0,0E0,6.864456E0,3.6994162E-1,3.1009018E1,9.20047E0,7.371076E1,5.8439835E1,3.109372E1,4.216416E1,1.182251E-1,0E0,0E0,0E0,0E0,0E0,1.8890686E0,0E0,3.8045517E1,4.4162956E1,2.1587349E1,4.8148758E1,5.6135666E-1,0E0,2.2382317E0,6.323338E1,0E0,0E0,0E0,0E0,0E0,0E0,0E0,0E0,0E0,0E0,0E0,0E0,0E0,0E0,0E0,0E0,0E0,0E0],"parents":[2147483647,0,0,1,1,2,2,3,3,4,4,5,5,6,6,7,7,8,8,10,10,13,13,14,14,15,15,16,16,17,17,18,18,19,19,20,20,21,21,27,27,29,29,30,30,31,31,32,32,33,33,35,35,36,36],"right_children":[2,4,6,8,10,12,14,16,18,-1,20,-1,-1,22,24,26,28,30,32,34,36,38,-1,-1,-1,-1,-1,40,-1,42,44,46,48,50,-1,52,54,-1,-1,-1,-1,-1,-1,-1,-1,-1,-1,-1,-1,-1,-1,-1,-1,-1,-1],"split_conditions":[1.0921888E4,7.216563E3,7E-1,4.577143E2,4.6896553E0,1.7257285E3,1.3846154E0,5.3097215E0,3.5778633E1,5.539306E-1,2E0,1.5296077E0,2.2208436E-1,5.892799E0,9.712528E2,9E0,6.823379E0,4.7354074E2,5.1636807E3,6.874152E0,7.5356436E3,1.4782152E3,4.8864286E-2,-4.754135E-2,1.3035508E-2,-2.0542382E-1,3.0289719E-1,5.1277013E0,-4.3779105E-2,5.6123423E3,5.7764272E3,5.501818E2,1.3846154E0,6.6192E2,-3.892392E-1,6.009705E2,8.229573E3,4.3732086E-1,1.150985E-1,-4.2956385E-1,-1.0211327E-1,-2.1344781E-1,2.2476383E-1,5.938737E-1,5.9511434E-2,-5.9073664E-2,2.1579805E-1,-2.69754E-1,2.9583175E-2,3.3765715E-2,-3.408961E-2,4.419652E-1,9.463188E-2,-1.16968356E-1,1.3981198E-1],"split_indices":[8,8,22,0,12,0,22,10,24,0,1,0,0,10,0,1,13,0,8,12,8,0,0,0,0,0,0,11,0,8,8,0,22,0,0,0,8,0,0,0,0,0,0,0,0,0,0,0,0,0,0,0,0,0,0],"split_type":[0,0,0,0,0,0,0,0,0,0,0,0,0,0,0,0,0,0,0,0,0,0,0,0,0,0,0,0,0,0,0,0,0,0,0,0,0,0,0,0,0,0,0,0,0,0,0,0,0,0,0,0,0,0,0],"sum_hessian":[1.62E2,1.48E2,1.4E1,8.9E1,5.9E1,6E0,8E0,2.2E1,6.7E1,8E0,5.1E1,5E0,1E0,6E0,2E0,3E0,1.9E1,1.3E1,5.4E1,1E1,4.1E1,5E0,1E0,1E0,1E0,2E0,1E0,1.8E1,1E0,7E0,6E0,1.2E1,4.2E1,3E0,7E0,3E0,3.8E1,4E0,1E0,1.7E1,1E0,5E0,2E0,3E0,3E0,9E0,3E0,3.6E1,6E0,1E0,2E0,2E0,1E0,1.5E1,2.3E1],"tree_param":{"num_deleted":"0","num_feature":"26","num_nodes":"55","size_leaf_vector":"1"}},{"base_weights":[1.0913198E0,2.9404858E-1,3.9494747E1,-3.845406E-1,5.471845E0,1.1465099E0,4.7727027E0,5.784272E0,-7.8345084E-1,3.3065255E0,1.1657504E0,1.5696442E-1,6.147841E-1,-2.5078557E0,-2.9435414E-1,4.579949E0,-9.9702036E-1,-2.7562625E0,1.9253647E-1,-6.505202E-1,1.196776E0,2.6453187E0,7.279222E-1,-2.8771713E0,2.2717164E-1,5.9909385E-2,-3.0650046E-1,1.934513E-1,-9.704467E-2,2.3349135E-1,-5.103897E-3,2.973554E-1,1.2383576E-2,-4.5164414E-2,-3.8141128E-1],"categories":[],"categories_nodes":[],"categories_segments":[],"categories_sizes":[],"default_left":[0,0,0,0,0,0,0,0,0,0,0,0,0,0,0,0,0,0,0,0,0,0,0,0,0,0,0,0,0,0,0,0,0,0,0],"id":26,"left_children":[1,3,5,7,9,-1,-1,11,13,15,-1,-1,-1,17,19,21,23,25,-1,27,29,31,-1,33,-1,-1,-1,-1,-1,-1,-1,-1,-1,-1,-1],"loss_changes":[4.5158643E3,5.1559796E2,1.391289E2,3.2393594E2,1.8765457E2,0E0,0E0,1.836792E0,1.0271983E2,8.164789E1,0E0,0E0,0E0,3.512349E1,5.223963E1,3.7194733E1,3.1179537E1,2.9017242E1,0E0,6.711555E1,2.7331072E1,5.9431458E0,0E0,4.6685333E0,0E0,0E0,0E0,0E0,0E0,0E0,0E0,0E0,0E0,0E0,0E0],"parents":[2147483647,0,0,1,1,2,2,3,3,4,4,7,7,8,8,9,9,13,13,14,14,15,15,16,16,17,17,19,19,20,20,21,21,23,23],"right_children":[2,4,6,8,10,-1,-1,12,14,16,-1,-1,-1,18,20,22,24,26,-1,28,30,32,-1,34,-1,-1,-1,-1,-1,-1,-1,-1,-1,-1,-1],"split_conditions":[1.5746342E3,1.0632279E4,1.7257285E3,4.5221944E0,1.3545817E0,1.1465099E0,4.7727027E0,5.817308E-1,9.6430066E2,1.1363636E0,1.1657504E0,1.5696442E-1,6.147841E-1,4.8486075E2,6.590391E1,8.585714E-1,1.1853658E3,8.128215E2,1.9253647E-1,3.6083332E1,1.9636966E0,1E1,7.279222E-1,9.712528E2,2.2717164E-1,5.9909385E-2,-3.0650046E-1,1.934513E-1,-9.704467E-2,2.3349135E-1,-5.103897E-3,2.973554E-1,1.2383576E-2,-4.5164414E-2,-3.8141128E-1],"split_indices":[0,8,0,12,2,0,0,2,9,2,0,0,0,0,24,2,0,9,0,24,15,3,0,0,0,0,0,0,0,0,0,0,0,0,0],"split_type":[0,0,0,0,0,0,0,0,0,0,0,0,0,0,0,0,0,0,0,0,0,0,0,0,0,0,0,0,0,0,0,0,0,0,0],"sum_hessian":[1.47E2,1.45E2,2E0,1.29E2,1.6E1,1E0,1E0,7E0,1.22E2,1.3E1,3E0,1E0,6E0,2.6E1,9.6E1,1E1,3E0,2.5E1,1E0,7.8E1,1.8E1,7E0,3E0,2E0,1E0,2E0,2.3E1,8E0,7E1,9E0,9E0,6E0,1E0,1E0,1E0],"tree_param":{"num_deleted":"0","num_feature":"26","num_nodes":"35","size_leaf_vector":"1"}},{"base_weights":[1.023599E0,4.590849E-1,4.534067E0,-4.1022906E-1,6.8914104E0,-1.8039885E0,5.5582184E-1,3.806127E0,1.292517E0,-3.088917E0,-1.0437914E0,5.574063E0,9.7058885E-2,1.9230009E0,6.7911544E0,1.1554075E0,-3.8660493E0,1.9183542E-1,-2.761018E0,2.2995475E-1,6.4039594E-1,-2.9100823E-1,1.2420039E0,1.6271484E-1,3.0527391E0,1.7302354E-1,7.598825E-1,-7.9254456E-2,2.1022399E-1,-4.8475718E-1,-2.3347966E-1,-5.8012154E-2,4.0286613E-1,-3.1296977E-1,1.3345884E-1,5.1539637E-2,-1.5799631E-1,-7.911977E-2,2.6717383E-1,7.416021E-2,-4.3707736E-2,3.5170743E-1,3.155319E-2],"categories":[],"categories_nodes":[],"categories_segments":[],"categories_sizes":[],"default_left":[0,0,0,0,0,0,0,0,0,0,0,0,0,0,0,0,0,0,0,0,0,0,0,0,0,0,0,0,0,0,0,0,0,0,0,0,0,0,0,0,0,0,0],"id":27,"left_children":[1,3,-1,5,7,9,11,13,-1,15,17,19,21,23,25,27,29,31,33,-1,-1,35,37,39,41,-1,-1,-1,-1,-1,-1,-1,-1,-1,-1,-1,-1,-1,-1,-1,-1,-1,-1],"loss_changes":[3.9774226E3,8.925571E2,0E0,1.909759E2,3.0283325E2,5.3016876E1,1.9227524E2,6.476576E1,0E0,7.400435E1,8.141692E1,3.4259949E0,3.5113144E1,1.9068352E1,6.3571167E0,9.1746235E0,1.5016968E1,7.080485E1,2.8515831E1,0E0,0E0,6.22465E1,6.044069E1,2.09065E0,6.132881E0,0E0,0E0,0E0,0E0,0E0,0E0,0E0,0E0,0E0,0E0,0E0,0E0,0E0,0E0,0E0,0E0,0E0,0E0],"parents":[2147483647,0,0,1,1,3,3,4,4,5,5,6,6,7,7,9,9,10,10,11,11,12,12,13,13,14,14,15,15,16,16,17,17,18,18,21,21,22,22,23,23,24,24],"right_children":[2,4,-1,6,8,10,12,14,-1,16,18,20,22,24,26,28,30,32,34,-1,-1,36,38,40,42,-1,-1,-1,-1,-1,-1,-1,-1,-1,-1,-1,-1,-1,-1,-1,-1,-1,-1],"split_conditions":[1.9793576E4,1.0921888E4,4.534067E0,5.990917E3,1.2151898E0,1.6345496E0,4.5221944E0,3.0933332E0,1.292517E0,4.1828254E-1,1.1667163E1,6.4166665E-1,4.623377E0,5E0,6.5562916E-1,5.055527E3,5.444636E3,9.28E0,5.697446E0,2.2995475E-1,6.4039594E-1,1.1561045E1,1.2105078E1,7.1428573E-1,5.8936296E0,1.7302354E-1,7.598825E-1,-7.9254456E-2,2.1022399E-1,-4.8475718E-1,-2.3347966E-1,-5.8012154E-2,4.0286613E-1,-3.1296977E-1,1.3345884E-1,5.1539637E-2,-1.5799631E-1,-7.911977E-2,2.6717383E-1,7.416021E-2,-4.3707736E-2,3.5170743E-1,3.155319E-2],"split_indices":[8,8,0,8,2,11,12,11,0,11,14,2,11,7,2,8,8,12,11,0,0,14,14,2,10,0,0,0,0,0,0,0,0,0,0,0,0,0,0,0,0,0,0],"split_type":[0,0,0,0,0,0,0,0,0,0,0,0,0,0,0,0,0,0,0,0,0,0,0,0,0,0,0,0,0,0,0,0,0,0,0,0,0,0,0,0,0,0,0],"sum_hessian":[1.59E2,1.58E2,1E0,1.4E2,1.8E1,5.7E1,8.3E1,1.3E1,5E0,2E1,3.7E1,6E0,7.7E1,9E0,4E0,3E0,1.7E1,2.2E1,1.5E1,2E0,4E0,5.8E1,1.9E1,4E0,5E0,1E0,3E0,1E0,2E0,9E0,8E0,1.9E1,3E0,1.4E1,1E0,3.6E1,2.2E1,8E0,1.1E1,2E0,2E0,4E0,1E0],"tree_param":{"num_deleted":"0","num_feature":"26","num_nodes":"43","size_leaf_vector":"1"}},{"base_weights":[5.4788274E-1,1.2261548E-2,4.3073635E0,-5.888073E-1,5.868514E0,-1.5165007E0,7.271016E-1,2.681531E0,1.1686174E0,-2.4479792E0,-3.8160083E-1,1.0901013E-1,3.2335575E0,8.718567E-3,4.193321E0,-2.7894588E0,-8.388879E-2,-6.652648E-1,3.3053432E0,-5.416743E-1,3.3436722E-1,4.800151E-1,6.9725144E-1,8.209259E-2,-3.7456475E-2,5.4382664E-1,1.8750454E-1,-3.0435154E-1,2.9644547E-2,1.1846653E-1,-1.3564707E-1,-1.3389365E-1,5.780966E-2,-8.6923525E-2,5.87725E-1,5.2131932E-2,-4.2696676E-1,2.4878669E-1,-1.2022694E-1],"categories":[],"categories_nodes":[],"categories_segments":[],"categories_sizes":[],"default_left":[0,0,0,0,0,0,0,0,0,0,0,0,0,0,0,0,0,0,0,0,0,0,0,0,0,0,0,0,0,0,0,0,0,0,0,0,0,0,0],"id":28,"left_children":[1,3,-1,5,7,9,11,13,-1,15,17,19,21,23,25,27,29,31,33,-1,35,37,-1,-1,-1,-1,-1,-1,-1,-1,-1,-1,-1,-1,-1,-1,-1,-1,-1],"loss_changes":[3.6623718E3,5.671851E2,0E0,1.7941255E2,2.4533813E2,8.969649E1,9.381561E1,4.399128E1,0E0,3.7421204E1,4.3769047E1,6.356633E1,1.1945235E2,1.9086535E0,9.274567E0,3.332074E1,1.2924517E1,3.267958E1,3.781939E1,0E0,4.4027E1,3.0141872E1,0E0,0E0,0E0,0E0,0E0,0E0,0E0,0E0,0E0,0E0,0E0,0E0,0E0,0E0,0E0,0E0,0E0],"parents":[2147483647,0,0,1,1,3,3,4,4,5,5,6,6,7,7,9,9,10,10,11,11,12,12,13,13,14,14,15,15,16,16,17,17,18,18,20,20,21,21],"right_children":[2,4,-1,6,8,10,12,14,-1,16,18,20,22,24,26,28,30,32,34,-1,36,38,-1,-1,-1,-1,-1,-1,-1,-1,-1,-1,-1,-1,-1,-1,-1,-1,-1],"split_conditions":[2.2770732E3,1.1853658E3,4.3073635E0,6.755962E2,1.3578948E0,9.954338E-1,1.2704402E0,1.9554095E0,1.1686174E0,1.2487617E1,2.1828263E0,4.390244E0,2.987106E0,2.3574753E3,1.1428572E0,1.3485875E3,1.4362148E1,5.687732E0,9E0,-5.416743E-1,1.2551929E0,1.5431492E3,6.9725144E-1,8.209259E-2,-3.7456475E-2,5.4382664E-1,1.8750454E-1,-3.0435154E-1,2.9644547E-2,1.1846653E-1,-1.3564707E-1,-1.3389365E-1,5.780966E-2,-8.6923525E-2,5.87725E-1,5.2131932E-2,-4.2696676E-1,2.4878669E-1,-1.2022694E-1],"split_indices":[23,25,0,25,2,2,2,15,0,12,15,12,11,9,22,9,12,10,1,0,2,9,0,0,0,0,0,0,0,0,0,0,0,0,0,0,0,0,0],"split_type":[0,0,0,0,0,0,0,0,0,0,0,0,0,0,0,0,0,0,0,0,0,0,0,0,0,0,0,0,0,0,0,0,0,0,0,0,0,0,0],"sum_hessian":[1.6E2,1.59E2,1E0,1.45E2,1.4E1,8.5E1,6E1,1E1,4E0,4.6E1,3.9E1,4.9E1,1.1E1,4E0,6E0,4E1,6E0,3.7E1,2E0,1E0,4.8E1,7E0,4E0,1E0,3E0,3E0,3E0,3.7E1,3E0,3E0,3E0,2.4E1,1.3E1,1E0,1E0,4.7E1,1E0,3E0,4E0],"tree_param":{"num_deleted":"0","num_feature":"26","num_nodes":"39","size_leaf_vector":"1"}},{"base_weights":[8.14788E-1,3.0775595E-1,4.0919957E0,-6.0923934E-1,3.603003E0,-1.3056127E0,1.2357774E0,2.0096133E0,1.0952786E0,8.0750746E-1,-1.6965253E0,6.002982E-1,-1.6684459E-1,2.4777782E0,-2.9964645E0,1.7246417E0,-2.120772E0,-2.7624485E0,-1.1697735E0,-6.611501E-1,2.2191906E-1,1.4892203E0,5.837621E-1,-4.0561858E-1,-3.885109E-2,-6.0074158E-2,1.999744E-1,-2.4922355E-1,-4.53191E-2,-3.130177E-1,2.9815152E-1,1.3932347E-1,-1.4046788E-1,-1.2632824E-1,6.885251E-2,2.9007703E-1,5.3634226E-2],"categories":[],"categories_nodes":[],"categories_segments":[],"categories_sizes":[],"default_left":[0,0,0,0,0,0,0,0,0,0,0,0,0,0,0,0,0,0,0,0,0,0,0,0,0,0,0,0,0,0,0,0,0,0,0,0,0],"id":29,"left_children":[1,3,-1,5,7,9,11,13,-1,15,17,-1,19,21,23,25,27,29,31,33,-1,35,-1,-1,-1,-1,-1,-1,-1,-1,-1,-1,-1,-1,-1,-1,-1],"loss_changes":[3.2571553E3,4.859706E2,0E0,1.635078E2,3.865803E2,7.745505E1,2.3561569E2,7.768282E1,0E0,4.390234E1,4.0170532E1,0E0,3.4335464E1,8.357298E1,6.270769E0,9.017849E0,1.0537796E0,6.2152985E1,3.4469658E1,2.0431671E1,0E0,2.903629E1,0E0,0E0,0E0,0E0,0E0,0E0,0E0,0E0,0E0,0E0,0E0,0E0,0E0,0E0,0E0],"parents":[2147483647,0,0,1,1,3,3,4,4,5,5,6,6,7,7,9,9,10,10,12,12,13,13,14,14,15,15,16,16,17,17,18,18,19,19,21,21],"right_children":[2,4,-1,6,8,10,12,14,-1,16,18,-1,20,22,24,26,28,30,32,34,-1,36,-1,-1,-1,-1,-1,-1,-1,-1,-1,-1,-1,-1,-1,-1,-1],"split_conditions":[2.2770732E3,2.0109972E3,4.0919957E0,3.8188775E0,1.3578948E0,1.9162409E0,4.563653E0,1.1363636E0,1.0952786E0,6.0651712E0,1.0504054E3,6.002982E-1,6.3018146E0,8.585714E-1,1.1853658E3,4.6944446E2,6.3924066E2,2.857143E0,1.0868939E3,6.453421E2,2.2191906E-1,1.4966439E0,5.837621E-1,-4.0561858E-1,-3.885109E-2,-6.0074158E-2,1.999744E-1,-2.4922355E-1,-4.53191E-2,-3.130177E-1,2.9815152E-1,1.3932347E-1,-1.4046788E-1,-1.2632824E-1,6.885251E-2,2.9007703E-1,5.3634226E-2],"split_indices":[0,9,0,11,2,15,10,2,0,10,9,0,13,2,0,0,0,11,9,0,0,11,0,0,0,0,0,0,0,0,0,0,0,0,0,0,0],"split_type":[0,0,0,0,0,0,0,0,0,0,0,0,0,0,0,0,0,0,0,0,0,0,0,0,0,0,0,0,0,0,0,0,0,0,0,0,0],"sum_hessian":[1.6E2,1.59E2,1E0,1.25E2,3.4E1,9.1E1,3.4E1,2.9E1,5E0,1.4E1,7.7E1,7E0,2.7E1,2.7E1,2E0,1.1E1,3E0,2.4E1,5.3E1,2.3E1,4E0,2.2E1,5E0,1E0,1E0,1E0,1E1,2E0,1E0,2.3E1,1E0,4E0,4.9E1,1.6E1,7E0,8E0,1.4E1],"tree_param":{"num_deleted":"0","num_feature":"26","num_nodes":"37","size_leaf_vector":"1"}},{"base_weights":[6.6727245E-1,1.6933283E-1,3.8873959E0,-4.7408387E-1,5.0983424E0,-1.9959455E0,1.6643047E-1,2.8862865E0,1.025243E0,-2.3416624E0,9.415486E-1,-6.477175E-1,1.1419318E0,3.4345086E0,-2.3536377E-1,-2.9757771E0,-9.343903E-1,-1.5161268E-1,3.1187078E-1,-1.2176186E0,1.6816794E0,2.1792336E0,-8.6812985E-1,1.888602E0,5.201057E0,-0E0,-3.6304016E-2,-1.9523135E-1,-3.5212657E-1,-2.0942234E-1,7.511187E-2,-5.075675E-1,-1.0075318E-1,3.6906227E-1,8.140673E-2,3.5768887E-1,-2.0698948E-2,8.361079E-2,-1.3334237E-1,4.185711E-2,2.6669064E-1,5.846628E-1,1.2593873E-1],"categories":[],"categories_nodes":[],"categories_segments":[],"categories_sizes":[],"default_left":[0,0,0,0,0,0,0,0,0,0,0,0,0,0,0,0,0,0,0,0,0,0,0,0,0,0,0,0,0,0,0,0,0,0,0,0,0,0,0,0,0,0,0],"id":30,"left_children":[1,3,-1,5,7,9,11,13,-1,15,17,19,21,23,25,27,29,-1,-1,31,33,35,37,39,41,-1,-1,-1,-1,-1,-1,-1,-1,-1,-1,-1,-1,-1,-1,-1,-1,-1,-1],"loss_changes":[2.957354E3,4.9444757E2,0E0,1.3503397E2,1.7431503E2,4.3981995E1,7.86209E1,2.5087273E1,0E0,2.9846222E1,3.1642366E1,7.368763E1,9.584979E1,2.2239334E1,9.740801E-2,6.5352173E0,2.7121136E1,0E0,0E0,2.994094E1,1.5717934E1,1.0113086E2,1.38521595E1,7.7282143E0,4.6493683E0,0E0,0E0,0E0,0E0,0E0,0E0,0E0,0E0,0E0,0E0,0E0,0E0,0E0,0E0,0E0,0E0,0E0,0E0],"parents":[2147483647,0,0,1,1,3,3,4,4,5,5,6,6,7,7,9,9,10,10,11,11,12,12,13,13,14,14,15,15,16,16,19,19,20,20,21,21,22,22,23,23,24,24],"right_children":[2,4,-1,6,8,10,12,14,-1,16,18,20,22,24,26,28,30,-1,-1,32,34,36,38,40,42,-1,-1,-1,-1,-1,-1,-1,-1,-1,-1,-1,-1,-1,-1,-1,-1,-1,-1],"split_conditions":[1.9050035E4,1.0921888E4,3.8873959E0,1.0753341E3,1.3545817E0,7E0,8.92562E-1,1.25E0,1.025243E0,5.6030474E3,4.258675E-1,2.1141726E3,4E0,8.585714E-1,3E0,4E-1,9.954338E-1,-1.5161268E-1,3.1187078E-1,2.93288E0,1.9636966E0,1.5023255E0,1.9068094E0,7.5E-1,1.7E1,-0E0,-3.6304016E-2,-1.9523135E-1,-3.5212657E-1,-2.0942234E-1,7.511187E-2,-5.075675E-1,-1.0075318E-1,3.6906227E-1,8.140673E-2,3.5768887E-1,-2.0698948E-2,8.361079E-2,-1.3334237E-1,4.185711E-2,2.6669064E-1,5.846628E-1,1.2593873E-1],"split_indices":[8,8,0,9,2,7,2,22,0,8,2,9,7,2,1,22,2,0,0,10,15,2,15,22,1,0,0,0,0,0,0,0,0,0,0,0,0,0,0,0,0,0,0],"split_type":[0,0,0,0,0,0,0,0,0,0,0,0,0,0,0,0,0,0,0,0,0,0,0,0,0,0,0,0,0,0,0,0,0,0,0,0,0,0,0,0,0,0,0],"sum_hessian":[1.55E2,1.54E2,1E0,1.37E2,1.7E1,4E1,9.7E1,1.3E1,4E0,3.6E1,4E0,5.3E1,4.4E1,1.1E1,2E0,2.4E1,1.2E1,2E0,2E0,4.3E1,1E1,2.9E1,1.5E1,7E0,4E0,1E0,1E0,1E1,1.4E1,7E0,5E0,1E0,4.2E1,2E0,8E0,1.8E1,1.1E1,3E0,1.2E1,3E0,4E0,3E0,1E0],"tree_param":{"num_deleted":"0","num_feature":"26","num_nodes":"43","size_leaf_vector":"1"}},{"base_weights":[9.5708823E-1,4.7362188E-1,3.6930256E0,-6.8840615E-2,4.251195E0,-8.711089E-1,9.5046383E-1,5.5160923E0,5.7456815E-1,-2.0209816E0,-2.1768707E-1,-0E0,2.5462515E0,5.0693023E-1,7.4590645E0,-4.145709E-1,2.3677655E-1,-3.578838E0,-1.0376732E0,-2.2313902E0,4.213162E-1,-1.243137E0,7.794535E-1,4.253433E0,7.6081425E-1,-3.8573917E-2,1.2639563E-1,8.2856286E-1,-0E0,-4.9941364E-1,-1.7862833E-1,1.04916885E-1,-1.7159973E-1,-2.6661733E-1,1.22561194E-1,3.7418208E-1,2.6935206E-3,-1.9567263E-1,1.18341506E-1,1.8708818E-1,-4.595482E-2,4.9639946E-1,-1.3760903E-1,2.5188404E-1,-9.395456E-3],"categories":[],"categories_nodes":[],"categories_segments":[],"categories_sizes":[],"default_left":[0,0,0,0,0,0,0,0,0,0,0,0,0,0,0,0,0,0,0,0,0,0,0,0,0,0,0,0,0,0,0,0,0,0,0,0,0,0,0,0,0,0,0,0,0],"id":31,"left_children":[1,3,-1,5,7,9,11,13,15,17,19,21,23,25,27,-1,-1,29,31,33,35,37,39,41,43,-1,-1,-1,-1,-1,-1,-1,-1,-1,-1,-1,-1,-1,-1,-1,-1,-1,-1,-1,-1],"loss_changes":[2.622325E3,3.101388E2,0E0,1.0958151E2,8.458215E1,5.568758E1,8.933523E1,1.3167944E2,6.0424606E1,3.718473E1,6.417251E1,3.7761993E1,6.331996E1,3.9542482E0,6.1488342E1,0E0,0E0,1.5771011E1,2.734705E1,2.1448307E1,4.928501E1,2.836637E1,3.345565E1,5.119101E1,1.8511614E1,0E0,0E0,0E0,0E0,0E0,0E0,0E0,0E0,0E0,0E0,0E0,0E0,0E0,0E0,0E0,0E0,0E0,0E0,0E0,0E0],"parents":[2147483647,0,0,1,1,3,3,4,4,5,5,6,6,7,7,8,8,9,9,10,10,11,11,12,12,13,13,14,14,17,17,18,18,19,19,20,20,21,21,22,22,23,23,24,24],"right_children":[2,4,-1,6,8,10,12,14,16,18,20,22,24,26,28,-1,-1,30,32,34,36,38,40,42,44,-1,-1,-1,-1,-1,-1,-1,-1,-1,-1,-1,-1,-1,-1,-1,-1,-1,-1,-1,-1],"split_conditions":[1.9793576E4,1.0921888E4,3.6930256E0,7.216563E3,1.4761733E4,1.2729592E0,2.037481E0,2.7172472E0,1.5735948E4,5.4271226E3,4.56E2,8.318271E2,2.063017E0,1E0,3E0,-4.145709E-1,2.3677655E-1,5.1852837E0,5.666386E3,5.0207715E0,5.1039526E3,6.106336E0,1.9859124E0,5E0,2.9203475E0,-3.8573917E-2,1.2639563E-1,8.2856286E-1,-0E0,-4.9941364E-1,-1.7862833E-1,1.04916885E-1,-1.7159973E-1,-2.6661733E-1,1.22561194E-1,3.7418208E-1,2.6935206E-3,-1.9567263E-1,1.18341506E-1,1.8708818E-1,-4.595482E-2,4.9639946E-1,-1.3760903E-1,2.5188404E-1,-9.395456E-3],"split_indices":[8,8,0,8,8,11,15,11,8,8,23,23,15,7,3,0,0,10,8,11,8,10,15,3,11,0,0,0,0,0,0,0,0,0,0,0,0,0,0,0,0,0,0,0,0],"split_type":[0,0,0,0,0,0,0,0,0,0,0,0,0,0,0,0,0,0,0,0,0,0,0,0,0,0,0,0,0,0,0,0,0,0,0,0,0,0,0,0,0,0,0,0,0],"sum_hessian":[1.51E2,1.5E2,1E0,1.32E2,1.8E1,7.4E1,5.8E1,1.3E1,5E0,2.6E1,4.8E1,3.7E1,2.1E1,4E0,9E0,1E0,4E0,9E0,1.7E1,1.1E1,3.7E1,1.4E1,2.3E1,1E1,1.1E1,2E0,2E0,8E0,1E0,4E0,5E0,4E0,1.3E1,1E1,1E0,3E0,3.4E1,1.1E1,3E0,1.2E1,1.1E1,9E0,1E0,3E0,8E0],"tree_param":{"num_deleted":"0","num_feature":"26","num_nodes":"45","size_leaf_vector":"1"}},{"base_weights":[6.609138E-1,2.0892309E-1,3.5083745E0,-3.2154053E-1,4.000193E0,8.825449E-1,-7.325351E-1,2.137116E0,8.7693864E-1,-4.5721847E-1,1.1803954E0,-1.0358875E0,6.418926E-1,4.8484012E-1,1.3393489E0,3.3322456E0,3.862781E-1,2.1191996E-3,-1.6144489E0,-7.9919225E-1,2.0287883E0,7.5836015E-1,2.4319835E-1,3.8431787E-1,1.7077844E-1,-5.2700203E-2,2.1810298E-1,-2.7970704E-1,6.518507E-2,-4.059736E-2,-1.9852832E-1,-1.8631189E-1,-6.2778257E-3,3.0142898E-2,4.5194697E-1,1.6394928E-1,3.206404E-2],"categories":[],"categories_nodes":[],"categories_segments":[],"categories_sizes":[],"default_left":[0,0,0,0,0,0,0,0,0,0,0,0,0,0,0,0,0,0,0,0,0,0,0,0,0,0,0,0,0,0,0,0,0,0,0,0,0],"id":32,"left_children":[1,3,-1,5,7,9,11,13,-1,-1,15,17,19,-1,21,23,25,27,29,31,33,35,-1,-1,-1,-1,-1,-1,-1,-1,-1,-1,-1,-1,-1,-1,-1],"loss_changes":[2.400755E3,3.1136826E2,0E0,6.7934166E1,1.4899026E2,6.1922073E1,4.323178E1,2.533213E1,0E0,0E0,5.6440903E1,5.06109E1,3.9718403E1,0E0,6.089157E0,3.5150146E-1,4.3931698E1,5.798913E1,2.3154678E1,7.5253506E0,4.117863E1,3.1351905E0,0E0,0E0,0E0,0E0,0E0,0E0,0E0,0E0,0E0,0E0,0E0,0E0,0E0,0E0,0E0],"parents":[2147483647,0,0,1,1,3,3,4,4,5,5,6,6,7,7,10,10,11,11,12,12,14,14,15,15,16,16,17,17,18,18,19,19,20,20,21,21],"right_children":[2,4,-1,6,8,10,12,14,-1,-1,16,18,20,-1,22,24,26,28,30,32,34,36,-1,-1,-1,-1,-1,-1,-1,-1,-1,-1,-1,-1,-1,-1,-1],"split_conditions":[2.2770732E3,1.0921888E4,3.5083745E0,6.1962767E0,1.3545817E0,6.837607E-1,4.623377E0,1.0459646E3,8.7693864E-1,-4.5721847E-1,4.623377E0,6.1433446E-1,1.2105078E1,4.8484012E-1,1.3E1,8.491989E3,4.754343E0,2E0,3E0,6.350282E2,8.03748E0,1E0,2.4319835E-1,3.8431787E-1,1.7077844E-1,-5.2700203E-2,2.1810298E-1,-2.7970704E-1,6.518507E-2,-4.059736E-2,-1.9852832E-1,-1.8631189E-1,-6.2778257E-3,3.0142898E-2,4.5194697E-1,1.6394928E-1,3.206404E-2],"split_indices":[0,8,0,12,2,11,11,23,0,0,12,2,14,0,1,8,12,1,1,0,12,1,0,0,0,0,0,0,0,0,0,0,0,0,0,0,0],"split_type":[0,0,0,0,0,0,0,0,0,0,0,0,0,0,0,0,0,0,0,0,0,0,0,0,0,0,0,0,0,0,0,0,0,0,0,0,0],"sum_hessian":[1.54E2,1.53E2,1E0,1.35E2,1.8E1,3.4E1,1.01E2,1.4E1,4E0,1E0,3.3E1,8.3E1,1.8E1,2E0,1.2E1,8E0,2.5E1,3E1,5.3E1,9E0,9E0,9E0,3E0,5E0,3E0,1.7E1,8E0,5E0,2.5E1,1.3E1,4E1,3E0,6E0,6E0,3E0,2E0,7E0],"tree_param":{"num_deleted":"0","num_feature":"26","num_nodes":"37","size_leaf_vector":"1"}},{"base_weights":[5.41078E-1,1.1930698E-1,3.3329563E0,-8.479169E-1,1.4672658E0,-1.6686571E0,-2.6362517E-1,2.6978314E0,2.267975E-1,-2.1302114E0,3.159483E-1,2.845308E-1,-4.9962723E-1,1.2293276E0,4.854812E0,-2.2765091E-1,2.9281285E0,-3.2769308E0,-1.5076021E0,1.2082356E0,-8.5339797E-1,2.6894632E-1,-7.518055E-1,5.444344E-1,3.2920988E0,6.491155E-1,1.8472198E0,1.5038308E0,-7.273476E-1,1.0485426E0,5.173236E-1,-1.6328366E-1,-4.0841874E-1,-7.490023E-2,-2.1890199E-1,2.182832E-1,3.9387856E-2,-1.1112018E-1,-0E0,-1.1881764E-1,8.545829E-2,1.7000425E-1,-7.0405835E-3,4.1351748E-1,1.3183233E-1,1.5396043E-2,2.1350797E-1,-1.4146118E-2,2.2102399E-1,5.336451E-2,-1.5261863E-1,-0E0,1.367393E-1],"categories":[],"categories_nodes":[],"categories_segments":[],"categories_sizes":[],"default_left":[0,0,0,0,0,0,0,0,0,0,0,0,0,0,0,0,0,0,0,0,0,0,0,0,0,0,0,0,0,0,0,0,0,0,0,0,0,0,0,0,0,0,0,0,0,0,0,0,0,0,0,0,0],"id":33,"left_children":[1,3,-1,5,7,9,11,13,15,17,19,-1,21,23,25,27,29,31,33,35,37,-1,39,41,43,-1,45,47,49,51,-1,-1,-1,-1,-1,-1,-1,-1,-1,-1,-1,-1,-1,-1,-1,-1,-1,-1,-1,-1,-1,-1,-1],"loss_changes":[2.1776975E3,2.0599922E2,0E0,4.3485626E1,9.9843185E1,3.566259E1,4.154133E1,9.795207E1,4.2675568E1,1.6713943E1,9.413732E0,0E0,4.364759E1,2.7492344E1,5.115442E1,2.6972631E1,1.5052826E1,6.03154E0,9.438927E0,2.8509054E0,7.911556E-1,0E0,3.539684E1,1.2361401E1,2.323368E0,0E0,2.3669052E0,8.655284E0,2.5089607E1,1.2115245E0,0E0,0E0,0E0,0E0,0E0,0E0,0E0,0E0,0E0,0E0,0E0,0E0,0E0,0E0,0E0,0E0,0E0,0E0,0E0,0E0,0E0,0E0,0E0],"parents":[2147483647,0,0,1,1,3,3,4,4,5,5,6,6,7,7,8,8,9,9,10,10,12,12,13,13,14,14,15,15,16,16,17,17,18,18,19,19,20,20,22,22,23,23,24,24,26,26,27,27,28,28,29,29],"right_children":[2,4,-1,6,8,10,12,14,16,18,20,-1,22,24,26,28,30,32,34,36,38,-1,40,42,44,-1,46,48,50,52,-1,-1,-1,-1,-1,-1,-1,-1,-1,-1,-1,-1,-1,-1,-1,-1,-1,-1,-1,-1,-1,-1,-1],"split_conditions":[2.2770732E3,7.747464E3,3.3329563E0,1.785124E0,5.506204E0,1.24024515E1,4.4643607E0,4.935308E0,1.2800493E1,5.2797766E0,1.4362148E1,2.845308E-1,2.2610972E0,1.2E1,5.281401E0,1.1493759E1,9.771429E2,3E0,1.4281524E0,4.6942337E2,5.1442E2,2.6894632E-1,1.3E1,4.1973615E0,1.7E1,6.491155E-1,7.765041E3,5.7029953E0,7.305287E2,6.1992285E2,5.173236E-1,-1.6328366E-1,-4.0841874E-1,-7.490023E-2,-2.1890199E-1,2.182832E-1,3.9387856E-2,-1.1112018E-1,-0E0,-1.1881764E-1,8.545829E-2,1.7000425E-1,-7.0405835E-3,4.1351748E-1,1.3183233E-1,1.5396043E-2,2.1350797E-1,-1.4146118E-2,2.2102399E-1,5.336451E-2,-1.5261863E-1,-0E0,1.367393E-1],"split_indices":[0,8,0,11,10,12,12,13,14,10,12,0,11,1,13,14,0,3,11,0,0,0,1,13,1,0,8,13,0,0,0,0,0,0,0,0,0,0,0,0,0,0,0,0,0,0,0,0,0,0,0,0,0],"split_type":[0,0,0,0,0,0,0,0,0,0,0,0,0,0,0,0,0,0,0,0,0,0,0,0,0,0,0,0,0,0,0,0,0,0,0,0,0,0,0,0,0,0,0,0,0,0,0,0,0,0,0,0,0],"sum_hessian":[1.57E2,1.56E2,1E0,9.1E1,6.5E1,3.7E1,5.4E1,3.2E1,3.3E1,3E1,7E0,3E0,5.1E1,2E1,1.2E1,2.9E1,4E0,9E0,2.1E1,4E0,3E0,3E0,4.8E1,1.6E1,4E0,7E0,5E0,6E0,2.3E1,3E0,1E0,4E0,5E0,1.1E1,1E1,1E0,3E0,2E0,1E0,3.8E1,1E1,5E0,1.1E1,2E0,2E0,1E0,4E0,2E0,4E0,9E0,1.4E1,1E0,2E0],"tree_param":{"num_deleted":"0","num_feature":"26","num_nodes":"53","size_leaf_vector":"1"}},{"base_weights":[5.579612E-1,1.1208735E-1,3.166309E0,-4.9148235E-1,2.93631E0,-1.1559923E0,6.766509E-1,1.2758535E0,7.009505E0,-1.5303473E0,7.3941994E-1,-3.2094252E-1,2.566888E0,7.29033E-1,3.9158854E-1,8.501834E-1,2.1524552E-1,-1.1992256E-1,-2.1812444E0,-1.4025812E-1,1.8057541E0,-7.9504716E-1,8.0985075E-1,4.0031867E0,-2.380909E-1,1.2698872E0,-4.575142E-1,-1.1725684E-1,2.7606478E-2,-2.4289773E-1,8.163964E-2,-1.4777057E-1,9.3775146E-2,2.6254755E-1,7.7540847E-3,-1.3569021E-1,9.374856E-3,1.9412762E-1,-6.274134E-3,1.4829682E-1,4.4353706E-1,3.4180263E-3,-5.550888E-2,1.442688E-1,-2.654602E-2,-1.1804997E-1,6.2563784E-2],"categories":[],"categories_nodes":[],"categories_segments":[],"categories_sizes":[],"default_left":[0,0,0,0,0,0,0,0,0,0,0,0,0,0,0,0,0,0,0,0,0,0,0,0,0,0,0,0,0,0,0,0,0,0,0,0,0,0,0,0,0,0,0,0,0,0,0],"id":34,"left_children":[1,3,-1,5,7,9,11,13,15,17,19,21,23,25,-1,-1,-1,27,29,31,33,35,37,39,41,43,45,-1,-1,-1,-1,-1,-1,-1,-1,-1,-1,-1,-1,-1,-1,-1,-1,-1,-1,-1,-1],"loss_changes":[1.9626664E3,2.4203836E2,0E0,9.164977E1,1.5931247E2,5.4427452E1,8.213301E1,2.4109547E1,3.1372955E1,5.7344925E1,1.2614223E1,1.6189703E1,6.1761436E1,1.157196E1,0E0,0E0,0E0,9.166878E0,3.4076675E1,1.2973965E1,8.026037E0,1.0740384E1,9.195108E0,3.7226257E0,5.889203E-1,3.6844082E0,5.49267E0,0E0,0E0,0E0,0E0,0E0,0E0,0E0,0E0,0E0,0E0,0E0,0E0,0E0,0E0,0E0,0E0,0E0,0E0,0E0,0E0],"parents":[2147483647,0,0,1,1,3,3,4,4,5,5,6,6,7,7,8,8,9,9,10,10,11,11,12,12,13,13,17,17,18,18,19,19,20,20,21,21,22,22,23,23,24,24,25,25,26,26],"right_children":[2,4,-1,6,8,10,12,14,16,18,20,22,24,26,-1,-1,-1,28,30,32,34,36,38,40,42,44,46,-1,-1,-1,-1,-1,-1,-1,-1,-1,-1,-1,-1,-1,-1,-1,-1,-1,-1,-1,-1],"split_conditions":[1.5180487E2,2.0109972E3,3.166309E0,1.2151898E0,9.426752E-1,1.1614525E1,3.8188775E0,1.1E1,7E0,2E0,1.1786784E1,5.657143E1,1.5023255E0,2.9266958E0,3.9158854E-1,8.501834E-1,2.1524552E-1,9.862531E2,1.2E1,1.0994835E3,6.145401E0,2.3116884E0,5E0,1.2069503E3,5E0,3.2286152E3,2.3618733E3,-1.1725684E-1,2.7606478E-2,-2.4289773E-1,8.163964E-2,-1.4777057E-1,9.3775146E-2,2.6254755E-1,7.7540847E-3,-1.3569021E-1,9.374856E-3,1.9412762E-1,-6.274134E-3,1.4829682E-1,4.4353706E-1,3.4180263E-3,-5.550888E-2,1.442688E-1,-2.654602E-2,-1.1804997E-1,6.2563784E-2],"split_indices":[21,9,0,2,2,12,11,1,1,7,14,24,2,11,0,0,0,9,3,9,10,11,3,9,1,9,9,0,0,0,0,0,0,0,0,0,0,0,0,0,0,0,0,0,0,0,0],"split_type":[0,0,0,0,0,0,0,0,0,0,0,0,0,0,0,0,0,0,0,0,0,0,0,0,0,0,0,0,0,0,0,0,0,0,0,0,0,0,0,0,0,0,0,0,0,0,0],"sum_hessian":[1.41E2,1.4E2,1E0,1.16E2,2.4E1,7.4E1,4.2E1,1.8E1,6E0,6.2E1,1.2E1,2.8E1,1.4E1,1.6E1,2E0,4E0,2E0,2E1,4.2E1,7E0,5E0,2E1,8E0,9E0,5E0,1.1E1,5E0,5E0,1.5E1,3.9E1,3E0,3E0,4E0,3E0,2E0,1.2E1,8E0,3E0,5E0,2E0,7E0,3E0,2E0,1E1,1E0,3E0,2E0],"tree_param":{"num_deleted":"0","num_feature":"26","num_nodes":"47","size_leaf_vector":"1"}},{"base_weights":[6.365033E-1,2.3090224E-1,3.007993E0,-1.5142782E-1,2.5368555E0,-7.153852E-1,7.588591E-1,4.8194274E-1,3.756652E0,-4.3829235E-1,-2.8107412E0,1.7540728E-1,3.0067804E0,1.5095578E-1,-6.2206084E-1,6.5085692E0,1.7992924E0,-6.78376E-1,1.2798812E0,-3.469815E-1,-1.5695195E-1,2.7486706E-1,-1.8408506E-1,4.040723E0,-7.193255E-1,-7.60677E-2,-0E0,1.422107E-1,7.399658E-1,3.7406802E0,1.884852E-1,1.0586589E-1,-9.521022E-2,-0E0,1.9251859E-1,-4.4790354E-2,2.8338858E-1,4.9986234E-1,7.4468054E-2,-1.4071858E-1,2.7819747E-2,4.7873506E-1,2.5033493E-2,-3.9857706E-1,1.8404905E-1],"categories":[],"categories_nodes":[],"categories_segments":[],"categories_sizes":[],"default_left":[0,0,0,0,0,0,0,0,0,0,0,0,0,0,0,0,0,0,0,0,0,0,0,