{"learner":{"attributes":{"scikit_learn":"{\"_estimator_type\": \"regressor\"}"},"feature_names":["skeleton_length","intersection3","intersection4","intersection5","intersection6","endpoint","Area","Peri","distance_average","area_per_skeleton","peri_per_skeleton","area_per_peri","led_density_area","led_density_skeleton","led_density_peri","area_skeleton_ratio","peri_area_ratio"],"feature_types":["float","float","float","float","float","float","float","float","float","float","float","float","float","float","float","float","float"],"gradient_booster":{"model":{"gbtree_model_param":{"num_parallel_tree":"1","num_trees":"500"},"iteration_indptr":[0,1,2,3,4,5,6,7,8,9,10,11,12,13,14,15,16,17,18,19,20,21,22,23,24,25,26,27,28,29,30,31,32,33,34,35,36,37,38,39,40,41,42,43,44,45,46,47,48,49,50,51,52,53,54,55,56,57,58,59,60,61,62,63,64,65,66,67,68,69,70,71,72,73,74,75,76,77,78,79,80,81,82,83,84,85,86,87,88,89,90,91,92,93,94,95,96,97,98,99,100,101,102,103,104,105,106,107,108,109,110,111,112,113,114,115,116,117,118,119,120,121,122,123,124,125,126,127,128,129,130,131,132,133,134,135,136,137,138,139,140,141,142,143,144,145,146,147,148,149,150,151,152,153,154,155,156,157,158,159,160,161,162,163,164,165,166,167,168,169,170,171,172,173,174,175,176,177,178,179,180,181,182,183,184,185,186,187,188,189,190,191,192,193,194,195,196,197,198,199,200,201,202,203,204,205,206,207,208,209,210,211,212,213,214,215,216,217,218,219,220,221,222,223,224,225,226,227,228,229,230,231,232,233,234,235,236,237,238,239,240,241,242,243,244,245,246,247,248,249,250,251,252,253,254,255,256,257,258,259,260,261,262,263,264,265,266,267,268,269,270,271,272,273,274,275,276,277,278,279,280,281,282,283,284,285,286,287,288,289,290,291,292,293,294,295,296,297,298,299,300,301,302,303,304,305,306,307,308,309,310,311,312,313,314,315,316,317,318,319,320,321,322,323,324,325,326,327,328,329,330,331,332,333,334,335,336,337,338,339,340,341,342,343,344,345,346,347,348,349,350,351,352,353,354,355,356,357,358,359,360,361,362,363,364,365,366,367,368,369,370,371,372,373,374,375,376,377,378,379,380,381,382,383,384,385,386,387,388,389,390,391,392,393,394,395,396,397,398,399,400,401,402,403,404,405,406,407,408,409,410,411,412,413,414,415,416,417,418,419,420,421,422,423,424,425,426,427,428,429,430,431,432,433,434,435,436,437,438,439,440,441,442,443,444,445,446,447,448,449,450,451,452,453,454,455,456,457,458,459,460,461,462,463,464,465,466,467,468,469,470,471,472,473,474,475,476,477,478,479,480,481,482,483,484,485,486,487,488,489,490,491,492,493,494,495,496,497,498,499,500],"tree_info":[0,0,0,0,0,0,0,0,0,0,0,0,0,0,0,0,0,0,0,0,0,0,0,0,0,0,0,0,0,0,0,0,0,0,0,0,0,0,0,0,0,0,0,0,0,0,0,0,0,0,0,0,0,0,0,0,0,0,0,0,0,0,0,0,0,0,0,0,0,0,0,0,0,0,0,0,0,0,0,0,0,0,0,0,0,0,0,0,0,0,0,0,0,0,0,0,0,0,0,0,0,0,0,0,0,0,0,0,0,0,0,0,0,0,0,0,0,0,0,0,0,0,0,0,0,0,0,0,0,0,0,0,0,0,0,0,0,0,0,0,0,0,0,0,0,0,0,0,0,0,0,0,0,0,0,0,0,0,0,0,0,0,0,0,0,0,0,0,0,0,0,0,0,0,0,0,0,0,0,0,0,0,0,0,0,0,0,0,0,0,0,0,0,0,0,0,0,0,0,0,0,0,0,0,0,0,0,0,0,0,0,0,0,0,0,0,0,0,0,0,0,0,0,0,0,0,0,0,0,0,0,0,0,0,0,0,0,0,0,0,0,0,0,0,0,0,0,0,0,0,0,0,0,0,0,0,0,0,0,0,0,0,0,0,0,0,0,0,0,0,0,0,0,0,0,0,0,0,0,0,0,0,0,0,0,0,0,0,0,0,0,0,0,0,0,0,0,0,0,0,0,0,0,0,0,0,0,0,0,0,0,0,0,0,0,0,0,0,0,0,0,0,0,0,0,0,0,0,0,0,0,0,0,0,0,0,0,0,0,0,0,0,0,0,0,0,0,0,0,0,0,0,0,0,0,0,0,0,0,0,0,0,0,0,0,0,0,0,0,0,0,0,0,0,0,0,0,0,0,0,0,0,0,0,0,0,0,0,0,0,0,0,0,0,0,0,0,0,0,0,0,0,0,0,0,0,0,0,0,0,0,0,0,0,0,0,0,0,0,0,0,0,0,0,0,0,0,0,0,0,0,0,0,0,0,0,0,0,0,0,0,0,0,0,0,0,0,0,0,0,0,0,0,0,0,0,0,0,0,0,0,0,0,0,0,0,0,0,0,0,0,0,0,0,0,0,0,0,0,0,0,0,0,0,0,0,0,0,0,0,0,0,0,0,0,0,0,0,0,0],"trees":[{"base_weights":[-1.9905776E-1,-1.45908E1,6.0148457E1,-2.1760992E1,2.7355387E0,3.9414024E1,1.0365902E2,-2.6158924E1,-1.4913773E1,-3.6765916E0,1.3666832E1,2.8578259E1,5.1156967E1,8.889457E1,1.4056462E2,-2.884173E1,-2.3455275E1,-1.6576998E1,-6.200336E0,-6.854754E0,8.104234E0,8.597746E0,2.6919498E1,2.4656351E1,5.080432E1,4.670188E1,1.430866E0,8.062587E1,1.0454434E2,2.316919E0,3.0022135E0,-6.0340536E-1,-2.7237558E1,-2.4751757E1,-1.9722672E1,-1.8108017E1,-1.1992249E1,-8.503358E0,5.5494E0,-9.6726885E0,-2.6073735E0,5.2359285E0,2.4473608E1,4.1101E0,1.24992695E1,2.2969934E1,7.7917796E-1,1.6004732E1,2.898938E1,9.3438166E-1,1.449766E0,3.9868362E1,5.207558E1,1.3498677E0,1.7990813E0,1.7225192E0,2.273356E0,-5.5240303E-1,-4.189886E-1,-5.146727E-1,-4.6378216E-1,-4.1272894E-1,-3.0120102E-1,-3.9998353E-1,-3.0532816E-1,-2.88727E-1,-1.6939373E-1,-2.063731E-1,7.720236E-3,3.1472143E-2,3.22035E-1,-2.559085E-1,-1.356617E-1,-1.4388904E-1,1.436254E-2,2.5142137E-2,2.26953E-1,3.7619156E-1,6.121191E-1,2.5076337E-2,1.5753102E-1,1.5646182E-1,3.282882E-1,3.7591007E-1,5.1593626E-1,2.1701664E-1,4.1350964E-1,4.8742995E-1,6.4203346E-1,4.9172702E-1,8.403813E-1,8.447424E-1,1.1148875E0],"categories":[],"categories_nodes":[],"categories_segments":[],"categories_sizes":[],"default_left":[0,0,0,0,0,0,0,0,0,0,0,0,0,0,0,0,0,0,0,0,0,0,0,0,0,0,0,0,0,0,0,0,0,0,0,0,0,0,0,0,0,0,0,0,0,0,0,0,0,0,0,0,0,0,0,0,0,0,0,0,0,0,0,0,0,0,0,0,0,0,0,0,0,0,0,0,0,0,0,0,0,0,0,0,0,0,0,0,0,0,0,0,0],"id":0,"left_children":[1,3,5,7,9,11,13,15,17,19,21,23,25,27,29,31,33,35,37,39,41,43,45,47,49,51,-1,53,55,-1,-1,-1,57,59,61,63,65,67,69,71,73,75,77,79,81,83,-1,85,87,-1,-1,89,91,-1,-1,-1,-1,-1,-1,-1,-1,-1,-1,-1,-1,-1,-1,-1,-1,-1,-1,-1,-1,-1,-1,-1,-1,-1,-1,-1,-1,-1,-1,-1,-1,-1,-1,-1,-1,-1,-1,-1,-1],"loss_changes":[3.711999E6,4.2879012E5,7.3838325E5,7.3113E4,7.091516E4,6.965931E4,1.3187775E5,1.00895625E4,1.3764172E4,2.3943023E4,2.4889906E4,2.4280203E4,2.0896688E4,1.6397875E4,4.5E1,7.516875E2,3.112625E3,5.4163438E3,4.241767E3,5.993877E3,6.254409E3,4.7093203E3,3.9966172E3,8.940953E3,4.106172E2,6.06675E3,0E0,9.83825E3,7.7675E2,0E0,0E0,0E0,2.489375E2,2.4071875E2,5.2497656E2,2.9155312E3,1.6317754E3,2.1027666E3,1.0636975E3,2.6363398E3,3.0871895E3,2.829616E3,1.1404883E2,1.3662417E3,2.5238105E3,4.5472266E2,0E0,1.8427422E3,1.5977812E3,0E0,0E0,2.3126719E3,2.00325E3,0E0,0E0,0E0,0E0,0E0,0E0,0E0,0E0,0E0,0E0,0E0,0E0,0E0,0E0,0E0,0E0,0E0,0E0,0E0,0E0,0E0,0E0,0E0,0E0,0E0,0E0,0E0,0E0,0E0,0E0,0E0,0E0,0E0,0E0,0E0,0E0,0E0,0E0,0E0,0E0],"parents":[2147483647,0,0,1,1,2,2,3,3,4,4,5,5,6,6,7,7,8,8,9,9,10,10,11,11,12,12,13,13,14,14,15,15,16,16,17,17,18,18,19,19,20,20,21,21,22,22,23,23,24,24,25,25,27,27,28,28,32,32,33,33,34,34,35,35,36,36,37,37,38,38,39,39,40,40,41,41,42,42,43,43,44,44,45,45,47,47,48,48,51,51,52,52],"right_children":[2,4,6,8,10,12,14,16,18,20,22,24,26,28,30,32,34,36,38,40,42,44,46,48,50,52,-1,54,56,-1,-1,-1,58,60,62,64,66,68,70,72,74,76,78,80,82,84,-1,86,88,-1,-1,90,92,-1,-1,-1,-1,-1,-1,-1,-1,-1,-1,-1,-1,-1,-1,-1,-1,-1,-1,-1,-1,-1,-1,-1,-1,-1,-1,-1,-1,-1,-1,-1,-1,-1,-1,-1,-1,-1,-1,-1,-1],"split_conditions":[9.1406045E3,3.629977E3,1.8968879E4,3.3899228E2,6.3597036E3,1.3025017E4,3.0260146E4,1.9902977E2,2.999494E2,7.515727E-3,6.796716E-3,7.00952E-3,6.122851E-3,2.5671586E4,4.747964E-3,1.3226016E2,1.0571308E-1,9.495681E-2,8.9601135E2,5.1779717E3,1.0433425E-2,5.6338394E-3,8.881649E-3,5.188921E-3,8.913422E-3,1.4999438E4,1.430866E0,5.0519835E-3,4.7718724E-3,2.316919E0,3.0022135E0,-6.0340536E-1,1.4901765E3,2.845753E2,2.7314238E3,4.6375824E2,2.0371187E2,9.038462E-2,6.65125E2,5.701688E-3,5.4498655E-3,4.9194062E3,1.3225295E-1,7.8589727E3,7.4951543E3,7.4951543E3,7.7917796E-1,1.093611E4,1.0319097E4,9.3438166E-1,1.449766E0,4.6850652E-3,4.925226E-3,1.3498677E0,1.7990813E0,1.7225192E0,2.273356E0,-5.5240303E-1,-4.189886E-1,-5.146727E-1,-4.6378216E-1,-4.1272894E-1,-3.0120102E-1,-3.9998353E-1,-3.0532816E-1,-2.88727E-1,-1.6939373E-1,-2.063731E-1,7.720236E-3,3.1472143E-2,3.22035E-1,-2.559085E-1,-1.356617E-1,-1.4388904E-1,1.436254E-2,2.5142137E-2,2.26953E-1,3.7619156E-1,6.121191E-1,2.5076337E-2,1.5753102E-1,1.5646182E-1,3.282882E-1,3.7591007E-1,5.1593626E-1,2.1701664E-1,4.1350964E-1,4.8742995E-1,6.4203346E-1,4.9172702E-1,8.403813E-1,8.447424E-1,1.1148875E0],"split_indices":[6,6,6,7,6,6,6,7,0,12,12,12,12,6,12,7,13,13,7,6,12,12,12,12,12,6,0,12,12,0,0,0,6,7,6,7,0,13,0,12,12,6,13,6,6,6,0,6,6,0,0,12,12,0,0,0,0,0,0,0,0,0,0,0,0,0,0,0,0,0,0,0,0,0,0,0,0,0,0,0,0,0,0,0,0,0,0,0,0,0,0,0,0],"split_type":[0,0,0,0,0,0,0,0,0,0,0,0,0,0,0,0,0,0,0,0,0,0,0,0,0,0,0,0,0,0,0,0,0,0,0,0,0,0,0,0,0,0,0,0,0,0,0,0,0,0,0,0,0,0,0,0,0,0,0,0,0,0,0,0,0,0,0,0,0,0,0,0,0,0,0,0,0,0,0,0,0,0,0,0,0,0,0,0,0,0,0,0,0],"sum_hessian":[4.272E3,3.45E3,8.22E2,2.44E3,1.01E3,5.58E2,2.64E2,1.484E3,9.56E2,6.37E2,3.73E2,2.92E2,2.66E2,1.91E2,7.3E1,7.4E2,7.44E2,8.02E2,1.54E2,5.02E2,1.35E2,2.71E2,1.02E2,2.5E2,4.2E1,2.21E2,4.5E1,1.29E2,6.2E1,2.4E1,4.9E1,3.95E2,3.45E2,5.48E2,1.96E2,5.99E2,2.03E2,1.29E2,2.5E1,3.01E2,2.01E2,1.16E2,1.9E1,1.27E2,1.44E2,7.9E1,2.3E1,8.5E1,1.65E2,3.8E1,4E0,1.01E2,1.2E2,5.7E1,7.2E1,2.4E1,3.8E1,3.22E2,2.3E1,3.27E2,2.21E2,1.61E2,3.5E1,3.56E2,2.43E2,1.18E2,8.5E1,1.07E2,2.2E1,1.9E1,6E0,1.43E2,1.58E2,8.4E1,1.17E2,7.1E1,4.5E1,1.2E1,7E0,7.3E1,5.4E1,6.7E1,7.7E1,3.5E1,4.4E1,4.2E1,4.3E1,7E1,9.5E1,1.4E1,8.7E1,3.6E1,8.4E1],"tree_param":{"num_deleted":"0","num_feature":"17","num_nodes":"93","size_leaf_vector":"1"}},{"base_weights":[3.4557953E-2,-1.4264192E1,5.942944E1,-2.1254852E1,2.475159E0,3.9614582E1,1.0075305E2,-2.558044E1,-1.469325E1,-3.495445E0,1.3749996E1,2.8084454E1,4.952421E1,8.751473E1,2.7287433E0,-2.8301224E1,-2.2887346E1,-1.6447388E1,-6.9978466E0,-7.7965937E0,1.136831E0,1.0598424E1,2.1957254E1,2.460707E1,4.530113E1,4.2919624E1,5.8532154E1,7.851319E1,1.9984373E0,-5.908469E-1,-2.6780636E1,-2.4254627E1,-1.802562E1,-1.7860876E1,-1.1107211E1,-8.212271E0,1.088251E1,-1.0691914E1,9.445541E-1,-3.5825753E0,7.298363E0,-8.156951E-2,1.2118163E1,1.243588E1,2.8143423E1,7.188726E0,2.5660677E1,3.9461063E1,1.4944268E0,4.043857E1,1.280641E0,5.0234173E1,1.2483658E0,1.4156746E0,1.7216216E0,-5.435553E-1,-4.3614832E-1,-5.018485E-1,-4.5222872E-1,-3.8372216E-1,-2.6534018E-1,-3.9183637E-1,-3.0183062E-1,-2.536369E-1,-1.4898771E-1,-1.9877109E-1,-1.3781281E-2,1.0834192E-1,3.486134E-1,-2.7147242E-1,-1.7239222E-1,-1.2400967E-2,3.7857178E-1,-8.079599E-2,3.5726348E-1,8.9926004E-2,2.790443E-1,-2.2917602E-2,5.7456017E-2,1.0477257E-1,2.9062277E-1,1.4103664E-1,4.384796E-1,4.782539E-1,7.2422004E-1,5.497263E-2,1.867786E-1,3.428262E-1,5.737192E-1,6.0526603E-1,8.9540386E-1,7.0624113E-1,8.809846E-1,6.623361E-1,1.0502648E0],"categories":[],"categories_nodes":[],"categories_segments":[],"categories_sizes":[],"default_left":[0,0,0,0,0,0,0,0,0,0,0,0,0,0,0,0,0,0,0,0,0,0,0,0,0,0,0,0,0,0,0,0,0,0,0,0,0,0,0,0,0,0,0,0,0,0,0,0,0,0,0,0,0,0,0,0,0,0,0,0,0,0,0,0,0,0,0,0,0,0,0,0,0,0,0,0,0,0,0,0,0,0,0,0,0,0,0,0,0,0,0,0,0,0,0],"id":1,"left_children":[1,3,5,7,9,11,13,15,17,19,21,23,25,27,-1,29,31,33,35,37,39,41,43,45,47,49,51,53,-1,-1,55,57,59,61,63,65,67,69,71,73,75,77,79,81,83,85,87,89,-1,91,-1,93,-1,-1,-1,-1,-1,-1,-1,-1,-1,-1,-1,-1,-1,-1,-1,-1,-1,-1,-1,-1,-1,-1,-1,-1,-1,-1,-1,-1,-1,-1,-1,-1,-1,-1,-1,-1,-1,-1,-1,-1,-1,-1,-1],"loss_changes":[3.6416838E6,4.044727E5,6.7725425E5,6.8817375E4,6.86457E4,6.3043688E4,1.1511225E5,1.0103625E4,1.2989906E4,1.329891E4,8.894648E3,1.46238125E4,1.544475E4,1.4362E4,0E0,5.733125E2,4.4975625E3,5.7618594E3,4.0411104E3,8.767787E3,9.389884E3,4.173508E3,5.359332E3,3.8680469E3,4.428086E3,6.724E3,8.8409375E2,9.106875E2,0E0,0E0,6.8015625E1,2.2215625E2,6.644375E2,2.6872656E3,8.7114844E2,2.2128994E3,3.3275244E2,1.4334395E3,2.4615618E3,1.8651921E3,2.5456533E3,1.0688332E2,3.6569336E3,1.8858735E3,1.1077266E3,1.06781494E2,4.8645938E3,4.9321875E2,0E0,1.43525E3,0E0,7.890625E0,0E0,0E0,0E0,0E0,0E0,0E0,0E0,0E0,0E0,0E0,0E0,0E0,0E0,0E0,0E0,0E0,0E0,0E0,0E0,0E0,0E0,0E0,0E0,0E0,0E0,0E0,0E0,0E0,0E0,0E0,0E0,0E0,0E0,0E0,0E0,0E0,0E0,0E0,0E0,0E0,0E0,0E0,0E0],"parents":[2147483647,0,0,1,1,2,2,3,3,4,4,5,5,6,6,7,7,8,8,9,9,10,10,11,11,12,12,13,13,15,15,16,16,17,17,18,18,19,19,20,20,21,21,22,22,23,23,24,24,25,25,26,26,27,27,30,30,31,31,32,32,33,33,34,34,35,35,36,36,37,37,38,38,39,39,40,40,41,41,42,42,43,43,44,44,45,45,46,46,47,47,49,49,51,51],"right_children":[2,4,6,8,10,12,14,16,18,20,22,24,26,28,-1,30,32,34,36,38,40,42,44,46,48,50,52,54,-1,-1,56,58,60,62,64,66,68,70,72,74,76,78,80,82,84,86,88,90,-1,92,-1,94,-1,-1,-1,-1,-1,-1,-1,-1,-1,-1,-1,-1,-1,-1,-1,-1,-1,-1,-1,-1,-1,-1,-1,-1,-1,-1,-1,-1,-1,-1,-1,-1,-1,-1,-1,-1,-1,-1,-1,-1,-1,-1,-1],"split_conditions":[9.1406045E3,3.629977E3,1.8968879E4,3.3899228E2,6.570134E3,1.236864E4,3.0260146E4,1.9902977E2,5.942191E2,4.761041E-2,9.698305E2,1.254859E3,1.5722449E4,2.4906555E4,2.7287433E0,1.3226016E2,4.842329E-2,4.6791982E-2,5.2538214E2,7.937055E2,5.893955E2,4.6969023E-2,8.694731E-2,9.4485864E-2,1.4114054E-1,1.5505563E3,8.037726E0,1.3612192E3,1.9984373E0,-5.908469E-1,6.037144E-2,2.8781192E2,6.8254955E-2,4.6375824E2,4.469785E2,4.3976523E-2,1.484952E3,6.0226605E2,6.204651E2,1.08537026E-1,7.5833105E2,7.586794E3,2.623897E2,6.7195154E2,1.138918E3,9.77857E2,6.7166E0,8.0087245E-2,1.4944268E0,9.84405E2,1.280641E0,8.341945E-2,1.2483658E0,1.4156746E0,1.7216216E0,-5.435553E-1,-4.3614832E-1,-5.018485E-1,-4.5222872E-1,-3.8372216E-1,-2.6534018E-1,-3.9183637E-1,-3.0183062E-1,-2.536369E-1,-1.4898771E-1,-1.9877109E-1,-1.3781281E-2,1.0834192E-1,3.486134E-1,-2.7147242E-1,-1.7239222E-1,-1.2400967E-2,3.7857178E-1,-8.079599E-2,3.5726348E-1,8.9926004E-2,2.790443E-1,-2.2917602E-2,5.7456017E-2,1.0477257E-1,2.9062277E-1,1.4103664E-1,4.384796E-1,4.782539E-1,7.2422004E-1,5.497263E-2,1.867786E-1,3.428262E-1,5.737192E-1,6.0526603E-1,8.9540386E-1,7.0624113E-1,8.809846E-1,6.623361E-1,1.0502648E0],"split_indices":[6,6,6,7,6,6,6,7,7,14,7,7,6,6,0,7,14,14,0,7,7,14,13,13,13,7,16,7,0,0,14,7,14,7,7,14,7,7,0,14,7,6,0,0,7,7,16,13,0,7,0,14,0,0,0,0,0,0,0,0,0,0,0,0,0,0,0,0,0,0,0,0,0,0,0,0,0,0,0,0,0,0,0,0,0,0,0,0,0,0,0,0,0,0,0],"split_type":[0,0,0,0,0,0,0,0,0,0,0,0,0,0,0,0,0,0,0,0,0,0,0,0,0,0,0,0,0,0,0,0,0,0,0,0,0,0,0,0,0,0,0,0,0,0,0,0,0,0,0,0,0,0,0,0,0,0,0,0,0,0,0,0,0,0,0,0,0,0,0,0,0,0,0,0,0,0,0,0,0,0,0,0,0,0,0,0,0,0,0,0,0,0,0],"sum_hessian":[4.286E3,3.455E3,8.31E2,2.437E3,1.018E3,5.63E2,2.68E2,1.467E3,9.7E2,6.66E2,3.52E2,2.62E2,3.01E2,1.98E2,7E1,7.25E2,7.42E2,7.89E2,1.81E2,3.45E2,3.21E2,2.56E2,9.6E1,2.2E2,4.2E1,1.77E2,1.24E2,1.19E2,7.9E1,3.89E2,3.36E2,5.76E2,1.66E2,6.22E2,1.67E2,1.7E2,1.1E1,2.59E2,8.6E1,1.82E2,1.39E2,3.2E1,2.24E2,3.9E1,5.7E1,1.3E1,2.07E2,3.7E1,5E0,1.61E2,1.6E1,4.4E1,8E1,6.4E1,5.5E1,3.07E2,2.9E1,3.72E2,2.04E2,1.31E2,3.5E1,3.79E2,2.43E2,1.15E2,5.2E1,1.38E2,3.2E1,7E0,4E0,1.06E2,1.53E2,8E1,6E0,1.79E2,3E0,9.9E1,4E1,2.4E1,8E0,5.9E1,1.65E2,2.6E1,1.3E1,4E1,1.7E1,5E0,8E0,5.6E1,1.51E2,1.6E1,2.1E1,7.1E1,9E1,7E0,3.7E1],"tree_param":{"num_deleted":"0","num_feature":"17","num_nodes":"95","size_leaf_vector":"1"}},{"base_weights":[-2.5910826E-3,-1.1981388E1,5.8897167E1,-2.0880587E1,4.962215E0,3.909292E1,9.465432E1,-2.514361E1,-1.4123311E1,-4.617774E0,2.6115746E1,2.8594416E1,6.3162544E1,8.08854E1,2.6056015E0,-2.7703932E1,-2.2515278E1,-1.7453861E1,-3.6256824E0,-9.105018E0,4.030756E0,1.93864E1,4.541827E1,8.740654E0,3.7176353E1,4.3940327E1,8.1493744E1,6.5872574E1,9.428946E1,-2.802501E1,-4.4539773E-1,-2.3754082E1,-1.6696238E1,-1.908145E1,-1.5010816E1,-6.9331565E0,7.6902437E0,-1.1256932E1,-3.0959747E0,2.8686252E-1,1.0787817E1,1.2533606E1,2.6008694E1,3.0520824E1,5.516443E1,5.3737535E0,1.8622406E1,2.7503567E1,4.1553833E1,3.1980022E1,5.8338135E1,1.2808336E0,2.0641367E0,1.0201198E0,1.4988906E0,1.5101986E0,2.0162868E0,-5.857461E-1,-5.3923225E-1,-4.901129E-1,-4.392593E-1,-3.6755493E-1,-2.5885218E-1,-4.204876E-1,-3.5432175E-1,-3.45544E-1,-2.6224932E-1,-2.0622703E-1,-9.5905416E-2,1.0451242E-1,4.413853E-1,-2.65843E-1,-1.9416533E-1,-1.04512416E-1,5.083198E-4,-4.3085273E-2,7.924669E-2,1.2236198E-1,2.755113E-1,1.7864378E-1,3.433549E-1,4.561272E-1,6.6480803E-1,5.4236394E-1,9.91522E-1,9.852614E-1,1.5710926E0,1.9819312E-2,1.8581977E-1,1.7784545E-1,3.9081004E-1,4.495545E-1,6.7493165E-1,7.0128125E-1,9.60148E-1,4.6043998E-1,8.428366E-1,7.0481E-1,1.3530824E0],"categories":[],"categories_nodes":[],"categories_segments":[],"categories_sizes":[],"default_left":[0,0,0,0,0,0,0,0,0,0,0,0,0,0,0,0,0,0,0,0,0,0,0,0,0,0,0,0,0,0,0,0,0,0,0,0,0,0,0,0,0,0,0,0,0,0,0,0,0,0,0,0,0,0,0,0,0,0,0,0,0,0,0,0,0,0,0,0,0,0,0,0,0,0,0,0,0,0,0,0,0,0,0,0,0,0,0,0,0,0,0,0,0,0,0,0,0,0,0],"id":2,"left_children":[1,3,5,7,9,11,13,15,17,19,21,23,25,27,-1,29,31,33,35,37,39,41,43,45,47,49,51,53,55,57,-1,59,61,63,65,67,69,71,73,75,77,79,81,83,85,87,89,91,93,95,97,-1,-1,-1,-1,-1,-1,-1,-1,-1,-1,-1,-1,-1,-1,-1,-1,-1,-1,-1,-1,-1,-1,-1,-1,-1,-1,-1,-1,-1,-1,-1,-1,-1,-1,-1,-1,-1,-1,-1,-1,-1,-1,-1,-1,-1,-1,-1,-1],"loss_changes":[3.018331E6,5.3614406E5,5.08274E5,6.678881E4,2.4836972E5,1.1619319E5,1.15507E5,8.9806875E3,3.1541031E4,3.2791207E4,4.8732297E4,5.5385938E4,4.6090312E4,3.160475E4,0E0,6.254375E2,4.7175E3,2.4378906E3,8.249783E3,7.153324E3,7.306839E3,1.2603805E4,1.2536656E4,3.2246157E3,8.5043125E3,1.0351656E4,2.0278344E4,8.57275E3,4.255625E3,1.1075E2,0E0,2.419375E2,5.6691406E2,7.06E2,9.7078906E2,1.1768164E3,1.6538882E3,1.1577695E3,9.8447644E2,1.6865353E3,1.3507803E3,2.2139492E3,2.5711094E3,1.3062734E3,4.1233438E3,1.2945642E3,4.672754E1,1.5576836E3,4.8000938E3,2.7555117E3,4.276047E3,0E0,0E0,0E0,0E0,0E0,0E0,0E0,0E0,0E0,0E0,0E0,0E0,0E0,0E0,0E0,0E0,0E0,0E0,0E0,0E0,0E0,0E0,0E0,0E0,0E0,0E0,0E0,0E0,0E0,0E0,0E0,0E0,0E0,0E0,0E0,0E0,0E0,0E0,0E0,0E0,0E0,0E0,0E0,0E0,0E0,0E0,0E0,0E0],"parents":[2147483647,0,0,1,1,2,2,3,3,4,4,5,5,6,6,7,7,8,8,9,9,10,10,11,11,12,12,13,13,15,15,16,16,17,17,18,18,19,19,20,20,21,21,22,22,23,23,24,24,25,25,26,26,27,27,28,28,29,29,31,31,32,32,33,33,34,34,35,35,36,36,37,37,38,38,39,39,40,40,41,41,42,42,43,43,44,44,45,45,46,46,47,47,48,48,49,49,50,50],"right_children":[2,4,6,8,10,12,14,16,18,20,22,24,26,28,-1,30,32,34,36,38,40,42,44,46,48,50,52,54,56,58,-1,60,62,64,66,68,70,72,74,76,78,80,82,84,86,88,90,92,94,96,98,-1,-1,-1,-1,-1,-1,-1,-1,-1,-1,-1,-1,-1,-1,-1,-1,-1,-1,-1,-1,-1,-1,-1,-1,-1,-1,-1,-1,-1,-1,-1,-1,-1,-1,-1,-1,-1,-1,-1,-1,-1,-1,-1,-1,-1,-1,-1,-1],"split_conditions":[9.364719E2,5.238298E2,7.78081E-2,3.3024197E2,6.574106E-2,7.067962E2,1.520342E3,1.9902977E2,5.5119734E-2,4.779656E-2,9.321333E-2,5.189511E-2,5.6249786E-2,9.649148E-2,2.6056015E0,7.818368E0,5.216186E-2,3.991564E-2,8.223663E-2,7.340911E2,7.160821E2,7.046359E2,7.1088617E2,4.246966E-2,6.2179852E-2,1.9756699E3,1.7912186E3,1.138918E3,1.0636072E3,1.1849271E2,-4.4539773E-1,4.0056635E-2,6.861142E-2,4.0009637E2,4.0382294E2,4.1115012E2,2.2513466E1,3.626223E-2,3.8528267E-2,5.9302915E-2,5.5119734E-2,7.548365E-2,8.020553E-2,1.4453045E-1,2.468713E1,1.0773665E3,9.77857E2,1.138918E3,1.1032919E3,4.1684367E-2,3.4966618E-2,1.2808336E0,2.0641367E0,1.0201198E0,1.4988906E0,1.5101986E0,2.0162868E0,-5.857461E-1,-5.3923225E-1,-4.901129E-1,-4.392593E-1,-3.6755493E-1,-2.5885218E-1,-4.204876E-1,-3.5432175E-1,-3.45544E-1,-2.6224932E-1,-2.0622703E-1,-9.5905416E-2,1.0451242E-1,4.413853E-1,-2.65843E-1,-1.9416533E-1,-1.04512416E-1,5.083198E-4,-4.3085273E-2,7.924669E-2,1.2236198E-1,2.755113E-1,1.7864378E-1,3.433549E-1,4.561272E-1,6.6480803E-1,5.4236394E-1,9.91522E-1,9.852614E-1,1.5710926E0,1.9819312E-2,1.8581977E-1,1.7784545E-1,3.9081004E-1,4.495545E-1,6.7493165E-1,7.0128125E-1,9.60148E-1,4.6043998E-1,8.428366E-1,7.0481E-1,1.3530824E0],"split_indices":[7,7,14,7,14,0,7,7,14,14,14,14,14,14,0,11,14,14,14,7,7,7,7,14,14,7,7,7,7,7,0,14,14,7,7,7,11,14,14,14,14,14,14,14,11,7,7,7,7,14,14,0,0,0,0,0,0,0,0,0,0,0,0,0,0,0,0,0,0,0,0,0,0,0,0,0,0,0,0,0,0,0,0,0,0,0,0,0,0,0,0,0,0,0,0,0,0,0,0],"split_type":[0,0,0,0,0,0,0,0,0,0,0,0,0,0,0,0,0,0,0,0,0,0,0,0,0,0,0,0,0,0,0,0,0,0,0,0,0,0,0,0,0,0,0,0,0,0,0,0,0,0,0,0,0,0,0,0,0,0,0,0,0,0,0,0,0,0,0,0,0,0,0,0,0,0,0,0,0,0,0,0,0,0,0,0,0,0,0,0,0,0,0,0,0,0,0,0,0,0,0],"sum_hessian":[4.276E3,3.554E3,7.22E2,2.33E3,1.224E3,4.66E2,2.56E2,1.427E3,9.03E2,8.43E2,3.81E2,3.26E2,1.4E2,1.87E2,6.9E1,7.18E2,7.09E2,6.85E2,2.18E2,5.55E2,2.88E2,2.84E2,9.7E1,9.9E1,2.27E2,7E1,7E1,9.1E1,9.6E1,6.74E2,4.4E1,5.82E2,1.27E2,4.07E2,2.78E2,1.69E2,4.9E1,4.08E2,1.47E2,1.86E2,1.02E2,1.41E2,1.43E2,4E1,5.7E1,7.5E1,2.4E1,7.3E1,1.54E2,4E1,3E1,4.1E1,2.9E1,3.7E1,5.4E1,2.8E1,6.8E1,2.96E2,3.78E2,4.01E2,1.81E2,8.5E1,4.2E1,1.62E2,2.45E2,1.23E2,1.55E2,6.4E1,1.05E2,4.3E1,6E0,1.73E2,2.35E2,8.7E1,6E1,1.12E2,7.4E1,4.1E1,6.1E1,8.1E1,6E1,1.02E2,4.1E1,3.6E1,4E0,4.8E1,9E0,3.6E1,3.9E1,3E0,2.1E1,4.3E1,3E1,8E1,7.4E1,2.3E1,1.7E1,1E1,2E1],"tree_param":{"num_deleted":"0","num_feature":"17","num_nodes":"99","size_leaf_vector":"1"}},{"base_weights":[1.1373903E-1,-1.3841176E1,5.728439E1,-1.9790705E1,3.6119611E0,4.0280746E1,1.0382812E2,-2.3521585E1,-1.2447054E1,-2.7298546E0,1.1936777E1,3.1666103E1,5.9264767E1,9.0032524E1,1.30947E2,-2.631429E1,-2.013213E1,-1.5088551E1,-6.449679E0,-5.7581186E0,8.5021305E0,6.523436E0,2.2882744E1,2.8251059E1,5.3080673E1,5.1991936E1,1.4002558E0,8.419584E1,2.1740487E0,2.166547E0,2.8326862E0,-2.7545418E1,-2.435295E1,-2.104723E1,-1.2095896E1,-1.6933546E1,-1.2744982E1,-8.059208E0,3.246501E0,-1.0225754E1,-3.164209E0,5.838978E0,1.9125565E1,1.093502E0,9.492897E0,1.9568829E1,6.5663284E-1,2.2454317E1,3.7522137E1,4.9099392E1,1.7088481E0,9.0347165E-1,1.1506039E0,1.5463609E0,1.8974279E0,-5.893223E-1,-5.343947E-1,-1.9001882E-1,-4.897807E-1,-4.3596628E-1,-3.4858125E-1,-6.876131E-2,-2.7059102E-1,-3.7604022E-1,-3.049736E-1,-2.9511648E-1,-1.9240195E-1,-2.0186132E-1,-4.4479616E-2,1.6239554E-1,-4.610714E-2,-2.3401244E-1,-1.3998888E-1,-1.2649454E-1,-3.9181593E-3,6.608779E-2,2.2116262E-1,2.33927E-1,4.3995154E-1,-2.2241296E-2,1.1853402E-1,1.1103781E-1,2.6013094E-1,2.75586E-1,4.494606E-1,2.8062457E-1,5.342226E-1,6.04825E-1,8.557111E-1,7.0219946E-1,1.0371848E0],"categories":[],"categories_nodes":[],"categories_segments":[],"categories_sizes":[],"default_left":[0,0,0,0,0,0,0,0,0,0,0,0,0,0,0,0,0,0,0,0,0,0,0,0,0,0,0,0,0,0,0,0,0,0,0,0,0,0,0,0,0,0,0,0,0,0,0,0,0,0,0,0,0,0,0,0,0,0,0,0,0,0,0,0,0,0,0,0,0,0,0,0,0,0,0,0,0,0,0,0,0,0,0,0,0,0,0,0,0,0,0],"id":3,"left_children":[1,3,5,7,9,11,13,15,17,19,21,23,25,27,29,31,33,35,37,39,41,43,45,47,49,51,-1,53,-1,-1,-1,55,57,59,61,63,65,67,69,71,73,75,77,79,81,83,-1,85,87,89,-1,-1,-1,-1,-1,-1,-1,-1,-1,-1,-1,-1,-1,-1,-1,-1,-1,-1,-1,-1,-1,-1,-1,-1,-1,-1,-1,-1,-1,-1,-1,-1,-1,-1,-1,-1,-1,-1,-1,-1,-1],"loss_changes":[3.444152E6,3.6039075E5,6.661305E5,7.0610375E4,4.6651E4,9.9836375E4,7.273975E4,1.5699375E4,1.3746484E4,1.7123418E4,2.2482918E4,2.9938906E4,1.14341875E4,7.50075E3,2.52125E3,1.5865625E3,5.4708125E3,2.4014844E3,4.2247373E3,4.555407E3,2.9130552E3,4.132423E3,3.5064688E3,1.9197219E4,3.2641719E3,1.8845625E3,0E0,1.5318125E3,0E0,0E0,0E0,1.07875E2,5.1176562E2,1.5130312E3,9.695996E2,7.6765625E2,1.5584805E3,2.717833E3,1.0744741E3,6.0619824E2,2.3622136E3,1.1128945E3,1.8741211E2,9.877871E2,2.224588E3,1.317668E3,0E0,7.939617E3,4.140578E3,2.5539844E2,0E0,0E0,0E0,0E0,0E0,0E0,0E0,0E0,0E0,0E0,0E0,0E0,0E0,0E0,0E0,0E0,0E0,0E0,0E0,0E0,0E0,0E0,0E0,0E0,0E0,0E0,0E0,0E0,0E0,0E0,0E0,0E0,0E0,0E0,0E0,0E0,0E0,0E0,0E0,0E0,0E0],"parents":[2147483647,0,0,1,1,2,2,3,3,4,4,5,5,6,6,7,7,8,8,9,9,10,10,11,11,12,12,13,13,14,14,15,15,16,16,17,17,18,18,19,19,20,20,21,21,22,22,23,23,24,24,25,25,27,27,31,31,32,32,33,33,34,34,35,35,36,36,37,37,38,38,39,39,40,40,41,41,42,42,43,43,44,44,45,45,47,47,48,48,49,49],"right_children":[2,4,6,8,10,12,14,16,18,20,22,24,26,28,30,32,34,36,38,40,42,44,46,48,50,52,-1,54,-1,-1,-1,56,58,60,62,64,66,68,70,72,74,76,78,80,82,84,-1,86,88,90,-1,-1,-1,-1,-1,-1,-1,-1,-1,-1,-1,-1,-1,-1,-1,-1,-1,-1,-1,-1,-1,-1,-1,-1,-1,-1,-1,-1,-1,-1,-1,-1,-1,-1,-1,-1,-1,-1,-1,-1,-1],"split_conditions":[9.1406045E3,4.0931802E3,2.1517455E4,2.0915247E3,6.2468237E3,1.5328939E4,3.0260146E4,9.734098E2,7.904317E-3,7.213485E-3,6.596404E-3,7.00952E-3,5.6338394E-3,5.6338394E-3,4.747964E-3,8.037726E0,1.3577541E-2,3.1326992E3,1.1557789E-2,5.29228E-3,9.578599E-3,5.228359E-3,8.462354E-3,1.236864E4,1.0121707E-2,1.7606168E4,1.4002558E0,2.679945E4,2.1740487E0,2.166547E0,2.8326862E0,3.3511823E2,1.2996961E-2,1.0060572E1,1.5699776E0,6.336436E-3,6.362207E-3,3.1594211E3,1.9054858E-2,5.4742383E3,5.0805776E3,5.3300977E3,4.9938774E3,8.010066E3,7.586794E3,7.295443E3,6.5663284E-1,5.209734E-3,5.4498655E-3,9.837746E3,1.7088481E0,9.0347165E-1,1.1506039E0,1.5463609E0,1.8974279E0,-5.893223E-1,-5.343947E-1,-1.9001882E-1,-4.897807E-1,-4.3596628E-1,-3.4858125E-1,-6.876131E-2,-2.7059102E-1,-3.7604022E-1,-3.049736E-1,-2.9511648E-1,-1.9240195E-1,-2.0186132E-1,-4.4479616E-2,1.6239554E-1,-4.610714E-2,-2.3401244E-1,-1.3998888E-1,-1.2649454E-1,-3.9181593E-3,6.608779E-2,2.2116262E-1,2.33927E-1,4.3995154E-1,-2.2241296E-2,1.1853402E-1,1.1103781E-1,2.6013094E-1,2.75586E-1,4.494606E-1,2.8062457E-1,5.342226E-1,6.04825E-1,8.557111E-1,7.0219946E-1,1.0371848E0],"split_indices":[6,6,6,6,6,6,6,6,12,12,12,12,12,12,12,16,12,6,12,12,12,12,12,6,12,6,0,6,0,0,0,6,15,16,8,12,12,6,15,6,6,6,6,6,6,6,0,12,12,6,0,0,0,0,0,0,0,0,0,0,0,0,0,0,0,0,0,0,0,0,0,0,0,0,0,0,0,0,0,0,0,0,0,0,0,0,0,0,0,0,0],"split_type":[0,0,0,0,0,0,0,0,0,0,0,0,0,0,0,0,0,0,0,0,0,0,0,0,0,0,0,0,0,0,0,0,0,0,0,0,0,0,0,0,0,0,0,0,0,0,0,0,0,0,0,0,0,0,0,0,0,0,0,0,0,0,0,0,0,0,0,0,0,0,0,0,0,0,0,0,0,0,0,0,0,0,0,0,0,0,0,0,0,0,0],"sum_hessian":[4.315E3,3.469E3,8.46E2,2.587E3,8.82E2,6.21E2,2.25E2,1.714E3,8.73E2,5.01E2,3.81E2,4.29E2,1.92E2,1.52E2,7.3E1,9.36E2,7.78E2,6.05E2,2.68E2,3.95E2,1.06E2,2.56E2,1.25E2,3.72E2,5.7E1,1.18E2,7.4E1,1.2E2,3.2E1,2.7E1,4.6E1,5.67E2,3.69E2,6.97E2,8.1E1,3.35E2,2.7E2,2.3E2,3.8E1,1.44E2,2.51E2,8.6E1,2E1,9.1E1,1.65E2,9.6E1,2.9E1,2.31E2,1.41E2,5.3E1,4E0,5.7E1,6.1E1,7.8E1,4.2E1,1.6E2,4.07E2,4E0,3.65E2,5.73E2,1.24E2,1.2E1,6.9E1,1.54E2,1.81E2,1.62E2,1.08E2,1.7E2,6E1,2E1,1.8E1,9.7E1,4.7E1,1.21E2,1.3E2,5.9E1,2.7E1,7E0,1.3E1,6.3E1,2.8E1,7.9E1,8.6E1,3.4E1,6.2E1,7.9E1,1.52E2,6.2E1,7.9E1,1.1E1,4.2E1],"tree_param":{"num_deleted":"0","num_feature":"17","num_nodes":"91","size_leaf_vector":"1"}},{"base_weights":[-1.8493345E-1,-1.2315961E1,6.0994812E1,-1.929281E1,6.2096953E0,4.38207E1,1.0367396E2,-2.3461008E1,-1.2101363E1,-1.4668249E0,1.5313134E1,3.4900826E1,5.7834644E1,9.100755E1,2.714974E0,-2.6357487E1,-2.0715988E1,-1.39195385E1,-5.6467514E0,-5.004048E0,9.786107E0,1.0182858E1,2.6709518E1,2.5273336E1,4.194137E1,5.1327007E1,1.3958192E0,1.4571127E0,9.6514854E1,-5.5250263E-1,-4.8509556E-1,-2.1473625E1,-1.5922993E1,-1.5625855E1,-7.9753685E0,-7.347293E0,4.625713E0,-8.684149E0,-2.2806652E0,7.065667E0,2.2691624E1,5.0501604E0,1.3687348E1,2.346779E1,3.883472E1,2.0501476E1,3.1335466E1,3.9319054E1,1.2445076E0,8.6638135E-1,1.1519107E0,1.8306528E0,2.3488472E0,-4.4401714E-1,-3.6847678E-1,-3.7682807E-1,-2.6576266E-1,-3.4348065E-1,-2.6605132E-1,-1.6812971E-1,2.3985195E-1,-1.8748973E-1,8.5503375E-3,1.45091005E-2,2.1464665E-1,-2.159828E-1,-9.757418E-2,-1.08239934E-1,3.278603E-2,7.272131E-2,2.515803E-1,3.6020318E-1,6.431433E-1,4.310297E-3,1.5098177E-1,1.6208386E-1,3.5647303E-1,3.7478858E-1,5.5888337E-1,6.192621E-1,9.9794644E-1,2.6357687E-1,4.519799E-1,4.840985E-1,6.837223E-1,6.165693E-1,8.498516E-1],"categories":[],"categories_nodes":[],"categories_segments":[],"categories_sizes":[],"default_left":[0,0,0,0,0,0,0,0,0,0,0,0,0,0,0,0,0,0,0,0,0,0,0,0,0,0,0,0,0,0,0,0,0,0,0,0,0,0,0,0,0,0,0,0,0,0,0,0,0,0,0,0,0,0,0,0,0,0,0,0,0,0,0,0,0,0,0,0,0,0,0,0,0,0,0,0,0,0,0,0,0,0,0,0,0,0,0],"id":4,"left_children":[1,3,5,7,9,11,13,15,17,19,21,23,25,27,-1,29,31,33,35,37,39,41,43,45,47,49,-1,-1,51,-1,-1,53,55,57,59,61,63,65,67,69,71,73,75,77,79,81,83,85,-1,-1,-1,-1,-1,-1,-1,-1,-1,-1,-1,-1,-1,-1,-1,-1,-1,-1,-1,-1,-1,-1,-1,-1,-1,-1,-1,-1,-1,-1,-1,-1,-1,-1,-1,-1,-1,-1,-1],"loss_changes":[3.2158405E6,4.6749162E5,5.20986E5,7.845775E4,6.920776E4,6.2098562E4,7.090875E4,1.26636875E4,1.1256047E4,2.1463113E4,2.6209703E4,2.0352625E4,1.18115625E4,7.946625E3,0E0,1.4705E3,2.77E3,7.510422E3,3.7725713E3,4.088251E3,4.365712E3,5.5770723E3,4.5853203E3,3.2865547E3,7.1708125E3,4.1210625E3,0E0,0E0,9.070625E2,0E0,0E0,1.22375E3,6.768594E2,1.8690781E3,1.5639062E3,2.9049346E3,7.294077E2,1.3461797E3,2.918357E3,1.9947686E3,3.9070508E2,1.5561013E3,4.148379E3,1.8634258E3,8.851992E2,9.119844E2,3.456328E2,3.0747344E3,0E0,0E0,0E0,0E0,0E0,0E0,0E0,0E0,0E0,0E0,0E0,0E0,0E0,0E0,0E0,0E0,0E0,0E0,0E0,0E0,0E0,0E0,0E0,0E0,0E0,0E0,0E0,0E0,0E0,0E0,0E0,0E0,0E0,0E0,0E0,0E0,0E0,0E0,0E0],"parents":[2147483647,0,0,1,1,2,2,3,3,4,4,5,5,6,6,7,7,8,8,9,9,10,10,11,11,12,12,13,13,15,15,16,16,17,17,18,18,19,19,20,20,21,21,22,22,23,23,24,24,25,25,28,28,31,31,32,32,33,33,34,34,35,35,36,36,37,37,38,38,39,39,40,40,41,41,42,42,43,43,44,44,45,45,46,46,47,47],"right_children":[2,4,6,8,10,12,14,16,18,20,22,24,26,28,-1,30,32,34,36,38,40,42,44,46,48,50,-1,-1,52,-1,-1,54,56,58,60,62,64,66,68,70,72,74,76,78,80,82,84,86,-1,-1,-1,-1,-1,-1,-1,-1,-1,-1,-1,-1,-1,-1,-1,-1,-1,-1,-1,-1,-1,-1,-1,-1,-1,-1,-1,-1,-1,-1,-1,-1,-1,-1,-1,-1,-1,-1,-1],"split_conditions":[1.0319097E4,4.0931802E3,2.2177416E4,3.7713052E2,6.570134E3,1.5328939E4,3.2357855E4,8.3102594E2,2.999494E2,7.1785534E-3,6.65096E-3,5.4705013E-3,5.5694752E-3,4.636129E-3,2.714974E0,1.6635202E2,2.3057712E3,4.7474213E-2,8.9601135E2,5.409546E-3,9.945478E-3,8.010066E3,8.6228335E-3,1.3025017E4,7.588286E-3,1.7606168E4,1.3958192E0,1.4571127E0,5.773295E-3,-5.5250263E-1,-4.8509556E-1,1.0960252E-2,5.847901E-3,4.9476456E2,1.8181272E-2,8.512785E-2,5.2538214E2,5.5508247E3,5.3300977E3,5.3300977E3,9.364719E2,5.348707E-3,5.4278504E-3,8.010066E3,8.010066E3,4.747964E-3,4.6850652E-3,1.1647826E4,1.2445076E0,8.6638135E-1,1.1519107E0,1.8306528E0,2.3488472E0,-4.4401714E-1,-3.6847678E-1,-3.7682807E-1,-2.6576266E-1,-3.4348065E-1,-2.6605132E-1,-1.6812971E-1,2.3985195E-1,-1.8748973E-1,8.5503375E-3,1.45091005E-2,2.1464665E-1,-2.159828E-1,-9.757418E-2,-1.08239934E-1,3.278603E-2,7.272131E-2,2.515803E-1,3.6020318E-1,6.431433E-1,4.310297E-3,1.5098177E-1,1.6208386E-1,3.5647303E-1,3.7478858E-1,5.5888337E-1,6.192621E-1,9.9794644E-1,2.6357687E-1,4.519799E-1,4.840985E-1,6.837223E-1,6.165693E-1,8.498516E-1],"split_indices":[6,6,6,7,6,6,6,6,0,12,12,12,12,12,0,7,6,14,7,12,12,6,12,6,12,6,0,0,12,0,0,12,12,7,12,13,0,6,6,6,7,12,12,6,6,12,12,6,0,0,0,0,0,0,0,0,0,0,0,0,0,0,0,0,0,0,0,0,0,0,0,0,0,0,0,0,0,0,0,0,0,0,0,0,0,0,0],"split_type":[0,0,0,0,0,0,0,0,0,0,0,0,0,0,0,0,0,0,0,0,0,0,0,0,0,0,0,0,0,0,0,0,0,0,0,0,0,0,0,0,0,0,0,0,0,0,0,0,0,0,0,0,0,0,0,0,0,0,0,0,0,0,0,0,0,0,0,0,0,0,0,0,0,0,0,0,0,0,0,0,0,0,0,0,0,0,0],"sum_hessian":[4.331E3,3.615E3,7.16E2,2.626E3,9.89E2,5.12E2,2.04E2,1.661E3,9.65E2,5.37E2,4.52E2,3.15E2,1.97E2,1.49E2,5.5E1,8.04E2,8.57E2,7.52E2,2.13E2,4.09E2,1.28E2,3.13E2,1.39E2,1.35E2,1.8E2,1.31E2,6.6E1,3.8E1,1.11E2,4.94E2,3.1E2,7.37E2,1.2E2,5.83E2,1.69E2,1.83E2,3E1,1.73E2,2.36E2,1.07E2,2.1E1,1.28E2,1.85E2,1.12E2,2.7E1,7.8E1,5.7E1,1.62E2,1.8E1,6.1E1,7E1,9.4E1,1.7E1,5.9E2,1.47E2,5.4E1,6.6E1,3.46E2,2.37E2,1.66E2,3E0,1.45E2,3.8E1,1.9E1,1.1E1,1.1E2,6.3E1,1.31E2,1.05E2,6.7E1,4E1,1.6E1,5E0,4.4E1,8.4E1,8E1,1.05E2,5.7E1,5.5E1,1.8E1,9E0,1.9E1,5.9E1,1.9E1,3.8E1,4.7E1,1.15E2],"tree_param":{"num_deleted":"0","num_feature":"17","num_nodes":"87","size_leaf_vector":"1"}},{"base_weights":[4.626685E-2,-1.26786E1,5.8137405E1,-1.9057615E1,5.049018E0,4.1082703E1,9.964365E1,-2.3602997E1,-1.2858861E1,-1.7519135E0,1.4344866E1,3.254611E1,5.6018562E1,8.783895E1,2.6739635E0,-2.6111511E1,-2.1184353E1,-1.5599502E1,-8.096721E0,-4.904435E0,8.91388E0,9.39806E0,2.634969E1,2.4159348E1,3.8482605E1,4.8683853E1,6.8554596E1,7.800075E1,9.675832E1,-5.342655E-1,-4.6237212E-1,-2.2412289E1,-1.704121E1,-1.6975557E1,-9.724158E0,-9.906076E0,-7.357653E-1,-9.698093E0,-2.6655467E0,6.3727627E0,1.9791277E1,4.7178946E0,1.3312592E1,2.3068045E1,3.782725E1,1.6048655E1,2.846891E1,3.0399559E1,4.430148E1,4.313343E1,1.0907267E0,1.2756774E0,1.7337399E0,1.28822E0,1.704902E0,1.7289594E0,2.1935663E0,-4.6512634E-1,-4.2256853E-1,-3.6877662E-1,-2.787397E-1,-3.6116472E-1,-3.0311203E-1,-2.111144E-1,-8.819785E-2,-2.204808E-1,6.741329E-2,-4.9517963E-2,2.1107596E-1,-2.3119792E-1,-1.3691439E-1,-1.23593405E-1,5.6592226E-3,6.3925125E-2,2.327185E-1,3.1596974E-1,4.8471564E-1,1.8784208E-2,1.5308276E-1,1.480713E-1,3.238708E-1,3.4403792E-1,5.0728285E-1,4.21373E-1,8.024108E-1,2.1982206E-1,3.6145267E-1,4.7939315E-1,6.425365E-1,5.441281E-1,9.1110563E-1,8.1874794E-1,1.112548E0,7.099152E-1,9.3510574E-1],"categories":[],"categories_nodes":[],"categories_segments":[],"categories_sizes":[],"default_left":[0,0,0,0,0,0,0,0,0,0,0,0,0,0,0,0,0,0,0,0,0,0,0,0,0,0,0,0,0,0,0,0,0,0,0,0,0,0,0,0,0,0,0,0,0,0,0,0,0,0,0,0,0,0,0,0,0,0,0,0,0,0,0,0,0,0,0,0,0,0,0,0,0,0,0,0,0,0,0,0,0,0,0,0,0,0,0,0,0,0,0,0,0,0,0],"id":5,"left_children":[1,3,5,7,9,11,13,15,17,19,21,23,25,27,-1,29,31,33,35,37,39,41,43,45,47,49,51,53,55,-1,-1,57,59,61,63,65,67,69,71,73,75,77,79,81,83,85,87,89,91,93,-1,-1,-1,-1,-1,-1,-1,-1,-1,-1,-1,-1,-1,-1,-1,-1,-1,-1,-1,-1,-1,-1,-1,-1,-1,-1,-1,-1,-1,-1,-1,-1,-1,-1,-1,-1,-1,-1,-1,-1,-1,-1,-1,-1,-1],"loss_changes":[3.1881808E6,4.0019156E5,5.4449675E5,7.300594E4,5.9263938E4,6.842125E4,7.868475E4,8.542875E3,1.4266922E4,1.8267602E4,2.326546E4,1.6639188E4,1.49485E4,7.352875E3,0E0,6.958125E2,3.5264375E3,5.4835312E3,5.3856777E3,4.4698164E3,3.298711E3,5.1018145E3,3.4528125E3,4.746742E3,8.287781E3,1.8282812E3,5.9753125E2,2.9609375E3,1.82175E3,0E0,0E0,1.435E2,5.2071484E2,8.3628125E2,5.485381E2,4.861867E3,1.6165951E3,6.253281E2,2.9760662E3,1.6666099E3,2.1264648E1,1.4343193E3,2.4823633E3,7.9860547E2,7.097266E1,3.5121973E2,8.0428125E2,3.0604453E3,2.1709531E3,2.9620312E2,0E0,0E0,0E0,0E0,0E0,0E0,0E0,0E0,0E0,0E0,0E0,0E0,0E0,0E0,0E0,0E0,0E0,0E0,0E0,0E0,0E0,0E0,0E0,0E0,0E0,0E0,0E0,0E0,0E0,0E0,0E0,0E0,0E0,0E0,0E0,0E0,0E0,0E0,0E0,0E0,0E0,0E0,0E0,0E0,0E0],"parents":[2147483647,0,0,1,1,2,2,3,3,4,4,5,5,6,6,7,7,8,8,9,9,10,10,11,11,12,12,13,13,15,15,16,16,17,17,18,18,19,19,20,20,21,21,22,22,23,23,24,24,25,25,26,26,27,27,28,28,31,31,32,32,33,33,34,34,35,35,36,36,37,37,38,38,39,39,40,40,41,41,42,42,43,43,44,44,45,45,46,46,47,47,48,48,49,49],"right_children":[2,4,6,8,10,12,14,16,18,20,22,24,26,28,-1,30,32,34,36,38,40,42,44,46,48,50,52,54,56,-1,-1,58,60,62,64,66,68,70,72,74,76,78,80,82,84,86,88,90,92,94,-1,-1,-1,-1,-1,-1,-1,-1,-1,-1,-1,-1,-1,-1,-1,-1,-1,-1,-1,-1,-1,-1,-1,-1,-1,-1,-1,-1,-1,-1,-1,-1,-1,-1,-1,-1,-1,-1,-1,-1,-1,-1,-1,-1,-1],"split_conditions":[9.837746E3,4.0931802E3,2.1517455E4,3.3899228E2,6.570134E3,1.5328939E4,3.2357855E4,1.9902977E2,5.238298E2,7.1785534E-3,6.796716E-3,5.4874048E-3,5.6338394E-3,2.5671586E4,2.6739635E0,8.3102594E2,4.842329E-2,4.9855694E-2,4.5342255E-2,5.188921E-3,9.578599E-3,5.6338394E-3,8.881649E-3,1.1647826E4,1.1647826E4,1.7606168E4,6.779556E-3,4.9961368E-3,5.017533E-3,-5.342655E-1,-4.6237212E-1,2.8112787E2,6.0692646E-2,4.357031E2,6.683106E-2,4.4545663E2,1.2687051E-2,5.4156284E3,5.0805776E3,5.4156284E3,1.0637449E-2,7.8589727E3,7.4951543E3,7.4951543E3,6.9291973E3,4.7718724E-3,1.3296787E4,7.2853127E-3,6.8158526E-3,4.949021E-3,1.0907267E0,1.2756774E0,1.7337399E0,1.28822E0,1.704902E0,1.7289594E0,2.1935663E0,-4.6512634E-1,-4.2256853E-1,-3.6877662E-1,-2.787397E-1,-3.6116472E-1,-3.0311203E-1,-2.111144E-1,-8.819785E-2,-2.204808E-1,6.741329E-2,-4.9517963E-2,2.1107596E-1,-2.3119792E-1,-1.3691439E-1,-1.23593405E-1,5.6592226E-3,6.3925125E-2,2.327185E-1,3.1596974E-1,4.8471564E-1,1.8784208E-2,1.5308276E-1,1.480713E-1,3.238708E-1,3.4403792E-1,5.0728285E-1,4.21373E-1,8.024108E-1,2.1982206E-1,3.6145267E-1,4.7939315E-1,6.425365E-1,5.441281E-1,9.1110563E-1,8.1874794E-1,1.112548E0,7.099152E-1,9.3510574E-1],"split_indices":[6,6,6,7,6,6,6,7,7,12,12,12,12,6,0,6,14,14,14,12,12,12,12,6,6,6,12,12,12,0,0,7,14,7,14,0,12,6,6,6,12,6,6,6,6,12,6,12,12,12,0,0,0,0,0,0,0,0,0,0,0,0,0,0,0,0,0,0,0,0,0,0,0,0,0,0,0,0,0,0,0,0,0,0,0,0,0,0,0,0,0,0,0,0,0],"split_type":[0,0,0,0,0,0,0,0,0,0,0,0,0,0,0,0,0,0,0,0,0,0,0,0,0,0,0,0,0,0,0,0,0,0,0,0,0,0,0,0,0,0,0,0,0,0,0,0,0,0,0,0,0,0,0,0,0,0,0,0,0,0,0,0,0,0,0,0,0,0,0,0,0,0,0,0,0,0,0,0,0,0,0,0,0,0,0,0,0,0,0,0,0,0,0],"sum_hessian":[4.311E3,3.537E3,7.74E2,2.601E3,9.36E2,5.5E2,2.24E2,1.499E3,1.102E3,5.41E2,3.95E2,3.52E2,1.98E2,1.69E2,5.5E1,7.31E2,7.68E2,6.98E2,4.04E2,4.18E2,1.23E2,2.81E2,1.14E2,1.48E2,2.04E2,1.28E2,7E1,8.5E1,8.4E1,6.02E2,1.29E2,5.89E2,1.79E2,5.64E2,1.34E2,3.24E2,8E1,1.32E2,2.86E2,1.01E2,2.2E1,1.29E2,1.52E2,9.1E1,2.3E1,5.3E1,9.5E1,8.8E1,1.16E2,7E1,5.8E1,5.9E1,1.1E1,3.3E1,5.2E1,5.1E1,3.3E1,3.45E2,2.44E2,1.2E2,5.9E1,3.48E2,2.16E2,1.15E2,1.9E1,2.99E2,2.5E1,7E1,1E1,7.8E1,5.4E1,1.3E2,1.56E2,6.4E1,3.7E1,1.4E1,8E0,5.7E1,7.2E1,5.1E1,1.01E2,2.8E1,6.3E1,4E0,1.9E1,1.7E1,3.6E1,4.6E1,4.9E1,7.5E1,1.3E1,9.3E1,2.3E1,2.6E1,4.4E1],"tree_param":{"num_deleted":"0","num_feature":"17","num_nodes":"95","size_leaf_vector":"1"}},{"base_weights":[6.8467874E-3,-1.2930204E1,5.4186703E1,-1.8632666E1,3.8365204E0,3.8081757E1,9.839364E1,-2.2284676E1,-1.1768952E1,-2.1940513E0,1.1936688E1,3.0726658E1,5.5481007E1,8.3634834E1,1.2716855E2,-2.5000286E1,-1.9289642E1,-1.3449338E1,-5.7946525E0,-6.0485992E0,5.977195E0,7.282105E0,2.4247112E1,1.9483913E1,3.6011444E1,4.8830822E1,1.3530433E0,7.413164E1,1.8502339E0,2.1207051E0,2.732022E0,-5.254391E-1,-2.2937092E1,-2.0321411E1,-1.429942E1,-1.5171958E1,-7.862455E0,-7.7595506E0,2.256429E0,-9.67304E0,-3.5555396E0,3.9171224E0,1.8342108E1,4.199842E0,1.186641E1,2.0484377E1,7.032695E-1,1.4230467E1,2.783711E1,3.2417114E1,4.8820786E1,4.2387325E1,1.0913239E0,1.2733176E0,1.6266973E0,-4.7663438E-1,-4.234219E-1,-4.1087362E-1,-2.4980624E-1,-3.474442E-1,-2.3108305E-1,-3.3111754E-1,-2.597729E-1,-1.6634233E-1,2.5665924E-1,-1.8082118E-1,-1.2678674E-3,-5.365186E-2,1.57236E-1,-2.2101212E-1,-1.2612382E-1,-1.3091101E-1,-1.973462E-2,-8.220141E-3,1.3549215E-1,1.5887603E-1,3.8999328E-1,3.0251108E-2,1.5202563E-1,1.4666863E-1,3.0771592E-1,2.677884E-1,4.3872964E-1,1.7319217E-1,3.4213108E-1,3.560097E-1,5.950984E-1,5.027296E-1,7.8350747E-1,9.167844E-1,1.4724548E0,7.060455E-1,9.2648196E-1],"categories":[],"categories_nodes":[],"categories_segments":[],"categories_sizes":[],"default_left":[0,0,0,0,0,0,0,0,0,0,0,0,0,0,0,0,0,0,0,0,0,0,0,0,0,0,0,0,0,0,0,0,0,0,0,0,0,0,0,0,0,0,0,0,0,0,0,0,0,0,0,0,0,0,0,0,0,0,0,0,0,0,0,0,0,0,0,0,0,0,0,0,0,0,0,0,0,0,0,0,0,0,0,0,0,0,0,0,0,0,0,0,0],"id":6,"left_children":[1,3,5,7,9,11,13,15,17,19,21,23,25,27,29,31,33,35,37,39,41,43,45,47,49,51,-1,53,-1,-1,-1,-1,55,57,59,61,63,65,67,69,71,73,75,77,79,81,-1,83,85,87,89,91,-1,-1,-1,-1,-1,-1,-1,-1,-1,-1,-1,-1,-1,-1,-1,-1,-1,-1,-1,-1,-1,-1,-1,-1,-1,-1,-1,-1,-1,-1,-1,-1,-1,-1,-1,-1,-1,-1,-1,-1,-1],"loss_changes":[3.018198E6,3.3241894E5,5.87158E5,6.4756438E4,4.3160516E4,7.635025E4,8.319825E4,1.32749375E4,8.985477E3,1.6004865E4,2.142234E4,2.4900875E4,1.1254125E4,5.6946875E3,4.3125E1,1.7118125E3,3.8712812E3,6.653758E3,3.1819707E3,3.0816865E3,4.077963E3,3.8343164E3,3.5048984E3,5.743293E3,1.185325E4,2.1120938E3,0E0,6.120625E2,0E0,0E0,0E0,0E0,3.603125E1,9.0284375E2,9.942461E2,1.4045703E3,1.6870625E3,1.5864092E3,1.12901E3,5.779043E2,1.5750254E3,1.747248E3,1.1919629E2,1.504938E3,1.6397598E3,5.1666016E2,0E0,1.259248E3,4.857539E2,1.03750625E4,1.1980469E3,5.7921875E1,0E0,0E0,0E0,0E0,0E0,0E0,0E0,0E0,0E0,0E0,0E0,0E0,0E0,0E0,0E0,0E0,0E0,0E0,0E0,0E0,0E0,0E0,0E0,0E0,0E0,0E0,0E0,0E0,0E0,0E0,0E0,0E0,0E0,0E0,0E0,0E0,0E0,0E0,0E0,0E0,0E0],"parents":[2147483647,0,0,1,1,2,2,3,3,4,4,5,5,6,6,7,7,8,8,9,9,10,10,11,11,12,12,13,13,14,14,15,15,16,16,17,17,18,18,19,19,20,20,21,21,22,22,23,23,24,24,25,25,27,27,32,32,33,33,34,34,35,35,36,36,37,37,38,38,39,39,40,40,41,41,42,42,43,43,44,44,45,45,47,47,48,48,49,49,50,50,51,51],"right_children":[2,4,6,8,10,12,14,16,18,20,22,24,26,28,30,32,34,36,38,40,42,44,46,48,50,52,-1,54,-1,-1,-1,-1,56,58,60,62,64,66,68,70,72,74,76,78,80,82,-1,84,86,88,90,92,-1,-1,-1,-1,-1,-1,-1,-1,-1,-1,-1,-1,-1,-1,-1,-1,-1,-1,-1,-1,-1,-1,-1,-1,-1,-1,-1,-1,-1,-1,-1,-1,-1,-1,-1,-1,-1,-1,-1,-1,-1],"split_conditions":[9.1406045E3,4.0931802E3,2.1517455E4,1.825948E2,6.3597036E3,1.5328939E4,3.0260146E4,9.20693E2,2.999494E2,6.779556E-3,6.796716E-3,5.3635254E-3,5.742743E-3,4.9665193E-3,4.84076E-3,8.0182816E1,2.5075293E3,9.495681E-2,1.1469048E-2,5.29228E-3,9.495019E-3,5.8911643E-3,8.95345E-3,1.236864E4,7.00952E-3,1.7606168E4,1.3530433E0,2.5671586E4,1.8502339E0,2.1207051E0,2.732022E0,-5.254391E-1,8.512785E-2,1.4502312E-2,5.847901E-3,2.450274E2,1.485948E-1,8.512785E-2,2.7498953E3,5.5508247E3,5.0805776E3,4.7735474E3,9.839933E0,7.8589727E3,7.4951543E3,6.9291973E3,7.032695E-1,4.636129E-3,4.4524902E-3,1.1814875E4,9.650954E-3,4.949021E-3,1.0913239E0,1.2733176E0,1.6266973E0,-4.7663438E-1,-4.234219E-1,-4.1087362E-1,-2.4980624E-1,-3.474442E-1,-2.3108305E-1,-3.3111754E-1,-2.597729E-1,-1.6634233E-1,2.5665924E-1,-1.8082118E-1,-1.2678674E-3,-5.365186E-2,1.57236E-1,-2.2101212E-1,-1.2612382E-1,-1.3091101E-1,-1.973462E-2,-8.220141E-3,1.3549215E-1,1.5887603E-1,3.8999328E-1,3.0251108E-2,1.5202563E-1,1.4666863E-1,3.0771592E-1,2.677884E-1,4.3872964E-1,1.7319217E-1,3.4213108E-1,3.560097E-1,5.950984E-1,5.027296E-1,7.8350747E-1,9.167844E-1,1.4724548E0,7.060455E-1,9.2648196E-1],"split_indices":[6,6,6,0,6,6,6,6,0,12,12,12,12,12,12,0,6,13,12,12,12,12,12,6,12,6,0,6,0,0,0,0,13,12,12,0,13,13,6,6,6,6,16,6,6,6,0,12,12,6,12,12,0,0,0,0,0,0,0,0,0,0,0,0,0,0,0,0,0,0,0,0,0,0,0,0,0,0,0,0,0,0,0,0,0,0,0,0,0,0,0,0,0],"split_type":[0,0,0,0,0,0,0,0,0,0,0,0,0,0,0,0,0,0,0,0,0,0,0,0,0,0,0,0,0,0,0,0,0,0,0,0,0,0,0,0,0,0,0,0,0,0,0,0,0,0,0,0,0,0,0,0,0,0,0,0,0,0,0,0,0,0,0,0,0,0,0,0,0,0,0,0,0,0,0,0,0,0,0,0,0,0,0,0,0,0,0,0,0],"sum_hessian":[4.304E3,3.475E3,8.29E2,2.593E3,8.82E2,6.09E2,2.2E2,1.691E3,9.02E2,5.06E2,3.76E2,4.3E2,1.79E2,1.48E2,7.2E1,8.83E2,8.08E2,7.03E2,1.99E2,3.44E2,1.62E2,2.74E2,1.02E2,1.39E2,2.91E2,1.19E2,6E1,7.6E1,7.2E1,2.6E1,4.6E1,5.39E2,3.44E2,6.67E2,1.41E2,5.36E2,1.67E2,1.6E2,3.9E1,1.39E2,2.05E2,1.4E2,2.2E1,1.65E2,1.09E2,7.8E1,2.4E1,8.7E1,5.2E1,2.3E2,6.1E1,6E1,5.9E1,3.5E1,4.1E1,2.2E2,1.24E2,6.47E2,2E1,6.4E1,7.7E1,3.24E2,2.12E2,1.64E2,3E0,1.37E2,2.3E1,2.1E1,1.8E1,9.7E1,4.2E1,9.4E1,1.11E2,5.6E1,8.4E1,3E0,1.9E1,9.3E1,7.2E1,4.9E1,6E1,1.5E1,6.3E1,3.1E1,5.6E1,1E1,4.2E1,1.13E2,1.17E2,5.7E1,4E0,2.5E1,3.5E1],"tree_param":{"num_deleted":"0","num_feature":"17","num_nodes":"93","size_leaf_vector":"1"}},{"base_weights":[-5.6818094E-2,-1.2679834E1,5.2208176E1,-1.8337093E1,3.8814774E0,3.751528E1,9.589597E1,-2.2656862E1,-1.253049E1,-1.3702952E0,1.225147E1,2.7809217E1,5.0091064E1,8.2199585E1,1.2308553E2,-2.5069391E1,-2.0303976E1,-1.4747791E1,-7.57919E0,-5.079462E0,8.155004E0,7.7194757E0,2.5089096E1,2.3710033E1,4.6430668E1,4.67546E1,1.3985125E0,1.2914039E0,8.577631E1,1.838796E0,2.6032753E0,-2.6253164E1,-2.3595875E1,-2.1236977E1,-1.4673157E1,-1.635068E1,-9.621499E0,-9.095839E0,3.1760173E0,-8.222464E0,-2.3177128E0,5.506427E0,2.020929E1,5.0461054E0,1.3842728E1,2.1217001E1,7.285565E-1,1.6837729E1,2.8446146E1,4.35615E1,1.4196142E0,4.173976E1,5.631216E1,1.4797982E0,1.8512028E0,-5.3346235E-1,-4.483978E-1,-4.8100778E-1,-3.7803736E-1,-4.4144207E-1,-3.8877004E-1,-3.187596E-1,-2.3255484E-1,-3.5201022E-1,-2.9105124E-1,-2.4361889E-1,-1.628358E-1,-2.098776E-1,-4.1247644E-2,-1.3949934E-2,2.0919487E-1,-1.989294E-1,-1.02267966E-1,-1.1341788E-1,1.5015892E-2,5.250398E-2,2.2407992E-1,3.2736003E-1,5.7663655E-1,9.98476E-3,1.3564043E-1,1.9677772E-1,3.3368608E-1,3.1828716E-1,4.4590396E-1,2.1625818E-1,4.2614663E-1,4.731504E-1,6.80913E-1,7.249596E-1,9.9747664E-1,6.619868E-1,9.0865105E-1,9.7610265E-1,1.2585462E0],"categories":[],"categories_nodes":[],"categories_segments":[],"categories_sizes":[],"default_left":[0,0,0,0,0,0,0,0,0,0,0,0,0,0,0,0,0,0,0,0,0,0,0,0,0,0,0,0,0,0,0,0,0,0,0,0,0,0,0,0,0,0,0,0,0,0,0,0,0,0,0,0,0,0,0,0,0,0,0,0,0,0,0,0,0,0,0,0,0,0,0,0,0,0,0,0,0,0,0,0,0,0,0,0,0,0,0,0,0,0,0,0,0,0,0],"id":7,"left_children":[1,3,5,7,9,11,13,15,17,19,21,23,25,27,29,31,33,35,37,39,41,43,45,47,49,51,-1,-1,53,-1,-1,55,57,59,61,63,65,67,69,71,73,75,77,79,81,83,-1,85,87,89,-1,91,93,-1,-1,-1,-1,-1,-1,-1,-1,-1,-1,-1,-1,-1,-1,-1,-1,-1,-1,-1,-1,-1,-1,-1,-1,-1,-1,-1,-1,-1,-1,-1,-1,-1,-1,-1,-1,-1,-1,-1,-1,-1,-1],"loss_changes":[2.8250128E6,3.2321494E5,5.31092E5,6.42015E4,3.8656344E4,7.48875E4,6.769325E4,7.8478125E3,1.1951391E4,1.9155148E4,1.952607E4,2.5990219E4,1.46530625E4,3.40025E3,3.0015625E3,6.366875E2,3.6302188E3,6.0684688E3,5.6081406E3,3.3651602E3,4.739007E3,4.0534297E3,3.084957E3,9.053078E3,1.334125E3,8.9031875E3,0E0,0E0,2.329875E3,0E0,0E0,2.809375E1,2.4942188E2,5.310625E2,2.3563086E2,1.035125E3,5.9185547E2,2.9270215E3,1.2214573E3,9.231631E2,2.155205E3,2.0376201E3,4.1784473E2,1.3929434E3,6.978613E2,3.0142578E1,0E0,3.0516758E3,3.8007812E3,9.073125E2,0E0,3.5296875E3,7.911406E2,0E0,0E0,0E0,0E0,0E0,0E0,0E0,0E0,0E0,0E0,0E0,0E0,0E0,0E0,0E0,0E0,0E0,0E0,0E0,0E0,0E0,0E0,0E0,0E0,0E0,0E0,0E0,0E0,0E0,0E0,0E0,0E0,0E0,0E0,0E0,0E0,0E0,0E0,0E0,0E0,0E0,0E0],"parents":[2147483647,0,0,1,1,2,2,3,3,4,4,5,5,6,6,7,7,8,8,9,9,10,10,11,11,12,12,13,13,14,14,15,15,16,16,17,17,18,18,19,19,20,20,21,21,22,22,23,23,24,24,25,25,28,28,31,31,32,32,33,33,34,34,35,35,36,36,37,37,38,38,39,39,40,40,41,41,42,42,43,43,44,44,45,45,47,47,48,48,49,49,51,51,52,52],"right_children":[2,4,6,8,10,12,14,16,18,20,22,24,26,28,30,32,34,36,38,40,42,44,46,48,50,52,-1,-1,54,-1,-1,56,58,60,62,64,66,68,70,72,74,76,78,80,82,84,-1,86,88,90,-1,92,94,-1,-1,-1,-1,-1,-1,-1,-1,-1,-1,-1,-1,-1,-1,-1,-1,-1,-1,-1,-1,-1,-1,-1,-1,-1,-1,-1,-1,-1,-1,-1,-1,-1,-1,-1,-1,-1,-1,-1,-1,-1,-1],"split_conditions":[9.1406045E3,4.0931802E3,2.1517455E4,3.3899228E2,6.570134E3,1.4119561E4,3.0260146E4,1.9902977E2,5.465034E2,6.921312E-3,6.921312E-3,6.921312E-3,6.174443E-3,4.5648133E-3,4.5648133E-3,1.3226016E2,5.3904146E-2,4.761041E-2,8.019782E2,5.4874048E-3,9.495019E-3,6.0804407E-3,9.144096E-3,5.3635254E-3,9.650954E-3,1.7606168E4,1.3985125E0,1.2914039E0,2.3736873E4,1.838796E0,2.6032753E0,6.612965E-2,6.0119424E-2,4.0056635E-2,6.861142E-2,4.357031E2,3.963374E2,4.6458334E-2,1.0388021E3,5.5508247E3,5.1779717E3,5.60973E3,9.364719E2,4.9056164E-3,7.759352E3,7.054774E3,7.285565E-1,1.093611E4,1.1647826E4,1.0686692E4,1.4196142E0,5.1181465E-3,5.1181465E-3,1.4797982E0,1.8512028E0,-5.3346235E-1,-4.483978E-1,-4.8100778E-1,-3.7803736E-1,-4.4144207E-1,-3.8877004E-1,-3.187596E-1,-2.3255484E-1,-3.5201022E-1,-2.9105124E-1,-2.4361889E-1,-1.628358E-1,-2.098776E-1,-4.1247644E-2,-1.3949934E-2,2.0919487E-1,-1.989294E-1,-1.02267966E-1,-1.1341788E-1,1.5015892E-2,5.250398E-2,2.2407992E-1,3.2736003E-1,5.7663655E-1,9.98476E-3,1.3564043E-1,1.9677772E-1,3.3368608E-1,3.1828716E-1,4.4590396E-1,2.1625818E-1,4.2614663E-1,4.731504E-1,6.80913E-1,7.249596E-1,9.9747664E-1,6.619868E-1,9.0865105E-1,9.7610265E-1,1.2585462E0],"split_indices":[6,6,6,7,6,6,6,7,7,12,12,12,12,12,12,7,14,14,7,12,12,12,12,12,12,6,0,0,6,0,0,14,14,14,14,7,7,14,7,6,6,6,7,12,6,6,0,6,6,6,0,12,12,0,0,0,0,0,0,0,0,0,0,0,0,0,0,0,0,0,0,0,0,0,0,0,0,0,0,0,0,0,0,0,0,0,0,0,0,0,0,0,0,0,0],"split_type":[0,0,0,0,0,0,0,0,0,0,0,0,0,0,0,0,0,0,0,0,0,0,0,0,0,0,0,0,0,0,0,0,0,0,0,0,0,0,0,0,0,0,0,0,0,0,0,0,0,0,0,0,0,0,0,0,0,0,0,0,0,0,0,0,0,0,0,0,0,0,0,0,0,0,0,0,0,0,0,0,0,0,0,0,0,0,0,0,0,0,0,0,0,0,0],"sum_hessian":[4.28E3,3.448E3,8.32E2,2.57E3,8.78E2,6.24E2,2.08E2,1.472E3,1.098E3,5.4E2,3.38E2,3.54E2,2.7E2,1.41E2,6.7E1,7.22E2,7.5E2,7.57E2,3.41E2,3.89E2,1.51E2,2.51E2,8.7E1,2.92E2,6.2E1,2.34E2,3.6E1,2.7E1,1.14E2,1.5E1,5.2E1,3.91E2,3.31E2,6.41E2,1.09E2,5.75E2,1.82E2,2.99E2,4.2E1,1.81E2,2.08E2,1.25E2,2.6E1,1.76E2,7.5E1,6.7E1,2E1,1.21E2,1.71E2,5.8E1,4E0,1.57E2,7.7E1,4.6E1,6.8E1,3.47E2,4.4E1,2.98E2,3.3E1,4.3E2,2.11E2,7.4E1,3.5E1,3.34E2,2.41E2,6.4E1,1.18E2,2.49E2,5E1,2.8E1,1.4E1,1.15E2,6.6E1,9.9E1,1.09E2,8.4E1,4.1E1,2E1,6E0,4.9E1,1.27E2,3.3E1,4.2E1,1.4E1,5.3E1,5.3E1,6.8E1,9.5E1,7.6E1,3E1,2.8E1,5E1,1.07E2,4E1,3.7E1],"tree_param":{"num_deleted":"0","num_feature":"17","num_nodes":"95","size_leaf_vector":"1"}},{"base_weights":[2.0841758E-1,-1.035971E1,5.0090946E1,-1.5453547E1,1.7130823E1,3.3626938E1,8.569103E1,-2.079826E1,-6.3798375E0,1.1351283E1,4.9882835E1,2.327678E1,5.6482994E1,7.098007E1,1.1369057E2,-2.4021437E1,-1.7989452E1,-9.934549E0,4.382899E0,1.252561E0,2.209711E1,4.319231E1,1.7283659E0,6.594197E0,3.2302395E1,3.7569603E1,6.78326E1,5.9821194E1,1.7193025E0,9.617234E1,2.5246756E0,-2.4501556E1,-2.0179373E1,-1.9728151E1,-1.3258668E1,-1.245968E1,-5.248874E0,-1.2586178E0,1.2732385E1,-9.137375E0,5.390386E0,1.686566E1,3.282207E1,2.0960537E1,5.299771E1,4.0624237E0,1.4381925E1,2.3348885E1,3.605853E1,3.2360504E1,1.2386358E0,5.8975716E1,1.9667647E0,4.877652E1,1.360287E0,1.4291875E0,2.123214E0,-5.08246E-1,-4.6199426E-1,-4.323018E-1,-3.4887266E-1,-4.2196602E-1,-3.5655347E-1,-3.0059266E-1,-1.7831363E-1,-2.7197713E-1,-1.7440355E-1,-1.3859007E-1,-1.0018673E-2,-8.237406E-2,4.682941E-2,1.5987551E-1,3.9426175E-1,-2.3790841E-1,-1.9154007E-2,5.8658253E-3,2.2439344E-1,2.0996308E-1,4.110676E-1,5.1048535E-1,7.589192E-1,1.0647779E-1,5.174285E-1,7.2637695E-1,1.1251391E0,3.0387007E-2,1.6070375E-1,1.9839172E-1,3.6947557E-1,3.7905818E-1,5.9152776E-1,5.644355E-1,8.001089E-1,3.7714806E-1,7.23592E-1,1.0004935E0,1.3604711E0,5.810189E-1,1.0344104E0],"categories":[],"categories_nodes":[],"categories_segments":[],"categories_sizes":[],"default_left":[0,0,0,0,0,0,0,0,0,0,0,0,0,0,0,0,0,0,0,0,0,0,0,0,0,0,0,0,0,0,0,0,0,0,0,0,0,0,0,0,0,0,0,0,0,0,0,0,0,0,0,0,0,0,0,0,0,0,0,0,0,0,0,0,0,0,0,0,0,0,0,0,0,0,0,0,0,0,0,0,0,0,0,0,0,0,0,0,0,0,0,0,0,0,0,0,0,0,0],"id":8,"left_children":[1,3,5,7,9,11,13,15,17,19,21,23,25,27,29,31,33,35,37,39,41,43,-1,45,47,49,51,53,-1,55,-1,57,59,61,63,65,67,69,71,73,75,77,79,81,83,85,87,89,91,93,-1,95,-1,97,-1,-1,-1,-1,-1,-1,-1,-1,-1,-1,-1,-1,-1,-1,-1,-1,-1,-1,-1,-1,-1,-1,-1,-1,-1,-1,-1,-1,-1,-1,-1,-1,-1,-1,-1,-1,-1,-1,-1,-1,-1,-1,-1,-1,-1],"loss_changes":[2.2947445E6,5.032605E5,4.4314375E5,1.4685712E5,1.05809516E5,1.22163625E5,9.076775E4,1.6828312E4,4.308482E4,5.195065E4,1.6787516E4,5.4139062E4,3.2215844E4,2.15975E4,5.6360625E3,1.133625E3,8.1497188E3,9.942656E3,1.3206227E4,1.071083E4,1.24583125E4,1.4795125E4,0E0,2.4634756E3,7.0216875E3,5.981453E3,2.1203188E4,5.2674375E3,0E0,1.7760625E3,0E0,4.0653125E2,2.753125E1,1.5625E3,2.0017852E3,2.2178984E3,2.3736855E3,1.7396434E3,3.5775527E3,1.5890767E3,5.284369E3,3.4912148E3,1.8295938E3,1.7020996E3,6.655781E2,9.7693335E2,3.799453E2,1.4056562E3,3.9059062E3,2.096996E3,0E0,3.0643438E3,0E0,1.0445625E3,0E0,0E0,0E0,0E0,0E0,0E0,0E0,0E0,0E0,0E0,0E0,0E0,0E0,0E0,0E0,0E0,0E0,0E0,0E0,0E0,0E0,0E0,0E0,0E0,0E0,0E0,0E0,0E0,0E0,0E0,0E0,0E0,0E0,0E0,0E0,0E0,0E0,0E0,0E0,0E0,0E0,0E0,0E0,0E0,0E0],"parents":[2147483647,0,0,1,1,2,2,3,3,4,4,5,5,6,6,7,7,8,8,9,9,10,10,11,11,12,12,13,13,14,14,15,15,16,16,17,17,18,18,19,19,20,20,21,21,23,23,24,24,25,25,26,26,27,27,29,29,31,31,32,32,33,33,34,34,35,35,36,36,37,37,38,38,39,39,40,40,41,41,42,42,43,43,44,44,45,45,46,46,47,47,48,48,49,49,51,51,53,53],"right_children":[2,4,6,8,10,12,14,16,18,20,22,24,26,28,30,32,34,36,38,40,42,44,-1,46,48,50,52,54,-1,56,-1,58,60,62,64,66,68,70,72,74,76,78,80,82,84,86,88,90,92,94,-1,96,-1,98,-1,-1,-1,-1,-1,-1,-1,-1,-1,-1,-1,-1,-1,-1,-1,-1,-1,-1,-1,-1,-1,-1,-1,-1,-1,-1,-1,-1,-1,-1,-1,-1,-1,-1,-1,-1,-1,-1,-1,-1,-1,-1,-1,-1,-1],"split_conditions":[4.557143E2,1.0607352E1,7.895388E-2,2.0596153E2,1.05412714E-1,6.904982E2,7.2477856E2,1.0206071E2,5.1694192E-2,2.911E2,1.4453045E-1,1.0308739E-1,1.0248385E-1,9.986016E-2,8.605517E2,7.2662525E0,9.817589E-2,3.1692307E2,3.3215686E2,1.4920224E2,1.8397279E-1,2.450274E2,1.7283659E0,8.694731E-2,1.218107E-1,1.2465797E3,1.0434049E3,5.4829584E2,1.7193025E0,1.7392534E-1,2.5246756E0,6.466242E1,6.466242E1,1.5783736E2,5.7019144E-2,8.786394E-2,4.0459037E-2,2.7105554E2,1.3044465E-1,1.6052496E1,7.3754594E-2,3.4009662E2,3.353436E2,8.948704E1,2.1136982E0,5.4829584E2,5.3045886E2,5.67168E2,5.137973E2,8.003678E2,1.2386358E0,1.3540857E-1,1.9667647E0,1.5636158E-1,1.360287E0,1.4291875E0,2.123214E0,-5.08246E-1,-4.6199426E-1,-4.323018E-1,-3.4887266E-1,-4.2196602E-1,-3.5655347E-1,-3.0059266E-1,-1.7831363E-1,-2.7197713E-1,-1.7440355E-1,-1.3859007E-1,-1.0018673E-2,-8.237406E-2,4.682941E-2,1.5987551E-1,3.9426175E-1,-2.3790841E-1,-1.9154007E-2,5.8658253E-3,2.2439344E-1,2.0996308E-1,4.110676E-1,5.1048535E-1,7.589192E-1,1.0647779E-1,5.174285E-1,7.2637695E-1,1.1251391E0,3.0387007E-2,1.6070375E-1,1.9839172E-1,3.6947557E-1,3.7905818E-1,5.9152776E-1,5.644355E-1,8.001089E-1,3.7714806E-1,7.23592E-1,1.0004935E0,1.3604711E0,5.810189E-1,1.0344104E0],"split_indices":[0,11,14,0,14,0,0,0,14,0,14,13,13,14,0,11,13,0,0,0,13,0,0,13,13,0,0,0,0,13,0,0,0,0,14,13,14,0,13,11,14,0,0,0,10,0,0,0,0,0,0,13,0,13,0,0,0,0,0,0,0,0,0,0,0,0,0,0,0,0,0,0,0,0,0,0,0,0,0,0,0,0,0,0,0,0,0,0,0,0,0,0,0,0,0,0,0,0,0],"split_type":[0,0,0,0,0,0,0,0,0,0,0,0,0,0,0,0,0,0,0,0,0,0,0,0,0,0,0,0,0,0,0,0,0,0,0,0,0,0,0,0,0,0,0,0,0,0,0,0,0,0,0,0,0,0,0,0,0,0,0,0,0,0,0,0,0,0,0,0,0,0,0,0,0,0,0,0,0,0,0,0,0,0,0,0,0,0,0,0,0,0,0,0,0,0,0,0,0,0,0],"sum_hessian":[4.351E3,3.591E3,7.6E2,3.03E3,5.61E2,5.21E2,2.39E2,1.906E3,1.124E3,4.78E2,8.3E1,3.6E2,1.61E2,1.59E2,8E1,8.84E2,1.022E3,8.45E2,2.79E2,2.47E2,2.31E2,7.2E1,1.1E1,1.27E2,2.33E2,6.2E1,9.9E1,9.4E1,6.5E1,3.7E1,4.3E1,7.81E2,1.03E2,7.45E2,2.77E2,5.48E2,2.97E2,1.67E2,1.12E2,7E1,1.77E2,1.57E2,7.4E1,2.3E1,4.9E1,9.7E1,3E1,7.1E1,1.62E2,5.3E1,9E0,7.9E1,2E1,4.3E1,5.1E1,1.3E1,2.4E1,4.63E2,3.18E2,6.3E1,4E1,4.27E2,3.18E2,1.95E2,8.2E1,4.18E2,1.3E2,2.19E2,7.8E1,9.3E1,7.4E1,6.8E1,4.4E1,5.2E1,1.8E1,9.5E1,8.2E1,5.9E1,9.8E1,3.3E1,4.1E1,6E0,1.7E1,1E1,3.9E1,6E1,3.7E1,1.6E1,1.4E1,4.4E1,2.7E1,5.7E1,1.05E2,1.3E1,4E1,4.3E1,3.6E1,7E0,3.6E1],"tree_param":{"num_deleted":"0","num_feature":"17","num_nodes":"99","size_leaf_vector":"1"}},{"base_weights":[1.6014959E-1,-1.1771916E1,5.3938183E1,-1.7641077E1,4.5535808E0,3.847524E1,9.540406E1,-2.1865543E1,-1.2200918E1,-1.919194E0,1.3237675E1,3.0016273E1,5.3586918E1,8.4422615E1,2.5042865E0,-2.4095823E1,-1.962051E1,-1.4560507E1,-7.6260257E0,-3.4531133E0,6.4930773E0,1.1544742E1,2.9486244E1,2.6468868E1,4.1380775E1,4.85968E1,1.3377048E0,7.339776E1,9.173215E1,-2.4353966E1,-3.6908904E-1,-2.0624994E1,-1.4710843E1,-1.627183E1,-1.0205697E1,-9.1823225E0,-7.620234E-1,-7.632724E0,1.1148716E-1,1.5213053E0,1.3976935E1,3.2205667E0,1.3215119E1,2.3130371E1,8.1583565E-1,2.272093E1,3.3570866E1,3.7755417E1,5.3868664E1,4.393273E1,5.416206E1,1.6083434E0,1.2236282E0,1.6401635E0,2.0518417E0,-5.17308E-1,-4.709413E-1,-4.276313E-1,-3.8080555E-1,-3.2016635E-1,-2.2907382E-1,-3.5073742E-1,-2.946326E-1,-2.26888E-1,-1.2275451E-1,-2.0829073E-1,8.426249E-3,-3.2732937E-2,2.9418787E-1,-1.9308916E-1,-1.0111109E-1,-6.64668E-2,1.0492529E-1,-2.2196786E-3,2.7597275E-1,2.1243016E-1,4.6244907E-1,1.700206E-2,1.439748E-1,1.4957161E-1,3.3504E-1,2.627618E-1,4.9758202E-1,3.3852234E-1,4.9365807E-1,5.538258E-1,7.1166337E-1,2.9294497E-1,7.7864945E-1,5.5442876E-1,1.1496879E0,7.1568996E-1,9.6338445E-1,9.0156436E-1,1.2044928E0],"categories":[],"categories_nodes":[],"categories_segments":[],"categories_sizes":[],"default_left":[0,0,0,0,0,0,0,0,0,0,0,0,0,0,0,0,0,0,0,0,0,0,0,0,0,0,0,0,0,0,0,0,0,0,0,0,0,0,0,0,0,0,0,0,0,0,0,0,0,0,0,0,0,0,0,0,0,0,0,0,0,0,0,0,0,0,0,0,0,0,0,0,0,0,0,0,0,0,0,0,0,0,0,0,0,0,0,0,0,0,0,0,0,0,0],"id":9,"left_children":[1,3,5,7,9,11,13,15,17,19,21,23,25,27,-1,29,31,33,35,37,39,41,43,45,47,49,-1,51,53,55,-1,57,59,61,63,65,67,69,71,73,75,77,79,81,-1,83,85,87,89,91,93,-1,-1,-1,-1,-1,-1,-1,-1,-1,-1,-1,-1,-1,-1,-1,-1,-1,-1,-1,-1,-1,-1,-1,-1,-1,-1,-1,-1,-1,-1,-1,-1,-1,-1,-1,-1,-1,-1,-1,-1,-1,-1,-1,-1],"loss_changes":[2.7669348E6,3.3821972E5,4.983635E5,5.93905E4,5.252685E4,7.15015E4,5.8808375E4,6.8331875E3,1.2160516E4,6.938525E3,1.063107E4,1.3773969E4,1.02755625E4,5.983125E3,0E0,6.064375E2,3.3079688E3,5.4131875E3,4.1474707E3,6.7655864E3,3.065454E3,5.0031406E3,1.7087695E3,6.7910938E3,1.8504844E3,1.556125E3,0E0,8.9690625E2,1.1779375E3,2.3115625E2,0E0,3.1542188E2,3.5483594E2,7.8278125E2,9.19916E2,3.7566836E3,1.0105783E3,1.0386826E3,4.3563477E3,1.0249484E3,7.637051E2,5.777426E2,5.999711E3,1.2365332E2,0E0,1.7268359E3,1.4414844E2,1.3283516E3,5.1328125E0,1.3056406E3,8.542969E2,0E0,0E0,0E0,0E0,0E0,0E0,0E0,0E0,0E0,0E0,0E0,0E0,0E0,0E0,0E0,0E0,0E0,0E0,0E0,0E0,0E0,0E0,0E0,0E0,0E0,0E0,0E0,0E0,0E0,0E0,0E0,0E0,0E0,0E0,0E0,0E0,0E0,0E0,0E0,0E0,0E0,0E0,0E0,0E0],"parents":[2147483647,0,0,1,1,2,2,3,3,4,4,5,5,6,6,7,7,8,8,9,9,10,10,11,11,12,12,13,13,15,15,16,16,17,17,18,18,19,19,20,20,21,21,22,22,23,23,24,24,25,25,27,27,28,28,29,29,31,31,32,32,33,33,34,34,35,35,36,36,37,37,38,38,39,39,40,40,41,41,42,42,43,43,45,45,46,46,47,47,48,48,49,49,50,50],"right_children":[2,4,6,8,10,12,14,16,18,20,22,24,26,28,-1,30,32,34,36,38,40,42,44,46,48,50,-1,52,54,56,-1,58,60,62,64,66,68,70,72,74,76,78,80,82,-1,84,86,88,90,92,94,-1,-1,-1,-1,-1,-1,-1,-1,-1,-1,-1,-1,-1,-1,-1,-1,-1,-1,-1,-1,-1,-1,-1,-1,-1,-1,-1,-1,-1,-1,-1,-1,-1,-1,-1,-1,-1,-1,-1,-1,-1,-1,-1,-1],"split_conditions":[9.837746E3,4.0931802E3,2.2177416E4,3.3024197E2,6.570134E3,1.5328939E4,3.2357855E4,1.9902977E2,5.238298E2,4.2030872E2,1.2784778E3,1.1864956E3,1.4184147E3,2.5671586E4,2.5042865E0,7.8849883E0,5.216186E-2,4.5009714E-2,4.5342255E-2,4.761041E-2,4.3331087E-2,4.6969023E-2,9.8960996E-2,1.3025017E4,1.7011191E3,9.118994E-2,1.3377048E0,1.8781656E1,7.067962E2,3.3511823E2,-3.6908904E-1,4.0056635E-2,6.861142E-2,4.1840192E2,6.037144E-2,8.019782E2,6.037144E-2,6.7529144E2,5.833585E2,1.2080931E3,1.1822424E-1,1.0388021E3,6.469765E2,7.4237897E2,8.1583565E-1,6.84367E0,7.2281934E-2,8.273093E-2,6.9100484E-2,1.1032919E3,9.483912E2,1.6083434E0,1.2236282E0,1.6401635E0,2.0518417E0,-5.17308E-1,-4.709413E-1,-4.276313E-1,-3.8080555E-1,-3.2016635E-1,-2.2907382E-1,-3.5073742E-1,-2.946326E-1,-2.26888E-1,-1.2275451E-1,-2.0829073E-1,8.426249E-3,-3.2732937E-2,2.9418787E-1,-1.9308916E-1,-1.0111109E-1,-6.64668E-2,1.0492529E-1,-2.2196786E-3,2.7597275E-1,2.1243016E-1,4.6244907E-1,1.700206E-2,1.439748E-1,1.4957161E-1,3.3504E-1,2.627618E-1,4.9758202E-1,3.3852234E-1,4.9365807E-1,5.538258E-1,7.1166337E-1,2.9294497E-1,7.7864945E-1,5.5442876E-1,1.1496879E0,7.1568996E-1,9.6338445E-1,9.0156436E-1,1.2044928E0],"split_indices":[6,6,6,7,6,6,6,7,7,0,7,7,7,6,0,11,14,14,14,14,14,14,13,6,7,14,0,11,0,6,0,14,14,7,14,7,14,7,7,7,13,7,7,0,0,16,14,13,13,7,7,0,0,0,0,0,0,0,0,0,0,0,0,0,0,0,0,0,0,0,0,0,0,0,0,0,0,0,0,0,0,0,0,0,0,0,0,0,0,0,0,0,0,0,0],"split_type":[0,0,0,0,0,0,0,0,0,0,0,0,0,0,0,0,0,0,0,0,0,0,0,0,0,0,0,0,0,0,0,0,0,0,0,0,0,0,0,0,0,0,0,0,0,0,0,0,0,0,0,0,0,0,0,0,0,0,0,0,0,0,0,0,0,0,0,0,0,0,0,0,0,0,0,0,0,0,0,0,0,0,0,0,0,0,0,0,0,0,0,0,0,0,0],"sum_hessian":[4.31E3,3.528E3,7.82E2,2.595E3,9.33E2,5.71E2,2.11E2,1.459E3,1.136E3,5.35E2,3.98E2,3.68E2,2.03E2,1.57E2,5.4E1,7.27E2,7.32E2,7.48E2,3.88E2,4.53E2,8.2E1,3.62E2,3.6E1,2.83E2,8.5E1,1.51E2,5.2E1,6.7E1,9E1,6.92E2,3.5E1,6.05E2,1.27E2,5.35E2,2.13E2,3.16E2,7.2E1,2.08E2,2.45E2,5E1,3.2E1,6.1E1,3.01E2,2.5E1,1.1E1,1.88E2,9.5E1,6.9E1,1.6E1,8.7E1,6.4E1,3.9E1,2.8E1,5.2E1,3.8E1,2.3E2,4.62E2,4.01E2,2.04E2,8.8E1,3.9E1,2.88E2,2.47E2,1.65E2,4.8E1,2.8E2,3.6E1,6.9E1,3E0,1.15E2,9.3E1,1.47E2,9.8E1,4.5E1,5E0,2.5E1,7E0,3.9E1,2.2E1,1.16E2,1.85E2,5E0,2E1,5E1,1.38E2,2.8E1,6.7E1,4E0,6.5E1,3E0,1.3E1,3.3E1,5.4E1,2.9E1,3.5E1],"tree_param":{"num_deleted":"0","num_feature":"17","num_nodes":"95","size_leaf_vector":"1"}},{"base_weights":[-5.0383425E-1,-1.1470181E1,5.1601437E1,-1.7172585E1,4.4059954E0,3.4453056E1,8.508702E1,-2.080805E1,-1.0788649E1,-1.5025213E0,1.2460356E1,2.7382261E1,4.47994E1,7.419617E1,1.14983765E2,-2.343314E1,-1.8389837E1,-1.2655664E1,-5.7150373E0,-4.414632E0,8.339985E0,6.8547316E0,2.1092278E1,2.2999218E1,4.1132046E1,4.1831833E1,1.3188537E0,6.3439674E1,8.1507904E1,1.7662991E0,2.4628518E0,-2.3667452E1,-1.6861555E1,-1.9643219E1,-1.4217468E1,-1.4374336E1,-8.179909E0,-6.6704116E0,8.271487E0,-7.8000693E0,-1.7129734E0,5.8672433E0,1.9645674E1,3.2655146E0,1.0081166E1,1.856661E1,2.9362705E1,1.639719E1,2.6235134E1,3.629213E1,9.930094E-1,3.2789608E1,4.498706E1,1.0313376E0,1.4105165E0,1.2812402E0,1.7523787E0,-5.0041217E-1,-4.5486948E-1,-3.505072E-1,-1.5949064E-1,-4.114927E-1,-3.594237E-1,-3.1161633E-1,-2.2309971E-1,-3.1517956E-1,-2.5350562E-1,-1.7190097E-1,1.8754886E-1,-1.661894E-1,-6.698934E-3,5.3692248E-2,2.3807676E-1,-1.9635129E-1,-9.832871E-2,-1.0599276E-1,2.5030695E-2,5.622742E-2,2.136771E-1,3.2172024E-1,5.702264E-1,-1.2962299E-2,1.0616569E-1,1.3771163E-1,2.763493E-1,2.4039516E-1,4.1664916E-1,3.519937E-1,6.3342655E-1,2.0709011E-1,3.7468094E-1,4.3935013E-1,6.2639844E-1,5.993896E-1,8.145744E-1,3.521316E-1,6.744989E-1,8.2191235E-1,9.8496205E-1],"categories":[],"categories_nodes":[],"categories_segments":[],"categories_sizes":[],"default_left":[0,0,0,0,0,0,0,0,0,0,0,0,0,0,0,0,0,0,0,0,0,0,0,0,0,0,0,0,0,0,0,0,0,0,0,0,0,0,0,0,0,0,0,0,0,0,0,0,0,0,0,0,0,0,0,0,0,0,0,0,0,0,0,0,0,0,0,0,0,0,0,0,0,0,0,0,0,0,0,0,0,0,0,0,0,0,0,0,0,0,0,0,0,0,0,0,0,0,0],"id":10,"left_children":[1,3,5,7,9,11,13,15,17,19,21,23,25,27,29,31,33,35,37,39,41,43,45,47,49,51,-1,53,55,-1,-1,57,59,61,63,65,67,69,71,73,75,77,79,81,83,85,87,89,91,93,-1,95,97,-1,-1,-1,-1,-1,-1,-1,-1,-1,-1,-1,-1,-1,-1,-1,-1,-1,-1,-1,-1,-1,-1,-1,-1,-1,-1,-1,-1,-1,-1,-1,-1,-1,-1,-1,-1,-1,-1,-1,-1,-1,-1,-1,-1,-1,-1],"loss_changes":[2.4713408E6,3.23549E5,4.2887262E5,6.0787688E4,4.4991727E4,3.5271312E4,7.4152375E4,1.01915E4,8.981555E3,1.5686133E4,1.920755E4,1.7067078E4,9.8423125E3,9.6793125E3,3.4641875E3,8.271875E2,4.2984375E3,5.2494297E3,3.5158662E3,3.8454248E3,3.3766875E3,2.7913564E3,2.7295078E3,4.4578203E3,1.1167031E3,3.6240312E3,0E0,3.1656875E3,5.9925625E3,0E0,0E0,3.8765625E2,4.0570312E1,6.71375E2,6.836211E2,9.8075E2,1.5091182E3,2.519712E3,3.1157324E2,1.0381729E3,2.5163535E3,1.499385E3,2.3119824E2,9.3928015E2,1.4310654E3,1.570918E3,3.8814062E2,9.04541E2,2.6050469E3,1.468125E2,0E0,1.1114453E2,1.226875E2,0E0,0E0,0E0,0E0,0E0,0E0,0E0,0E0,0E0,0E0,0E0,0E0,0E0,0E0,0E0,0E0,0E0,0E0,0E0,0E0,0E0,0E0,0E0,0E0,0E0,0E0,0E0,0E0,0E0,0E0,0E0,0E0,0E0,0E0,0E0,0E0,0E0,0E0,0E0,0E0,0E0,0E0,0E0,0E0,0E0,0E0],"parents":[2147483647,0,0,1,1,2,2,3,3,4,4,5,5,6,6,7,7,8,8,9,9,10,10,11,11,12,12,13,13,14,14,15,15,16,16,17,17,18,18,19,19,20,20,21,21,22,22,23,23,24,24,25,25,27,27,28,28,31,31,32,32,33,33,34,34,35,35,36,36,37,37,38,38,39,39,40,40,41,41,42,42,43,43,44,44,45,45,46,46,47,47,48,48,49,49,51,51,52,52],"right_children":[2,4,6,8,10,12,14,16,18,20,22,24,26,28,30,32,34,36,38,40,42,44,46,48,50,52,-1,54,56,-1,-1,58,60,62,64,66,68,70,72,74,76,78,80,82,84,86,88,90,92,94,-1,96,98,-1,-1,-1,-1,-1,-1,-1,-1,-1,-1,-1,-1,-1,-1,-1,-1,-1,-1,-1,-1,-1,-1,-1,-1,-1,-1,-1,-1,-1,-1,-1,-1,-1,-1,-1,-1,-1,-1,-1,-1,-1,-1,-1,-1,-1,-1],"split_conditions":[9.837746E3,4.0931802E3,1.8968879E4,3.7713052E2,6.570134E3,1.4119561E4,3.0260146E4,2.1137039E2,5.8549475E2,7.1785534E-3,6.4662388E-3,6.3851667E-3,6.362207E-3,2.3058887E4,4.715648E-3,1.4901765E3,4.828964E-2,4.4429354E-2,1.01793054E3,5.4874048E-3,9.829868E-3,8.010066E3,8.299753E-3,5.1724594E-3,1.1814875E4,5.017533E-3,1.3188537E0,5.095636E-3,4.636129E-3,1.7662991E0,2.4628518E0,1.1849271E2,8.5411504E-2,3.1083047E2,6.1306678E-2,4.694689E2,7.262979E-2,4.3976523E-2,2.549198E3,5.4742383E3,5.0805776E3,5.4156284E3,9.2851666E2,5.069577E-3,5.4705013E-3,7.391662E3,7.054774E3,1.093611E4,1.2102454E4,7.1785534E-3,9.930094E-1,4.2506754E-3,1.6142869E4,1.0313376E0,1.4105165E0,1.2812402E0,1.7523787E0,-5.0041217E-1,-4.5486948E-1,-3.505072E-1,-1.5949064E-1,-4.114927E-1,-3.594237E-1,-3.1161633E-1,-2.2309971E-1,-3.1517956E-1,-2.5350562E-1,-1.7190097E-1,1.8754886E-1,-1.661894E-1,-6.698934E-3,5.3692248E-2,2.3807676E-1,-1.9635129E-1,-9.832871E-2,-1.0599276E-1,2.5030695E-2,5.622742E-2,2.136771E-1,3.2172024E-1,5.702264E-1,-1.2962299E-2,1.0616569E-1,1.3771163E-1,2.763493E-1,2.4039516E-1,4.1664916E-1,3.519937E-1,6.3342655E-1,2.0709011E-1,3.7468094E-1,4.3935013E-1,6.2639844E-1,5.993896E-1,8.145744E-1,3.521316E-1,6.744989E-1,8.2191235E-1,9.8496205E-1],"split_indices":[6,6,6,7,6,6,6,7,7,12,12,12,12,6,12,6,14,14,7,12,12,6,12,12,6,12,0,12,12,0,0,7,14,7,14,7,14,14,6,6,6,6,7,12,12,6,6,6,6,12,0,12,6,0,0,0,0,0,0,0,0,0,0,0,0,0,0,0,0,0,0,0,0,0,0,0,0,0,0,0,0,0,0,0,0,0,0,0,0,0,0,0,0,0,0,0,0,0,0],"split_type":[0,0,0,0,0,0,0,0,0,0,0,0,0,0,0,0,0,0,0,0,0,0,0,0,0,0,0,0,0,0,0,0,0,0,0,0,0,0,0,0,0,0,0,0,0,0,0,0,0,0,0,0,0,0,0,0,0,0,0,0,0,0,0,0,0,0,0,0,0,0,0,0,0,0,0,0,0,0,0,0,0,0,0,0,0,0,0,0,0,0,0,0,0,0,0,0,0,0,0],"sum_hessian":[4.323E3,3.572E3,7.51E2,2.628E3,9.44E2,4.98E2,2.53E2,1.673E3,9.55E2,5.45E2,3.99E2,2.98E2,2E2,1.88E2,6.5E1,7.98E2,8.75E2,6.97E2,2.58E2,4.21E2,1.24E2,2.43E2,1.56E2,2.28E2,7E1,1.78E2,2.2E1,8E1,1.08E2,1.8E1,4.7E1,7.68E2,3E1,6.7E2,2.05E2,5.02E2,1.95E2,2.42E2,1.6E1,1.86E2,2.35E2,1.03E2,2.1E1,1.16E2,1.27E2,1.22E2,3.4E1,7.7E1,1.51E2,4.8E1,2.2E1,4.9E1,1.29E2,3.3E1,4.7E1,3.1E1,7.7E1,3.01E2,4.67E2,2.7E1,3E0,4.23E2,2.47E2,1.39E2,6.6E1,2.72E2,2.3E2,1.91E2,4E0,1.92E2,5E1,7E0,9E0,1.08E2,7.8E1,1.06E2,1.29E2,6.4E1,3.9E1,1.7E1,4E0,4E1,7.6E1,7E1,5.7E1,3.3E1,8.9E1,7E0,2.7E1,2.3E1,5.4E1,8.5E1,6.6E1,2.3E1,2.5E1,4E0,4.5E1,7.3E1,5.6E1],"tree_param":{"num_deleted":"0","num_feature":"17","num_nodes":"99","size_leaf_vector":"1"}},{"base_weights":[5.4284775E-1,-1.1659268E1,4.9010273E1,-1.6865942E1,3.526685E0,3.1828926E1,8.3562355E1,-2.0890635E1,-1.1319918E1,-2.2585013E0,1.08999E1,2.4399124E1,4.121757E1,7.225573E1,1.1370354E2,-2.3203867E1,-1.8689795E1,-1.3006694E1,-5.6029086E0,-5.5293393E0,5.120594E0,6.4504113E0,2.206558E1,2.0938114E1,4.339381E1,3.6411556E1,5.097217E1,6.1616306E1,7.9571365E1,1.874744E0,2.4937024E0,-4.8511648E-1,-2.1884407E1,-1.9707691E1,-1.4956736E1,-1.4541247E1,-8.9598675E0,-6.8378E0,5.1053157E0,-8.27215E0,-3.1304677E0,3.3572776E0,1.6497452E1,2.431453E0,9.348334E0,1.9108797E1,7.012081E-1,1.4231449E1,2.5164236E1,7.73179E-1,1.5461752E0,3.1827744E1,4.0888126E1,9.158177E-1,1.1736063E0,9.1021323E-1,1.329287E0,1.319467E0,1.7463012E0,-4.4473824E-1,-3.5300076E-1,-4.1155833E-1,-3.6657155E-1,-3.1917354E-1,-2.2513096E-1,-3.2187235E-1,-2.5318062E-1,-1.8540722E-1,2.1751115E-1,-1.7228293E-1,-2.0853924E-2,4.212079E-2,2.947046E-1,-1.9341554E-1,-1.0633864E-1,-1.18719816E-1,-1.2710278E-2,-9.020009E-3,1.2699181E-1,2.4133624E-1,4.3245116E-1,3.4646466E-3,1.2077069E-1,1.14082426E-1,2.5152764E-1,2.832671E-1,4.2852437E-1,1.8146306E-1,3.4177643E-1,4.0335697E-1,5.579089E-1,4.2614397E-1,6.6651845E-1,5.6299233E-1,8.5237706E-1],"categories":[],"categories_nodes":[],"categories_segments":[],"categories_sizes":[],"default_left":[0,0,0,0,0,0,0,0,0,0,0,0,0,0,0,0,0,0,0,0,0,0,0,0,0,0,0,0,0,0,0,0,0,0,0,0,0,0,0,0,0,0,0,0,0,0,0,0,0,0,0,0,0,0,0,0,0,0,0,0,0,0,0,0,0,0,0,0,0,0,0,0,0,0,0,0,0,0,0,0,0,0,0,0,0,0,0,0,0,0,0,0,0,0,0],"id":11,"left_children":[1,3,5,7,9,11,13,15,17,19,21,23,25,27,29,31,33,35,37,39,41,43,45,47,49,51,53,55,57,-1,-1,-1,59,61,63,65,67,69,71,73,75,77,79,81,83,85,-1,87,89,-1,-1,91,93,-1,-1,-1,-1,-1,-1,-1,-1,-1,-1,-1,-1,-1,-1,-1,-1,-1,-1,-1,-1,-1,-1,-1,-1,-1,-1,-1,-1,-1,-1,-1,-1,-1,-1,-1,-1,-1,-1,-1,-1,-1,-1],"loss_changes":[2.528832E6,2.7015812E5,5.0786875E5,5.6545E4,3.7263668E4,3.9167125E4,8.889225E4,7.0613125E3,1.0262906E4,1.1854908E4,1.893254E4,2.0384984E4,9.996125E3,1.1428E4,4.9544375E3,4.5559375E2,2.5896875E3,5.0030938E3,3.2880615E3,2.210045E3,2.971839E3,3.1905615E3,3.5127188E3,7.460664E3,4.8682656E3,2.2412812E3,5.375156E2,3.9912188E3,6.9654375E3,0E0,0E0,0E0,9.1609375E1,3.318125E2,4.3676953E2,1.5406953E3,1.5171738E3,2.2650518E3,7.1823486E2,6.0013574E2,1.2765067E3,1.5076674E3,1.8986572E2,9.513664E2,1.808627E3,7.3589453E2,0E0,1.4489043E3,1.7251484E3,0E0,0E0,7.03E2,6.451719E2,0E0,0E0,0E0,0E0,0E0,0E0,0E0,0E0,0E0,0E0,0E0,0E0,0E0,0E0,0E0,0E0,0E0,0E0,0E0,0E0,0E0,0E0,0E0,0E0,0E0,0E0,0E0,0E0,0E0,0E0,0E0,0E0,0E0,0E0,0E0,0E0,0E0,0E0,0E0,0E0,0E0,0E0],"parents":[2147483647,0,0,1,1,2,2,3,3,4,4,5,5,6,6,7,7,8,8,9,9,10,10,11,11,12,12,13,13,14,14,15,15,16,16,17,17,18,18,19,19,20,20,21,21,22,22,23,23,24,24,25,25,26,26,27,27,28,28,32,32,33,33,34,34,35,35,36,36,37,37,38,38,39,39,40,40,41,41,42,42,43,43,44,44,45,45,47,47,48,48,51,51,52,52],"right_children":[2,4,6,8,10,12,14,16,18,20,22,24,26,28,30,32,34,36,38,40,42,44,46,48,50,52,54,56,58,-1,-1,-1,60,62,64,66,68,70,72,74,76,78,80,82,84,86,-1,88,90,-1,-1,92,94,-1,-1,-1,-1,-1,-1,-1,-1,-1,-1,-1,-1,-1,-1,-1,-1,-1,-1,-1,-1,-1,-1,-1,-1,-1,-1,-1,-1,-1,-1,-1,-1,-1,-1,-1,-1,-1,-1,-1,-1,-1,-1],"split_conditions":[9.1406045E3,4.0931802E3,1.8968879E4,3.4169055E2,6.3597036E3,1.3296787E4,3.0260146E4,1.9902977E2,5.8549475E2,6.7458143E-3,6.796716E-3,7.00952E-3,5.742743E-3,2.3058887E4,4.84076E-3,1.3226016E2,1.1262283E-1,9.495681E-2,8.9601135E2,5.39458E-3,9.495019E-3,5.4705013E-3,9.21703E-3,5.3635254E-3,1.0121707E-2,1.5722449E4,6.362207E-3,4.888332E-3,4.888332E-3,1.874744E0,2.4937024E0,-4.8511648E-1,1.2860923E3,2.8781192E2,2.6796997E3,4.5665814E2,1.992131E-1,8.601006E-2,1.3612192E3,5.5508247E3,4.9938774E3,4.7735474E3,5.3300977E3,8.010066E3,7.4951543E3,7.391662E3,7.012081E-1,1.041065E4,1.0319097E4,7.73179E-1,1.5461752E0,4.6850652E-3,4.5648133E-3,9.158177E-1,1.1736063E0,9.1021323E-1,1.329287E0,1.319467E0,1.7463012E0,-4.4473824E-1,-3.5300076E-1,-4.1155833E-1,-3.6657155E-1,-3.1917354E-1,-2.2513096E-1,-3.2187235E-1,-2.5318062E-1,-1.8540722E-1,2.1751115E-1,-1.7228293E-1,-2.0853924E-2,4.212079E-2,2.947046E-1,-1.9341554E-1,-1.0633864E-1,-1.18719816E-1,-1.2710278E-2,-9.020009E-3,1.2699181E-1,2.4133624E-1,4.3245116E-1,3.4646466E-3,1.2077069E-1,1.14082426E-1,2.5152764E-1,2.832671E-1,4.2852437E-1,1.8146306E-1,3.4177643E-1,4.0335697E-1,5.579089E-1,4.2614397E-1,6.6651845E-1,5.6299233E-1,8.5237706E-1],"split_indices":[6,6,6,7,6,6,6,7,7,12,12,12,12,6,12,7,13,13,7,12,12,12,12,12,12,6,12,12,12,0,0,0,6,7,6,7,13,13,7,6,6,6,6,6,6,6,0,6,6,0,0,12,12,0,0,0,0,0,0,0,0,0,0,0,0,0,0,0,0,0,0,0,0,0,0,0,0,0,0,0,0,0,0,0,0,0,0,0,0,0,0,0,0,0,0],"split_type":[0,0,0,0,0,0,0,0,0,0,0,0,0,0,0,0,0,0,0,0,0,0,0,0,0,0,0,0,0,0,0,0,0,0,0,0,0,0,0,0,0,0,0,0,0,0,0,0,0,0,0,0,0,0,0,0,0,0,0,0,0,0,0,0,0,0,0,0,0,0,0,0,0,0,0,0,0,0,0,0,0,0,0,0,0,0,0,0,0,0,0,0,0,0,0],"sum_hessian":[4.274E3,3.415E3,8.59E2,2.543E3,8.72E2,5.75E2,2.84E2,1.472E3,1.071E3,4.89E2,3.83E2,3.23E2,2.52E2,2.09E2,7.5E1,7.13E2,7.59E2,8.26E2,2.45E2,3.39E2,1.5E2,2.75E2,1.08E2,2.75E2,4.8E1,1.72E2,8E1,8.9E1,1.2E2,3E1,4.5E1,3.87E2,3.26E2,5.93E2,1.66E2,5.97E2,2.29E2,2.2E2,2.5E1,1.57E2,1.82E2,1.31E2,1.9E1,1.16E2,1.59E2,9E1,1.8E1,1.08E2,1.67E2,4.4E1,4E0,8.9E1,8.3E1,5.2E1,2.8E1,2.3E1,6.6E1,4.7E1,7.3E1,2.97E2,2.9E1,3.55E2,2.38E2,1.28E2,3.8E1,3.23E2,2.74E2,2.26E2,3E0,1.68E2,5.2E1,2E1,5E0,1.05E2,5.2E1,8.5E1,9.7E1,5.8E1,7.3E1,1.2E1,7E0,7.2E1,4.4E1,7.6E1,8.3E1,3.1E1,5.9E1,4E1,6.8E1,6.2E1,1.05E2,1.3E1,7.6E1,1.2E1,7.1E1],"tree_param":{"num_deleted":"0","num_feature":"17","num_nodes":"95","size_leaf_vector":"1"}},{"base_weights":[9.761584E-2,-1.1584936E1,4.7295128E1,-1.7122421E1,1.8156346E0,3.1908915E1,8.247586E1,-2.0626198E1,-1.1818246E1,-3.3599098E0,1.0446143E1,2.4410488E1,4.306895E1,7.082071E1,1.0536316E2,-2.273471E1,-1.8486448E1,-1.3805845E1,-7.855264E0,-5.7075534E0,6.542655E0,6.196831E0,2.215377E1,2.0960396E1,4.2971718E1,3.7827534E1,5.41017E1,6.754339E1,1.97913E0,1.7179127E0,2.3098915E0,-2.4104326E1,-2.1671238E1,-1.9311213E1,-1.3899784E1,-1.4888386E1,-8.641504E0,-8.850825E0,9.522309E-1,-7.867733E0,-2.4652975E0,4.009494E0,1.7755083E1,3.731579E0,1.1303896E1,1.8653522E1,6.4912987E-1,1.3286025E1,2.4674932E1,7.776413E-1,1.5214363E0,3.0267504E1,4.043118E1,8.5759896E-1,1.166395E0,1.1202894E0,7.18804E1,-4.8885366E-1,-3.8503623E-1,-4.499684E-1,-3.9278853E-1,-4.0489188E-1,-3.6072585E-1,-3.0044633E-1,-2.1031281E-1,-3.1224698E-1,-2.550845E-1,-1.9127485E-1,-8.194254E-2,-2.026745E-1,-6.952854E-2,-2.5487116E-2,1.2866949E-1,-1.9946653E-1,-9.593013E-2,-1.2856285E-1,4.5609623E-3,6.7771845E-3,1.5953743E-1,2.6634923E-1,6.031902E-1,2.8851088E-2,1.4695604E-1,1.5919912E-1,3.0207452E-1,2.605072E-1,4.0796092E-1,1.6312101E-1,3.452179E-1,4.2464316E-1,5.898995E-1,3.0304423E-1,6.2687814E-1,7.111263E-1,9.021623E-1,1.2169564E0,1.5525852E0],"categories":[],"categories_nodes":[],"categories_segments":[],"categories_sizes":[],"default_left":[0,0,0,0,0,0,0,0,0,0,0,0,0,0,0,0,0,0,0,0,0,0,0,0,0,0,0,0,0,0,0,0,0,0,0,0,0,0,0,0,0,0,0,0,0,0,0,0,0,0,0,0,0,0,0,0,0,0,0,0,0,0,0,0,0,0,0,0,0,0,0,0,0,0,0,0,0,0,0,0,0,0,0,0,0,0,0,0,0,0,0,0,0,0,0,0,0],"id":12,"left_children":[1,3,5,7,9,11,13,15,17,19,21,23,25,27,29,31,33,35,37,39,41,43,45,47,49,51,53,55,-1,-1,-1,57,59,61,63,65,67,69,71,73,75,77,79,81,83,85,-1,87,89,-1,-1,91,93,-1,-1,-1,95,-1,-1,-1,-1,-1,-1,-1,-1,-1,-1,-1,-1,-1,-1,-1,-1,-1,-1,-1,-1,-1,-1,-1,-1,-1,-1,-1,-1,-1,-1,-1,-1,-1,-1,-1,-1,-1,-1,-1,-1],"loss_changes":[2.3621435E6,2.5485416E5,4.5746038E5,4.4913688E4,4.4926727E4,4.856575E4,6.134325E4,6.1716875E3,7.5220156E3,1.4660057E4,1.861539E4,2.1954453E4,1.1649344E4,9.344E3,6.82425E3,5.3921875E2,2.4935469E3,3.4693438E3,2.8677188E3,3.5445312E3,3.3633838E3,3.4563906E3,2.995668E3,8.305922E3,4.4759062E3,1.9972969E3,9.9184375E2,3.9110625E3,0E0,0E0,0E0,3.5703125E1,2.631875E2,3.6526562E2,2.763418E2,6.1846094E2,4.372246E2,1.9835879E3,4.236662E2,1.9230469E3,2.1901152E3,1.4527449E3,8.050205E2,1.552992E3,1.0210449E3,4.8698633E2,0E0,1.916168E3,2.737336E3,0E0,0E0,2.6884766E2,1.1011875E3,0E0,0E0,0E0,2.366125E3,0E0,0E0,0E0,0E0,0E0,0E0,0E0,0E0,0E0,0E0,0E0,0E0,0E0,0E0,0E0,0E0,0E0,0E0,0E0,0E0,0E0,0E0,0E0,0E0,0E0,0E0,0E0,0E0,0E0,0E0,0E0,0E0,0E0,0E0,0E0,0E0,0E0,0E0,0E0,0E0],"parents":[2147483647,0,0,1,1,2,2,3,3,4,4,5,5,6,6,7,7,8,8,9,9,10,10,11,11,12,12,13,13,14,14,15,15,16,16,17,17,18,18,19,19,20,20,21,21,22,22,23,23,24,24,25,25,26,26,27,27,31,31,32,32,33,33,34,34,35,35,36,36,37,37,38,38,39,39,40,40,41,41,42,42,43,43,44,44,45,45,47,47,48,48,51,51,52,52,56,56],"right_children":[2,4,6,8,10,12,14,16,18,20,22,24,26,28,30,32,34,36,38,40,42,44,46,48,50,52,54,56,-1,-1,-1,58,60,62,64,66,68,70,72,74,76,78,80,82,84,86,-1,88,90,-1,-1,92,94,-1,-1,-1,96,-1,-1,-1,-1,-1,-1,-1,-1,-1,-1,-1,-1,-1,-1,-1,-1,-1,-1,-1,-1,-1,-1,-1,-1,-1,-1,-1,-1,-1,-1,-1,-1,-1,-1,-1,-1,-1,-1,-1,-1],"split_conditions":[9.1406045E3,3.629977E3,1.95127E4,3.3899228E2,6.2468237E3,1.3819085E4,2.884615E4,1.9902977E2,5.238298E2,7.515727E-3,7.0297746E-3,7.00952E-3,5.7583763E-3,6.10644E-3,4.80457E-3,1.1849271E2,5.216186E-2,4.9855694E-2,7.808384E2,4.9938774E3,9.829868E-3,6.0804407E-3,9.144096E-3,5.188921E-3,9.650954E-3,4.84076E-3,1.5328939E4,2.2177416E4,1.97913E0,1.7179127E0,2.3098915E0,7.197286E-2,5.0827794E-2,3.755581E-2,6.8254955E-2,4.075569E-2,6.574106E-2,4.3813843E-2,5.2538214E2,6.0804407E-3,5.377711E-3,4.7735474E3,1.323768E-2,7.8589727E3,7.8589727E3,7.054774E3,6.4912987E-1,1.093611E4,1.1647826E4,7.776413E-1,1.5214363E0,4.2506754E-3,1.6142869E4,8.5759896E-1,1.166395E0,1.1202894E0,4.84076E-3,-4.8885366E-1,-3.8503623E-1,-4.499684E-1,-3.9278853E-1,-4.0489188E-1,-3.6072585E-1,-3.0044633E-1,-2.1031281E-1,-3.1224698E-1,-2.550845E-1,-1.9127485E-1,-8.194254E-2,-2.026745E-1,-6.952854E-2,-2.5487116E-2,1.2866949E-1,-1.9946653E-1,-9.593013E-2,-1.2856285E-1,4.5609623E-3,6.7771845E-3,1.5953743E-1,2.6634923E-1,6.031902E-1,2.8851088E-2,1.4695604E-1,1.5919912E-1,3.0207452E-1,2.605072E-1,4.0796092E-1,1.6312101E-1,3.452179E-1,4.2464316E-1,5.898995E-1,3.0304423E-1,6.2687814E-1,7.111263E-1,9.021623E-1,1.2169564E0,1.5525852E0],"split_indices":[6,6,6,7,6,6,6,7,7,12,12,12,12,12,12,7,14,14,7,6,12,12,12,12,12,12,6,6,0,0,0,14,14,14,14,14,14,14,0,12,12,6,12,6,6,6,0,6,6,0,0,12,6,0,0,0,12,0,0,0,0,0,0,0,0,0,0,0,0,0,0,0,0,0,0,0,0,0,0,0,0,0,0,0,0,0,0,0,0,0,0,0,0,0,0,0,0],"split_type":[0,0,0,0,0,0,0,0,0,0,0,0,0,0,0,0,0,0,0,0,0,0,0,0,0,0,0,0,0,0,0,0,0,0,0,0,0,0,0,0,0,0,0,0,0,0,0,0,0,0,0,0,0,0,0,0,0,0,0,0,0,0,0,0,0,0,0,0,0,0,0,0,0,0,0,0,0,0,0,0,0,0,0,0,0,0,0,0,0,0,0,0,0,0,0,0,0],"sum_hessian":[4.282E3,3.433E3,8.49E2,2.429E3,1.004E3,5.92E2,2.57E2,1.461E3,9.68E2,6.28E2,3.76E2,3.56E2,2.36E2,1.73E2,8.4E1,7.31E2,7.3E2,6.43E2,3.25E2,5.08E2,1.2E2,2.77E2,9.9E1,3.02E2,5.4E1,1.63E2,7.3E1,1.58E2,1.5E1,3.2E1,5.2E1,3.1E2,4.21E2,6.16E2,1.14E2,5.3E2,1.13E2,2.92E2,3.3E1,3.04E2,2.04E2,9.9E1,2.1E1,1.88E2,8.9E1,7.6E1,2.3E1,1E2,2.02E2,5E1,4E0,4.5E1,1.18E2,2.3E1,5E1,4.7E1,1.11E2,2.86E2,2.4E1,2.92E2,1.29E2,3.47E2,2.69E2,8.3E1,3.1E1,3.91E2,1.39E2,9.3E1,2E1,2.35E2,5.7E1,2.4E1,9E0,1.79E2,1.25E2,8.2E1,1.22E2,5.2E1,4.7E1,1.7E1,4E0,1.16E2,7.2E1,4.9E1,4E1,2E1,5.6E1,4.5E1,5.5E1,1.21E2,8.1E1,4E0,4.1E1,6.2E1,5.6E1,4.2E1,6.9E1],"tree_param":{"num_deleted":"0","num_feature":"17","num_nodes":"97","size_leaf_vector":"1"}},{"base_weights":[2.1763253E-1,-1.0743564E1,4.934713E1,-1.6459301E1,3.5024295E0,3.2311142E1,7.972681E1,-1.9429272E1,-1.0474579E1,-2.1220074E0,1.1972594E1,2.5728317E1,4.2106003E1,6.797368E1,1.0431701E2,-2.1792181E1,-1.6811249E1,-1.1944983E1,-4.786823E0,-4.673846E0,7.834121E0,7.429098E0,2.2975733E1,2.1872404E1,3.8072754E1,3.6088856E1,5.2160885E1,6.481208E1,1.9377428E0,1.7380139E0,2.3232343E0,-4.574377E-1,-2.0060658E1,-1.832877E1,-1.4760861E1,-1.3349663E1,-7.8330073E0,-5.8909144E0,9.247453E0,-7.2377462E0,-1.5235181E0,5.7031293E0,2.0060902E1,5.04043E0,1.3017119E1,2.0596817E1,8.083001E-1,1.8201582E1,2.7754662E1,6.0461897E-1,8.239678E-1,6.1261255E-1,7.898179E-1,9.311177E-1,1.2763644E0,5.66074E1,7.114407E1,-4.1736338E-1,-3.6943382E-1,-3.8983512E-1,-3.4610996E-1,-3.2032824E-1,-2.33928E-1,-2.9185727E-1,-2.3276785E-1,-1.8613613E-1,-1.0180502E-1,-1.4795603E-1,-8.344798E-4,8.455595E-2,2.8764835E-1,-1.9451734E-1,-9.351493E-2,-8.7090224E-2,4.9483627E-2,3.0318204E-2,1.8425493E-1,1.6350105E-1,4.37728E-1,4.753434E-2,1.6396768E-1,2.0428455E-1,3.5133716E-1,3.0674288E-1,4.601224E-1,2.5243166E-1,4.1393927E-1,3.6181408E-1,6.065898E-1,8.662958E-1,1.2151555E0,1.1999898E0,1.5422883E0],"categories":[],"categories_nodes":[],"categories_segments":[],"categories_sizes":[],"default_left":[0,0,0,0,0,0,0,0,0,0,0,0,0,0,0,0,0,0,0,0,0,0,0,0,0,0,0,0,0,0,0,0,0,0,0,0,0,0,0,0,0,0,0,0,0,0,0,0,0,0,0,0,0,0,0,0,0,0,0,0,0,0,0,0,0,0,0,0,0,0,0,0,0,0,0,0,0,0,0,0,0,0,0,0,0,0,0,0,0,0,0,0,0],"id":13,"left_children":[1,3,5,7,9,11,13,15,17,19,21,23,25,27,29,31,33,35,37,39,41,43,45,47,49,51,53,55,-1,-1,-1,-1,57,59,61,63,65,67,69,71,73,75,77,79,81,83,-1,85,87,-1,-1,-1,-1,-1,-1,89,91,-1,-1,-1,-1,-1,-1,-1,-1,-1,-1,-1,-1,-1,-1,-1,-1,-1,-1,-1,-1,-1,-1,-1,-1,-1,-1,-1,-1,-1,-1,-1,-1,-1,-1,-1,-1],"loss_changes":[2.314546E6,2.861912E5,4.0317025E5,4.437175E4,4.7999773E4,3.140675E4,7.410425E4,9.991625E3,6.9161406E3,1.5432597E4,1.9923344E4,1.3631375E4,1.0269594E4,1.1347E4,8.245125E3,1.1764688E3,2.2122188E3,3.7170312E3,2.7347969E3,3.8893486E3,3.1138555E3,3.750088E3,4.0154102E3,4.542922E3,4.8764844E2,1.1787812E3,1.7876094E3,5.1554375E3,0E0,0E0,0E0,0E0,5.3265625E1,2.0048438E2,1.1373125E3,8.742422E2,6.42416E2,1.4180127E3,2.7241785E2,1.6487188E3,2.4781682E3,1.5573843E3,2.0862793E2,1.6786577E3,9.017461E2,9.7389453E2,0E0,1.7823008E3,1.6361875E3,0E0,0E0,0E0,0E0,0E0,0E0,1.8817812E3,1.7470312E3,0E0,0E0,0E0,0E0,0E0,0E0,0E0,0E0,0E0,0E0,0E0,0E0,0E0,0E0,0E0,0E0,0E0,0E0,0E0,0E0,0E0,0E0,0E0,0E0,0E0,0E0,0E0,0E0,0E0,0E0,0E0,0E0,0E0,0E0,0E0,0E0],"parents":[2147483647,0,0,1,1,2,2,3,3,4,4,5,5,6,6,7,7,8,8,9,9,10,10,11,11,12,12,13,13,14,14,15,15,16,16,17,17,18,18,19,19,20,20,21,21,22,22,23,23,24,24,25,25,26,26,27,27,32,32,33,33,34,34,35,35,36,36,37,37,38,38,39,39,40,40,41,41,42,42,43,43,44,44,45,45,47,47,48,48,55,55,56,56],"right_children":[2,4,6,8,10,12,14,16,18,20,22,24,26,28,30,32,34,36,38,40,42,44,46,48,50,52,54,56,-1,-1,-1,-1,58,60,62,64,66,68,70,72,74,76,78,80,82,84,-1,86,88,-1,-1,-1,-1,-1,-1,90,92,-1,-1,-1,-1,-1,-1,-1,-1,-1,-1,-1,-1,-1,-1,-1,-1,-1,-1,-1,-1,-1,-1,-1,-1,-1,-1,-1,-1,-1,-1,-1,-1,-1,-1,-1,-1],"split_conditions":[9.837746E3,3.8655923E3,1.8968879E4,1.825948E2,6.570134E3,1.4119561E4,2.884615E4,9.20693E2,2.999494E2,7.515727E-3,6.796716E-3,6.3851667E-3,5.742743E-3,6.3851667E-3,4.9056164E-3,7.890909E1,4.3976523E-2,4.3331087E-2,5.2538214E2,5.1779717E3,1.0433425E-2,6.062189E-3,9.437062E-3,1.236864E4,6.921312E-3,5.017533E-3,6.534635E-3,2.3058887E4,1.9377428E0,1.7380139E0,2.3232343E0,-4.574377E-1,4.0056635E-2,1.385E2,2.3584995E3,2.4042857E2,5.277937E-2,8.512785E-2,6.65125E2,5.7583763E-3,5.773295E-3,4.7735474E3,4.1277495E3,8.0624062E3,8.321403E3,7.4951543E3,8.083001E-1,5.1181465E-3,5.017533E-3,6.0461897E-1,8.239678E-1,6.1261255E-1,7.898179E-1,9.311177E-1,1.2763644E0,4.888332E-3,4.84076E-3,-4.1736338E-1,-3.6943382E-1,-3.8983512E-1,-3.4610996E-1,-3.2032824E-1,-2.33928E-1,-2.9185727E-1,-2.3276785E-1,-1.8613613E-1,-1.0180502E-1,-1.4795603E-1,-8.344798E-4,8.455595E-2,2.8764835E-1,-1.9451734E-1,-9.351493E-2,-8.7090224E-2,4.9483627E-2,3.0318204E-2,1.8425493E-1,1.6350105E-1,4.37728E-1,4.753434E-2,1.6396768E-1,2.0428455E-1,3.5133716E-1,3.0674288E-1,4.601224E-1,2.5243166E-1,4.1393927E-1,3.6181408E-1,6.065898E-1,8.662958E-1,1.2151555E0,1.1999898E0,1.5422883E0],"split_indices":[6,6,6,0,6,6,6,6,0,12,12,12,12,12,12,0,14,14,0,6,12,12,12,6,12,12,12,6,0,0,0,0,14,0,6,0,14,13,0,12,12,6,6,6,6,6,0,12,12,0,0,0,0,0,0,12,12,0,0,0,0,0,0,0,0,0,0,0,0,0,0,0,0,0,0,0,0,0,0,0,0,0,0,0,0,0,0,0,0,0,0,0,0],"split_type":[0,0,0,0,0,0,0,0,0,0,0,0,0,0,0,0,0,0,0,0,0,0,0,0,0,0,0,0,0,0,0,0,0,0,0,0,0,0,0,0,0,0,0,0,0,0,0,0,0,0,0,0,0,0,0,0,0,0,0,0,0,0,0,0,0,0,0,0,0,0,0,0,0,0,0,0,0,0,0,0,0,0,0,0,0,0,0,0,0,0,0,0,0],"sum_hessian":[4.296E3,3.513E3,7.83E2,2.507E3,1.006E3,5.03E2,2.8E2,1.674E3,8.33E2,6.05E2,4.01E2,3.03E2,2E2,1.92E2,8.8E1,8.76E2,7.98E2,6.61E2,1.72E2,4.82E2,1.23E2,2.85E2,1.16E2,2.33E2,7E1,1.28E2,7.2E1,1.76E2,1.6E1,3.9E1,4.9E1,5.32E2,3.44E2,4.54E2,3.44E2,4.91E2,1.7E2,1.6E2,1.2E1,2.65E2,2.17E2,1.06E2,1.7E1,2.01E2,8.4E1,1.04E2,1.2E1,1.46E2,8.7E1,2.3E1,4.7E1,5.3E1,7.5E1,5.2E1,2E1,8.1E1,9.5E1,2.2E2,1.24E2,2.04E2,2.5E2,2.41E2,1.03E2,2.8E2,2.11E2,1.09E2,6.1E1,1.27E2,3.3E1,7E0,5E0,1.33E2,1.32E2,1.27E2,9E1,4.9E1,5.7E1,3E0,1.4E1,1.1E2,9.1E1,5.4E1,3E1,3.5E1,6.9E1,4.7E1,9.9E1,2E1,6.7E1,2.2E1,5.9E1,3.7E1,5.8E1],"tree_param":{"num_deleted":"0","num_feature":"17","num_nodes":"93","size_leaf_vector":"1"}},{"base_weights":[-8.195374E-2,-1.10381E1,4.487198E1,-1.6298708E1,1.772336E0,3.1637165E1,8.442601E1,-1.9630922E1,-1.1185695E1,-3.1748543E0,1.0074455E1,2.56782E1,4.6408615E1,7.515013E1,1.14357635E2,-2.1591E1,-1.7401848E1,-1.2479468E1,-5.228992E0,-5.5098033E0,6.2634716E0,6.1237755E0,2.0385145E1,1.7719122E1,3.1135548E1,4.032066E1,5.6906586E1,7.068323E1,1.9651546E0,1.4852929E0,2.3877802E0,-4.5556846E-1,-2.0423267E1,-1.7909594E1,-1.2417964E1,-1.4433081E1,-1.1258207E1,-6.434934E0,9.09184E0,-7.6201096E0,-2.2213316E0,4.2597213E0,2.0800575E1,3.8245103E0,1.1367573E1,1.6492508E1,5.582278E-1,1.1617241E1,2.3381144E1,2.8018896E1,4.2966003E1,7.0352226E-1,9.0772957E-1,1.0190362E0,1.319085E0,1.2549696E0,1.5849544E0,-4.1227347E-1,-2.8975078E-1,-3.7272537E-1,-3.3726448E-1,-2.873854E-1,-2.0784047E-1,-3.0235934E-1,-2.523057E-1,-2.478235E-1,-1.8991336E-1,-1.654719E-1,-6.339302E-2,9.4065525E-2,2.8285423E-1,-1.8810518E-1,-9.136096E-2,-1.19751096E-1,1.0015097E-2,1.773789E-2,1.8519108E-1,2.0919965E-1,4.7201583E-1,3.114932E-2,1.4233266E-1,1.6375422E-1,2.915746E-1,2.17314E-1,3.6675155E-1,1.1717977E-1,2.8614756E-1,3.3268914E-1,5.032155E-1,4.2119324E-1,6.799784E-1,7.796222E-1,1.4840351E0],"categories":[],"categories_nodes":[],"categories_segments":[],"categories_sizes":[],"default_left":[0,0,0,0,0,0,0,0,0,0,0,0,0,0,0,0,0,0,0,0,0,0,0,0,0,0,0,0,0,0,0,0,0,0,0,0,0,0,0,0,0,0,0,0,0,0,0,0,0,0,0,0,0,0,0,0,0,0,0,0,0,0,0,0,0,0,0,0,0,0,0,0,0,0,0,0,0,0,0,0,0,0,0,0,0,0,0,0,0,0,0,0,0],"id":14,"left_children":[1,3,5,7,9,11,13,15,17,19,21,23,25,27,29,31,33,35,37,39,41,43,45,47,49,51,53,55,-1,-1,-1,-1,57,59,61,63,65,67,69,71,73,75,77,79,81,83,-1,85,87,89,91,-1,-1,-1,-1,-1,-1,-1,-1,-1,-1,-1,-1,-1,-1,-1,-1,-1,-1,-1,-1,-1,-1,-1,-1,-1,-1,-1,-1,-1,-1,-1,-1,-1,-1,-1,-1,-1,-1,-1,-1,-1,-1],"loss_changes":[2.121291E6,2.3340425E5,4.3914325E5,4.1604812E4,4.147449E4,5.4607375E4,4.9969625E4,6.1085625E3,7.4161094E3,1.3984496E4,1.522932E4,1.9163125E4,9.2636875E3,9.965875E3,7.97E2,6.2034375E2,1.5459531E3,1.7364688E3,3.0805063E3,3.5074473E3,3.5791084E3,3.2585908E3,2.5821172E3,6.185535E3,8.6705625E3,1.4706562E3,7.59375E1,4.595125E3,0E0,0E0,0E0,0E0,1.5670312E2,1.6348438E2,1.1701758E2,1.8373828E2,8.686133E2,9.452388E2,2.4192334E2,1.6391914E3,2.053944E3,1.879493E3,1.8406787E2,1.4210193E3,7.258721E2,5.349414E2,0E0,1.3392832E3,7.2991797E2,8.226016E3,3.817664E3,0E0,0E0,0E0,0E0,0E0,0E0,0E0,0E0,0E0,0E0,0E0,0E0,0E0,0E0,0E0,0E0,0E0,0E0,0E0,0E0,0E0,0E0,0E0,0E0,0E0,0E0,0E0,0E0,0E0,0E0,0E0,0E0,0E0,0E0,0E0,0E0,0E0,0E0,0E0,0E0,0E0,0E0],"parents":[2147483647,0,0,1,1,2,2,3,3,4,4,5,5,6,6,7,7,8,8,9,9,10,10,11,11,12,12,13,13,14,14,15,15,16,16,17,17,18,18,19,19,20,20,21,21,22,22,23,23,24,24,25,25,26,26,27,27,32,32,33,33,34,34,35,35,36,36,37,37,38,38,39,39,40,40,41,41,42,42,43,43,44,44,45,45,47,47,48,48,49,49,50,50],"right_children":[2,4,6,8,10,12,14,16,18,20,22,24,26,28,30,32,34,36,38,40,42,44,46,48,50,52,54,56,-1,-1,-1,-1,58,60,62,64,66,68,70,72,74,76,78,80,82,84,-1,86,88,90,92,-1,-1,-1,-1,-1,-1,-1,-1,-1,-1,-1,-1,-1,-1,-1,-1,-1,-1,-1,-1,-1,-1,-1,-1,-1,-1,-1,-1,-1,-1,-1,-1,-1,-1,-1,-1,-1,-1,-1,-1,-1,-1],"split_conditions":[9.1406045E3,3.629977E3,2.1517455E4,3.3899228E2,6.3597036E3,1.5328939E4,3.2357855E4,2.1137039E2,5.942191E2,7.515727E-3,6.8158526E-3,5.4874048E-3,5.5694752E-3,5.742743E-3,4.535023E-3,1.3226016E2,2.3057712E3,4.1115012E2,1.0388021E3,5.0805776E3,1.0433425E-2,6.0804407E-3,8.354948E-3,1.1647826E4,7.00952E-3,1.7606168E4,6.2827636E-3,2.679945E4,1.9651546E0,1.4852929E0,2.3877802E0,-4.5556846E-1,1.9536932E3,2.8112787E2,6.4113885E-3,1.4341632E1,8.592142E-3,9.096083E-3,1.484952E3,6.0804407E-3,5.377711E-3,4.9194062E3,1.931768E0,7.8589727E3,7.8589727E3,7.054774E3,5.582278E-1,4.6850652E-3,4.7718724E-3,1.1444215E4,9.650954E-3,7.0352226E-1,9.0772957E-1,1.0190362E0,1.319085E0,1.2549696E0,1.5849544E0,-4.1227347E-1,-2.8975078E-1,-3.7272537E-1,-3.3726448E-1,-2.873854E-1,-2.0784047E-1,-3.0235934E-1,-2.523057E-1,-2.478235E-1,-1.8991336E-1,-1.654719E-1,-6.339302E-2,9.4065525E-2,2.8285423E-1,-1.8810518E-1,-9.136096E-2,-1.19751096E-1,1.0015097E-2,1.773789E-2,1.8519108E-1,2.0919965E-1,4.7201583E-1,3.114932E-2,1.4233266E-1,1.6375422E-1,2.915746E-1,2.17314E-1,3.6675155E-1,1.1717977E-1,2.8614756E-1,3.3268914E-1,5.032155E-1,4.2119324E-1,6.799784E-1,7.796222E-1,1.4840351E0],"split_indices":[6,6,6,7,6,6,6,7,7,12,12,12,12,12,12,7,6,7,7,6,12,12,12,6,12,6,12,6,0,0,0,0,6,7,12,9,12,12,7,12,12,6,10,6,6,6,0,12,12,6,12,0,0,0,0,0,0,0,0,0,0,0,0,0,0,0,0,0,0,0,0,0,0,0,0,0,0,0,0,0,0,0,0,0,0,0,0,0,0,0,0,0,0],"split_type":[0,0,0,0,0,0,0,0,0,0,0,0,0,0,0,0,0,0,0,0,0,0,0,0,0,0,0,0,0,0,0,0,0,0,0,0,0,0,0,0,0,0,0,0,0,0,0,0,0,0,0,0,0,0,0,0,0,0,0,0,0,0,0,0,0,0,0,0,0,0,0,0,0,0,0,0,0,0,0,0,0,0,0,0,0,0,0,0,0,0,0,0,0],"sum_hessian":[4.305E3,3.462E3,8.43E2,2.454E3,1.008E3,6.33E2,2.1E2,1.484E3,9.7E2,6.32E2,3.76E2,4.53E2,1.8E2,1.63E2,4.7E1,7.85E2,6.99E2,7.96E2,1.74E2,5.07E2,1.25E2,2.73E2,1.03E2,1.86E2,2.67E2,1.17E2,6.3E1,1.4E2,2.3E1,7E0,4E1,3.8E2,4.05E2,6.32E2,6.7E1,3.02E2,4.94E2,1.61E2,1.3E1,3.08E2,1.99E2,1.11E2,1.4E1,1.91E2,8.2E1,7E1,3.3E1,9.1E1,9.5E1,2.14E2,5.3E1,6.2E1,5.5E1,4.2E1,2.1E1,7.7E1,6.3E1,3.9E2,1.5E1,3.63E2,2.69E2,3.1E1,3.6E1,2.14E2,8.8E1,2.97E2,1.97E2,1.02E2,5.9E1,8E0,5E0,1.93E2,1.15E2,8.3E1,1.16E2,6.7E1,4.4E1,4E0,1E1,1.14E2,7.7E1,4.3E1,3.9E1,1.9E1,5.1E1,3E1,6.1E1,2.2E1,7.3E1,1.01E2,1.13E2,4.9E1,4E0],"tree_param":{"num_deleted":"0","num_feature":"17","num_nodes":"93","size_leaf_vector":"1"}},{"base_weights":[8.630183E-2,-9.176434E0,5.4270397E1,-1.483419E1,8.71076E0,3.9802216E1,8.578196E1,-1.8506048E1,-8.415371E0,1.3958862E0,1.4997197E1,3.3217815E1,5.3583973E1,7.536634E1,1.1084536E2,-2.1115408E1,-1.6202991E1,-9.6326065E0,-7.862551E-1,-2.4196281E0,9.24342E0,1.0973145E1,2.4932446E1,2.6145947E1,4.106752E1,4.5013916E1,1.2373736E0,6.782624E1,1.7239097E0,1.7599918E0,2.403918E0,-4.4768432E-1,-1.9933718E1,-1.7307785E1,-1.2634091E1,-1.1372904E1,-5.57457E0,-2.921979E0,6.952046E0,-4.9696374E0,5.6348044E-1,5.8485713E0,1.5473167E1,7.8848896E0,1.6270475E1,2.2391212E1,6.57926E-1,2.0368599E1,3.0347818E1,3.846329E1,1.2004986E0,7.8157264E-1,1.0099031E0,1.1591426E0,1.4686873E0,-4.1422516E-1,-3.6073893E-1,-3.6546618E-1,-3.1283775E-1,-2.6602867E-1,-1.6825064E-1,-2.5867635E-1,-1.8151289E-1,-1.5591651E-1,-2.6675439E-2,-8.249099E-2,1.4869641E-1,7.230074E-2,3.216313E-1,-1.4885743E-1,-6.5664455E-2,-4.1068368E-2,5.885321E-2,6.8866484E-2,1.7682733E-1,1.7842668E-1,3.5425892E-1,3.816263E-2,2.01801E-1,2.1090168E-1,3.767908E-1,3.6805344E-1,5.624683E-1,2.591424E-1,4.4305015E-1,5.2494407E-1,6.881384E-1,7.016913E-1,9.167781E-1],"categories":[],"categories_nodes":[],"categories_segments":[],"categories_sizes":[],"default_left":[0,0,0,0,0,0,0,0,0,0,0,0,0,0,0,0,0,0,0,0,0,0,0,0,0,0,0,0,0,0,0,0,0,0,0,0,0,0,0,0,0,0,0,0,0,0,0,0,0,0,0,0,0,0,0,0,0,0,0,0,0,0,0,0,0,0,0,0,0,0,0,0,0,0,0,0,0,0,0,0,0,0,0,0,0,0,0,0,0],"id":15,"left_children":[1,3,5,7,9,11,13,15,17,19,21,23,25,27,29,31,33,35,37,39,41,43,45,47,49,51,-1,53,-1,-1,-1,-1,55,57,59,61,63,65,67,69,71,73,75,77,79,81,-1,83,85,87,-1,-1,-1,-1,-1,-1,-1,-1,-1,-1,-1,-1,-1,-1,-1,-1,-1,-1,-1,-1,-1,-1,-1,-1,-1,-1,-1,-1,-1,-1,-1,-1,-1,-1,-1,-1,-1,-1,-1],"loss_changes":[2.1726952E6,3.7427138E5,2.8471125E5,6.6046875E4,4.085764E4,3.7685312E4,4.33155E4,1.03870625E4,9.50068E3,1.2359308E4,1.883325E4,1.5406594E4,7.0734062E3,5.814625E3,1.3646875E3,8E2,3.5359219E3,6.170828E3,2.3667268E3,2.117974E3,2.7624941E3,5.464242E3,2.0304922E3,3.2366172E3,4.54375E3,3.60125E2,0E0,6.566875E2,0E0,0E0,0E0,0E0,2.7296875E2,8.7690625E2,5.310742E2,2.092875E3,2.5038018E3,1.4252695E3,8.84319E2,6.00125E2,8.0929486E2,6.089863E2,5.2902246E2,2.8527256E3,1.6370117E3,1.9241523E3,0E0,6.349551E2,5.888906E2,1.4987031E3,0E0,0E0,0E0,0E0,0E0,0E0,0E0,0E0,0E0,0E0,0E0,0E0,0E0,0E0,0E0,0E0,0E0,0E0,0E0,0E0,0E0,0E0,0E0,0E0,0E0,0E0,0E0,0E0,0E0,0E0,0E0,0E0,0E0,0E0,0E0,0E0,0E0,0E0,0E0],"parents":[2147483647,0,0,1,1,2,2,3,3,4,4,5,5,6,6,7,7,8,8,9,9,10,10,11,11,12,12,13,13,14,14,15,15,16,16,17,17,18,18,19,19,20,20,21,21,22,22,23,23,24,24,25,25,27,27,32,32,33,33,34,34,35,35,36,36,37,37,38,38,39,39,40,40,41,41,42,42,43,43,44,44,45,45,47,47,48,48,49,49],"right_children":[2,4,6,8,10,12,14,16,18,20,22,24,26,28,30,32,34,36,38,40,42,44,46,48,50,52,-1,54,-1,-1,-1,-1,56,58,60,62,64,66,68,70,72,74,76,78,80,82,-1,84,86,88,-1,-1,-1,-1,-1,-1,-1,-1,-1,-1,-1,-1,-1,-1,-1,-1,-1,-1,-1,-1,-1,-1,-1,-1,-1,-1,-1,-1,-1,-1,-1,-1,-1,-1,-1,-1,-1,-1,-1],"split_conditions":[1.1647826E4,4.7735474E3,2.3058887E4,3.963374E2,7.054774E3,1.7156848E4,3.2357855E4,2.1638918E2,7.046359E2,6.630399E-3,6.65096E-3,5.550129E-3,5.3277425E-3,5.188921E-3,4.9056164E-3,1.3226016E2,1.0732562E-1,9.620494E-2,9.0005815E-2,5.515015E-3,8.299753E-3,9.633463E3,8.514174E-3,1.3819085E4,7.44553E-3,2.0679271E4,1.2373736E0,2.679945E4,1.7239097E0,1.7599918E0,2.403918E0,-4.4768432E-1,1.2463838E-1,3.243172E2,3.313856E3,5.497455E2,2.5108882E2,5.67168E2,9.028744E2,4.7718724E-3,5.776647E3,5.9395376E3,5.237214E3,5.017533E-3,5.1181465E-3,9.322576E3,6.57926E-1,4.5648133E-3,5.1181465E-3,1.5328939E4,1.2004986E0,7.8157264E-1,1.0099031E0,1.1591426E0,1.4686873E0,-4.1422516E-1,-3.6073893E-1,-3.6546618E-1,-3.1283775E-1,-2.6602867E-1,-1.6825064E-1,-2.5867635E-1,-1.8151289E-1,-1.5591651E-1,-2.6675439E-2,-8.249099E-2,1.4869641E-1,7.230074E-2,3.216313E-1,-1.4885743E-1,-6.5664455E-2,-4.1068368E-2,5.885321E-2,6.8866484E-2,1.7682733E-1,1.7842668E-1,3.5425892E-1,3.816263E-2,2.01801E-1,2.1090168E-1,3.767908E-1,3.6805344E-1,5.624683E-1,2.591424E-1,4.4305015E-1,5.2494407E-1,6.881384E-1,7.016913E-1,9.167781E-1],"split_indices":[6,6,6,7,6,6,6,7,7,12,12,12,12,12,12,7,13,13,13,12,12,6,12,6,12,6,0,6,0,0,0,0,13,7,6,7,0,0,7,12,6,6,6,12,12,6,0,12,12,6,0,0,0,0,0,0,0,0,0,0,0,0,0,0,0,0,0,0,0,0,0,0,0,0,0,0,0,0,0,0,0,0,0,0,0,0,0,0,0],"split_type":[0,0,0,0,0,0,0,0,0,0,0,0,0,0,0,0,0,0,0,0,0,0,0,0,0,0,0,0,0,0,0,0,0,0,0,0,0,0,0,0,0,0,0,0,0,0,0,0,0,0,0,0,0,0,0,0,0,0,0,0,0,0,0,0,0,0,0,0,0,0,0,0,0,0,0,0,0,0,0,0,0,0,0,0,0,0,0,0,0],"sum_hessian":[4.327E3,3.696E3,6.31E2,2.808E3,8.88E2,4.34E2,1.97E2,1.785E3,1.023E3,4.11E2,4.77E2,2.96E2,1.38E2,1.42E2,5.5E1,8.33E2,9.52E2,8.82E2,1.41E2,2.77E2,1.34E2,3.41E2,1.36E2,1.58E2,1.38E2,7.1E1,6.7E1,8.8E1,5.4E1,1.9E1,3.6E1,3.93E2,4.4E2,7.24E2,2.28E2,6.16E2,2.66E2,1.11E2,3E1,1.49E2,1.28E2,8.8E1,4.6E1,2.17E2,1.24E2,1.06E2,3E1,6.9E1,8.9E1,1.24E2,1.4E1,3.8E1,3.3E1,3.6E1,5.2E1,3.05E2,1.35E2,4.52E2,2.72E2,1.95E2,3.3E1,3.64E2,2.52E2,1.74E2,9.2E1,1E2,1.1E1,2.3E1,7E0,5.9E1,9E1,6.1E1,6.7E1,5E1,3.8E1,1.3E1,3.3E1,5.9E1,1.58E2,4E1,8.4E1,6.5E1,4.1E1,1.5E1,5.4E1,4.8E1,4.1E1,8.9E1,3.5E1],"tree_param":{"num_deleted":"0","num_feature":"17","num_nodes":"89","size_leaf_vector":"1"}},{"base_weights":[1.4268504E-2,-1.0631465E1,4.3942295E1,-1.5749627E1,1.9320529E0,2.9463167E1,7.6433815E1,-1.8920704E1,-1.0883839E1,-2.5711603E0,9.743264E0,2.201705E1,3.8165077E1,6.650566E1,1.0374234E2,-2.0939837E1,-1.7015697E1,-1.2065954E1,-4.518137E0,-5.1564846E0,6.6428585E0,5.9255347E0,2.0161058E1,1.8701532E1,3.8488106E1,3.508553E1,1.076498E0,5.9396442E1,7.7783394E1,1.7014338E0,2.270098E0,-2.1583801E1,-1.8879612E1,-1.799986E1,-1.3777639E1,-1.3368293E1,-8.625369E0,-5.6013627E0,7.6538787E0,-7.329248E0,-2.06613E0,4.3128314E0,1.963621E1,9.070661E-1,7.995964E0,1.7424078E1,6.434228E-1,1.14214E1,2.1676554E1,7.036345E-1,1.2502348E0,3.190707E1,4.1853806E1,1.0371482E0,1.3774635E0,1.3983582E0,1.8053839E0,-4.5058188E-1,-4.0759093E-1,-3.9061496E-1,-3.1279543E-1,-3.7355483E-1,-3.356119E-1,-2.9522365E-1,-2.2269279E-1,-2.91529E-1,-2.1537134E-1,-2.187252E-1,-1.366001E-1,-1.3700151E-1,-5.07153E-4,8.3961435E-2,2.4647109E-1,-1.9114517E-1,-1.013171E-1,-1.036582E-1,2.0200167E-2,4.2901214E-2,2.1482618E-1,3.2499257E-1,5.9883535E-1,-1.7692428E-2,7.8520656E-2,1.0344095E-1,2.1471094E-1,2.2032706E-1,3.7618068E-1,1.5235703E-1,3.0644253E-1,3.816352E-1,4.9814636E-1,5.0054085E-1,6.868421E-1,6.835569E-1,9.087221E-1],"categories":[],"categories_nodes":[],"categories_segments":[],"categories_sizes":[],"default_left":[0,0,0,0,0,0,0,0,0,0,0,0,0,0,0,0,0,0,0,0,0,0,0,0,0,0,0,0,0,0,0,0,0,0,0,0,0,0,0,0,0,0,0,0,0,0,0,0,0,0,0,0,0,0,0,0,0,0,0,0,0,0,0,0,0,0,0,0,0,0,0,0,0,0,0,0,0,0,0,0,0,0,0,0,0,0,0,0,0,0,0,0,0,0,0],"id":16,"left_children":[1,3,5,7,9,11,13,15,17,19,21,23,25,27,29,31,33,35,37,39,41,43,45,47,49,51,-1,53,55,-1,-1,57,59,61,63,65,67,69,71,73,75,77,79,81,83,85,-1,87,89,-1,-1,91,93,-1,-1,-1,-1,-1,-1,-1,-1,-1,-1,-1,-1,-1,-1,-1,-1,-1,-1,-1,-1,-1,-1,-1,-1,-1,-1,-1,-1,-1,-1,-1,-1,-1,-1,-1,-1,-1,-1,-1,-1,-1,-1],"loss_changes":[2.0113486E6,2.2264569E5,3.9244412E5,3.7748312E4,3.5306848E4,3.6864625E4,6.303325E4,5.3634375E3,7.2656406E3,1.5208227E4,1.4474367E4,1.6531266E4,1.097875E4,1.07599375E4,2.536375E3,5.4103125E2,2.2058438E3,3.5567578E3,2.0731633E3,3.327793E3,4.1513975E3,2.7972607E3,2.6558828E3,5.488625E3,1.9213906E3,3.5190625E3,0E0,5.1326562E3,6.4525E2,0E0,0E0,1.5128125E2,6.8640625E1,1.6903125E2,3.1135547E2,1.7030391E3,8.694746E2,9.8786084E2,1.5640009E2,1.4226396E3,1.990295E3,1.6479268E3,2.4175049E2,4.365008E2,1.4205283E3,5.175156E2,0E0,1.0530771E3,1.0879844E3,0E0,0E0,1.7815781E3,3.3646094E2,0E0,0E0,0E0,0E0,0E0,0E0,0E0,0E0,0E0,0E0,0E0,0E0,0E0,0E0,0E0,0E0,0E0,0E0,0E0,0E0,0E0,0E0,0E0,0E0,0E0,0E0,0E0,0E0,0E0,0E0,0E0,0E0,0E0,0E0,0E0,0E0,0E0,0E0,0E0,0E0,0E0,0E0],"parents":[2147483647,0,0,1,1,2,2,3,3,4,4,5,5,6,6,7,7,8,8,9,9,10,10,11,11,12,12,13,13,14,14,15,15,16,16,17,17,18,18,19,19,20,20,21,21,22,22,23,23,24,24,25,25,27,27,28,28,31,31,32,32,33,33,34,34,35,35,36,36,37,37,38,38,39,39,40,40,41,41,42,42,43,43,44,44,45,45,47,47,48,48,51,51,52,52],"right_children":[2,4,6,8,10,12,14,16,18,20,22,24,26,28,30,32,34,36,38,40,42,44,46,48,50,52,-1,54,56,-1,-1,58,60,62,64,66,68,70,72,74,76,78,80,82,84,86,-1,88,90,-1,-1,92,94,-1,-1,-1,-1,-1,-1,-1,-1,-1,-1,-1,-1,-1,-1,-1,-1,-1,-1,-1,-1,-1,-1,-1,-1,-1,-1,-1,-1,-1,-1,-1,-1,-1,-1,-1,-1,-1,-1,-1,-1,-1,-1],"split_conditions":[9.1406045E3,3.629977E3,1.95127E4,3.3899228E2,6.3597036E3,1.3296787E4,3.0260146E4,1.9902977E2,2.999494E2,7.515727E-3,6.796716E-3,7.00952E-3,6.10644E-3,2.5671586E4,4.84076E-3,5.4438386E-2,4.8133753E-2,4.3331087E-2,5.2538214E2,5.0805776E3,1.0433425E-2,5.228359E-3,9.144096E-3,5.209734E-3,9.650954E-3,1.6804438E4,1.076498E0,5.3277425E-3,5.1181465E-3,1.7014338E0,2.270098E0,1.3511636E2,1.610879E2,2.8781192E2,6.1306678E-2,4.8619516E2,4.1115012E2,9.038462E-2,1.484952E3,5.802672E-3,5.6099314E-3,5.3300977E3,7.895388E-2,8.010066E3,7.759352E3,6.9291973E3,6.434228E-1,1.093611E4,1.1210271E4,7.036345E-1,1.2502348E0,5.069577E-3,4.942415E-3,1.0371482E0,1.3774635E0,1.3983582E0,1.8053839E0,-4.5058188E-1,-4.0759093E-1,-3.9061496E-1,-3.1279543E-1,-3.7355483E-1,-3.356119E-1,-2.9522365E-1,-2.2269279E-1,-2.91529E-1,-2.1537134E-1,-2.187252E-1,-1.366001E-1,-1.3700151E-1,-5.07153E-4,8.3961435E-2,2.4647109E-1,-1.9114517E-1,-1.013171E-1,-1.036582E-1,2.0200167E-2,4.2901214E-2,2.1482618E-1,3.2499257E-1,5.9883535E-1,-1.7692428E-2,7.8520656E-2,1.0344095E-1,2.1471094E-1,2.2032706E-1,3.7618068E-1,1.5235703E-1,3.0644253E-1,3.816352E-1,4.9814636E-1,5.0054085E-1,6.868421E-1,6.835569E-1,9.087221E-1],"split_indices":[6,6,6,7,6,6,6,7,0,12,12,12,12,6,12,14,14,14,0,6,12,12,12,12,12,6,0,12,12,0,0,7,7,7,14,7,7,13,7,12,12,6,14,6,6,6,0,6,6,0,0,12,12,0,0,0,0,0,0,0,0,0,0,0,0,0,0,0,0,0,0,0,0,0,0,0,0,0,0,0,0,0,0,0,0,0,0,0,0,0,0,0,0,0,0],"split_type":[0,0,0,0,0,0,0,0,0,0,0,0,0,0,0,0,0,0,0,0,0,0,0,0,0,0,0,0,0,0,0,0,0,0,0,0,0,0,0,0,0,0,0,0,0,0,0,0,0,0,0,0,0,0,0,0,0,0,0,0,0,0,0,0,0,0,0,0,0,0,0,0,0,0,0,0,0,0,0,0,0,0,0,0,0,0,0,0,0,0,0,0,0,0,0],"sum_hessian":[4.299E3,3.461E3,8.38E2,2.459E3,1.002E3,5.81E2,2.57E2,1.487E3,9.72E2,6.36E2,3.66E2,3.15E2,2.66E2,1.91E2,6.6E1,7.17E2,7.7E2,8.19E2,1.53E2,4.97E2,1.39E2,2.69E2,9.7E1,2.64E2,5.1E1,2.25E2,4.1E1,1.21E2,7E1,2.6E1,4E1,5.39E2,1.78E2,5.87E2,1.83E2,5.92E2,2.27E2,1.41E2,1.2E1,2.91E2,2.06E2,1.19E2,2E1,7.9E1,1.9E2,8.1E1,1.6E1,7.8E1,1.86E2,4.7E1,4E0,1.57E2,6.8E1,7.1E1,5E1,4.7E1,2.3E1,2.92E2,2.47E2,1.44E2,3.4E1,3.68E2,2.19E2,1.3E2,5.3E1,4.01E2,1.91E2,9.7E1,1.3E2,1.15E2,2.6E1,8E0,4E0,1.45E2,1.46E2,1.02E2,1.04E2,9E1,2.9E1,1.7E1,3E0,5E1,2.9E1,9.5E1,9.5E1,1.6E1,6.5E1,4.1E1,3.7E1,1.07E2,7.9E1,4.4E1,1.13E2,2.5E1,4.3E1],"tree_param":{"num_deleted":"0","num_feature":"17","num_nodes":"95","size_leaf_vector":"1"}},{"base_weights":[2.2531787E-1,-9.637379E0,4.6246735E1,-1.4592837E1,5.206203E0,3.2754963E1,7.867346E1,-1.8017967E1,-8.952667E0,3.122415E-1,1.2223334E1,2.596274E1,4.532831E1,7.202497E1,2.2426937E0,-2.0281488E1,-1.5748966E1,-1.0009115E1,-4.4855657E-1,-3.2693338E0,6.1133323E0,7.8052278E0,2.2486746E1,1.8792843E1,3.1407696E1,3.873814E1,5.4866833E1,6.1287537E1,8.028996E1,-2.0549484E1,-1.4946159E1,-1.6768583E1,-1.1352789E1,-1.1589171E1,-6.117327E0,-4.0743513E0,4.4686356E0,-5.793461E0,-3.3842355E-1,3.4644752E0,1.2861028E1,4.216779E0,1.1711255E1,1.9155676E1,6.4759886E-1,1.5416588E1,2.4757824E1,2.83953E1,4.047954E1,6.7987067E-1,8.711128E-1,1.0194103E0,1.4507868E0,9.9096245E-1,1.3601707E0,1.3958949E0,1.8773769E0,-4.4154125E-1,-3.9764655E-1,-3.0827183E-1,-1.30206E-1,-3.5580316E-1,-3.1120974E-1,-2.6061347E-1,-1.8285948E-1,-2.6345408E-1,-1.9053419E-1,-1.5615757E-1,-6.4840995E-2,-1.0052045E-1,3.3048857E-2,-1.8318696E-2,1.8926154E-1,-1.7016384E-1,-7.941452E-2,-6.558731E-2,3.723145E-2,5.1035774E-3,1.3608746E-1,1.1889007E-1,3.0488074E-1,3.8920846E-2,1.3119462E-1,1.7662951E-1,2.9469904E-1,3.1924707E-1,4.221763E-1,2.0126098E-1,3.427395E-1,2.9961666E-1,5.226065E-1,4.308239E-1,6.369214E-1,6.9072026E-1,9.483095E-1],"categories":[],"categories_nodes":[],"categories_segments":[],"categories_sizes":[],"default_left":[0,0,0,0,0,0,0,0,0,0,0,0,0,0,0,0,0,0,0,0,0,0,0,0,0,0,0,0,0,0,0,0,0,0,0,0,0,0,0,0,0,0,0,0,0,0,0,0,0,0,0,0,0,0,0,0,0,0,0,0,0,0,0,0,0,0,0,0,0,0,0,0,0,0,0,0,0,0,0,0,0,0,0,0,0,0,0,0,0,0,0,0,0,0,0],"id":17,"left_children":[1,3,5,7,9,11,13,15,17,19,21,23,25,27,-1,29,31,33,35,37,39,41,43,45,47,49,51,53,55,57,59,61,63,65,67,69,71,73,75,77,79,81,83,85,-1,87,89,91,93,-1,-1,-1,-1,-1,-1,-1,-1,-1,-1,-1,-1,-1,-1,-1,-1,-1,-1,-1,-1,-1,-1,-1,-1,-1,-1,-1,-1,-1,-1,-1,-1,-1,-1,-1,-1,-1,-1,-1,-1,-1,-1,-1,-1,-1,-1],"loss_changes":[1.9494755E6,2.6024716E5,3.290325E5,5.1068125E4,3.0421559E4,4.4676375E4,4.12925E4,8.146125E3,9.014555E3,1.0886665E4,1.6326977E4,1.3107703E4,9.620125E3,1.17491875E4,0E0,8.6465625E2,3.5182812E3,5.4186094E3,2.014985E3,2.3943745E3,3.5285464E3,3.5372666E3,2.9666758E3,2.71575E3,4.254625E3,1.1173438E3,1.38575E3,3.404E3,8.111E3,3.5178125E2,6.701758E1,5.4671875E2,4.681875E2,1.9428594E3,1.2373896E3,3.628943E2,1.3003826E3,8.259619E2,9.8322577E2,1.5517725E3,8.302617E2,7.046145E2,9.2983594E2,1.832539E2,0E0,7.5505664E2,3.290586E2,2.9037578E3,2.9178125E2,0E0,0E0,0E0,0E0,0E0,0E0,0E0,0E0,0E0,0E0,0E0,0E0,0E0,0E0,0E0,0E0,0E0,0E0,0E0,0E0,0E0,0E0,0E0,0E0,0E0,0E0,0E0,0E0,0E0,0E0,0E0,0E0,0E0,0E0,0E0,0E0,0E0,0E0,0E0,0E0,0E0,0E0,0E0,0E0,0E0,0E0],"parents":[2147483647,0,0,1,1,2,2,3,3,4,4,5,5,6,6,7,7,8,8,9,9,10,10,11,11,12,12,13,13,15,15,16,16,17,17,18,18,19,19,20,20,21,21,22,22,23,23,24,24,25,25,26,26,27,27,28,28,29,29,30,30,31,31,32,32,33,33,34,34,35,35,36,36,37,37,38,38,39,39,40,40,41,41,42,42,43,43,45,45,46,46,47,47,48,48],"right_children":[2,4,6,8,10,12,14,16,18,20,22,24,26,28,-1,30,32,34,36,38,40,42,44,46,48,50,52,54,56,58,60,62,64,66,68,70,72,74,76,78,80,82,84,86,-1,88,90,92,94,-1,-1,-1,-1,-1,-1,-1,-1,-1,-1,-1,-1,-1,-1,-1,-1,-1,-1,-1,-1,-1,-1,-1,-1,-1,-1,-1,-1,-1,-1,-1,-1,-1,-1,-1,-1,-1,-1,-1,-1,-1,-1,-1,-1,-1,-1],"split_conditions":[1.0002799E4,4.4639736E3,2.1517455E4,3.8098877E2,7.054774E3,1.5328939E4,3.4796625E4,2.1638918E2,7.046359E2,6.4390264E-3,6.65096E-3,5.4874048E-3,5.6338394E-3,2.5671586E4,2.2426937E0,1.4901765E3,5.0078493E-2,4.3976523E-2,9.829868E-3,5.7287554E3,8.037406E-3,5.5889245E-3,8.707519E-3,1.3025017E4,6.921312E-3,1.7606168E4,6.9486187E-3,4.9961368E-3,5.095636E-3,3.3511823E2,8.5411504E-2,3.7020177E-2,6.1306678E-2,5.14673E2,4.9880627E2,8.694731E-2,2.6092495E3,5.095636E-3,5.377711E-3,5.5508247E3,4.9938774E3,5.017533E-3,8.321403E3,8.010066E3,6.4759886E-1,4.747964E-3,4.4966107E-3,1.1647826E4,1.2102454E4,6.7987067E-1,8.711128E-1,1.0194103E0,1.4507868E0,9.9096245E-1,1.3601707E0,1.3958949E0,1.8773769E0,-4.4154125E-1,-3.9764655E-1,-3.0827183E-1,-1.30206E-1,-3.5580316E-1,-3.1120974E-1,