{"learner":{"attributes":{"scikit_learn":"{\"_estimator_type\": \"regressor\"}"},"feature_names":["skeleton_length","scale_ratio","intersection3","intersection4","intersection5","intersection6","endpoint","Area","Peri","distance_average","area_per_skeleton","peri_per_skeleton","area_per_peri","led_density_area","led_density_skeleton","led_density_peri","area_skeleton_ratio","peri_area_ratio"],"feature_types":["float","float","float","float","float","float","float","float","float","float","float","float","float","float","float","float","float","float"],"gradient_booster":{"model":{"gbtree_model_param":{"num_parallel_tree":"1","num_trees":"300"},"iteration_indptr":[0,1,2,3,4,5,6,7,8,9,10,11,12,13,14,15,16,17,18,19,20,21,22,23,24,25,26,27,28,29,30,31,32,33,34,35,36,37,38,39,40,41,42,43,44,45,46,47,48,49,50,51,52,53,54,55,56,57,58,59,60,61,62,63,64,65,66,67,68,69,70,71,72,73,74,75,76,77,78,79,80,81,82,83,84,85,86,87,88,89,90,91,92,93,94,95,96,97,98,99,100,101,102,103,104,105,106,107,108,109,110,111,112,113,114,115,116,117,118,119,120,121,122,123,124,125,126,127,128,129,130,131,132,133,134,135,136,137,138,139,140,141,142,143,144,145,146,147,148,149,150,151,152,153,154,155,156,157,158,159,160,161,162,163,164,165,166,167,168,169,170,171,172,173,174,175,176,177,178,179,180,181,182,183,184,185,186,187,188,189,190,191,192,193,194,195,196,197,198,199,200,201,202,203,204,205,206,207,208,209,210,211,212,213,214,215,216,217,218,219,220,221,222,223,224,225,226,227,228,229,230,231,232,233,234,235,236,237,238,239,240,241,242,243,244,245,246,247,248,249,250,251,252,253,254,255,256,257,258,259,260,261,262,263,264,265,266,267,268,269,270,271,272,273,274,275,276,277,278,279,280,281,282,283,284,285,286,287,288,289,290,291,292,293,294,295,296,297,298,299,300],"tree_info":[0,0,0,0,0,0,0,0,0,0,0,0,0,0,0,0,0,0,0,0,0,0,0,0,0,0,0,0,0,0,0,0,0,0,0,0,0,0,0,0,0,0,0,0,0,0,0,0,0,0,0,0,0,0,0,0,0,0,0,0,0,0,0,0,0,0,0,0,0,0,0,0,0,0,0,0,0,0,0,0,0,0,0,0,0,0,0,0,0,0,0,0,0,0,0,0,0,0,0,0,0,0,0,0,0,0,0,0,0,0,0,0,0,0,0,0,0,0,0,0,0,0,0,0,0,0,0,0,0,0,0,0,0,0,0,0,0,0,0,0,0,0,0,0,0,0,0,0,0,0,0,0,0,0,0,0,0,0,0,0,0,0,0,0,0,0,0,0,0,0,0,0,0,0,0,0,0,0,0,0,0,0,0,0,0,0,0,0,0,0,0,0,0,0,0,0,0,0,0,0,0,0,0,0,0,0,0,0,0,0,0,0,0,0,0,0,0,0,0,0,0,0,0,0,0,0,0,0,0,0,0,0,0,0,0,0,0,0,0,0,0,0,0,0,0,0,0,0,0,0,0,0,0,0,0,0,0,0,0,0,0,0,0,0,0,0,0,0,0,0,0,0,0,0,0,0,0,0,0,0,0,0,0,0,0,0,0,0,0,0,0,0,0,0,0,0,0,0,0,0],"trees":[{"base_weights":[-3.4236932E-1,-1.587349E1,4.2796463E1,-1.9997675E1,1.1068704E1,2.2778246E1,7.736063E1,-2.5149567E1,-1.1139492E1,7.6394496E0,5.170197E1,1.3882118E1,5.9497894E1,6.548886E1,1.2630733E2,-2.8173584E1,-2.185925E1,-1.4496E1,-2.3693156E0,-4.112193E0,1.7075508E1,1.4687465E1,6.1129223E1,1.071438E0,2.8432673E1,4.173329E1,7.8711945E1,5.27947E1,9.237303E1,2.7038474E0,4.1192756E0,-8.577817E-1,-6.8697196E-1,-7.0796525E-1,-5.067496E-1,-5.1797044E-1,-3.4933826E-1,-2.1933419E-1,7.177046E-2,-4.1601124E-1,5.043958E-2,2.5495648E-1,7.780826E-1,1.0270752E-1,5.5524904E-1,1.1709648E0,2.2887228E0,-6.630903E-2,3.1704587E-1,6.8211216E-1,1.1755105E0,7.8386784E-1,1.4426377E0,1.945393E0,3.3056824E0,1.1626829E0,1.9110518E0,2.2594235E0,3.1741824E0],"categories":[],"categories_nodes":[],"categories_segments":[],"categories_sizes":[],"default_left":[0,0,0,0,0,0,0,0,0,0,0,0,0,0,0,0,0,0,0,0,0,0,0,0,0,0,0,0,0,0,0,0,0,0,0,0,0,0,0,0,0,0,0,0,0,0,0,0,0,0,0,0,0,0,0,0,0,0,0],"id":0,"left_children":[1,3,5,7,9,11,13,15,17,19,21,23,25,27,29,31,33,35,37,39,41,43,45,47,49,51,53,55,57,-1,-1,-1,-1,-1,-1,-1,-1,-1,-1,-1,-1,-1,-1,-1,-1,-1,-1,-1,-1,-1,-1,-1,-1,-1,-1,-1,-1,-1,-1],"loss_changes":[2.4803288E6,3.0267525E5,6.763126E5,1.07467375E5,5.0046754E4,2.0235828E5,2.0033725E5,1.42295625E4,2.5575984E4,3.7218094E4,8.872633E3,9.354358E4,3.8016E4,9.4433375E4,1.5089125E4,1.0563125E3,5.8146875E3,4.7664375E3,5.712068E3,8.500541E3,1.3914988E4,2.3789722E2,4.3927734E3,8.375815E3,1.3498953E4,5.188914E3,1.7732344E4,2.8155062E4,1.3113375E4,0E0,0E0,0E0,0E0,0E0,0E0,0E0,0E0,0E0,0E0,0E0,0E0,0E0,0E0,0E0,0E0,0E0,0E0,0E0,0E0,0E0,0E0,0E0,0E0,0E0,0E0,0E0,0E0,0E0,0E0],"parents":[2147483647,0,0,1,1,2,2,3,3,4,4,5,5,6,6,7,7,8,8,9,9,10,10,11,11,12,12,13,13,14,14,15,15,16,16,17,17,18,18,19,19,20,20,21,21,22,22,23,23,24,24,25,25,26,26,27,27,28,28],"right_children":[2,4,6,8,10,12,14,16,18,20,22,24,26,28,30,32,34,36,38,40,42,44,46,48,50,52,54,56,58,-1,-1,-1,-1,-1,-1,-1,-1,-1,-1,-1,-1,-1,-1,-1,-1,-1,-1,-1,-1,-1,-1,-1,-1,-1,-1,-1,-1,-1,-1],"split_conditions":[3.5577E2,1.0607352E1,1.2867201E1,1.9186487E2,2.2068962E1,6.7195154E2,7.7504285E2,1.0206071E2,1.00813605E-1,2.3094972E2,9.953271E1,1.0466094E-1,1.0679487E-1,1.9683405E1,1.463339E-1,7.6166854E0,9.968959E-2,2.584E2,2.6115625E2,1.2359155E2,1.7555556E-1,2.2513466E1,2.468713E1,5.0856738E2,5.137973E2,8.003678E2,1.0434049E3,5.014739E2,5.014739E2,2.7038474E0,4.1192756E0,-8.577817E-1,-6.8697196E-1,-7.0796525E-1,-5.067496E-1,-5.1797044E-1,-3.4933826E-1,-2.1933419E-1,7.177046E-2,-4.1601124E-1,5.043958E-2,2.5495648E-1,7.780826E-1,1.0270752E-1,5.5524904E-1,1.1709648E0,2.2887228E0,-6.630903E-2,3.1704587E-1,6.8211216E-1,1.1755105E0,7.8386784E-1,1.4426377E0,1.945393E0,3.3056824E0,1.1626829E0,1.9110518E0,2.2594235E0,3.1741824E0],"split_indices":[0,12,12,0,12,0,0,0,14,0,0,14,14,12,14,12,14,0,0,0,14,12,12,0,0,0,0,0,0,0,0,0,0,0,0,0,0,0,0,0,0,0,0,0,0,0,0,0,0,0,0,0,0,0,0,0,0,0,0],"split_type":[0,0,0,0,0,0,0,0,0,0,0,0,0,0,0,0,0,0,0,0,0,0,0,0,0,0,0,0,0,0,0,0,0,0,0,0,0,0,0,0,0,0,0,0,0,0,0,0,0,0,0,0,0,0,0,0,0,0,0],"sum_hessian":[3.7E3,2.721E3,9.79E2,2.36E3,3.61E2,6.21E2,3.58E2,1.491E3,8.69E2,3.34E2,2.7E1,5.01E2,1.2E2,2.9E2,6.8E1,7.73E2,7.18E2,6.28E2,2.41E2,1.49E2,1.85E2,6E0,2.1E1,2.67E2,2.34E2,6.4E1,5.6E1,1.99E2,9.1E1,1.8E1,5E1,7.12E2,6.1E1,5.29E2,1.89E2,3.16E2,3.12E2,1.18E2,1.23E2,5.5E1,9.4E1,9.5E1,9E1,2E0,4E0,1E1,1.1E1,1.99E2,6.8E1,1.55E2,7.9E1,2E1,4.4E1,4.1E1,1.5E1,8.9E1,1.1E2,4.3E1,4.8E1],"tree_param":{"num_deleted":"0","num_feature":"18","num_nodes":"59","size_leaf_vector":"1"}},{"base_weights":[1.6995543E-1,-1.34855E1,6.2281948E1,-2.00112E1,6.5730104E0,4.1058197E1,1.0052552E2,-2.431707E1,-1.2423071E1,-8.0138135E-1,1.568491E1,3.183089E1,5.244093E1,8.694584E1,1.3616641E2,-2.7358868E1,-2.0835152E1,-1.4555798E1,-6.0066175E0,-4.703116E0,9.747176E0,1.0063941E1,2.8343418E1,2.7430487E1,1.6109159E0,4.5702724E1,6.435342E1,7.745225E1,9.984679E1,3.3629217E0,4.400342E0,-8.622196E-1,-7.5295985E-1,-6.6662616E-1,-4.7755855E-1,-4.6382856E-1,-2.867584E-1,-2.119106E-1,2.8570256E-1,-2.5666696E-1,-3.9374206E-2,1.9169259E-1,5.680491E-1,2.0135249E-1,4.7615156E-1,7.2700816E-1,1.2309916E0,5.9810966E-1,9.6090096E-1,1.1946129E0,1.5046622E0,1.5329413E0,2.0643582E0,1.9084312E0,2.5832112E0,2.4542806E0,3.247902E0],"categories":[],"categories_nodes":[],"categories_segments":[],"categories_sizes":[],"default_left":[0,0,0,0,0,0,0,0,0,0,0,0,0,0,0,0,0,0,0,0,0,0,0,0,0,0,0,0,0,0,0,0,0,0,0,0,0,0,0,0,0,0,0,0,0,0,0,0,0,0,0,0,0,0,0,0,0],"id":1,"left_children":[1,3,5,7,9,11,13,15,17,19,21,23,25,27,29,31,33,35,37,39,41,43,45,47,-1,49,51,53,55,-1,-1,-1,-1,-1,-1,-1,-1,-1,-1,-1,-1,-1,-1,-1,-1,-1,-1,-1,-1,-1,-1,-1,-1,-1,-1,-1,-1],"loss_changes":[3.200128E6,4.049923E5,5.478095E5,7.595781E4,5.108056E4,4.443975E4,1.05287E5,1.51898125E4,1.1503383E4,1.737322E4,2.3906805E4,2.2101094E4,1.27113125E4,1.4067375E4,3.25E0,1.749E3,4.4016875E3,2.7244531E3,3.5639482E3,4.0119536E3,3.3956035E3,4.507576E3,4.4294297E3,6.4615625E3,0E0,1.355375E3,5.0259375E2,7.337125E3,2.0736875E3,0E0,0E0,0E0,0E0,0E0,0E0,0E0,0E0,0E0,0E0,0E0,0E0,0E0,0E0,0E0,0E0,0E0,0E0,0E0,0E0,0E0,0E0,0E0,0E0,0E0,0E0,0E0,0E0],"parents":[2147483647,0,0,1,1,2,2,3,3,4,4,5,5,6,6,7,7,8,8,9,9,10,10,11,11,12,12,13,13,14,14,15,15,16,16,17,17,18,18,19,19,20,20,21,21,22,22,23,23,25,25,26,26,27,27,28,28],"right_children":[2,4,6,8,10,12,14,16,18,20,22,24,26,28,30,32,34,36,38,40,42,44,46,48,-1,50,52,54,56,-1,-1,-1,-1,-1,-1,-1,-1,-1,-1,-1,-1,-1,-1,-1,-1,-1,-1,-1,-1,-1,-1,-1,-1,-1,-1,-1,-1],"split_conditions":[9.837746E3,4.3417197E3,1.8968879E4,1.825948E2,6.7894146E3,1.3819085E4,3.0260146E4,9.20693E2,2.999494E2,6.921312E-3,6.65096E-3,6.9486187E-3,5.742743E-3,2.4906555E4,4.747964E-3,7.890909E1,2.3057712E3,3.5860894E3,4.9530508E2,5.409546E-3,8.792108E-3,5.9097633E-3,8.592142E-3,5.3635254E-3,1.6109159E0,1.5722449E4,1.5328939E4,5.095636E-3,4.715648E-3,3.3629217E0,4.400342E0,-8.622196E-1,-7.5295985E-1,-6.6662616E-1,-4.7755855E-1,-4.6382856E-1,-2.867584E-1,-2.119106E-1,2.8570256E-1,-2.5666696E-1,-3.9374206E-2,1.9169259E-1,5.680491E-1,2.0135249E-1,4.7615156E-1,7.2700816E-1,1.2309916E0,5.9810966E-1,9.6090096E-1,1.1946129E0,1.5046622E0,1.5329413E0,2.0643582E0,1.9084312E0,2.5832112E0,2.4542806E0,3.247902E0],"split_indices":[7,7,7,0,7,7,7,7,0,13,13,13,13,7,13,0,7,7,0,13,13,13,13,13,0,7,7,13,13,0,0,0,0,0,0,0,0,0,0,0,0,0,0,0,0,0,0,0,0,0,0,0,0,0,0,0,0],"split_type":[0,0,0,0,0,0,0,0,0,0,0,0,0,0,0,0,0,0,0,0,0,0,0,0,0,0,0,0,0,0,0,0,0,0,0,0,0,0,0,0,0,0,0,0,0,0,0,0,0,0,0,0,0,0,0,0,0],"sum_hessian":[3.771E3,3.092E3,6.79E2,2.333E3,7.59E2,4.38E2,2.41E2,1.487E3,8.46E2,4.2E2,3.39E2,2.44E2,1.94E2,1.77E2,6.4E1,7.9E2,6.97E2,6.34E2,2.12E2,3.07E2,1.13E2,2.36E2,1.03E2,2.05E2,3.9E1,1.27E2,6.7E1,1.06E2,7.1E1,2.3E1,4.1E1,4.83E2,3.07E2,5.41E2,1.56E2,5.35E2,9.9E1,1.99E2,1.3E1,1.43E2,1.64E2,8.4E1,2.9E1,1.51E2,8.5E1,8E1,2.3E1,8E1,1.25E2,5.9E1,6.8E1,2E1,4.7E1,4.4E1,6.2E1,2.6E1,4.5E1],"tree_param":{"num_deleted":"0","num_feature":"18","num_nodes":"57","size_leaf_vector":"1"}},{"base_weights":[-2.9860744E-1,-1.3652199E1,5.7074905E1,-2.0493055E1,2.175193E0,4.04672E1,1.0565137E2,-2.5283714E1,-1.5507461E1,-4.0958467E0,1.2451983E1,3.1681828E1,5.8730118E1,9.050999E1,3.9433296E0,-2.7106724E1,-2.277015E1,-1.7597605E1,-1.0669576E1,-6.955339E0,7.899266E0,7.5183415E0,2.4735062E1,2.2883606E1,3.8136677E1,5.034701E1,1.9956273E0,2.2460825E0,2.9512594E0,-7.672497E-1,-8.458776E-1,-7.125947E-1,-4.8996013E-1,-6.0856545E-1,-4.4424793E-1,-3.56532E-1,5.2884266E-2,-2.790931E-1,-7.612265E-2,1.6550632E-1,6.78598E-1,6.432365E-2,3.2629162E-1,6.1569566E-1,9.7610676E-1,3.7468258E-1,8.11806E-1,1.0325696E0,1.5650382E0,1.2383455E0,1.7098184E0],"categories":[],"categories_nodes":[],"categories_segments":[],"categories_sizes":[],"default_left":[0,0,0,0,0,0,0,0,0,0,0,0,0,0,0,0,0,0,0,0,0,0,0,0,0,0,0,0,0,0,0,0,0,0,0,0,0,0,0,0,0,0,0,0,0,0,0,0,0,0,0],"id":2,"left_children":[1,3,5,7,9,11,13,15,17,19,21,23,25,27,-1,29,31,33,35,37,39,41,43,45,47,49,-1,-1,-1,-1,-1,-1,-1,-1,-1,-1,-1,-1,-1,-1,-1,-1,-1,-1,-1,-1,-1,-1,-1,-1,-1],"loss_changes":[2.860789E6,3.2800325E5,5.64479E5,5.0123125E4,5.9019234E4,8.2694625E4,5.8009625E4,4.317875E3,1.0318484E4,1.9571605E4,2.084234E4,1.9458562E4,7.75375E3,6.90475E3,0E0,3.11625E2,2.5169531E3,5.1277812E3,4.7935547E3,4.747617E3,3.7329478E3,4.4703506E3,2.5854102E3,6.3475312E3,8.898031E3,2.8314688E3,0E0,0E0,0E0,0E0,0E0,0E0,0E0,0E0,0E0,0E0,0E0,0E0,0E0,0E0,0E0,0E0,0E0,0E0,0E0,0E0,0E0,0E0,0E0,0E0,0E0],"parents":[2147483647,0,0,1,1,2,2,3,3,4,4,5,5,6,6,7,7,8,8,9,9,10,10,11,11,12,12,13,13,15,15,16,16,17,17,18,18,19,19,20,20,21,21,22,22,23,23,24,24,25,25],"right_children":[2,4,6,8,10,12,14,16,18,20,22,24,26,28,-1,30,32,34,36,38,40,42,44,46,48,50,-1,-1,-1,-1,-1,-1,-1,-1,-1,-1,-1,-1,-1,-1,-1,-1,-1,-1,-1,-1,-1,-1,-1,-1,-1],"split_conditions":[9.1406045E3,3.629977E3,2.2177416E4,1.3096584E3,6.2468237E3,1.5328939E4,3.0260146E4,7.167082E2,1.0197493E1,7.515727E-3,6.8158526E-3,5.4874048E-3,5.3277425E-3,4.888332E-3,3.9433296E0,7.892966E-2,1.4327899E-2,2.2543455E3,1.5084493E1,5.0805776E3,1.05268555E-2,5.39458E-3,8.354948E-3,1.093611E4,7.00952E-3,1.7606168E4,1.9956273E0,2.2460825E0,2.9512594E0,-7.672497E-1,-8.458776E-1,-7.125947E-1,-4.8996013E-1,-6.0856545E-1,-4.4424793E-1,-3.56532E-1,5.2884266E-2,-2.790931E-1,-7.612265E-2,1.6550632E-1,6.78598E-1,6.432365E-2,3.2629162E-1,6.1569566E-1,9.7610676E-1,3.7468258E-1,8.11806E-1,1.0325696E0,1.5650382E0,1.2383455E0,1.7098184E0],"split_indices":[7,7,7,7,7,7,7,7,17,13,13,13,13,13,0,16,13,7,17,7,13,13,13,7,13,7,0,0,0,0,0,0,0,0,0,0,0,0,0,0,0,0,0,0,0,0,0,0,0,0,0],"split_type":[0,0,0,0,0,0,0,0,0,0,0,0,0,0,0,0,0,0,0,0,0,0,0,0,0,0,0,0,0,0,0,0,0,0,0,0,0,0,0,0,0,0,0,0,0,0,0,0,0,0,0],"sum_hessian":[3.732E3,3.028E3,7.04E2,2.114E3,9.14E2,5.26E2,1.78E2,1.076E3,1.038E3,5.68E2,3.46E2,3.57E2,1.69E2,1.15E2,6.3E1,6.18E2,4.58E2,7.23E2,3.15E2,4.59E2,1.09E2,2.48E2,9.8E1,1.53E2,2.04E2,8.5E1,8.4E1,4.2E1,7.3E1,2.67E2,3.51E2,3.95E2,6.3E1,3.65E2,3.58E2,2.87E2,2.8E1,2.99E2,1.6E2,9.5E1,1.4E1,9.6E1,1.52E2,6.6E1,3.2E1,4.5E1,1.08E2,1.64E2,4E1,3.9E1,4.6E1],"tree_param":{"num_deleted":"0","num_feature":"18","num_nodes":"51","size_leaf_vector":"1"}},{"base_weights":[1.3722256E-1,-1.1181151E1,6.68264E1,-1.8180748E1,1.0802408E1,4.9248302E1,1.0585169E2,-2.3732061E1,-1.1794663E1,2.865293E0,2.003237E1,3.81012E1,6.1621708E1,9.349451E1,4.001757E0,-2.6304619E1,-2.1246952E1,-1.4142311E1,-5.7681255E0,1.8047566E0,1.8867085E1,1.8083506E1,3.879585E1,3.3155674E1,4.873375E1,1.6340705E0,2.0968716E0,2.3854291E0,3.0000868E0,-8.2698816E-1,-7.459004E-1,-6.712041E-1,-4.6847185E-1,-4.9034294E-1,-2.5896737E-1,-2.5041187E-1,3.1448483E-2,-1.1910338E-1,1.6069786E-1,3.5508958E-1,6.970167E-1,2.19556E-1,5.8659685E-1,8.0575186E-1,1.652854E0,7.604915E-1,1.0619749E0,1.325029E0,1.8764094E0],"categories":[],"categories_nodes":[],"categories_segments":[],"categories_sizes":[],"default_left":[0,0,0,0,0,0,0,0,0,0,0,0,0,0,0,0,0,0,0,0,0,0,0,0,0,0,0,0,0,0,0,0,0,0,0,0,0,0,0,0,0,0,0,0,0,0,0,0,0],"id":3,"left_children":[1,3,5,7,9,11,13,15,17,19,21,23,25,27,-1,29,31,33,35,37,39,41,43,45,47,-1,-1,-1,-1,-1,-1,-1,-1,-1,-1,-1,-1,-1,-1,-1,-1,-1,-1,-1,-1,-1,-1,-1,-1],"loss_changes":[2.8456378E6,4.9613884E5,3.7002375E5,8.639819E4,5.7011555E4,4.9926688E4,4.50425E4,7.796875E3,1.6033219E4,7.093552E3,1.2462734E4,9.006094E3,6.7271875E3,2.966875E3,0E0,4.7471875E2,3.9009062E3,9.798016E3,5.6516357E3,8.123272E3,5.232471E2,5.0463594E3,4.9411055E3,1.5719062E3,1.1479688E3,0E0,0E0,0E0,0E0,0E0,0E0,0E0,0E0,0E0,0E0,0E0,0E0,0E0,0E0,0E0,0E0,0E0,0E0,0E0,0E0,0E0,0E0,0E0,0E0],"parents":[2147483647,0,0,1,1,2,2,3,3,4,4,5,5,6,6,7,7,8,8,9,9,10,10,11,11,12,12,13,13,15,15,16,16,17,17,18,18,19,19,20,20,21,21,22,22,23,23,24,24],"right_children":[2,4,6,8,10,12,14,16,18,20,22,24,26,28,-1,30,32,34,36,38,40,42,44,46,48,-1,-1,-1,-1,-1,-1,-1,-1,-1,-1,-1,-1,-1,-1,-1,-1,-1,-1,-1,-1,-1,-1,-1,-1],"split_conditions":[1.1647826E4,4.9194062E3,2.3058887E4,3.4169055E2,7.4951543E3,1.5722449E4,3.2357855E4,1.9902977E2,5.8549475E2,1.0773665E3,1.3827448E3,1.2080931E3,1.8968879E4,2.5671586E4,4.001757E0,1.3226016E2,5.2429184E-2,4.6969023E-2,4.1100763E-2,4.779656E-2,2.0400064E0,5.0502893E-2,8.0087245E-2,1.236864E4,1.6280793E3,1.6340705E0,2.0968716E0,2.3854291E0,3.0000868E0,-8.2698816E-1,-7.459004E-1,-6.712041E-1,-4.6847185E-1,-4.9034294E-1,-2.5896737E-1,-2.5041187E-1,3.1448483E-2,-1.1910338E-1,1.6069786E-1,3.5508958E-1,6.970167E-1,2.19556E-1,5.8659685E-1,8.0575186E-1,1.652854E0,7.604915E-1,1.0619749E0,1.325029E0,1.8764094E0],"split_indices":[7,7,7,8,7,7,7,8,8,8,8,8,7,7,0,8,15,15,15,15,11,15,14,7,8,0,0,0,0,0,0,0,0,0,0,0,0,0,0,0,0,0,0,0,0,0,0,0,0],"split_type":[0,0,0,0,0,0,0,0,0,0,0,0,0,0,0,0,0,0,0,0,0,0,0,0,0,0,0,0,0,0,0,0,0,0,0,0,0,0,0,0,0,0,0,0,0,0,0,0,0],"sum_hessian":[3.768E3,3.222E3,5.46E2,2.444E3,7.78E2,3.78E2,1.68E2,1.306E3,1.138E3,4.19E2,3.59E2,2.01E2,1.77E2,1.19E2,4.9E1,6.37E2,6.69E2,8.18E2,3.2E2,3.94E2,2.5E1,3.27E2,3.2E1,1.4E2,6.1E1,9.9E1,7.8E1,4.2E1,7.7E1,3.3E2,3.07E2,5.55E2,1.14E2,5.83E2,2.35E2,2.32E2,8.8E1,1.5E2,2.44E2,1.1E1,1.4E1,4E1,2.87E2,2E1,1.2E1,3.4E1,1.06E2,4.9E1,1.2E1],"tree_param":{"num_deleted":"0","num_feature":"18","num_nodes":"49","size_leaf_vector":"1"}},{"base_weights":[1.672016E-1,-1.1227328E1,6.1058228E1,-1.7555157E1,9.840697E0,4.4289764E1,9.9234924E1,-2.216603E1,-9.975098E0,3.0757084E0,1.7877531E1,3.5645264E1,5.563273E1,8.732989E1,3.919513E0,-2.5281107E1,-1.9494457E1,-1.1531982E1,-4.4027016E-1,1.4261286E0,1.4963976E1,1.6246363E1,3.1534603E1,2.8016613E1,4.17789E1,5.187753E1,2.073245E0,2.3063262E0,2.8546233E0,-7.8033245E-1,-6.6877717E-1,-6.275425E-1,-4.410638E-1,-4.0610805E-1,-1.5535918E-1,-9.467201E-2,2.552605E-1,-1.6442741E-1,1.4148307E-1,3.228158E-1,6.6730136E-1,1.5037262E-1,5.34971E-1,6.9577324E-1,1.3160422E0,7.2089076E-1,1.0397612E0,1.1740391E0,1.8831077E0,1.3201197E0,1.631487E0],"categories":[],"categories_nodes":[],"categories_segments":[],"categories_sizes":[],"default_left":[0,0,0,0,0,0,0,0,0,0,0,0,0,0,0,0,0,0,0,0,0,0,0,0,0,0,0,0,0,0,0,0,0,0,0,0,0,0,0,0,0,0,0,0,0,0,0,0,0,0,0],"id":4,"left_children":[1,3,5,7,9,11,13,15,17,19,21,23,25,27,-1,29,31,33,35,37,39,41,43,45,47,49,-1,-1,-1,-1,-1,-1,-1,-1,-1,-1,-1,-1,-1,-1,-1,-1,-1,-1,-1,-1,-1,-1,-1,-1,-1],"loss_changes":[2.636525E6,4.2691353E5,3.790635E5,8.582744E4,4.017815E4,3.9003688E4,5.665875E4,1.2240125E4,1.3844969E4,7.88175E3,7.017289E3,1.00594375E4,5.47275E3,3.7253125E3,0E0,9.5375E2,5.3414375E3,1.0145898E4,3.2345247E3,8.0928667E3,1.2599814E3,5.3270156E3,2.583664E3,2.080125E3,4.814875E3,4.475E2,0E0,0E0,0E0,0E0,0E0,0E0,0E0,0E0,0E0,0E0,0E0,0E0,0E0,0E0,0E0,0E0,0E0,0E0,0E0,0E0,0E0,0E0,0E0,0E0,0E0],"parents":[2147483647,0,0,1,1,2,2,3,3,4,4,5,5,6,6,7,7,8,8,9,9,10,10,11,11,12,12,13,13,15,15,16,16,17,17,18,18,19,19,20,20,21,21,22,22,23,23,24,24,25,25],"right_children":[2,4,6,8,10,12,14,16,18,20,22,24,26,28,-1,30,32,34,36,38,40,42,44,46,48,50,-1,-1,-1,-1,-1,-1,-1,-1,-1,-1,-1,-1,-1,-1,-1,-1,-1,-1,-1,-1,-1,-1,-1,-1,-1],"split_conditions":[1.093611E4,4.8673657E3,2.2177416E4,3.963374E2,7.391662E3,1.5328939E4,3.2357855E4,2.1420976E2,7.046359E2,9.364719E2,1.2784778E3,9.84405E2,1.4411241E3,2.5671586E4,3.919513E0,8.3102594E2,4.828964E-2,4.761041E-2,4.3976523E-2,4.480485E-2,4.921909E-2,4.3331087E-2,4.3033633E-2,8.7158985E-2,1.7011191E3,9.698305E2,2.073245E0,2.3063262E0,2.8546233E0,-7.8033245E-1,-6.6877717E-1,-6.275425E-1,-4.410638E-1,-4.0610805E-1,-1.5535918E-1,-9.467201E-2,2.552605E-1,-1.6442741E-1,1.4148307E-1,3.228158E-1,6.6730136E-1,1.5037262E-1,5.34971E-1,6.9577324E-1,1.3160422E0,7.2089076E-1,1.0397612E0,1.1740391E0,1.8831077E0,1.3201197E0,1.631487E0],"split_indices":[7,7,7,8,7,7,7,8,8,8,8,8,8,7,0,7,15,15,15,15,15,15,15,15,8,8,0,0,0,0,0,0,0,0,0,0,0,0,0,0,0,0,0,0,0,0,0,0,0,0,0],"split_type":[0,0,0,0,0,0,0,0,0,0,0,0,0,0,0,0,0,0,0,0,0,0,0,0,0,0,0,0,0,0,0,0,0,0,0,0,0,0,0,0,0,0,0,0,0,0,0,0,0,0,0],"sum_hessian":[3.798E3,3.2E3,5.98E2,2.461E3,7.39E2,4.17E2,1.81E2,1.529E3,9.32E2,4.02E2,3.37E2,2.39E2,1.78E2,1.34E2,4.7E1,7.02E2,8.27E2,8.01E2,1.31E2,3.54E2,4.8E1,3.03E2,3.4E1,1.09E2,1.3E2,1.43E2,3.5E1,6.2E1,7.2E1,5.58E2,1.44E2,6.35E2,1.92E2,6.08E2,1.93E2,1.01E2,3E1,1.14E2,2.4E2,3.2E1,1.6E1,3.8E1,2.65E2,2.2E1,1.2E1,7.1E1,3.8E1,1.18E2,1.2E1,3.9E1,1.04E2],"tree_param":{"num_deleted":"0","num_feature":"18","num_nodes":"51","size_leaf_vector":"1"}},{"base_weights":[4.491191E-2,-1.1292997E1,5.0974934E1,-1.8992746E1,3.851809E0,3.3960968E1,8.1475845E1,-2.255343E1,-1.3072087E1,-4.194827E0,2.2657835E1,2.4407124E1,5.635788E1,7.017105E1,3.507274E0,-2.486664E1,-2.0208647E1,-1.5736228E1,-3.5296574E0,-8.403618E0,3.4780688E0,1.8208668E1,4.5696278E1,6.438735E0,3.318953E1,3.6456333E1,7.099697E1,5.6647114E1,8.2413895E1,-7.53675E-1,-5.582894E-1,-6.344116E-1,-4.3355152E-1,-5.133552E-1,-3.9447924E-1,-1.6640684E-1,2.8812876E-1,-3.0242816E-1,-9.099308E-2,-1.7931573E-2,2.4495333E-1,3.797636E-1,7.255992E-1,9.3548316E-1,1.5307623E0,1.243637E-1,3.9477384E-1,8.0646056E-1,1.2119902E0,8.5360974E-1,1.5071619E0,1.8285351E0,3.3124282E0,1.3408659E0,2.052067E0,1.9446659E0,2.6796982E0],"categories":[],"categories_nodes":[],"categories_segments":[],"categories_sizes":[],"default_left":[0,0,0,0,0,0,0,0,0,0,0,0,0,0,0,0,0,0,0,0,0,0,0,0,0,0,0,0,0,0,0,0,0,0,0,0,0,0,0,0,0,0,0,0,0,0,0,0,0,0,0,0,0,0,0,0,0],"id":5,"left_children":[1,3,5,7,9,11,13,15,17,19,21,23,25,27,-1,29,31,33,35,37,39,41,43,45,47,49,51,53,55,-1,-1,-1,-1,-1,-1,-1,-1,-1,-1,-1,-1,-1,-1,-1,-1,-1,-1,-1,-1,-1,-1,-1,-1,-1,-1,-1,-1],"loss_changes":[2.185031E6,3.6098484E5,3.5478338E5,4.2964625E4,1.580786E5,9.3630125E4,9.033575E4,6.440125E3,1.9595953E4,2.3668152E4,3.1251016E4,4.9179484E4,3.5868656E4,2.66245E4,0E0,5.5709375E2,3.1572812E3,1.924375E3,4.5573047E3,4.230242E3,4.9717627E3,8.45257E3,2.2761094E3,1.54827E3,8.464359E3,4.9676953E3,2.2968469E4,1.00085E4,6E3,0E0,0E0,0E0,0E0,0E0,0E0,0E0,0E0,0E0,0E0,0E0,0E0,0E0,0E0,0E0,0E0,0E0,0E0,0E0,0E0,0E0,0E0,0E0,0E0,0E0,0E0,0E0,0E0],"parents":[2147483647,0,0,1,1,2,2,3,3,4,4,5,5,6,6,7,7,8,8,9,9,10,10,11,11,12,12,13,13,15,15,16,16,17,17,18,18,19,19,20,20,21,21,22,22,23,23,24,24,25,25,26,26,27,27,28,28],"right_children":[2,4,6,8,10,12,14,16,18,20,22,24,26,28,-1,30,32,34,36,38,40,42,44,46,48,50,52,54,56,-1,-1,-1,-1,-1,-1,-1,-1,-1,-1,-1,-1,-1,-1,-1,-1,-1,-1,-1,-1,-1,-1,-1,-1,-1,-1,-1,-1],"split_conditions":[9.1614264E2,5.238298E2,7.78081E-2,3.3024197E2,6.612965E-2,7.067962E2,1.520342E3,1.9902977E2,5.474066E-2,4.779656E-2,1.0118177E-1,5.189511E-2,1.0764336E-1,9.649148E-2,3.507274E0,7.8849883E0,5.4158792E-2,4.075569E-2,8.8902056E-2,7.340911E2,6.673992E2,7.0183746E2,6.623126E2,4.0586155E-2,1.1032919E3,1.9756699E3,1.0434049E3,1.1740383E3,1.0636072E3,-7.53675E-1,-5.582894E-1,-6.344116E-1,-4.3355152E-1,-5.133552E-1,-3.9447924E-1,-1.6640684E-1,2.8812876E-1,-3.0242816E-1,-9.099308E-2,-1.7931573E-2,2.4495333E-1,3.797636E-1,7.255992E-1,9.3548316E-1,1.5307623E0,1.243637E-1,3.9477384E-1,8.0646056E-1,1.2119902E0,8.5360974E-1,1.5071619E0,1.8285351E0,3.3124282E0,1.3408659E0,2.052067E0,1.9446659E0,2.6796982E0],"split_indices":[8,8,15,8,15,0,8,8,15,15,15,15,14,15,0,12,15,15,15,8,8,8,8,15,8,8,0,8,8,0,0,0,0,0,0,0,0,0,0,0,0,0,0,0,0,0,0,0,0,0,0,0,0,0,0,0,0],"split_type":[0,0,0,0,0,0,0,0,0,0,0,0,0,0,0,0,0,0,0,0,0,0,0,0,0,0,0,0,0,0,0,0,0,0,0,0,0,0,0,0,0,0,0,0,0,0,0,0,0,0,0,0,0,0,0,0,0],"sum_hessian":[3.782E3,3.094E3,6.88E2,2.051E3,1.043E3,4.43E2,2.45E2,1.279E3,7.72E2,7.31E2,3.12E2,3.12E2,1.31E2,1.88E2,5.7E1,6.39E2,6.4E2,6.03E2,1.69E2,4.72E2,2.59E2,2.63E2,4.9E1,1.03E2,2.09E2,5.7E1,7.4E1,9.2E1,9.6E1,6.11E2,2.8E1,5.48E2,9.2E1,3.9E2,2.13E2,1.47E2,2.2E1,3.59E2,1.13E2,1.39E2,1.2E2,1.38E2,1.25E2,1.5E1,3.4E1,7.8E1,2.5E1,1.14E2,9.5E1,3.8E1,1.9E1,6.1E1,1.3E1,4.8E1,4.4E1,3E1,6.6E1],"tree_param":{"num_deleted":"0","num_feature":"18","num_nodes":"57","size_leaf_vector":"1"}},{"base_weights":[-5.4323528E-2,-1.2216348E1,5.1012905E1,-1.7516142E1,3.5203695E0,3.3941467E1,8.720815E1,-2.113577E1,-1.1135668E1,-2.0751152E0,1.1181908E1,2.476336E1,4.2624607E1,7.493661E1,3.6174421E0,-2.3805399E1,-1.8745447E1,-1.2688115E1,-5.369174E0,-4.0362473E0,4.4316597E0,8.920167E0,1.9179422E1,2.1311E1,3.74103E1,3.9285316E1,5.7669277E1,6.834846E1,2.568874E0,-7.5715816E-1,-6.7312324E-1,-5.9495836E-1,-4.4550163E-1,-4.3047452E-1,-2.5294772E-1,-2.1957445E-1,1.0262067E-1,-2.2608651E-1,-3.0679123E-2,-1.3352952E-2,4.3455404E-1,2.8718375E-3,2.9880553E-1,3.6380997E-1,7.599681E-1,4.5285773E-1,7.0442647E-1,7.184406E-1,1.2864078E0,1.0483297E0,1.387178E0,1.1579285E0,1.8250581E0,1.7702903E0,2.2329156E0],"categories":[],"categories_nodes":[],"categories_segments":[],"categories_sizes":[],"default_left":[0,0,0,0,0,0,0,0,0,0,0,0,0,0,0,0,0,0,0,0,0,0,0,0,0,0,0,0,0,0,0,0,0,0,0,0,0,0,0,0,0,0,0,0,0,0,0,0,0,0,0,0,0,0,0],"id":6,"left_children":[1,3,5,7,9,11,13,15,17,19,21,23,25,27,-1,29,31,33,35,37,39,41,43,45,47,49,51,53,-1,-1,-1,-1,-1,-1,-1,-1,-1,-1,-1,-1,-1,-1,-1,-1,-1,-1,-1,-1,-1,-1,-1,-1,-1,-1,-1],"loss_changes":[2.3538988E6,2.5535328E5,4.4749262E5,5.2652E4,3.3118855E4,3.8552812E4,8.6387E4,8.870375E3,7.371125E3,5.7218955E3,5.725699E3,9.856234E3,1.0495031E4,6.3341875E3,0E0,7.786875E2,2.9855625E3,4.502961E3,3.0759585E3,3.620649E3,5.1053975E3,2.3485059E3,2.7736602E3,2.2621094E3,2.7286406E3,4.7536875E3,3.0864062E2,1.969375E3,0E0,0E0,0E0,0E0,0E0,0E0,0E0,0E0,0E0,0E0,0E0,0E0,0E0,0E0,0E0,0E0,0E0,0E0,0E0,0E0,0E0,0E0,0E0,0E0,0E0,0E0,0E0],"parents":[2147483647,0,0,1,1,2,2,3,3,4,4,5,5,6,6,7,7,8,8,9,9,10,10,11,11,12,12,13,13,15,15,16,16,17,17,18,18,19,19,20,20,21,21,22,22,23,23,24,24,25,25,26,26,27,27],"right_children":[2,4,6,8,10,12,14,16,18,20,22,24,26,28,-1,30,32,34,36,38,40,42,44,46,48,50,52,54,-1,-1,-1,-1,-1,-1,-1,-1,-1,-1,-1,-1,-1,-1,-1,-1,-1,-1,-1,-1,-1,-1,-1,-1,-1,-1,-1],"split_conditions":[9.1406045E3,4.0931802E3,1.8968879E4,3.8098877E2,6.3597036E3,1.2725968E4,3.0260146E4,2.1137039E2,2.999494E2,7.663054E2,1.00874316E3,1.1534848E1,1.3827448E3,2.5671586E4,3.6174421E0,1.3226016E2,1.0732562E-1,9.495681E-2,8.019782E2,1.0571308E-1,9.331919E-2,8.950117E-2,8.467742E-2,6.6784205E0,7.7380955E-2,1.5722449E4,1.0308739E-1,1.2784778E3,2.568874E0,-7.5715816E-1,-6.7312324E-1,-5.9495836E-1,-4.4550163E-1,-4.3047452E-1,-2.5294772E-1,-2.1957445E-1,1.0262067E-1,-2.2608651E-1,-3.0679123E-2,-1.3352952E-2,4.3455404E-1,2.8718375E-3,2.9880553E-1,3.6380997E-1,7.599681E-1,4.5285773E-1,7.0442647E-1,7.184406E-1,1.2864078E0,1.0483297E0,1.387178E0,1.1579285E0,1.8250581E0,1.7702903E0,2.2329156E0],"split_indices":[7,7,7,8,7,7,7,8,0,8,8,17,8,7,0,8,14,14,8,14,14,14,14,17,14,7,14,8,0,0,0,0,0,0,0,0,0,0,0,0,0,0,0,0,0,0,0,0,0,0,0,0,0,0,0],"split_type":[0,0,0,0,0,0,0,0,0,0,0,0,0,0,0,0,0,0,0,0,0,0,0,0,0,0,0,0,0,0,0,0,0,0,0,0,0,0,0,0,0,0,0,0,0,0,0,0,0,0,0,0,0,0,0],"sum_hessian":[3.788E3,3.06E3,7.28E2,2.289E3,7.71E2,4.96E2,2.32E2,1.459E3,8.3E2,4.46E2,3.25E2,2.43E2,2.53E2,1.72E2,6E1,6.85E2,7.74E2,6.53E2,1.77E2,3.43E2,1.03E2,2.55E2,7E1,1.93E2,5E1,2.1E2,4.3E1,1.11E2,6.1E1,3.26E2,3.59E2,6.02E2,1.72E2,4.68E2,1.85E2,1.45E2,3.2E1,1.58E2,1.85E2,7E1,3.3E1,2.7E1,2.28E2,3.4E1,3.6E1,5.2E1,1.41E2,1.6E1,3.4E1,1.33E2,7.7E1,8E0,3.5E1,4.8E1,6.3E1],"tree_param":{"num_deleted":"0","num_feature":"18","num_nodes":"55","size_leaf_vector":"1"}},{"base_weights":[2.8378642E-1,-1.2271454E1,4.1573376E1,-1.8751848E1,-8.0968714E-1,2.6576437E1,6.7663704E1,-2.1413443E1,-1.3643588E1,-7.78527E0,1.1699784E1,1.7382141E1,5.089955E1,5.334582E1,9.4627846E1,-7.1746343E-1,-1.9715822E1,-1.5630195E1,-5.0537014E0,-9.976688E0,-2.7627048E0,6.845504E0,2.037142E1,3.823604E0,2.707523E1,4.5304344E1,9.898218E1,4.609847E1,8.123765E1,8.7780045E1,3.673344E0,-6.09276E-1,-4.1670918E-1,-5.008232E-1,-3.7877598E-1,-2.1702144E-1,9.858373E-4,-3.6017752E-1,-2.0470443E-1,-1.7335835E-1,8.185682E-2,5.633501E-2,3.7805474E-1,3.9214107E-1,8.5560983E-1,3.281418E-2,2.9991335E-1,6.589678E-1,1.0037955E0,8.430038E-1,1.6909852E0,1.764329E0,3.5768528E0,1.1408408E0,1.6857216E0,1.9564036E0,2.7491899E0,2.1234136E0,2.8376954E0],"categories":[],"categories_nodes":[],"categories_segments":[],"categories_sizes":[],"default_left":[0,0,0,0,0,0,0,0,0,0,0,0,0,0,0,0,0,0,0,0,0,0,0,0,0,0,0,0,0,0,0,0,0,0,0,0,0,0,0,0,0,0,0,0,0,0,0,0,0,0,0,0,0,0,0,0,0,0,0],"id":7,"left_children":[1,3,5,7,9,11,13,15,17,19,21,23,25,27,29,-1,31,33,35,37,39,41,43,45,47,49,51,53,55,57,-1,-1,-1,-1,-1,-1,-1,-1,-1,-1,-1,-1,-1,-1,-1,-1,-1,-1,-1,-1,-1,-1,-1,-1,-1,-1,-1,-1,-1],"loss_changes":[1.940884E6,2.1323344E5,3.3978488E5,2.4643125E4,9.066785E4,1.2345575E5,1.17722125E5,4.6424375E3,1.0688852E4,7.313801E3,1.5519727E4,5.3123227E4,3.6408562E4,3.8704875E4,1.00146875E4,0E0,2.2170938E3,1.42575E3,1.3310938E3,2.8870195E3,3.394241E3,6.839257E3,7.5390312E3,2.8539783E3,6.9640938E3,2.4678906E4,5.187828E3,1.16280625E4,1.0245938E3,3.839375E3,0E0,0E0,0E0,0E0,0E0,0E0,0E0,0E0,0E0,0E0,0E0,0E0,0E0,0E0,0E0,0E0,0E0,0E0,0E0,0E0,0E0,0E0,0E0,0E0,0E0,0E0,0E0,0E0,0E0],"parents":[2147483647,0,0,1,1,2,2,3,3,4,4,5,5,6,6,7,7,8,8,9,9,10,10,11,11,12,12,13,13,14,14,16,16,17,17,18,18,19,19,20,20,21,21,22,22,23,23,24,24,25,25,26,26,27,27,28,28,29,29],"right_children":[2,4,6,8,10,12,14,16,18,20,22,24,26,28,30,-1,32,34,36,38,40,42,44,46,48,50,52,54,56,58,-1,-1,-1,-1,-1,-1,-1,-1,-1,-1,-1,-1,-1,-1,-1,-1,-1,-1,-1,-1,-1,-1,-1,-1,-1,-1,-1,-1,-1],"split_conditions":[8.10492E2,4.6687637E2,1.3792641E1,3.212809E2,1.2112112E-1,1.3236395E3,1.3612192E3,1.6635202E2,1.2534864E-1,9.080081E-2,1.8598966E-1,1.04347825E-1,2.5264753E3,2.2513466E1,1.9756699E3,-7.1746343E-1,1.6861592E-1,9.283649E-2,1.2098591E1,6.3182605E2,6.368957E2,6.41109E2,6.281157E2,1.0505071E3,1.0505071E3,1.0365897E-1,8.694731E-2,1.0505071E3,4.636129E-3,1.6382353E-1,3.673344E0,-6.09276E-1,-4.1670918E-1,-5.008232E-1,-3.7877598E-1,-2.1702144E-1,9.858373E-4,-3.6017752E-1,-2.0470443E-1,-1.7335835E-1,8.185682E-2,5.633501E-2,3.7805474E-1,3.9214107E-1,8.5560983E-1,3.281418E-2,2.9991335E-1,6.589678E-1,1.0037955E0,8.430038E-1,1.6909852E0,1.764329E0,3.5768528E0,1.1408408E0,1.6857216E0,1.9564036E0,2.7491899E0,2.1234136E0,2.8376954E0],"split_indices":[8,8,12,8,14,8,8,8,14,14,14,14,8,12,8,0,14,14,12,8,8,8,8,8,8,14,14,8,13,14,0,0,0,0,0,0,0,0,0,0,0,0,0,0,0,0,0,0,0,0,0,0,0,0,0,0,0,0,0],"split_type":[0,0,0,0,0,0,0,0,0,0,0,0,0,0,0,0,0,0,0,0,0,0,0,0,0,0,0,0,0,0,0,0,0,0,0,0,0,0,0,0,0,0,0,0,0,0,0,0,0,0,0,0,0,0,0,0,0,0,0],"sum_hessian":[3.742E3,2.87E3,8.72E2,1.833E3,1.037E3,5.55E2,3.17E2,1.203E3,6.3E2,6.66E2,3.71E2,4.04E2,1.51E2,2.09E2,1.08E2,4.81E2,7.22E2,5.11E2,1.19E2,4.63E2,2.03E2,2.39E2,1.32E2,1.69E2,2.35E2,1.37E2,1.4E1,1.68E2,4.1E1,9E1,1.8E1,6.53E2,6.9E1,3.74E2,1.37E2,8.3E1,3.6E1,2.8E2,1.83E2,1.31E2,7.2E1,1.29E2,1.1E2,7.1E1,6.1E1,1.18E2,5.1E1,1.33E2,1.02E2,5.5E1,8.2E1,6E0,8E0,9.6E1,7.2E1,1.9E1,2.2E1,2.9E1,6.1E1],"tree_param":{"num_deleted":"0","num_feature":"18","num_nodes":"59","size_leaf_vector":"1"}},{"base_weights":[1.09001905E-1,-1.1491963E1,4.853705E1,-1.6624256E1,3.6011279E0,3.1856598E1,8.1836754E1,-2.0374512E1,-1.1219508E1,-1.7898177E0,1.1239653E1,2.3502645E1,3.98535E1,7.021111E1,1.0581804E2,-2.2252007E1,-1.7751064E1,-1.3448452E1,-7.323433E0,-4.430072E0,7.9892006E0,6.3347464E0,2.2804535E1,1.721468E1,3.314827E1,3.5570408E1,5.7869373E1,6.6876335E1,3.006362E0,2.561683E0,3.497481E0,-7.040033E-1,-6.216705E-1,-5.476843E-1,-3.3197612E-1,-4.496657E-1,-2.7749583E-1,-2.4971332E-1,1.6272204E-1,-2.4086136E-1,-6.0979318E-2,1.7158192E-1,5.821902E-1,7.198792E-2,2.8784978E-1,5.8028895E-1,9.7582555E-1,2.7134535E-1,6.023184E-1,9.1571504E-1,1.46927E0,8.0764306E-1,1.1801957E0,1.561567E0,2.1652584E0,1.7575159E0,2.1833923E0],"categories":[],"categories_nodes":[],"categories_segments":[],"categories_sizes":[],"default_left":[0,0,0,0,0,0,0,0,0,0,0,0,0,0,0,0,0,0,0,0,0,0,0,0,0,0,0,0,0,0,0,0,0,0,0,0,0,0,0,0,0,0,0,0,0,0,0,0,0,0,0,0,0,0,0,0,0],"id":8,"left_children":[1,3,5,7,9,11,13,15,17,19,21,23,25,27,29,31,33,35,37,39,41,43,45,47,49,51,53,55,-1,-1,-1,-1,-1,-1,-1,-1,-1,-1,-1,-1,-1,-1,-1,-1,-1,-1,-1,-1,-1,-1,-1,-1,-1,-1,-1,-1,-1],"loss_changes":[2.1657818E6,2.4096719E5,4.1120625E5,4.6816125E4,3.2551422E4,3.2332625E4,6.171225E4,6.348125E3,8.177492E3,1.2015452E4,1.8404508E4,1.4349594E4,1.7463938E4,1.03060625E4,7.41775E3,9.890625E2,1.7428594E3,3.774211E3,4.4955586E3,3.1413384E3,2.4545586E3,2.9406035E3,2.6355273E3,3.3498398E3,2.4927188E3,5.6894844E3,1.544375E2,3.3730625E3,0E0,0E0,0E0,0E0,0E0,0E0,0E0,0E0,0E0,0E0,0E0,0E0,0E0,0E0,0E0,0E0,0E0,0E0,0E0,0E0,0E0,0E0,0E0,0E0,0E0,0E0,0E0,0E0,0E0],"parents":[2147483647,0,0,1,1,2,2,3,3,4,4,5,5,6,6,7,7,8,8,9,9,10,10,11,11,12,12,13,13,14,14,15,15,16,16,17,17,18,18,19,19,20,20,21,21,22,22,23,23,24,24,25,25,26,26,27,27],"right_children":[2,4,6,8,10,12,14,16,18,20,22,24,26,28,30,32,34,36,38,40,42,44,46,48,50,52,54,56,-1,-1,-1,-1,-1,-1,-1,-1,-1,-1,-1,-1,-1,-1,-1,-1,-1,-1,-1,-1,-1,-1,-1,-1,-1,-1,-1,-1,-1],"split_conditions":[9.322576E3,4.0931802E3,1.8968879E4,3.4169055E2,6.570134E3,1.2725968E4,2.884615E4,9.0330383E2,5.238298E2,7.213485E-3,6.796716E-3,6.0409023E-3,6.122851E-3,6.3851667E-3,4.80457E-3,1.6326314E2,2.6796997E3,9.7532496E-2,8.9601135E2,5.39458E-3,9.829868E-3,5.4705013E-3,8.881649E-3,4.8686243E-3,8.133945E-3,5.017533E-3,7.556494E-3,2.3058887E4,3.006362E0,2.561683E0,3.497481E0,-7.040033E-1,-6.216705E-1,-5.476843E-1,-3.3197612E-1,-4.496657E-1,-2.7749583E-1,-2.4971332E-1,1.6272204E-1,-2.4086136E-1,-6.0979318E-2,1.7158192E-1,5.821902E-1,7.198792E-2,2.8784978E-1,5.8028895E-1,9.7582555E-1,2.7134535E-1,6.023184E-1,9.1571504E-1,1.46927E0,8.0764306E-1,1.1801957E0,1.561567E0,2.1652584E0,1.7575159E0,2.1833923E0],"split_indices":[7,7,7,8,7,7,7,7,8,13,13,13,13,13,13,8,7,14,8,13,13,13,13,13,13,13,13,7,0,0,0,0,0,0,0,0,0,0,0,0,0,0,0,0,0,0,0,0,0,0,0,0,0,0,0,0,0],"split_type":[0,0,0,0,0,0,0,0,0,0,0,0,0,0,0,0,0,0,0,0,0,0,0,0,0,0,0,0,0,0,0,0,0,0,0,0,0,0,0,0,0,0,0,0,0,0,0,0,0,0,0,0,0,0,0,0,0],"sum_hessian":[3.853E3,3.109E3,7.44E2,2.32E3,7.89E2,4.97E2,2.47E2,1.368E3,9.52E2,4.63E2,3.26E2,2.45E2,2.52E2,1.69E2,7.8E1,7.93E2,5.75E2,6.04E2,3.48E2,3.65E2,9.8E1,2.3E2,9.6E1,1.5E2,9.5E1,2.06E2,4.6E1,1.55E2,1.4E1,3E1,4.8E1,4.34E2,3.59E2,5.33E2,4.2E1,4.4E2,1.64E2,3.23E2,2.5E1,1.45E2,2.2E2,8.3E1,1.5E1,1.05E2,1.25E2,7.3E1,2.3E1,4E1,1.1E2,8.4E1,1.1E1,6.5E1,1.41E2,3.6E1,1E1,6.9E1,8.6E1],"tree_param":{"num_deleted":"0","num_feature":"18","num_nodes":"57","size_leaf_vector":"1"}},{"base_weights":[1.7513191E-2,-9.917467E0,4.738086E1,-1.5794085E1,5.89608E0,3.1289885E1,7.636241E1,-1.9935116E1,-1.0420786E1,-2.434702E0,2.244772E1,2.168313E1,5.156035E1,6.6346886E1,3.114026E0,-2.2002075E1,-1.7849895E1,-1.3304211E1,-1.8560414E0,-6.845646E0,4.3932786E0,1.8487003E1,4.8067398E1,4.2082205E0,2.821599E1,3.4137917E1,6.2893764E1,6.0515816E1,2.6722274E0,-6.854316E-1,-6.0507286E-1,-5.5900794E-1,-3.3317333E-1,-4.4590864E-1,-3.268721E-1,-1.2860893E-1,2.0389293E-1,-2.5919682E-1,-9.638519E-2,5.412166E-2,2.753522E-1,3.7047705E-1,6.8118614E-1,1.2034966E0,1.8386582E0,1.0920467E-2,1.859175E-1,6.014986E-1,9.8884135E-1,6.503819E-1,1.2191298E0,1.561315E0,2.8496585E0,1.547422E0,2.213717E0],"categories":[],"categories_nodes":[],"categories_segments":[],"categories_sizes":[],"default_left":[0,0,0,0,0,0,0,0,0,0,0,0,0,0,0,0,0,0,0,0,0,0,0,0,0,0,0,0,0,0,0,0,0,0,0,0,0,0,0,0,0,0,0,0,0,0,0,0,0,0,0,0,0,0,0],"id":9,"left_children":[1,3,5,7,9,11,13,15,17,19,21,23,25,27,-1,29,31,33,35,37,39,41,43,45,47,49,51,53,-1,-1,-1,-1,-1,-1,-1,-1,-1,-1,-1,-1,-1,-1,-1,-1,-1,-1,-1,-1,-1,-1,-1,-1,-1,-1,-1],"loss_changes":[1.7612829E6,2.876191E5,3.0026625E5,4.99905E4,1.1574277E5,8.047534E4,5.6594375E4,5.0939688E3,2.4275977E4,1.686595E4,2.7625094E4,3.2531312E4,2.4311969E4,1.7403812E4,0E0,5.2346875E2,3.1704219E3,2.6023203E3,5.2664756E3,2.188414E3,2.7091904E3,6.0642344E3,1.4307422E3,6.017969E2,7.3993438E3,3.572746E3,2.2914625E4,1.2799344E4,0E0,0E0,0E0,0E0,0E0,0E0,0E0,0E0,0E0,0E0,0E0,0E0,0E0,0E0,0E0,0E0,0E0,0E0,0E0,0E0,0E0,0E0,0E0,0E0,0E0,0E0,0E0],"parents":[2147483647,0,0,1,1,2,2,3,3,4,4,5,5,6,6,7,7,8,8,9,9,10,10,11,11,12,12,13,13,15,15,16,16,17,17,18,18,19,19,20,20,21,21,22,22,23,23,24,24,25,25,26,26,27,27],"right_children":[2,4,6,8,10,12,14,16,18,20,22,24,26,28,-1,30,32,34,36,38,40,42,44,46,48,50,52,54,-1,-1,-1,-1,-1,-1,-1,-1,-1,-1,-1,-1,-1,-1,-1,-1,-1,-1,-1,-1,-1,-1,-1,-1,-1,-1,-1],"split_conditions":[9.364719E2,5.7506165E2,7.78081E-2,3.3024197E2,6.612965E-2,6.904982E2,1.520342E3,1.9902977E2,5.4438386E-2,4.42362E-2,1.05412714E-1,4.921909E-2,1.06198445E-1,1.1480791E-1,3.114026E0,5.1431727E-2,5.9910413E-2,4.6375824E2,7.63452E-2,7.340911E2,7.663054E2,7.0183746E2,2.468713E1,7.04005E-2,6.255809E-2,3.502484E-2,1.0434049E3,1.254859E3,2.6722274E0,-6.854316E-1,-6.0507286E-1,-5.5900794E-1,-3.3317333E-1,-4.4590864E-1,-3.268721E-1,-1.2860893E-1,2.0389293E-1,-2.5919682E-1,-9.638519E-2,5.412166E-2,2.753522E-1,3.7047705E-1,6.8118614E-1,1.2034966E0,1.8386582E0,1.0920467E-2,1.859175E-1,6.014986E-1,9.8884135E-1,6.503819E-1,1.2191298E0,1.561315E0,2.8496585E0,1.547422E0,2.213717E0],"split_indices":[8,8,15,8,15,0,8,8,15,15,15,15,14,15,0,15,15,8,15,8,8,8,12,14,15,15,0,8,0,0,0,0,0,0,0,0,0,0,0,0,0,0,0,0,0,0,0,0,0,0,0,0,0,0,0],"split_type":[0,0,0,0,0,0,0,0,0,0,0,0,0,0,0,0,0,0,0,0,0,0,0,0,0,0,0,0,0,0,0,0,0,0,0,0,0,0,0,0,0,0,0,0,0,0,0,0,0,0,0,0,0,0,0],"sum_hessian":[3.741E3,3.093E3,6.48E2,2.255E3,8.38E2,4.18E2,2.3E2,1.272E3,9.83E2,5.58E2,2.8E2,2.85E2,1.33E2,1.71E2,5.9E1,6.34E2,6.38E2,7.35E2,2.48E2,3.39E2,2.19E2,2.44E2,3.6E1,7.8E1,2.07E2,5.4E1,7.9E1,1.39E2,3.2E1,4.26E2,2.08E2,5.7E2,6.8E1,4.43E2,2.92E2,1.94E2,5.4E1,2.26E2,1.13E2,1.43E2,7.6E1,1.01E2,1.43E2,2.5E1,1.1E1,2.7E1,5.1E1,7.8E1,1.29E2,2E1,3.4E1,6.1E1,1.8E1,8.6E1,5.3E1],"tree_param":{"num_deleted":"0","num_feature":"18","num_nodes":"55","size_leaf_vector":"1"}},{"base_weights":[-3.1895748E-1,-9.909379E0,4.9687637E1,-1.5562402E1,4.694816E0,3.530725E1,8.229961E1,-1.880581E1,-9.789693E0,-1.3019006E0,1.2155966E1,2.8196209E1,4.7175667E1,7.130004E1,1.0515556E2,-2.119381E1,-1.6602617E1,-1.21574955E1,-6.5550404E0,-4.0071826E0,8.104641E0,5.838416E0,1.844388E1,1.9414057E1,3.4225655E1,3.925038E1,1.7513299E0,6.624977E1,2.6321425E0,2.31743E0,3.3928325E0,-6.7141926E-1,-5.915193E-1,-5.4057E-1,-4.3775356E-1,-4.1203964E-1,-2.3220307E-1,-2.4875246E-1,4.4556465E-3,-2.2027163E-1,-4.1472916E-2,1.7243633E-1,5.726933E-1,3.6591608E-2,2.5403973E-1,4.7523922E-1,7.6751286E-1,4.3652505E-1,6.9915843E-1,9.5781595E-1,1.538281E0,8.3693E-1,1.235896E0,1.7825266E0,2.2378612E0],"categories":[],"categories_nodes":[],"categories_segments":[],"categories_sizes":[],"default_left":[0,0,0,0,0,0,0,0,0,0,0,0,0,0,0,0,0,0,0,0,0,0,0,0,0,0,0,0,0,0,0,0,0,0,0,0,0,0,0,0,0,0,0,0,0,0,0,0,0,0,0,0,0,0,0],"id":10,"left_children":[1,3,5,7,9,11,13,15,17,19,21,23,25,27,29,31,33,35,37,39,41,43,45,47,49,51,-1,53,-1,-1,-1,-1,-1,-1,-1,-1,-1,-1,-1,-1,-1,-1,-1,-1,-1,-1,-1,-1,-1,-1,-1,-1,-1,-1,-1],"loss_changes":[1.8090048E6,2.6136866E5,2.8176062E5,4.2542375E4,3.9568117E4,3.4369688E4,3.90125E4,7.3294688E3,6.2236797E3,1.2527124E4,1.5543645E4,1.3473594E4,1.1646969E4,4.8134375E3,4.1140625E3,7.80125E2,1.9130156E3,3.1960156E3,4.0759766E3,3.3339106E3,2.7381055E3,2.3944219E3,3.2553828E3,1.7614414E3,4.5156562E3,9.496406E2,0E0,1.3836562E3,0E0,0E0,0E0,0E0,0E0,0E0,0E0,0E0,0E0,0E0,0E0,0E0,0E0,0E0,0E0,0E0,0E0,0E0,0E0,0E0,0E0,0E0,0E0,0E0,0E0,0E0,0E0],"parents":[2147483647,0,0,1,1,2,2,3,3,4,4,5,5,6,6,7,7,8,8,9,9,10,10,11,11,12,12,13,13,14,14,15,15,16,16,17,17,18,18,19,19,20,20,21,21,22,22,23,23,24,24,25,25,27,27],"right_children":[2,4,6,8,10,12,14,16,18,20,22,24,26,28,30,32,34,36,38,40,42,44,46,48,50,52,-1,54,-1,-1,-1,-1,-1,-1,-1,-1,-1,-1,-1,-1,-1,-1,-1,-1,-1,-1,-1,-1,-1,-1,-1,-1,-1,-1,-1],"split_conditions":[1.0319097E4,4.0931802E3,2.1517455E4,3.7713052E2,6.679392E3,1.5328939E4,3.0260146E4,8.3102594E2,5.238298E2,7.1785534E-3,5.9320056E-3,5.4498655E-3,5.6338394E-3,5.6338394E-3,4.747964E-3,1.5043463E2,4.3976523E-2,4.5342255E-2,4.5009714E-2,5.4874048E-3,9.829868E-3,7.8589727E3,7.665376E-3,1.236864E4,7.588286E-3,4.636129E-3,1.7513299E0,2.679945E4,2.6321425E0,2.31743E0,3.3928325E0,-6.7141926E-1,-5.915193E-1,-5.4057E-1,-4.3775356E-1,-4.1203964E-1,-2.3220307E-1,-2.4875246E-1,4.4556465E-3,-2.2027163E-1,-4.1472916E-2,1.7243633E-1,5.726933E-1,3.6591608E-2,2.5403973E-1,4.7523922E-1,7.6751286E-1,4.3652505E-1,6.9915843E-1,9.5781595E-1,1.538281E0,8.3693E-1,1.235896E0,1.7825266E0,2.2378612E0],"split_indices":[7,7,7,8,7,7,7,7,8,13,13,13,13,13,13,8,15,15,15,13,13,7,13,7,13,13,0,7,0,0,0,0,0,0,0,0,0,0,0,0,0,0,0,0,0,0,0,0,0,0,0,0,0,0,0],"split_type":[0,0,0,0,0,0,0,0,0,0,0,0,0,0,0,0,0,0,0,0,0,0,0,0,0,0,0,0,0,0,0,0,0,0,0,0,0,0,0,0,0,0,0,0,0,0,0,0,0,0,0,0,0,0,0],"sum_hessian":[3.77E3,3.164E3,6.06E2,2.281E3,8.83E2,4.22E2,1.84E2,1.459E3,8.22E2,4.9E2,3.93E2,2.66E2,1.56E2,1.27E2,5.7E1,6.96E2,7.63E2,4.73E2,3.49E2,3.81E2,1.09E2,1.97E2,1.96E2,1.1E2,1.56E2,9.4E1,6.2E1,1.01E2,2.6E1,1.5E1,4.2E1,3.78E2,3.18E2,4.43E2,3.2E2,3.47E2,1.26E2,2.77E2,7.2E1,1.67E2,2.14E2,9.1E1,1.8E1,7.2E1,1.25E2,1.46E2,5E1,5.1E1,5.9E1,1.4E2,1.6E1,1.6E1,7.8E1,6E1,4.1E1],"tree_param":{"num_deleted":"0","num_feature":"18","num_nodes":"55","size_leaf_vector":"1"}},{"base_weights":[6.152334E-1,-9.103022E0,4.4894287E1,-1.5582219E1,3.6540494E0,2.755054E1,6.402656E1,-1.878761E1,-1.0586482E1,-2.3890026E0,1.8891369E1,1.978758E1,4.3708942E1,5.3168583E1,9.166652E1,-2.0757322E1,-1.6784843E1,-1.2238451E1,-1.8639761E0,-4.836214E0,3.9922037E0,1.5640983E1,4.2868813E1,1.1002855E1,2.6982368E1,3.8138176E1,7.614259E1,4.1161964E1,6.869061E1,7.964416E1,3.3593585E0,-6.5240926E-1,-5.857638E-1,-5.189009E-1,-3.2347405E-1,-4.2111856E-1,-3.266724E-1,-1.1972473E-1,1.7042814E-1,-2.3040287E-1,-4.8205417E-2,2.329554E-3,3.0162114E-1,2.8923735E-1,6.416902E-1,6.1966074E-1,1.4025735E0,2.3104316E-1,5.7047176E-1,6.821724E-1,9.799151E-1,7.7504563E-1,1.3544745E0,1.7659787E0,3.0713396E0,1.0361292E0,1.5227776E0,1.5935415E0,2.2267544E0,1.9811984E0,2.731411E0],"categories":[],"categories_nodes":[],"categories_segments":[],"categories_sizes":[],"default_left":[0,0,0,0,0,0,0,0,0,0,0,0,0,0,0,0,0,0,0,0,0,0,0,0,0,0,0,0,0,0,0,0,0,0,0,0,0,0,0,0,0,0,0,0,0,0,0,0,0,0,0,0,0,0,0,0,0,0,0,0,0],"id":11,"left_children":[1,3,5,7,9,11,13,15,17,19,21,23,25,27,29,31,33,35,37,39,41,43,45,47,49,51,53,55,57,59,-1,-1,-1,-1,-1,-1,-1,-1,-1,-1,-1,-1,-1,-1,-1,-1,-1,-1,-1,-1,-1,-1,-1,-1,-1,-1,-1,-1,-1,-1,-1],"loss_changes":[1.6330242E6,2.5728114E5,2.2487262E5,3.2852562E4,9.663696E4,4.4292438E4,9.236325E4,4.6063438E3,1.163432E4,1.1762662E4,2.2554406E4,1.5188156E4,1.8054953E4,4.0968938E4,1.30595E4,3.4221875E2,1.7429219E3,1.4977031E3,2.1087673E3,4.9837197E3,4.9586562E3,8.899305E3,2.0537266E3,2.816379E3,2.4877422E3,7.545672E3,1.2255703E3,6.8295938E3,4.7621875E3,3.2949062E3,0E0,0E0,0E0,0E0,0E0,0E0,0E0,0E0,0E0,0E0,0E0,0E0,0E0,0E0,0E0,0E0,0E0,0E0,0E0,0E0,0E0,0E0,0E0,0E0,0E0,0E0,0E0,0E0,0E0,0E0,0E0],"parents":[2147483647,0,0,1,1,2,2,3,3,4,4,5,5,6,6,7,7,8,8,9,9,10,10,11,11,12,12,13,13,14,14,15,15,16,16,17,17,18,18,19,19,20,20,21,21,22,22,23,23,24,24,25,25,26,26,27,27,28,28,29,29],"right_children":[2,4,6,8,10,12,14,16,18,20,22,24,26,28,30,32,34,36,38,40,42,44,46,48,50,52,54,56,58,60,-1,-1,-1,-1,-1,-1,-1,-1,-1,-1,-1,-1,-1,-1,-1,-1,-1,-1,-1,-1,-1,-1,-1,-1,-1,-1,-1,-1,-1,-1,-1],"split_conditions":[9.2851666E2,5.295649E2,1.2867201E1,3.3024197E2,1.1136201E1,6.904982E2,1.520342E3,1.9902977E2,9.631453E0,7.4082245E2,2.0589586E1,8.227273E0,2.5264753E3,1.8586382E1,1.8732495E3,1.3226016E2,8.850619E0,4.0382294E2,1.7252972E1,6.6087356E0,7.6166854E0,7.0183746E2,6.199676E2,8.90625E-1,1.1534147E3,6.1226954E0,8.981645E0,1.1740383E3,1.0636072E3,1.5278818E1,3.3593585E0,-6.5240926E-1,-5.857638E-1,-5.189009E-1,-3.2347405E-1,-4.2111856E-1,-3.266724E-1,-1.1972473E-1,1.7042814E-1,-2.3040287E-1,-4.8205417E-2,2.329554E-3,3.0162114E-1,2.8923735E-1,6.416902E-1,6.1966074E-1,1.4025735E0,2.3104316E-1,5.7047176E-1,6.821724E-1,9.799151E-1,7.7504563E-1,1.3544745E0,1.7659787E0,3.0713396E0,1.0361292E0,1.5227776E0,1.5935415E0,2.2267544E0,1.9811984E0,2.731411E0],"split_indices":[8,8,12,8,12,0,8,8,12,8,12,9,8,9,8,8,12,8,9,9,12,8,8,1,8,12,9,8,8,9,0,0,0,0,0,0,0,0,0,0,0,0,0,0,0,0,0,0,0,0,0,0,0,0,0,0,0,0,0,0,0],"split_type":[0,0,0,0,0,0,0,0,0,0,0,0,0,0,0,0,0,0,0,0,0,0,0,0,0,0,0,0,0,0,0,0,0,0,0,0,0,0,0,0,0,0,0,0,0,0,0,0,0,0,0,0,0,0,0,0,0,0,0,0,0],"sum_hessian":[3.793E3,3.111E3,6.82E2,2.063E3,1.048E3,3.59E2,3.23E2,1.255E3,8.08E2,7.51E2,2.97E2,2.44E2,1.15E2,2.34E2,8.9E1,6.28E2,6.27E2,6.79E2,1.29E2,5.43E2,2.08E2,2.63E2,3.4E1,1.11E2,1.33E2,1E2,1.5E1,1.34E2,1E2,5.9E1,3E1,3.39E2,2.89E2,5.76E2,5.1E1,2.87E2,3.92E2,1.01E2,2.8E1,2.88E2,2.55E2,1.27E2,8.1E1,1.3E2,1.33E2,6E0,2.8E1,8E1,3.1E1,7.9E1,5.4E1,3.8E1,6.2E1,1.1E1,4E0,8.2E1,5.2E1,2.9E1,7.1E1,3E1,2.9E1],"tree_param":{"num_deleted":"0","num_feature":"18","num_nodes":"61","size_leaf_vector":"1"}},{"base_weights":[1.3653934E-1,-1.0267325E1,4.2040813E1,-1.5150368E1,1.5357474E0,2.8539099E1,7.357785E1,-1.8274601E1,-1.0455513E1,-2.9558043E0,9.157247E0,2.167016E1,3.8935574E1,5.7655693E1,8.6210144E1,-1.9808414E1,-1.5883915E1,-1.2186406E1,-6.9392037E0,-5.169581E0,6.5062323E0,5.044769E0,2.0282808E1,1.8438662E1,3.9732494E1,3.3726917E1,4.909055E1,1.3958539E0,1.9279066E0,7.482973E1,2.987304E0,-6.2779427E-1,-5.526796E-1,-4.9507788E-1,-3.464079E-1,-3.9765215E-1,-2.0483336E-1,-2.647918E-1,-9.628679E-2,-2.604881E-1,-1.0308356E-1,1.2809457E-1,6.3172257E-1,-2.047422E-3,2.1722278E-1,4.779725E-1,8.9047515E-1,3.2095534E-1,6.6071624E-1,1.0518312E0,2.186842E0,7.645119E-1,1.0916687E0,1.1379609E0,1.5771644E0,2.0511336E0,2.782739E0],"categories":[],"categories_nodes":[],"categories_segments":[],"categories_sizes":[],"default_left":[0,0,0,0,0,0,0,0,0,0,0,0,0,0,0,0,0,0,0,0,0,0,0,0,0,0,0,0,0,0,0,0,0,0,0,0,0,0,0,0,0,0,0,0,0,0,0,0,0,0,0,0,0,0,0,0,0],"id":12,"left_children":[1,3,5,7,9,11,13,15,17,19,21,23,25,27,29,31,33,35,37,39,41,43,45,47,49,51,53,-1,-1,55,-1,-1,-1,-1,-1,-1,-1,-1,-1,-1,-1,-1,-1,-1,-1,-1,-1,-1,-1,-1,-1,-1,-1,-1,-1,-1,-1],"loss_changes":[1.657104E6,1.755216E5,3.1980812E5,3.1403438E4,3.0562332E4,3.7076438E4,4.0485625E4,4.4229375E3,5.167961E3,1.1805756E4,1.5042125E4,1.8062031E4,9.452E3,4.5832188E3,1.14113125E4,8.27625E2,1.1778828E3,3.2137266E3,1.9917334E3,2.7473281E3,3.3921323E3,2.7289307E3,3.1665078E3,7.3956484E3,4.8801875E3,2.1886875E3,6.864531E2,0E0,0E0,1.87925E3,0E0,0E0,0E0,0E0,0E0,0E0,0E0,0E0,0E0,0E0,0E0,0E0,0E0,0E0,0E0,0E0,0E0,0E0,0E0,0E0,0E0,0E0,0E0,0E0,0E0,0E0,0E0],"parents":[2147483647,0,0,1,1,2,2,3,3,4,4,5,5,6,6,7,7,8,8,9,9,10,10,11,11,12,12,13,13,14,14,15,15,16,16,17,17,18,18,19,19,20,20,21,21,22,22,23,23,24,24,25,25,26,26,29,29],"right_children":[2,4,6,8,10,12,14,16,18,20,22,24,26,28,30,32,34,36,38,40,42,44,46,48,50,52,54,-1,-1,56,-1,-1,-1,-1,-1,-1,-1,-1,-1,-1,-1,-1,-1,-1,-1,-1,-1,-1,-1,-1,-1,-1,-1,-1,-1,-1,-1],"split_conditions":[9.1406045E3,3.629977E3,1.95127E4,3.3899228E2,6.2468237E3,1.3819085E4,2.5671586E4,9.20693E2,5.238298E2,7.515727E-3,7.0297746E-3,7.00952E-3,5.7583763E-3,5.0519835E-3,5.069577E-3,1.5715701E2,6.330288E-2,5.028432E-2,9.317988E-3,5.29228E-3,1.0433425E-2,5.228359E-3,8.881649E-3,5.188921E-3,9.650954E-3,4.84076E-3,1.5328939E4,1.3958539E0,1.9279066E0,3.4796625E4,2.987304E0,-6.2779427E-1,-5.526796E-1,-4.9507788E-1,-3.464079E-1,-3.9765215E-1,-2.0483336E-1,-2.647918E-1,-9.628679E-2,-2.604881E-1,-1.0308356E-1,1.2809457E-1,6.3172257E-1,-2.047422E-3,2.1722278E-1,4.779725E-1,8.9047515E-1,3.2095534E-1,6.6071624E-1,1.0518312E0,2.186842E0,7.645119E-1,1.0916687E0,1.1379609E0,1.5771644E0,2.0511336E0,2.782739E0],"split_indices":[7,7,7,8,7,7,7,7,8,13,13,13,13,13,13,8,15,15,13,13,13,13,13,13,13,13,7,0,0,7,0,0,0,0,0,0,0,0,0,0,0,0,0,0,0,0,0,0,0,0,0,0,0,0,0,0,0],"split_type":[0,0,0,0,0,0,0,0,0,0,0,0,0,0,0,0,0,0,0,0,0,0,0,0,0,0,0,0,0,0,0,0,0,0,0,0,0,0,0,0,0,0,0,0,0,0,0,0,0,0,0,0,0,0,0,0,0],"sum_hessian":[3.799E3,3.044E3,7.55E2,2.153E3,8.91E2,5.3E2,2.25E2,1.291E3,8.62E2,5.61E2,3.3E2,3.21E2,2.09E2,1.02E2,1.23E2,7.82E2,5.09E2,5.76E2,2.86E2,4.55E2,1.06E2,2.42E2,8.8E1,2.74E2,4.7E1,1.41E2,6.8E1,4.1E1,6.1E1,7E1,5.3E1,4.25E2,3.57E2,4.43E2,6.6E1,4.79E2,9.7E1,1.89E2,9.7E1,1.49E2,3.06E2,9.3E1,1.3E1,7.3E1,1.69E2,6.2E1,2.6E1,8.8E1,1.86E2,4.3E1,4E0,3.7E1,1.04E2,1.9E1,4.9E1,5.5E1,1.5E1],"tree_param":{"num_deleted":"0","num_feature":"18","num_nodes":"57","size_leaf_vector":"1"}},{"base_weights":[3.8355058E-1,-8.285538E0,4.973705E1,-1.3324403E1,8.884029E0,3.6563324E1,7.9281364E1,-1.68552E1,-7.5607533E0,3.0195608E0,1.498512E1,2.7902489E1,4.490986E1,6.949836E1,3.0845902E0,-1.918291E1,-1.452377E1,-8.811337E0,-1.3839598E-1,2.0975332E0,1.4825786E1,1.2982897E1,2.6053545E1,2.2381529E1,3.228552E1,4.0835262E1,1.6870633E0,2.347756E0,6.1841312E1,-5.841621E-1,-4.0678585E-1,-4.5779726E-1,-3.1797835E-1,-3.0193007E-1,-2.0172691E-1,-7.842842E-2,1.7978637E-1,1.8371802E-2,1.6489106E-1,5.96654E-1,3.0306485E-1,2.3960266E-1,4.345812E-1,2.0613308E-1,8.2352155E-1,5.207455E-1,7.6226926E-1,9.08059E-1,1.2172886E0,1.1175483E0,1.4061806E0,1.5624309E0,2.0271873E0],"categories":[],"categories_nodes":[],"categories_segments":[],"categories_sizes":[],"default_left":[0,0,0,0,0,0,0,0,0,0,0,0,0,0,0,0,0,0,0,0,0,0,0,0,0,0,0,0,0,0,0,0,0,0,0,0,0,0,0,0,0,0,0,0,0,0,0,0,0,0,0,0,0],"id":13,"left_children":[1,3,5,7,9,11,13,15,17,19,21,23,25,27,-1,29,31,33,35,37,39,41,43,45,47,49,-1,-1,51,-1,-1,-1,-1,-1,-1,-1,-1,-1,-1,-1,-1,-1,-1,-1,-1,-1,-1,-1,-1,-1,-1,-1,-1],"loss_changes":[1.6236745E6,2.7938922E5,2.177825E5,5.0666875E4,2.6181238E4,2.7228312E4,3.2922125E4,8.1167812E3,8.816949E3,4.0510264E3,7.617711E3,4.0203281E3,6.8869062E3,3.6120625E3,0E0,9.8965625E2,2.0829844E3,2.0584375E3,2.1105527E3,1.7582974E3,4.447671E2,2.182336E3,1.2586484E3,9.2765625E2,5.610156E2,1.4993125E3,0E0,0E0,5.0859375E2,0E0,0E0,0E0,0E0,0E0,0E0,0E0,0E0,0E0,0E0,0E0,0E0,0E0,0E0,0E0,0E0,0E0,0E0,0E0,0E0,0E0,0E0,0E0,0E0],"parents":[2147483647,0,0,1,1,2,2,3,3,4,4,5,5,6,6,7,7,8,8,9,9,10,10,11,11,12,12,13,13,15,15,16,16,17,17,18,18,19,19,20,20,21,21,22,22,23,23,24,24,25,25,28,28],"right_children":[2,4,6,8,10,12,14,16,18,20,22,24,26,28,-1,30,32,34,36,38,40,42,44,46,48,50,-1,-1,52,-1,-1,-1,-1,-1,-1,-1,-1,-1,-1,-1,-1,-1,-1,-1,-1,-1,-1,-1,-1,-1,-1,-1,-1],"split_conditions":[1.1647826E4,5.0805776E3,2.3058887E4,3.963374E2,7.586794E3,1.5328939E4,3.2357855E4,2.3019601E2,7.046359E2,1.0388021E3,1.1740383E3,9.84405E2,1.4411241E3,5.040699E-2,3.0845902E0,1.461482E3,2.5075293E3,5.465034E2,8.9601135E2,6.679392E3,1.6602531E-2,6.469765E2,3.7530863E-1,1.3025017E4,1.484952E3,1.8968879E4,1.6870633E0,2.347756E0,2.679945E4,-5.841621E-1,-4.0678585E-1,-4.5779726E-1,-3.1797835E-1,-3.0193007E-1,-2.0172691E-1,-7.842842E-2,1.7978637E-1,1.8371802E-2,1.6489106E-1,5.96654E-1,3.0306485E-1,2.3960266E-1,4.345812E-1,2.0613308E-1,8.2352155E-1,5.207455E-1,7.6226926E-1,9.08059E-1,1.2172886E0,1.1175483E0,1.4061806E0,1.5624309E0,2.0271873E0],"split_indices":[7,7,7,8,7,7,7,8,8,8,8,8,8,16,0,7,7,8,8,7,16,8,1,7,8,7,0,0,7,0,0,0,0,0,0,0,0,0,0,0,0,0,0,0,0,0,0,0,0,0,0,0,0],"split_type":[0,0,0,0,0,0,0,0,0,0,0,0,0,0,0,0,0,0,0,0,0,0,0,0,0,0,0,0,0,0,0,0,0,0,0,0,0,0,0,0,0,0,0,0,0,0,0,0,0,0,0,0,0],"sum_hessian":[3.793E3,3.227E3,5.66E2,2.495E3,7.32E2,3.93E2,1.73E2,1.546E3,9.49E2,3.74E2,3.58E2,1.95E2,1.98E2,1.25E2,4.8E1,7.7E2,7.76E2,8.12E2,1.37E2,3.48E2,2.6E1,3.05E2,5.3E1,8.9E1,1.06E2,1.49E2,4.9E1,5.4E1,7.1E1,7.3E2,4E1,6.51E2,1.25E2,5.05E2,3.07E2,9.8E1,3.9E1,2.43E2,1.05E2,1.1E1,1.5E1,7.2E1,2.33E2,4E0,4.9E1,3.6E1,5.3E1,8.9E1,1.7E1,9.8E1,5.1E1,3E1,4.1E1],"tree_param":{"num_deleted":"0","num_feature":"18","num_nodes":"53","size_leaf_vector":"1"}},{"base_weights":[8.1638396E-2,-8.397366E0,4.5189804E1,-1.29486475E1,7.4163957E0,3.1889532E1,7.3072296E1,-1.6355742E1,-7.631473E0,2.6020331E0,1.4612008E1,2.63197E1,4.149654E1,6.416377E1,9.539361E1,-1.8059746E1,-1.3114884E1,-8.266197E0,7.732474E0,-1.4813758E0,9.01721E0,9.319298E0,2.1354465E1,1.9314426E1,3.1877357E1,3.5190292E1,1.5945891E0,6.0744003E1,2.8759298E0,2.2878995E0,3.1152308E0,-5.949973E-1,-5.1316637E-1,-4.331213E-1,-3.2647458E-1,-2.8871462E-1,-1.3572307E-1,1.3570324E-1,8.5947615E-1,-1.1560902E-1,3.8757592E-2,1.7360961E-1,3.7373218E-1,2.1558784E-1,5.5395335E-1,5.4441977E-1,9.271648E-1,4.4645137E-1,7.093023E-1,8.7795097E-1,1.2496396E0,7.86968E-1,1.1455564E0,1.4210621E0,1.9137074E0],"categories":[],"categories_nodes":[],"categories_segments":[],"categories_sizes":[],"default_left":[0,0,0,0,0,0,0,0,0,0,0,0,0,0,0,0,0,0,0,0,0,0,0,0,0,0,0,0,0,0,0,0,0,0,0,0,0,0,0,0,0,0,0,0,0,0,0,0,0,0,0,0,0,0,0],"id":14,"left_children":[1,3,5,7,9,11,13,15,17,19,21,23,25,27,29,31,33,35,37,39,41,43,45,47,49,51,-1,53,-1,-1,-1,-1,-1,-1,-1,-1,-1,-1,-1,-1,-1,-1,-1,-1,-1,-1,-1,-1,-1,-1,-1,-1,-1,-1,-1],"loss_changes":[1.450332E6,2.298335E5,2.2017662E5,4.4785E4,2.469657E4,2.0739656E4,3.2257312E4,8.1020625E3,9.523219E3,1.1251351E4,1.0007152E4,9.545797E3,9.008766E3,9.462375E3,6.45625E2,1.331E3,1.3898984E3,4.6913594E3,2.4881836E3,1.7352488E3,1.7838926E3,3.0276562E3,3.268082E3,1.9124648E3,2.4589375E3,1.6543438E3,0E0,2.275125E3,0E0,0E0,0E0,0E0,0E0,0E0,0E0,0E0,0E0,0E0,0E0,0E0,0E0,0E0,0E0,0E0,0E0,0E0,0E0,0E0,0E0,0E0,0E0,0E0,0E0,0E0,0E0],"parents":[2147483647,0,0,1,1,2,2,3,3,4,4,5,5,6,6,7,7,8,8,9,9,10,10,11,11,12,12,13,13,14,14,15,15,16,16,17,17,18,18,19,19,20,20,21,21,22,22,23,23,24,24,25,25,27,27],"right_children":[2,4,6,8,10,12,14,16,18,20,22,24,26,28,30,32,34,36,38,40,42,44,46,48,50,52,-1,54,-1,-1,-1,-1,-1,-1,-1,-1,-1,-1,-1,-1,-1,-1,-1,-1,-1,-1,-1,-1,-1,-1,-1,-1,-1,-1,-1],"split_conditions":[1.093611E4,4.9194062E3,2.1517455E4,2.0915247E3,6.336436E-3,1.5722449E4,3.0260146E4,2.8112787E2,1.1248044E-2,8.010066E3,7.586794E3,5.497714E-3,5.6338394E-3,6.2827636E-3,4.925226E-3,1.3226016E2,3.9256386E-2,7.756628E-3,1.983471E-2,6.3597036E3,5.348707E-3,8.54802E-3,7.87104E-3,1.3025017E4,6.8158526E-3,4.6850652E-3,1.5945891E0,4.535023E-3,2.8759298E0,2.2878995E0,3.1152308E0,-5.949973E-1,-5.1316637E-1,-4.331213E-1,-3.2647458E-1,-2.8871462E-1,-1.3572307E-1,1.3570324E-1,8.5947615E-1,-1.1560902E-1,3.8757592E-2,1.7360961E-1,3.7373218E-1,2.1558784E-1,5.5395335E-1,5.4441977E-1,9.271648E-1,4.4645137E-1,7.093023E-1,8.7795097E-1,1.2496396E0,7.86968E-1,1.1455564E0,1.4210621E0,1.9137074E0],"split_indices":[7,7,7,7,13,7,7,8,13,7,7,13,13,13,13,8,15,13,13,7,13,13,13,7,13,13,0,13,0,0,0,0,0,0,0,0,0,0,0,0,0,0,0,0,0,0,0,0,0,0,0,0,0,0,0],"split_type":[0,0,0,0,0,0,0,0,0,0,0,0,0,0,0,0,0,0,0,0,0,0,0,0,0,0,0,0,0,0,0,0,0,0,0,0,0,0,0,0,0,0,0,0,0,0,0,0,0,0,0,0,0,0,0],"sum_hessian":[3.79E3,3.191E3,5.99E2,2.478E3,7.13E2,4.07E2,1.92E2,1.509E3,9.69E2,4.28E2,2.85E2,2.6E2,1.47E2,1.4E2,5.2E1,9.86E2,5.23E2,9.31E2,3.8E1,2.62E2,1.66E2,1.61E2,1.24E2,1.17E2,1.43E2,9.8E1,4.9E1,1.29E2,1.1E1,1.9E1,3.3E1,3.38E2,6.48E2,3.25E2,1.98E2,6.82E2,2.49E2,3.4E1,4E0,1.41E2,1.21E2,8.7E1,7.9E1,1.32E2,2.9E1,9.5E1,2.9E1,6E1,5.7E1,1.16E2,2.7E1,2.7E1,7.1E1,2.7E1,1.02E2],"tree_param":{"num_deleted":"0","num_feature":"18","num_nodes":"55","size_leaf_vector":"1"}},{"base_weights":[2.8664818E-1,-7.7101398E0,4.1972404E1,-1.3116305E1,5.6035123E0,2.321429E1,5.7178967E1,-1.6715044E1,-8.49691E0,-3.0726407E0,1.5976398E1,1.7387197E1,4.764506E1,4.8285297E1,8.349253E1,-1.8418047E1,-1.497193E1,-1.05157175E1,3.008211E-1,-5.7239227E0,1.8971255E0,1.1652711E1,2.9002237E1,6.9354496E0,2.3945395E1,7.743975E-1,5.8443867E1,3.5260895E1,5.9135075E1,7.286602E1,3.0529103E0,-5.888718E-1,-5.250277E-1,-4.8064336E-1,-3.6538762E-1,-3.5705096E-1,-2.1948451E-1,-7.896704E-2,1.9827749E-1,-2.1752965E-1,-5.851472E-2,-7.4575625E-2,1.8333144E-1,2.245911E-1,5.1152E-1,5.389463E-1,1.0634229E0,1.0324781E-1,3.940774E-1,5.0844777E-1,8.9255553E-1,6.551618E-1,1.8014768E0,7.708599E-1,1.2394924E0,1.528846E0,2.0420587E0,1.9403766E0,3.1217206E0],"categories":[],"categories_nodes":[],"categories_segments":[],"categories_sizes":[],"default_left":[0,0,0,0,0,0,0,0,0,0,0,0,0,0,0,0,0,0,0,0,0,0,0,0,0,0,0,0,0,0,0,0,0,0,0,0,0,0,0,0,0,0,0,0,0,0,0,0,0,0,0,0,0,0,0,0,0,0,0],"id":15,"left_children":[1,3,5,7,9,11,13,15,17,19,21,23,25,27,29,31,33,35,37,39,41,43,45,47,49,-1,51,53,55,57,-1,-1,-1,-1,-1,-1,-1,-1,-1,-1,-1,-1,-1,-1,-1,-1,-1,-1,-1,-1,-1,-1,-1,-1,-1,-1,-1,-1,-1],"loss_changes":[1.2550611E6,2.2744505E5,1.71532E5,3.7212094E4,8.2216125E4,3.803597E4,7.413275E4,3.4705625E3,1.7515438E4,6.5726333E3,2.3091016E4,1.5050836E4,1.0750766E4,3.3525438E4,8.7E3,3.60625E2,1.6482344E3,3.4694219E3,3.4404473E3,1.8585967E3,3.2288909E3,6.934129E3,6.6903906E3,1.8395186E3,5.021242E3,0E0,6.8658594E2,5.7155156E3,6.4616562E3,7.569625E3,0E0,0E0,0E0,0E0,0E0,0E0,0E0,0E0,0E0,0E0,0E0,0E0,0E0,0E0,0E0,0E0,0E0,0E0,0E0,0E0,0E0,0E0,0E0,0E0,0E0,0E0,0E0,0E0,0E0],"parents":[2147483647,0,0,1,1,2,2,3,3,4,4,5,5,6,6,7,7,8,8,9,9,10,10,11,11,12,12,13,13,14,14,15,15,16,16,17,17,18,18,19,19,20,20,21,21,22,22,23,23,24,24,26,26,27,27,28,28,29,29],"right_children":[2,4,6,8,10,12,14,16,18,20,22,24,26,28,30,32,34,36,38,40,42,44,46,48,50,-1,52,54,56,58,-1,-1,-1,-1,-1,-1,-1,-1,-1,-1,-1,-1,-1,-1,-1,-1,-1,-1,-1,-1,-1,-1,-1,-1,-1,-1,-1,-1,-1],"split_conditions":[9.698305E2,5.7506165E2,1.3499123E-1,3.3024197E2,1.2E-1,9.285517E2,7.7504285E2,1.9902977E2,1.3164794E-1,8.87605E-2,2.0233986E-1,9.331919E-2,7.6277524E-2,1.7958394E-1,1.9756699E3,1.1849271E2,1.06198445E-1,9.495681E-2,2.0481066E-1,3.926875E2,3.375E2,3.641316E2,7.1088617E2,6.4610406E2,6.0104266E2,7.743975E-1,4.4966107E-3,5.568412E2,1.2080931E3,1.9683405E1,3.0529103E0,-5.888718E-1,-5.250277E-1,-4.8064336E-1,-3.6538762E-1,-3.5705096E-1,-2.1948451E-1,-7.896704E-2,1.9827749E-1,-2.1752965E-1,-5.851472E-2,-7.4575625E-2,1.8333144E-1,2.245911E-1,5.1152E-1,5.389463E-1,1.0634229E0,1.0324781E-1,3.940774E-1,5.0844777E-1,8.9255553E-1,6.551618E-1,1.8014768E0,7.708599E-1,1.2394924E0,1.528846E0,2.0420587E0,1.9403766E0,3.1217206E0],"split_indices":[8,8,14,8,14,0,0,8,14,14,14,14,14,14,8,8,14,14,14,0,0,0,8,0,0,0,13,0,8,12,0,0,0,0,0,0,0,0,0,0,0,0,0,0,0,0,0,0,0,0,0,0,0,0,0,0,0,0,0],"split_type":[0,0,0,0,0,0,0,0,0,0,0,0,0,0,0,0,0,0,0,0,0,0,0,0,0,0,0,0,0,0,0,0,0,0,0,0,0,0,0,0,0,0,0,0,0,0,0,0,0,0,0,0,0,0,0,0,0,0,0],"sum_hessian":[3.763E3,3.158E3,6.05E2,2.246E3,9.12E2,2.72E2,3.33E2,1.261E3,9.85E2,4.97E2,4.15E2,2.21E2,5.1E1,2.51E2,8.2E1,6.33E2,6.28E2,8.01E2,1.84E2,3.24E2,1.73E2,3.13E2,1.02E2,8.6E1,1.35E2,1.8E1,3.3E1,1.16E2,1.35E2,5.5E1,2.7E1,2.64E2,3.69E2,4.53E2,1.75E2,5.57E2,2.44E2,1.26E2,5.8E1,2.3E2,9.4E1,8.5E1,8.8E1,1.78E2,1.35E2,3.9E1,6.3E1,5.6E1,3E1,6.3E1,7.2E1,2E0,3.1E1,4.7E1,6.9E1,7.4E1,6.1E1,4.6E1,9E0],"tree_param":{"num_deleted":"0","num_feature":"18","num_nodes":"59","size_leaf_vector":"1"}},{"base_weights":[4.3774012E-2,-9.27706E0,3.7739365E1,-1.34826765E1,1.4430943E0,2.6554728E1,6.9206955E1,-1.6152115E1,-9.359579E0,-2.5354912E0,7.7011E0,1.8578682E1,3.3961834E1,6.043434E1,9.4112404E1,-1.7880865E1,-1.4509058E1,-1.1139101E1,-6.2637796E0,-4.8268647E0,6.1697636E0,4.1686187E0,1.7113981E1,1.54458275E1,3.4612328E1,3.1065622E1,4.7614674E1,5.3692455E1,6.9579994E1,2.214988E0,3.1051764E0,-5.5484515E-1,-4.746525E-1,-4.644604E-1,-3.4372488E-1,-3.723319E-1,-2.2739208E-1,-2.1490553E-1,4.0695615E-2,-2.3935513E-1,-8.7663345E-2,1.16889305E-1,6.0470945E-1,6.64685E-2,2.6523367E-1,4.4630763E-1,8.192244E-1,1.7346354E-1,5.192121E-1,9.1907674E-1,1.7611811E0,8.005152E-1,1.1355197E0,1.2541041E0,1.7283725E0,1.2989091E0,1.7398597E0,1.801291E0,2.3812575E0],"categories":[],"categories_nodes":[],"categories_segments":[],"categories_sizes":[],"default_left":[0,0,0,0,0,0,0,0,0,0,0,0,0,0,0,0,0,0,0,0,0,0,0,0,0,0,0,0,0,0,0,0,0,0,0,0,0,0,0,0,0,0,0,0,0,0,0,0,0,0,0,0,0,0,0,0,0,0,0],"id":16,"left_children":[1,3,5,7,9,11,13,15,17,19,21,23,25,27,29,31,33,35,37,39,41,43,45,47,49,51,53,55,57,-1,-1,-1,-1,-1,-1,-1,-1,-1,-1,-1,-1,-1,-1,-1,-1,-1,-1,-1,-1,-1,-1,-1,-1,-1,-1,-1,-1,-1,-1],"loss_changes":[1.322145E6,1.3604048E5,2.6071962E5,2.3699594E4,2.1207732E4,3.1980875E4,3.6917125E4,3.4729062E3,4.634953E3,1.0422163E4,1.093468E4,1.2927305E4,9.790156E3,5.3279375E3,1.6920625E3,5.114375E2,1.8385938E3,2.3552344E3,2.1625889E3,2.4559639E3,3.3875845E3,2.1887607E3,1.6460625E3,3.964879E3,2.3211914E3,6.0658594E3,3.8035156E2,1.4699688E3,7.4565625E2,0E0,0E0,0E0,0E0,0E0,0E0,0E0,0E0,0E0,0E0,0E0,0E0,0E0,0E0,0E0,0E0,0E0,0E0,0E0,0E0,0E0,0E0,0E0,0E0,0E0,0E0,0E0,0E0,0E0,0E0],"parents":[2147483647,0,0,1,1,2,2,3,3,4,4,5,5,6,6,7,7,8,8,9,9,10,10,11,11,12,12,13,13,14,14,15,15,16,16,17,17,18,18,19,19,20,20,21,21,22,22,23,23,24,24,25,25,26,26,27,27,28,28],"right_children":[2,4,6,8,10,12,14,16,18,20,22,24,26,28,30,32,34,36,38,40,42,44,46,48,50,52,54,56,58,-1,-1,-1,-1,-1,-1,-1,-1,-1,-1,-1,-1,-1,-1,-1,-1,-1,-1,-1,-1,-1,-1,-1,-1,-1,-1,-1,-1,-1,-1],"split_conditions":[9.1406045E3,3.629977E3,2.1517455E4,3.3899228E2,6.1900356E3,1.3025017E4,3.2357855E4,1.9902977E2,5.047733E2,7.515727E-3,6.796716E-3,7.061802E-3,6.0804407E-3,5.188921E-3,4.84076E-3,5.4438386E-2,4.7474213E-2,4.5493547E-2,7.808384E2,5.377711E-3,1.05268555E-2,6.0804407E-3,9.144096E-3,4.84076E-3,9.650954E-3,1.6804438E4,1.7156848E4,2.4906555E4,2.4906555E4,2.214988E0,3.1051764E0,-5.5484515E-1,-4.746525E-1,-4.644604E-1,-3.4372488E-1,-3.723319E-1,-2.2739208E-1,-2.1490553E-1,4.0695615E-2,-2.3935513E-1,-8.7663345E-2,1.16889305E-1,6.0470945E-1,6.64685E-2,2.6523367E-1,4.4630763E-1,8.192244E-1,1.7346354E-1,5.192121E-1,9.1907674E-1,1.7611811E0,8.005152E-1,1.1355197E0,1.2541041E0,1.7283725E0,1.2989091E0,1.7398597E0,1.801291E0,2.3812575E0],"split_indices":[7,7,7,8,7,7,7,8,8,13,13,13,13,13,13,15,15,15,8,13,13,13,13,13,13,7,7,7,7,0,0,0,0,0,0,0,0,0,0,0,0,0,0,0,0,0,0,0,0,0,0,0,0,0,0,0,0,0,0],"split_type":[0,0,0,0,0,0,0,0,0,0,0,0,0,0,0,0,0,0,0,0,0,0,0,0,0,0,0,0,0,0,0,0,0,0,0,0,0,0,0,0,0,0,0,0,0,0,0,0,0,0,0,0,0,0,0,0,0,0,0],"sum_hessian":[3.761E3,3.016E3,7.45E2,2.166E3,8.5E2,5.51E2,1.94E2,1.313E3,8.53E2,5.2E2,3.3E2,2.67E2,2.84E2,1.46E2,4.8E1,6.35E2,6.78E2,5.4E2,3.13E2,4.12E2,1.08E2,2.41E2,8.9E1,2.25E2,4.2E1,2.37E2,4.7E1,8.8E1,5.8E1,1.8E1,3E1,4.83E2,1.52E2,5.11E2,1.67E2,3.96E2,1.44E2,2.8E2,3.3E1,1.54E2,2.58E2,9.4E1,1.4E1,1.71E2,7E1,7.5E1,1.4E1,3.7E1,1.88E2,3.8E1,4E0,1.47E2,9E1,3.3E1,1.4E1,2.9E1,5.9E1,3.3E1,2.5E1],"tree_param":{"num_deleted":"0","num_feature":"18","num_nodes":"59","size_leaf_vector":"1"}},{"base_weights":[4.633481E-1,-8.031718E0,3.975554E1,-1.1907937E1,5.5383043E0,2.7660133E1,6.7557625E1,-1.4929276E1,-6.8170614E0,1.3885019E0,1.01879635E1,2.2160349E1,3.755206E1,6.1357662E1,2.9122157E0,-1.7000788E1,-1.2801275E1,-8.09753E0,-1.9339044E0,6.209713E0,2.0742117E-1,2.0662909E1,8.792311E0,1.911754E1,3.0151182E1,3.42288E1,4.5837555E1,5.2200184E1,6.835514E1,-5.397941E-1,-4.6971262E-1,-4.022306E-1,-2.7126133E-1,-2.9822677E-1,-1.4193177E-1,-1.0261857E-1,1.4439574E-1,8.171755E-2,3.6414155E-1,-1.17799394E-1,6.599863E-2,4.5965695E-1,8.5029006E-1,6.539364E-2,3.067256E-1,4.9844432E-1,7.1789044E-1,8.2109284E-1,1.1179806E0,9.043318E-1,1.1529403E0,7.2993565E-1,1.4391271E0,1.3094422E0,1.6783608E0,2.205032E0,1.7615781E0],"categories":[],"categories_nodes":[],"categories_segments":[],"categories_sizes":[],"default_left":[0,0,0,0,0,0,0,0,0,0,0,0,0,0,0,0,0,0,0,0,0,0,0,0,0,0,0,0,0,0,0,0,0,0,0,0,0,0,0,0,0,0,0,0,0,0,0,0,0,0,0,0,0,0,0,0,0],"id":17,"left_children":[1,3,5,7,9,11,13,15,17,19,21,23,25,27,-1,29,31,33,35,37,39,41,43,45,47,49,51,53,55,-1,-1,-1,-1,-1,-1,-1,-1,-1,-1,-1,-1,-1,-1,-1,-1,-1,-1,-1,-1,-1,-1,-1,-1,-1,-1,-1,-1],"loss_changes":[1.2430186E6,1.6112831E5,2.2074712E5,3.6536406E4,1.3125863E4,2.4356625E4,3.0643625E4,6.3681875E3,5.5430156E3,2.0543325E3,4.5111445E3,6.7179688E3,2.94675E3,7.197125E3,0E0,7.236719E2,1.5679844E3,4.3217305E3,1.8822312E3,1.4341497E3,2.4056829E3,1.0834512E3,2.6761797E3,2.2519766E3,5.8297656E2,9.1846875E2,8.515547E2,2.434375E1,2.459375E2,0E0,0E0,0E0,0E0,0E0,0E0,0E0,0E0,0E0,0E0,0E0,0E0,0E0,0E0,0E0,0E0,0E0,0E0,0E0,0E0,0E0,0E0,0E0,0E0,0E0,0E0,0E0,0E0],"parents":[2147483647,0,0,1,1,2,2,3,3,4,4,5,5,6,6,7,7,8,8,9,9,10,10,11,11,12,12,13,13,15,15,16,16,17,17,18,18,19,19,20,20,21,21,22,22,23,23,24,24,25,25,26,26,27,27,28,28],"right_children":[2,4,6,8,10,12,14,16,18,20,22,24,26,28,-1,30,32,34,36,38,40,42,44,46,48,50,52,54,56,-1,-1,-1,-1,-1,-1,-1,-1,-1,-1,-1,-1,-1,-1,-1,-1,-1,-1,-1,-1,-1,-1,-1,-1,-1,-1,-1,-1],"split_conditions":[1.0002799E4,4.8673657E3,2.1517455E4,3.963374E2,7.054774E3,1.4999438E4,3.4796625E4,9.0330383E2,6.5065247E2,3.1093702E-2,6.727125E0,1.1740383E3,1.4184147E3,2.5671586E4,2.9122157E0,1.6326314E2,2.7314238E3,9.080081E-2,8.9601135E2,8.898163E-2,1.00813605E-1,9.542921E-2,9.6793E-2,1.3025017E4,1.5994362E3,1.1550387E0,9.817589E-2,1.1864956E3,6.724716E-2,-5.397941E-1,-4.6971262E-1,-4.022306E-1,-2.7126133E-1,-2.9822677E-1,-1.4193177E-1,-1.0261857E-1,1.4439574E-1,8.171755E-2,3.6414155E-1,-1.17799394E-1,6.599863E-2,4.5965695E-1,8.5029006E-1,6.539364E-2,3.067256E-1,4.9844432E-1,7.1789044E-1,8.2109284E-1,1.1179806E0,9.043318E-1,1.1529403E0,7.2993565E-1,1.4391271E0,1.3094422E0,1.6783608E0,2.205032E0,1.7615781E0],"split_indices":[7,7,7,8,7,7,7,7,8,16,9,8,8,7,0,8,7,14,8,14,14,14,14,7,8,1,14,8,16,0,0,0,0,0,0,0,0,0,0,0,0,0,0,0,0,0,0,0,0,0,0,0,0,0,0,0,0],"split_type":[0,0,0,0,0,0,0,0,0,0,0,0,0,0,0,0,0,0,0,0,0,0,0,0,0,0,0,0,0,0,0,0,0,0,0,0,0,0,0,0,0,0,0,0,0,0,0,0,0,0,0,0,0,0,0,0,0],"sum_hessian":[3.722E3,3.061E3,6.61E2,2.381E3,6.8E2,4.62E2,1.99E2,1.493E3,8.88E2,3.6E2,3.2E2,2.99E2,1.63E2,1.67E2,3.2E1,7.53E2,7.4E2,7.03E2,1.85E2,7E1,2.9E2,3.6E1,2.84E2,2.19E2,8E1,1.2E2,4.3E1,7.6E1,9.1E1,4.26E2,3.27E2,6.35E2,1.05E2,4.53E2,2.5E2,1.52E2,3.3E1,4.5E1,2.5E1,9.4E1,1.96E2,2.3E1,1.3E1,5.1E1,2.33E2,1.47E2,7.2E1,6.1E1,1.9E1,6.5E1,5.5E1,5E0,3.8E1,2.7E1,4.9E1,5.5E1,3.6E1],"tree_param":{"num_deleted":"0","num_feature":"18","num_nodes":"57","size_leaf_vector":"1"}},{"base_weights":[4.056459E-1,-7.3739824E0,3.690761E1,-1.1731115E1,5.7013345E0,2.405282E1,5.9089035E1,-1.5026879E1,-7.324914E0,-1.4366328E0,1.8128035E1,1.9054142E1,4.4552845E1,5.0854084E1,8.141811E1,-1.6635052E1,-1.3228327E1,-9.834782E0,-1.6577558E-1,-4.3643355E0,4.685594E0,1.3312387E1,3.0272947E1,4.067821E0,2.393523E1,2.7800493E1,6.021854E1,4.6240215E1,2.1889596E0,7.3042786E1,3.1654322E0,-5.103043E-1,-4.0644863E-1,-4.3289867E-1,-2.9391316E-1,-3.4022927E-1,-2.3974445E-1,-4.583621E-2,3.4632957E-1,-1.6626205E-1,-3.5531502E-2,8.0552936E-2,2.525859E-1,2.6156983E-1,4.8871896E-1,7.201729E-1,1.1484472E0,1.12775685E-2,2.089864E-1,6.1085975E-1,9.240035E-1,6.7848086E-1,1.3116374E0,1.4525709E0,2.3232925E0,1.1952242E0,1.7063746E0,1.8753414E0,2.5382829E0],"categories":[],"categories_nodes":[],"categories_segments":[],"categories_sizes":[],"default_left":[0,0,0,0,0,0,0,0,0,0,0,0,0,0,0,0,0,0,0,0,0,0,0,0,0,0,0,0,0,0,0,0,0,0,0,0,0,0,0,0,0,0,0,0,0,0,0,0,0,0,0,0,0,0,0,0,0,0,0],"id":18,"left_children":[1,3,5,7,9,11,13,15,17,19,21,23,25,27,29,31,33,35,37,39,41,43,45,47,49,51,53,55,-1,57,-1,-1,-1,-1,-1,-1,-1,-1,-1,-1,-1,-1,-1,-1,-1,-1,-1,-1,-1,-1,-1,-1,-1,-1,-1,-1,-1,-1,-1],"loss_changes":[1.0603386E6,1.7542325E5,1.85629E5,3.342075E4,6.83261E4,4.188233E4,3.99905E4,3.5979062E3,1.778718E4,8.80324E3,1.6031453E4,2.4554055E4,1.9583312E4,1.4785344E4,5.0072188E3,5.7190625E2,2.4478984E3,1.9444453E3,4.132815E3,1.2368198E3,1.1650789E3,2.6350508E3,3.0461562E3,8.9622986E2,5.6034375E3,2.3953633E3,4.5831562E3,7.9463438E3,0E0,8.0159375E2,0E0,0E0,0E0,0E0,0E0,0E0,0E0,0E0,0E0,0E0,0E0,0E0,0E0,0E0,0E0,0E0,0E0,0E0,0E0,0E0,0E0,0E0,0E0,0E0,0E0,0E0,0E0,0E0,0E0],"parents":[2147483647,0,0,1,1,2,2,3,3,4,4,5,5,6,6,7,7,8,8,9,9,10,10,11,11,12,12,13,13,14,14,15,15,16,16,17,17,18,18,19,19,20,20,21,21,22,22,23,23,24,24,25,25,26,26,27,27,29,29],"right_children":[2,4,6,8,10,12,14,16,18,20,22,24,26,28,30,32,34,36,38,40,42,44,46,48,50,52,54,56,-1,58,-1,-1,-1,-1,-1,-1,-1,-1,-1,-1,-1,-1,-1,-1,-1,-1,-1,-1,-1,-1,-1,-1,-1,-1,-1,-1,-1,-1,-1],"split_conditions":[9.364719E2,5.9862146E2,7.78081E-2,3.4459982E2,6.612965E-2,1.6280793E3,1.520342E3,2.1420976E2,5.4158792E-2,4.872495E-2,9.321333E-2,4.921909E-2,4.9855694E-2,1.178672E-1,2.0728984E3,6.393152E-2,4.8133753E-2,3.8624648E-2,9.564101E-2,7.808384E2,7.5833105E2,7.213437E2,1.10296026E-1,1.0636072E3,1.2313567E3,2.5264753E3,2.0728984E3,1.2784778E3,2.1889596E0,9.2252314E-2,3.1654322E0,-5.103043E-1,-4.0644863E-1,-4.3289867E-1,-2.9391316E-1,-3.4022927E-1,-2.3974445E-1,-4.583621E-2,3.4632957E-1,-1.6626205E-1,-3.5531502E-2,8.0552936E-2,2.525859E-1,2.6156983E-1,4.8871896E-1,7.201729E-1,1.1484472E0,1.12775685E-2,2.089864E-1,6.1085975E-1,9.240035E-1,6.7848086E-1,1.3116374E0,1.4525709E0,2.3232925E0,1.1952242E0,1.7063746E0,1.8753414E0,2.5382829E0],"split_indices":[8,8,15,8,15,8,8,8,15,15,15,15,15,15,8,15,15,15,15,8,8,8,15,8,8,8,8,8,0,15,0,0,0,0,0,0,0,0,0,0,0,0,0,0,0,0,0,0,0,0,0,0,0,0,0,0,0,0,0],"split_type":[0,0,0,0,0,0,0,0,0,0,0,0,0,0,0,0,0,0,0,0,0,0,0,0,0,0,0,0,0,0,0,0,0,0,0,0,0,0,0,0,0,0,0,0,0,0,0,0,0,0,0,0,0,0,0,0,0,0,0],"sum_hessian":[3.732E3,3.077E3,6.55E2,2.308E3,7.69E2,4.16E2,2.39E2,1.319E3,9.89E2,4.89E2,2.8E2,3.36E2,8E1,1.77E2,6.2E1,6.92E2,6.27E2,7.32E2,2.57E2,3.31E2,1.58E2,2.02E2,7.8E1,8.3E1,2.53E2,4E1,4E1,1.49E2,2.8E1,4.9E1,1.3E1,6.13E2,7.9E1,4.62E2,1.65E2,4E2,3.32E2,2.31E2,2.6E1,2.41E2,9E1,1.04E2,5.4E1,8.1E1,1.21E2,4.6E1,3.2E1,3.7E1,4.6E1,1.69E2,8.4E1,3.2E1,8E0,2.6E1,1.4E1,9.6E1,5.3E1,2.9E1,2E1],"tree_param":{"num_deleted":"0","num_feature":"18","num_nodes":"59","size_leaf_vector":"1"}},{"base_weights":[1.2942693E-1,-8.167272E0,3.5204258E1,-1.1918768E1,2.8002279E0,2.4083721E1,6.3487175E1,-1.4821603E1,-8.209765E0,-6.969106E-1,9.250214E0,1.775623E1,3.275712E1,5.481599E1,8.71576E1,-1.6272993E1,-1.314957E1,-9.769609E0,-5.2883224E0,-4.2143617E0,3.9640837E0,3.9674802E0,1.4943118E1,1.4425118E1,2.828946E1,2.9498884E1,1.3735766E0,5.1398228E1,2.3221161E0,1.5927429E0,2.7356226E0,-5.1577693E-1,-4.5330897E-1,-4.091174E-1,-2.4793687E-1,-3.407517E-1,-2.0253839E-1,-2.0110439E-1,-4.413931E-3,-2.0759386E-1,-8.129137E-2,2.8817814E-2,1.9439857E-1,7.1209915E-2,4.4976968E-1,3.8684705E-1,7.546609E-1,2.6420116E-1,5.313827E-1,7.5068593E-1,1.1447581E0,7.0785767E-1,9.8549294E-1,1.3848581E0,1.7519344E0],"categories":[],"categories_nodes":[],"categories_segments":[],"categories_sizes":[],"default_left":[0,0,0,0,0,0,0,0,0,0,0,0,0,0,0,0,0,0,0,0,0,0,0,0,0,0,0,0,0,0,0,0,0,0,0,0,0,0,0,0,0,0,0,0,0,0,0,0,0,0,0,0,0,0,0],"id":19,"left_children":[1,3,5,7,9,11,13,15,17,19,21,23,25,27,29,31,33,35,37,39,41,43,45,47,49,51,-1,53,-1,-1,-1,-1,-1,-1,-1,-1,-1,-1,-1,-1,-1,-1,-1,-1,-1,-1,-1,-1,-1,-1,-1,-1,-1,-1,-1],"loss_changes":[1.1029065E6,1.2614136E5,2.2649888E5,2.4469312E4,1.7645625E4,2.8066156E4,3.70935E4,2.8922812E3,4.5281094E3,8.345274E3,8.21109E3,1.0258477E4,7.946078E3,7.7559688E3,2.4345938E3,4.6832812E2,1.3166797E3,3.0595547E3,2.5600234E3,1.1617607E3,1.648624E3,2.4947197E3,2.4366523E3,4.147824E3,1.3663359E3,2.7461562E3,0E0,2.2522812E3,0E0,0E0,0E0,0E0,0E0,0E0,0E0,0E0,0E0,0E0,0E0,0E0,0E0,0E0,0E0,0E0,0E0,0E0,0E0,0E0,0E0,0E0,0E0,0E0,0E0,0E0,0E0],"parents":[2147483647,0,0,1,1,2,2,3,3,4,4,5,5,6,6,7,7,8,8,9,9,10,10,11,11,12,12,13,13,14,14,15,15,16,16,17,17,18,18,19,19,20,20,21,21,22,22,23,23,24,24,25,25,27,27],"right_children":[2,4,6,8,10,12,14,16,18,20,22,24,26,28,30,32,34,36,38,40,42,44,46,48,50,52,-1,54,-1,-1,-1,-1,-1,-1,-1,-1,-1,-1,-1,-1,-1,-1,-1,-1,-1,-1,-1,-1,-1,-1,-1,-1,-1,-1,-1],"split_conditions":[9.322576E3,4.0931802E3,2.1517455E4,3.3024197E2,6.5679834E-3,1.4119561E4,3.2357855E4,8.08165E2,5.1875793E2,6.471041E3,6.1900356E3,6.3851667E-3,6.0051284E-3,5.827526E-3,4.4524902E-3,1.5043463E2,6.7732155E-2,4.268029E-2,4.3813843E-2,5.095636E-3,5.4705013E-3,9.495019E-3,9.144096E-3,5.1522846E-3,7.932586E-3,5.017533E-3,1.3735766E0,2.679945E4,2.3221161E0,1.5927429E0,2.7356226E0,-5.1577693E-1,-4.5330897E-1,-4.091174E-1,-2.4793687E-1,-3.407517E-1,-2.0253839E-1,-2.0110439E-1,-4.413931E-3,-2.0759386E-1,-8.129137E-2,2.8817814E-2,1.9439857E-1,7.1209915E-2,4.4976968E-1,3.8684705E-1,7.546609E-1,2.6420116E-1,5.313827E-1,7.5068593E-1,1.1447581E0,7.0785767E-1,9.8549294E-1,1.3848581E0,1.7519344E0],"split_indices":[7,7,7,8,13,7,7,7,8,7,7,13,13,13,13,8,15,15,15,13,13,13,13,13,13,13,0,7,0,0,0,0,0,0,0,0,0,0,0,0,0,0,0,0,0,0,0,0,0,0,0,0,0,0,0],"split_type":[0,0,0,0,0,0,0,0,0,0,0,0,0,0,0,0,0,0,0,0,0,0,0,0,0,0,0,0,0,0,0,0,0,0,0,0,0,0,0,0,0,0,0,0,0,0,0,0,0,0,0,0,0,0,0],"sum_hessian":[3.788E3,3.064E3,7.24E2,2.283E3,7.81E2,5.21E2,2.03E2,1.279E3,1.004E3,5.07E2,2.74E2,3.03E2,2.18E2,1.51E2,5.2E1,6.8E2,5.99E2,6.53E2,3.51E2,2.89E2,2.18E2,1.43E2,1.31E2,2.32E2,7.1E1,1.77E2,4.1E1,1.34E2,1.7E1,7E0,4.5E1,3.72E2,3.08E2,5.43E2,5.6E1,4.26E2,2.27E2,2.75E2,7.6E1,1.02E2,1.87E2,1E2,1.18E2,1.26E2,1.7E1,1.11E2,2E1,8.7E1,1.45E2,5.6E1,1.5E1,6.7E1,1.1E2,8.1E1,5.3E1],"tree_param":{"num_deleted":"0","num_feature":"18","num_nodes":"55","size_leaf_vector":"1"}},{"base_weights":[2.4609172E-1,-7.9961615E0,3.4189056E1,-1.1300313E1,2.8409903E0,2.2577532E1,5.900277E1,-1.4113892E1,-7.609366E0,-1.6925645E0,6.3877945E0,1.7485355E1,3.0398449E1,5.264506E1,2.476263E0,-1.5638473E1,-1.2304847E1,-8.132278E0,-7.058116E-1,-4.105328E0,5.6681746E-1,4.214155E0,9.431697E0,1.4236437E1,2.1978024E1,1.3894925E0,2.9115574E1,4.606543E1,6.050843E1,-5.1949126E-1,-4.5006645E-1,-3.9492133E-1,-2.9403502E-1,-2.8331053E-1,-1.5961862E-1,2.0233339E-1,-7.38512E-2,-1.798793E-1,-4.988975E-3,-5.7920657E-2,1.387858E-1,3.1191978E-1,9.11229E-2,4.4501498E-1,2.4943522E-1,3.8210103E-1,5.71405E-1,3.1461373E-1,7.1338177E-1,8.0360484E-1,1.0280665E0,1.231957E0,1.5579275E0,1.6825806E0,2.3394773E0],"categories":[],"categories_nodes":[],"categories_segments":[],"categories_sizes":[],"default_left":[0,0,0,0,0,0,0,0,0,0,0,0,0,0,0,0,0,0,0,0,0,0,0,0,0,0,0,0,0,0,0,0,0,0,0,0,0,0,0,0,0,0,0,0,0,0,0,0,0,0,0,0,0,0,0],"id":20,"left_children":[1,3,5,7,9,11,13,15,17,19,21,23,25,27,-1,29,31,33,35,37,39,41,43,45,47,-1,49,51,53,-1,-1,-1,-1,-1,-1,-1,-1,-1,-1,-1,-1,-1,-1,-1,-1,-1,-1,-1,-1,-1,-1,-1,-1,-1,-1],"loss_changes":[1.053874E6,1.0856492E5,2.1072788E5,2.4016375E4,1.141127E4,1.9500703E4,3.0674188E4,3.4399375E3,3.6294922E3,1.7031494E3,2.5935596E3,4.1681797E3,2.6743594E3,6.8876562E3,0E0,4.9926562E2,1.1767266E3,3.4009922E3,9.584975E2,1.1235481E3,1.651339E3,1.670978E3,8.7247363E2,1.0631992E3,2.3794375E3,0E0,1.3021719E3,9.762656E2,1.9630625E3,0E0,0E0,0E0,0E0,0E0,0E0,0E0,0E0,0E0,0E0,0E0,0E0,0E0,0E0,0E0,0E0,0E0,0E0,0E0,0E0,0E0,0E0,0E0,0E0,0E0,0E0],"parents":[2147483647,0,0,1,1,2,2,3,3,4,4,5,5,6,6,7,7,8,8,9,9,10,10,11,11,12,12,13,13,15,15,16,16,17,17,18,18,19,19,20,20,21,21,22,22,23,23,24,24,26,26,27,27,28,28],"right_children":[2,4,6,8,10,12,14,16,18,20,22,24,26,28,-1,30,32,34,36,38,40,42,44,46,48,-1,50,52,54,-1,-1,-1,-1,-1,-1,-1,-1,-1,-1,-1,-1,-1,-1,-1,-1,-1,-1,-1,-1,-1,-1,-1,-1,-1,-1],"split_conditions":[9.322576E3,4.3417197E3,1.95127E4,1.7183849E3,5.9395376E3,1.4119561E4,3.2357855E4,8.3102594E2,1.3186624E1,4.7474213E-2,7.586794E3,9.108964E0,1.6602531E-2,2.5671586E4,2.476263E0,3.259137E2,9.77491E0,4.761041E-2,1.2996961E-2,1.0760878E1,8.523614E0,6.751139E0,7.818368E0,9.321333E-2,4.3033633E-2,1.3894925E0,1.7156848E4,9.804347E0,6E0,-5.1949126E-1,-4.5006645E-1,-3.9492133E-1,-2.9403502E-1,-2.8331053E-1,-1.5961862E-1,2.0233339E-1,-7.38512E-2,-1.798793E-1,-4.988975E-3,-5.7920657E-2,1.387858E-1,3.1191978E-1,9.11229E-2,4.4501498E-1,2.4943522E-1,3.8210103E-1,5.71405E-1,3.1461373E-1,7.1338177E-1,8.0360484E-1,1.0280665E0,1.231957E0,1.5579275E0,1.6825806E0,2.3394773E0],"split_indices":[7,7,7,7,7,7,7,7,17,15,7,17,16,7,0,7,17,15,16,17,17,12,12,15,15,0,7,17,6,0,0,0,0,0,0,0,0,0,0,0,0,0,0,0,0,0,0,0,0,0,0,0,0,0,0],"split_type":[0,0,0,0,0,0,0,0,0,0,0,0,0,0,0,0,0,0,0,0,0,0,0,0,0,0,0,0,0,0,0,0,0,0,0,0,0,0,0,0,0,0,0,0,0,0,0,0,0,0,0,0,0,0,0],"sum_hessian":[3.765E3,3.03E3,7.35E2,2.322E3,7.08E2,5.02E2,2.33E2,1.316E3,1.006E3,3.11E2,3.97E2,3.06E2,1.96E2,1.86E2,4.7E1,7.1E2,6.06E2,9.35E2,7.1E1,1.5E2,1.61E2,2.33E2,1.64E2,1.8E2,1.26E2,1.2E1,1.84E2,1.05E2,8.1E1,1.88E2,5.22E2,4.48E2,1.58E2,6.36E2,2.99E2,1.3E1,5.8E1,1.01E2,4.9E1,1E2,6.1E1,3.6E1,1.97E2,2.6E1,1.38E2,1.4E2,4E1,1.8E1,1.08E2,1.31E2,5.3E1,6.1E1,4.4E1,6.8E1,1.3E1],"tree_param":{"num_deleted":"0","num_feature":"18","num_nodes":"55","size_leaf_vector":"1"}},{"base_weights":[2.8108424E-1,-8.130339E0,2.6788374E1,-1.2286821E1,-7.322201E-1,1.6925304E1,4.7967648E1,-1.4374696E1,-9.597127E0,-4.1453595E0,1.1734457E1,1.1558665E1,3.6448822E1,3.9942318E1,7.274417E1,-1.5958129E1,-1.3341605E1,-1.0868174E1,-3.7717822E0,-6.8340983E0,4.456557E-1,9.242528E0,2.4713207E1,1.2650256E0,1.7124954E1,2.5151144E1,4.361915E1,3.1661667E1,4.7429813E1,6.495791E1,2.8342893E0,-4.8841152E-1,-3.8470975E-1,-4.341474E-1,-3.3817846E-1,-3.5998735E-1,-2.693474E-1,-1.4299686E-1,4.3265156E-2,-2.3587327E-1,-1.4374214E-1,-6.4936124E-2,8.460762E-2,1.5279639E-1,3.4550357E-1,2.1721642E-1,7.6658237E-1,-6.9152294E-3,1.5742236E-1,3.7131575E-1,6.688989E-1,6.49305E-1,1.2085359E0,1.1451739E0,1.9970931E0,6.4785504E-1,1.0938495E0,1.1929555E0,1.7318716E0,1.7118369E0,2.3274355E0],"categories":[],"categories_nodes":[],"categories_segments":[],"categories_sizes":[],"default_left":[0,0,0,0,0,0,0,0,0,0,0,0,0,0,0,0,0,0,0,0,0,0,0,0,0,0,0,0,0,0,0,0,0,0,0,0,0,0,0,0,0,0,0,0,0,0,0,0,0,0,0,0,0,0,0,0,0,0,0,0,0],"id":21,"left_children":[1,3,5,7,9,11,13,15,17,19,21,23,25,27,29,31,33,35,37,39,41,43,45,47,49,51,53,55,57,59,-1,-1,-1,-1,-1,-1,-1,-1,-1,-1,-1,-1,-1,-1,-1,-1,-1,-1,-1,-1,-1,-1,-1,-1,-1,-1,-1,-1,-1,-1,-1],"loss_changes":[8.376707E5,8.769042E4,1.88236E5,1.0116406E4,4.3748016E4,6.4434844E4,5.4161438E4,1.4654531E3,5.889836E3,9.9646875E3,6.9191953E3,2.788216E4,9.677E3,1.2076594E4,5.5386562E3,1.9526562E2,1.3027344E3,1.2971172E3,7.589512E2,1.0315293E3,1.8593545E3,1.7059893E3,3.2839844E2,1.0256056E3,7.4830547E3,1.9945586E3,7.4592344E3,4.382742E3,6.6246094E3,9.559531E2,0E0,0E0,0E0,0E0,0E0,0E0,0E0,0E0,0E0,0E0,0E0,0E0,0E0,0E0,0E0,0E0,0E0,0E0,0E0,0E0,0E0,0E0,0E0,0E0,0E0,0E0,0E0,0E0,0E0,0E0,0E0],"parents":[2147483647,0,0,1,1,2,2,3,3,4,4,5,5,6,6,7,7,8,8,9,9,10,10,11,11,12,12,13,13,14,14,15,15,16,16,17,17,18,18,19,19,20,20,21,21,22,22,23,23,24,24,25,25,26,26,27,27,28,28,29,29],"right_children":[2,4,6,8,10,12,14,16,18,20,22,24,26,28,30,32,34,36,38,40,42,44,46,48,50,52,54,56,58,60,-1,-1,-1,-1,-1,-1,-1,-1,-1,-1,-1,-1,-1,-1,-1,-1,-1,-1,-1,-1,-1,-1,-1,-1,-1,-1,-1,-1,-1,-1,-1],"split_conditions":[7.8672235E2,4.6687637E2,7.78081E-2,2.845753E2,6.861142E-2,7.067962E2,1.484952E3,1.5043463E2,5.580874E-2,4.6458334E-2,1.0204239E-1,4.921909E-2,1.0308739E-1,1.0636072E3,9.8825885E2,6.660324E-2,4.5493547E-2,4.0353607E-2,8.5411504E-2,6.3182605E2,5.9862146E2,6.087669E2,4.905671E2,1.0773665E3,1.0306998E3,1.2465797E3,1.0434049E3,9.118994E-2,1.0118177E-1,9.564101E-2,2.8342893E0,-4.8841152E-1,-3.8470975E-1,-4.341474E-1,-3.3817846E-1,-3.5998735E-1,-2.693474E-1,-1.4299686E-1,4.3265156E-2,-2.3587327E-1,-1.4374214E-1,-6.4936124E-2,8.460762E-2,1.5279639E-1,3.4550357E-1,2.1721642E-1,7.6658237E-1,-6.9152294E-3,1.5742236E-1,3.7131575E-1,6.688989E-1,6.49305E-1,1.2085359E0,1.1451739E0,1.9970931E0,6.4785504E-1,1.0938495E0,1.1929555E0,1.7318716E0,1.7118369E0,2.3274355E0],"split_indices":[8,8,15,8,15,0,8,8,15,15,15,15,14,8,0,15,15,15,15,8,8,8,8,8,8,0,0,15,15,15,0,0,0,0,0,0,0,0,0,0,0,0,0,0,0,0,0,0,0,0,0,0,0,0,0,0,0,0,0,0,0],"split_type":[0,0,0,0,0,0,0,0,0,0,0,0,0,0,0,0,0,0,0,0,0,0,0,0,0,0,0,0,0,0,0,0,0,0,0,0,0,0,0,0,0,0,0,0,0,0,0,0,0,0,0,0,0,0,0,0,0,0,0,0,0],"sum_hessian":[3.755E3,2.851E3,9.04E2,1.825E3,1.026E3,6.18E2,2.86E2,1.025E3,8E2,8.06E2,2.2E2,4.86E2,1.32E2,2.18E2,6.8E1,3.99E2,6.26E2,6.56E2,1.44E2,5.08E2,2.98E2,1.86E2,3.4E1,1.71E2,3.15E2,5.3E1,7.9E1,1.06E2,1.12E2,5.3E1,1.5E1,3.58E2,4.1E1,4.01E2,2.25E2,4.07E2,2.49E2,1.21E2,2.3E1,3.36E2,1.72E2,1.42E2,1.56E2,6.7E1,1.19E2,2E0,3.2E1,1.25E2,4.6E1,1.66E2,1.49E2,4.5E1,8E0,6.6E1,1.3E1,3.6E1,7E1,6.7E1,4.5E1,3.6E1,1.7E1],"tree_param":{"num_deleted":"0","num_feature":"18","num_nodes":"61","size_leaf_vector":"1"}},{"base_weights":[4.9773403E-3,-7.9530888E0,2.676118E1,-1.1984339E1,-5.4205126E-1,1.69249E1,4.827912E1,-1.4168722E1,-9.450641E0,-4.5127225E0,9.644275E0,1.15030575E1,3.4560753E1,3.8381413E1,6.842974E1,-1.4557679E1,-1.0358449E1,-1.0655371E1,-3.3867378E0,-6.616361E0,-1.8146081E-1,6.323602E0,1.9380102E1,1.3349212E0,1.6753252E1,1.8275045E1,4.012948E1,2.6463318E1,4.360436E1,6.1502644E1,2.6995344E0,-4.9163732E-1,-4.155713E-1,-3.6222434E-1,-2.1888839E-1,-3.509171E-1,-2.634448E-1,-1.4129813E-1,6.2054206E-2,-2.26207E-1,-1.3956597E-1,-6.273156E-2,7.678145E-2,1.2085036E-1,3.0127874E-1,4.564271E-1,7.2335964E-1,-5.9860963E-3,1.5631424E-1,4.089735E-1,6.758764E-1,3.5094413E-1,7.852831E-1,1.0266306E0,1.8792931E0,6.8158424E-1,1.0461283E0,1.0756387E0,1.5344234E0,1.5363678E0,2.2683945E0],"categories":[],"categories_nodes":[],"categories_segments":[],"categories_sizes":[],"default_left":[0,0,0,0,0,0,0,0,0,0,0,0,0,0,0,0,0,0,0,0,0,0,0,0,0,0,0,0,0,0,0,0,0,0,0,0,0,0,0,0,0,0,0,0,0,0,0,0,0,0,0,0,0,0,0,0,0,0,0,0,0],"id":22,"left_children":[1,3,5,7,9,11,13,15,17,19,21,23,25,27,29,31,33,35,37,39,41,43,45,47,49,51,53,55,57,59,-1,-1,-1,-1,-1,-1,-1,-1,-1,-1,-1,-1,-1,-1,-1,-1,-1,-1,-1,-1,-1,-1,-1,-1,-1,-1,-1,-1,-1,-1,-1],"loss_changes":[7.9507175E5,8.597589E4,1.8036088E5,1.0182531E4,4.1096773E4,5.592192E4,5.0824875E4,1.3297656E3,6.2903594E3,6.6592383E3,9.091354E3,2.4107512E4,1.17819375E4,1.0175125E4,7.4558438E3,9.399375E2,4.1626367E2,1.3068594E3,1.056401E3,8.5772266E2,1.261485E3,1.7862725E3,1.0524473E3,9.2280505E2,5.064508E3,1.6164756E3,1.1424422E4,1.0334062E3,5.47325E3,6.1466562E3,0E0,0E0,0E0,0E0,0E0,0E0,0E0,0E0,0E0,0E0,0E0,0E0,0E0,0E0,0E0,0E0,0E0,0E0,0E0,0E0,0E0,0E0,0E0,0E0,0E0,0E0,0E0,0E0,0E0,0E0,0E0],"parents":[2147483647,0,0,1,1,2,2,3,3,4,4,5,5,6,6,7,7,8,8,9,9,10,10,11,11,12,12,13,13,14,14,15,15,16,16,17,17,18,18,19,19,20,20,21,21,22,22,23,23,24,24,25,25,26,26,27,27,28,28,29,29],"right_children":[2,4,6,8,10,12,14,16,18,20,22,24,26,28,30,32,34,36,38,40,42,44,46,48,50,52,54,56,58,60,-1,-1,-1,-1,-1,-1,-1,-1,-1,-1,-1,-1,-1,-1,-1,-1,-1,-1,-1,-1,-1,-1,-1,-1,-1,-1,-1,-1,-1,-1,-1],"split_conditions":[8.019782E2,4.694689E2,7.78081E-2,2.7263297E2,6.3673094E-2,6.904982E2,6.904982E2,6.612965E-2,5.647646E-2,4.6458334E-2,9.118994E-2,4.921909E-2,4.246966E-2,9.118994E-2,1.9756699E3,1.1849271E2,1.8022029E2,4.0353607E-2,8.223663E-2,6.368957E2,6.199676E2,6.7529144E2,1.05412714E-1,1.0388021E3,1.0913134E3,2.0728984E3,1.0434049E3,1.138918E3,1.0505071E3,9.321333E-2,2.6995344E0,-4.9163732E-1,-4.155713E-1,-3.6222434E-1,-2.1888839E-1,-3.509171E-1,-2.634448E-1,-1.4129813E-1,6.2054206E-2,-2.26207E-1,-1.3956597E-1,-6.273156E-2,7.678145E-2,1.2085036E-1,3.0127874E-1,4.564271E-1,7.2335964E-1,-5.9860963E-3,1.5631424E-1,4.089735E-1,6.758764E-1,3.5094413E-1,7.852831E-1,1.0266306E0,1.8792931E0,6.8158424E-1,1.0461283E0,1.0756387E0,1.5344234E0,1.5363678E0,2.2683945E0],"split_indices":[8,8,15,8,15,0,0,15,15,15,15,15,15,15,8,8,8,15,15,8,8,8,15,8,8,8,0,8,8,15,0,0,0,0,0,0,0,0,0,0,0,0,0,0,0,0,0,0,0,0,0,0,0,0,0,0,0,0,0,0,0],"split_type":[0,0,0,0,0,0,0,0,0,0,0,0,0,0,0,0,0,0,0,0,0,0,0,0,0,0,0,0,0,0,0,0,0,0,0,0,0,0,0,0,0,0,0,0,0,0,0,0,0,0,0,0,0,0,0,0,0,0,0,0,0],"sum_hessian":[3.732E3,2.877E3,8.55E2,1.863E3,1.014E3,5.88E2,2.67E2,9.98E2,8.65E2,7.3E2,2.84E2,4.51E2,1.37E2,1.81E2,8.6E1,9.03E2,9.5E1,7.21E2,1.44E2,4.91E2,2.39E2,2.13E2,7.1E1,1.54E2,2.97E2,3.6E1,1.01E2,5.7E1,1.24E2,6.8E1,1.8E1,2.45E2,6.58E2,5.9E1,3.6E1,4.6E2,2.61E2,1.16E2,2.8E1,3.32E2,1.59E2,1.41E2,9.8E1,1.33E2,8E1,4E1,3.1E1,1.11E2,4.3E1,1.95E2,1.02E2,2.1E1,1.5E1,8.2E1,1.9E1,4.2E1,1.5E1,6.4E1,6E1,4.2E1,2.6E1],"tree_param":{"num_deleted":"0","num_feature":"18","num_nodes":"61","size_leaf_vector":"1"}},{"base_weights":[-1.9328417E-1,-6.3952703E0,2.3377682E1,2.0906754E0,-8.96205E0,1.4043809E1,3.7696552E1,-2.6746023E0,1.7058819E1,-1.0388557E1,5.334364E-1,6.8438535E0,3.652329E1,2.7550909E1,5.733271E1,-4.60688E0,1.3921352E1,3.9208656E1,1.2696377E1,-1.4046039E1,-9.0933895E0,-7.7853103E0,7.336451E0,-1.5763556E0,1.4600622E1,2.2312181E1,4.1970295E1,2.3817394E1,6.284651E1,4.7713245E1,2.2038658E0,-2.3659272E-1,1.5172417E-2,2.3286067E-2,6.605276E-1,7.866987E-1,1.2732711E0,1.468083E-1,5.908474E-1,-4.471837E-1,-3.82758E-1,-3.609562E-1,-1.8021551E-1,-9.152071E-2,-3.4262192E-1,9.025271E-2,3.7095642E-1,-2.519982E-1,9.2916295E-2,2.5887117E-1,6.873437E-1,4.0144944E-1,1.4899112E0,1.0907296E0,1.561706E0,3.8557234E-1,8.222008E-1,8.87659E-1,2.1783254E0,9.924629E-1,1.6064008E0],"categories":[],"categories_nodes":[],"categories_segments":[],"categories_sizes":[],"default_left":[0,0,0,0,0,0,0,0,0,0,0,0,0,0,0,0,0,0,0,0,0,0,0,0,0,0,0,0,0,0,0,0,0,0,0,0,0,0,0,0,0,0,0,0,0,0,0,0,0,0,0,0,0,0,0,0,0,0,0,0,0],"id":23,"left_children":[1,3,5,7,9,11,13,15,17,19,21,23,25,27,29,31,33,35,37,39,41,43,45,47,49,51,53,55,57,59,-1,-1,-1,-1,-1,-1,-1,-1,-1,-1,-1,-1,-1,-1,-1,-1,-1,-1,-1,-1,-1,-1,-1,-1,-1,-1,-1,-1,-1,-1,-1],"loss_changes":[5.487886E5,6.475354E4,1.0398531E5,4.9332832E4,3.0916078E4,7.66294E4,5.9780594E4,1.6899832E4,1.5638965E4,9.270594E3,1.6978291E4,2.360123E4,7.9654844E3,2.5517375E4,1.26311875E4,7.901289E3,5.8363516E3,2.0777344E1,7.6033438E3,3.8228906E2,1.324068E4,2.2888237E3,3.5539639E3,5.574957E3,9.132516E3,7.640383E3,2.7495312E3,7.0074453E3,4.021625E3,4.032375E3,0E0,0E0,0E0,0E0,0E0,0E0,0E0,0E0,0E0,0E0,0E0,0E0,0E0,0E0,0E0,0E0,0E0,0E0,0E0,0E0,0E0,0E0,0E0,0E0,0E0,0E0,0E0,0E0,0E0,0E0,0E0],"parents":[2147483647,0,0,1,1,2,2,3,3,4,4,5,5,6,6,7,7,8,8,9,9,10,10,11,11,12,12,13,13,14,14,15,15,16,16,17,17,18,18,19,19,20,20,21,21,22,22,23,23,24,24,25,25,26,26,27,27,28,28,29,29],"right_children":[2,4,6,8,10,12,14,16,18,20,22,24,26,28,30,32,34,36,38,40,42,44,46,48,50,52,54,56,58,60,-1,-1,-1,-1,-1,-1,-1,-1,-1,-1,-1,-1,-1,-1,-1,-1,-1,-1,-1,-1,-1,-1,-1,-1,-1,-1,-1,-1,-1,-1,-1],"split_conditions":[6.8254955E-2,3.5204664E-2,7.9933076E0,9.968959E-2,6.0119424E-2,1.0274771E-1,8.439291E-2,1.7833536E1,1.8111175E-2,6.824025E0,7.171832E0,6.3700433E0,5.651272E0,1.1599936E1,9.634967E0,9.600092E0,4.5338407E0,1.0248385E-1,1.5054618E1,5.6994224E0,1.0549202E1,1.751302E-1,8.523614E0,5.0075517E0,8.439291E-2,1.4453045E-1,1.2118517E-1,2.1789812E1,1.5357551E1,3.2485596E1,2.2038658E0,-2.3659272E-1,1.5172417E-2,2.3286067E-2,6.605276E-1,7.866987E-1,1.2732711E0,1.468083E-1,5.908474E-1,-4.471837E-1,-3.82758E-1,-3.609562E-1,-1.8021551E-1,-9.152071E-2,-3.4262192E-1,9.025271E-2,3.7095642E-1,-2.519982E-1,9.2916295E-2,2.5887117E-1,6.873437E-1,4.0144944E-1,1.4899112E0,1.0907296E0,1.561706E0,3.8557234E-1,8.222008E-1,8.87659E-1,2.1783254E0,9.924629E-1,1.6064008E0],"split_indices":[15,16,17,14,15,15,15,17,16,17,17,17,17,17,17,10,10,14,10,17,10,16,17,17,15,15,15,10,10,10,0,0,0,0,0,0,0,0,0,0,0,0,0,0,0,0,0,0,0,0,0,0,0,0,0,0,0,0,0,0,0],"split_type":[0,0,0,0,0,0,0,0,0,0,0,0,0,0,0,0,0,0,0,0,0,0,0,0,0,0,0,0,0,0,0,0,0,0,0,0,0,0,0,0,0,0,0,0,0,0,0,0,0,0,0,0,0,0,0,0,0,0,0,0,0],"sum_hessian":[3.752E3,2.971E3,7.81E2,6.9E2,2.281E3,4.74E2,3.07E2,5.24E2,1.66E2,1.983E3,2.98E2,3.6E2,1.14E2,2.04E2,1.03E2,4.7E2,5.4E1,2.6E1,1.4E2,5.16E2,1.467E3,1.34E2,1.64E2,1.73E2,1.87E2,3.3E1,8.1E1,1.86E2,1.8E1,6.7E1,3.6E1,2.86E2,1.84E2,2.1E1,3.3E1,7E0,1.9E1,6.7E1,7.3E1,3.03E2,2.13E2,7.5E2,7.17E2,5.9E1,7.5E1,8.9E1,7.5E1,7E1,1.03E2,1.1E2,7.7E1,2.6E1,7E0,5.5E1,2.6E1,4.7E1,1.39E2,5E0,1.3E1,2.1E1,4.6E1],"tree_param":{"num_deleted":"0","num_feature":"18","num_nodes":"61","size_leaf_vector":"1"}},{"base_weights":[4.587192E-1,-5.5354776E0,3.7907303E1,-9.476685E0,7.590118E0,2.7494284E1,5.805238E1,-1.2115207E1,-5.035476E0,4.593627E0,1.5185901E1,2.5174414E1,4.1136463E1,5.159683E1,2.462481E0,-1.3809082E1,-1.0395242E1,-5.9533925E0,-1.8762852E-1,3.273119E-1,8.781182E0,1.1645577E1,2.3874817E1,2.109845E1,3.323674E1,1.0141476E0,1.362834E0,4.512527E1,1.8339257E0,-4.6285546E-1,-3.963516E-1,-3.2403117E-1,-1.9338317E-1,-1.8082199E-1,7.887896E-1,-7.1969606E-2,1.01985954E-1,-6.422415E-2,8.379066E-2,1.563115E-1,3.2868078E-1,3.0063957E-1,5.7769465E-1,6.532169E-1,1.451084E0,4.313764E-1,7.0921916E-1,8.3685195E-1,1.1435442E0,1.122704E0,1.4761786E0],"categories":[],"categories_nodes":[],"categories_segments":[],"categories_sizes":[],"default_left":[0,0,0,0,0,0,0,0,0,0,0,0,0,0,0,0,0,0,0,0,0,0,0,0,0,0,0,0,0,0,0,0,0,0,0,0,0,0,0,0,0,0,0,0,0,0,0,0,0,0,0],"id":24,"left_children":[1,3,5,7,9,11,13,15,17,19,21,23,25,27,-1,29,31,33,35,37,39,41,43,45,47,-1,-1,49,-1,-1,-1,-1,-1,-1,-1,-1,-1,-1,-1,-1,-1,-1,-1,-1,-1,-1,-1,-1,-1,-1,-1],"loss_changes":[8.541097E5,1.697486E5,1.0853369E5,2.9504094E4,1.7182848E4,9.9779375E3,2.337775E4,4.465453E3,4.190705E3,9.733784E3,6.3049414E3,9.157297E3,5.96875E0,6.0645625E3,0E0,5.642656E2,1.1947812E3,2.0485488E3,1.2059624E3,1.6551936E3,2.0785469E3,1.7107852E3,2.0859531E3,3.1105312E3,1.5181016E3,0E0,0E0,9.556875E2,0E0,0E0,0E0,0E0,0E0,0E0,0E0,0E0,0E0,0E0,0E0,0E0,0E0,0E0,0E0,0E0,0E0,0E0,0E0,0E0,0E0,0E0,0E0],"parents":[2147483647,0,0,1,1,2,2,3,3,4,4,5,5,6,6,7,7,8,8,9,9,10,10,11,11,12,12,13,13,15,15,16,16,17,17,18,18,19,19,20,20,21,21,22,22,23,23,24,24,27,27],"right_children":[2,4,6,8,10,12,14,16,18,20,22,24,26,28,-1,30,32,34,36,38,40,42,44,46,48,-1,-1,50,-1,-1,-1,-1,-1,-1,-1,-1,-1,-1,-1,-1,-1,-1,-1,-1,-1,-1,-1,-1,-1,-1,-1],"split_conditions":[1.236864E4,5.4156284E3,2.3058887E4,4.0722562E2,6.796716E-3,6.218174E-3,3.4796625E4,2.3330516E2,7.046359E2,8.010066E3,9.1406045E3,1.7606168E4,1.3612192E3,5.188921E-3,2.462481E0,3.3511823E2,8.850619E0,2.43066E-2,8.95345E-3,5.537092E-3,5.2469433E-3,8.834585E-3,9.650954E-3,5.069577E-3,5.1181465E-3,1.0141476E0,1.362834E0,2.679945E4,1.8339257E0,-4.6285546E-1,-3.963516E-1,-3.2403117E-1,-1.9338317E-1,-1.8082199E-1,7.887896E-1,-7.1969606E-2,1.01985954E-1,-6.422415E-2,8.379066E-2,1.563115E-1,3.2868078E-1,3.0063957E-1,5.7769465E-1,6.532169E-1,1.451084E0,4.313764E-1,7.0921916E-1,8.3685195E-1,1.1435442E0,1.122704E0,1.4761786E0],"split_indices":[7,7,7,8,13,13,7,8,8,7,7,7,8,13,0,7,12,13,13,13,13,13,13,13,13,0,0,7,0,0,0,0,0,0,0,0,0,0,0,0,0,0,0,0,0,0,0,0,0,0,0],"split_type":[0,0,0,0,0,0,0,0,0,0,0,0,0,0,0,0,0,0,0,0,0,0,0,0,0,0,0,0,0,0,0,0,0,0,0,0,0,0,0,0,0,0,0,0,0,0,0,0,0,0,0],"sum_hessian":[3.803E3,3.279E3,5.24E2,2.522E3,7.57E2,3.47E2,1.77E2,1.581E3,9.41E2,5.44E2,2.13E2,2.99E2,4.8E1,1.42E2,3.5E1,7.93E2,7.88E2,7.91E2,1.5E2,2.7E2,2.74E2,1.53E2,6E1,2.01E2,9.8E1,2.1E1,2.7E1,8.8E1,5.4E1,2.07E2,5.86E2,7.13E2,7.5E1,7.9E2,1E0,9.3E1,5.7E1,1.35E2,1.35E2,1.05E2,1.69E2,1.28E2,2.5E1,5.7E1,3E0,5.7E1,1.44E2,5E1,4.8E1,3.4E1,5.4E1],"tree_param":{"num_deleted":"0","num_feature":"18","num_nodes":"51","size_leaf_vector":"1"}},{"base_weights":[8.2487404E-2,-5.719541E0,3.436025E1,-9.129556E0,6.247489E0,2.4689804E1,5.5985386E1,-1.17677145E1,-5.074762E0,2.0062351E0,1.0251498E1,1.9855299E1,3.1485966E1,4.872475E1,7.2970604E1,-1.3284238E1,-1.0072166E1,-6.456309E0,-1.192226E0,-9.4315124E-1,3.7993498E0,9.032211E0,1.777675E1,1.732052E1,2.5882006E1,2.9131628E1,1.1702347E0,5.8650665E1,1.3334652E0,1.925757E0,2.5954807E0,-4.655057E-1,-3.850963E-1,-3.4168583E-1,-2.5137874E-1,-2.2701278E-1,-7.97043E-2,-8.894914E-2,1.01685956E-1,-5.874436E-2,3.1199396E-1,4.658592E-2,2.8062853E-1,8.234155E-2,2.9713187E-1,4.6405682E-1,1.0637022E0,3.64431E-1,5.483791E-1,7.0727515E-1,1.0793316E0,7.3804265E-1,9.7808075E-1,1.5167239E0,2.444659E0],"categories":[],"categories_nodes":[],"categories_segments":[],"categories_sizes":[],"default_left":[0,0,0,0,0,0,0,0,0,0,0,0,0,0,0,0,0,0,0,0,0,0,0,0,0,0,0,0,0,0,0,0,0,0,0,0,0,0,0,0,0,0,0,0,0,0,0,0,0,0,0,0,0,0,0],"id":25,"left_children":[1,3,5,7,9,11,13,15,17,19,21,23,25,27,29,31,33,35,37,39,41,43,45,47,49,51,-1,53,-1,-1,-1,-1,-1,-1,-1,-1,-1,-1,-1,-1,-1,-1,-1,-1,-1,-1,-1,-1,-1,-1,-1,-1,-1,-1,-1],"loss_changes":[7.459986E5,1.3096828E5,1.1217244E5,2.6651172E4,1.2070631E4,1.17615625E4,1.7039594E4,3.7540625E3,5.2811094E3,1.8387235E3,3.1976523E3,2.9583438E3,1.6085312E3,2.486125E3,1.5410938E2,5.954375E2,1.5057969E3,3.0481406E3,2.1218452E3,1.540084E3,2.6809553E3,1.7111992E3,1.4919736E3,5.714883E2,6.418672E2,1.1163359E3,0E0,1.9796094E3,0E0,0E0,0E0,0E0,0E0,0E0,0E0,0E0,0E0,0E0,0E0,0E0,0E0,0E0,0E0,0E0,0E0,0E0,0E0,0E0,0E0,0E0,0E0,0E0,0E0,0E0,0E0],"parents":[2147483647,0,0,1,1,2,2,3,3,4,4,5,5,6,6,7,7,8,8,9,9,10,10,11,11,12,12,13,13,14,14,15,15,16,16,17,17,18,18,19,19,20,20,21,21,22,22,23,23,24,24,25,25,27,27],"right_children":[2,4,6,8,10,12,14,16,18,20,22,24,26,28,30,32,34,36,38,40,42,44,46,48,50,52,-1,54,-1,-1,-1,-1,-1,-1,-1,-1,-1,-1,-1,-1,-1,-1,-1,-1,-1,-1,-1,-1,-1,-1,-1,-1,-1,-1,-1],"split_conditions":[1.1647826E4,5.1779717E3,2.3058887E4,3.963374E2,7.4951543E3,1.6142869E4,3.2357855E4,9.734098E2,4.7474213E-2,4.842329E-2,1.1740383E3,1.2080931E3,1.4411241E3,3.434979E-2,3.757042E4,2.5576772E2,4.42362E-2,6.673992E2,5.9862146E2,1.2080931E3,7.160821E2,5.3031374E-2,6.473114E-2,7.4082245E2,1.7912186E3,8.8902056E-2,1.1702347E0,9.007426E-2,1.3334652E0,1.925757E0,2.5954807E0,-4.655057E-1,-3.850963E-1,-3.4168583E-1,-2.5137874E-1,-2.2701278E-1,-7.97043E-2,-8.894914E-2,1.01685956E-1,-5.874436E-2,3.1199396E-1,4.658592E-2,2.8062853E-1,8.234155E-2,2.9713187E-1,4.6405682E-1,1.0637022E0,3.64431E-1,5.483791E-1,7.0727515E-1,1.0793316E0,7.3804265E-1,9.7808075E-1,1.5167239E0,2.444659E0],"split_indices":[7,7,7,8,7,7,7,7,15,15,8,8,8,16,7,7,15,8,8,8,8,15,15,8,8,15,0,15,0,0,0,0,0,0,0,0,0,0,0,0,0,0,0,0,0,0,0,0,0,0,0,0,0,0,0],"split_type":[0,0,0,0,0,0,0,0,0,0,0,0,0,0,0,0,0,0,0,0,0,0,0,0,0,0,0,0,0,0,0,0,0,0,0,0,0,0,0,0,0,0,0,0,0,0,0,0,0,0,0,0,0,0,0],"sum_hessian":[3.749E3,3.207E3,5.42E2,2.496E3,7.11E2,3.76E2,1.66E2,1.511E3,9.85E2,3.46E2,3.65E2,2.22E2,1.54E2,1.19E2,4.7E1,7.94E2,7.17E2,7.26E2,2.59E2,1.31E2,2.15E2,3.16E2,4.9E1,1.59E2,6.3E1,1.21E2,3.3E1,3.2E1,8.7E1,3.2E1,1.5E1,1.27E2,6.67E2,4E2,3.17E2,5.61E2,1.65E2,1.87E2,7.2E1,1.21E2,1E1,1.54E2,6.1E1,3.9E1,2.77E2,4.5E1,4E0,2.7E1,1.32E2,5.4E1,9E0,5.6E1,6.5E1,2.6E1,6E0],"tree_param":{"num_deleted":"0","num_feature":"18","num_nodes":"55","size_leaf_vector":"1"}},{"base_weights":[1.7042606E-1,-5.5572085E0,3.3857788E1,-9.075635E0,5.690696E0,2.4680891E1,5.525062E1,-1.1359694E1,-4.8282056E0,2.8607626E0,1.2200624E1,2.0939035E1,3.3104996E1,4.826072E1,7.113745E1,-1.3086447E1,-9.868157E0,-6.102253E0,-9.658288E-1,-1.9717696E-1,7.751464E0,8.580549E0,2.0680506E1,1.8792858E1,3.5783005E1,2.7164507E1,1.166447E0,4.3585438E1,2.062697E0,1.6223131E0,2.362461E0,-3.987984E-1,-2.8027216E-1,-3.2256186E-1,-1.9860278E-1,-2.0647416E-1,-2.5604367E-2,-7.613838E-2,1.3235742E-1,-7.40996E-2,6.0286693E-2,1.4138794E-1,3.1164154E-1,1.8684316E-1,3.9144588E-1,5.5405456E-1,1.3590205E0,3.7374124E-1,6.330294E-1,9.365134E-1,1.5337995E0,6.816346E-1,9.0738314E-1,1.0062687E0,1.4383987E0],"categories":[],"categories_nodes":[],"categories_segments":[],"categories_sizes":[],"default_left":[0,0,0,0,0,0,0,0,0,0,0,0,0,0,0,0,0,0,0,0,0,0,0,0,0,0,0,0,0,0,0,0,0,0,0,0,0,0,0,0,0,0,0,0,0,0,0,0,0,0,0,0,0,0,0],"id":26,"left_children":[1,3,5,7,9,11,13,15,17,19,21,23,25,27,29,31,33,35,37,39,41,43,45,47,49,51,-1,53,-1,-1,-1,-1,-1,-1,-1,-1,-1,-1,-1,-1,-1,-1,-1,-1,-1,-1,-1,-1,-1,-1,-1,-1,-1,-1,-1],"loss_changes":[7.289562E5,1.2783906E5,1.0641594E5,2.3810547E4,1.4150549E4,1.1474219E4,1.47786875E4,3.989125E3,4.235881E3,8.047572E3,6.9751406E3,7.9291406E3,2.9587344E3,8.214625E3,1.9743125E3,4.473047E2,2.4036016E3,2.6478105E3,1.8289021E3,1.6701047E3,1.6093916E3,1.6528652E3,2.9211309E3,3.2170469E3,7.158672E2,1.4802344E2,0E0,2.6841406E3,0E0,0E0,0E0,0E0,0E0,0E0,0E0,0E0,0E0,0E0,0E0,0E0,0E0,0E0,0E0,0E0,0E0,0E0,0E0,0E0,0E0,0E0,0E0,0E0,0E0,0E0,0E0],"parents":[2147483647,0,0,1,1,2,2,3,3,4,4,5,5,6,6,7,7,8,8,9,9,10,10,11,11,12,12,13,13,14,14,15,15,16,16,17,17,18,18,19,19,20,20,21,21,22,22,23,23,24,24,25,25,27,27],"right_children":[2,4,6,8,10,12,14,16,18,20,22,24,26,28,30,32,34,36,38,40,42,44,46,48,50,52,-1,54,-1,-1,-1,-1,-1,-1,-1,-1,-1,-1,-1,-1,-1,-1,-1,-1,-1,-1,-1,-1,-1,-1,-1,-1,-1,-1,-1],"split_conditions":[1.1647826E4,4.9194062E3,2.3058887E4,4.1115012E2,6.6950633E-3,1.7156848E4,3.2357855E4,2.2567744E2,4.8133753E-2,8.1641235E3,8.436661E3,6.4390264E-3,5.348707E-3,5.742743E-3,4.84076E-3,7.3754594E-2,4.893532E-2,7.275496E2,6.281157E2,5.537092E-3,5.409546E-3,8.185864E-3,9.723465E-3,5.069577E-3,8.037406E-3,1.95127E4,1.166447E0,4.636129E-3,2.062697E0,1.6223131E0,2.362461E0,-3.987984E-1,-2.8027216E-1,-3.2256186E-1,-1.9860278E-1,-2.0647416E-1,-2.5604367E-2,-7.613838E-2,1.3235742E-1,-7.40996E-2,6.0286693E-2,1.4138794E-1,3.1164154E-1,1.8684316E-1,3.9144588E-1,5.5405456E-1,1.3590205E0,3.7374124E-1,6.330294E-1,9.365134E-1,1.5337995E0,6.816346E-1,9.0738314E-1,1.0062687E0,1.4383987E0],"split_indices":[7,7,7,8,13,7,7,8,15,7,7,13,13,13,13,15,15,8,8,13,13,13,13,13,13,7,0,13,0,0,0,0,0,0,0,0,0,0,0,0,0,0,0,0,0,0,0,0,0,0,0,0,0,0,0],"split_type":[0,0,0,0,0,0,0,0,0,0,0,0,0,0,0,0,0,0,0,0,0,0,0,0,0,0,0,0,0,0,0,0,0,0,0,0,0,0,0,0,0,0,0,0,0,0,0,0,0,0,0,0,0,0,0],"sum_hessian":[3.776E3,3.228E3,5.48E2,2.459E3,7.69E2,3.85E2,1.63E2,1.598E3,8.61E2,5.37E2,2.32E2,2.69E2,1.16E2,1.16E2,4.7E1,7.37E2,8.61E2,6.47E2,2.14E2,3.31E2,2.06E2,1.64E2,6.8E1,2.37E2,3.2E1,6E1,5.6E1,9.7E1,1.9E1,1.7E1,3E1,6.96E2,4.1E1,6.75E2,1.86E2,5.63E2,8.4E1,1.66E2,4.8E1,1.63E2,1.68E2,9.7E1,1.09E2,1.09E2,5.5E1,6.4E1,4E0,6.5E1,1.72E2,2.7E1,5E0,2.8E1,3.2E1,3.2E1,6.5E1],"tree_param":{"num_deleted":"0","num_feature":"18","num_nodes":"55","size_leaf_vector":"1"}},{"base_weights":[-6.777258E-2,-5.949731E0,2.724523E1,-1.01357155E1,1.1408616E0,1.8214115E1,4.412883E1,-1.2088805E1,-7.6642585E0,-2.6675696E0,1.1060809E1,1.4492919E1,3.832553E1,3.8403526E1,6.298846E1,-1.2394323E1,-8.466246E0,-9.153419E0,-3.4975834E0,-5.2669296E0,1.1198306E0,8.941281E0,2.593998E1,2.6475146E0,1.8388876E1,2.0571047E1,5.0544876E1,2.9632616E1,4.5512615E1,1.6184636E0,2.2426348E0,-4.2274377E-1,-3.528816E-1,-3.0695432E-1,-1.704243E-1,-3.053525E-1,-2.3300758E-1,-1.4581287E-1,6.2322067E-3,-1.9238235E-1,-1.0128145E-1,-4.2405017E-2,9.478419E-2,1.663279E-1,3.889004E-1,1.8723764E-1,7.8882366E-1,-1.6958538E-2,1.572431E-1,4.257283E-1,7.048596E-1,4.669401E-1,7.9099065E-1,1.1740776E0,1.9349775E0,7.0577776E-1,1.0429842E0,1.2732818E0,2.1244032E0],"categories":[],"categories_nodes":[],"categories_segments":[],"categories_sizes":[],"default_left":[0,0,0,0,0,0,0,0,0,0,0,0,0,0,0,0,0,0,0,0,0,0,0,0,0,0,0,0,0,0,0,0,0,0,0,0,0,0,0,0,0,0,0,0,0,0,0,0,0,0,0,0,0,0,0,0,0,0,0],"id":27,"left_children":[1,3,5,7,9,11,13,15,17,19,21,23,25,27,29,31,33,35,37,39,41,43,45,47,49,51,53,55,57,-1,-1,-1,-1,-1,-1,-1,-1,-1,-1,-1,-1,-1,-1,-1,-1,-1,-1,-1,-1,-1,-1,-1,-1,-1,-1,-1,-1,-1,-1],"loss_changes":[6.002046E5,9.125129E4,1.001365E5,9.237891E3,4.3173625E4,3.1849625E4,2.2415781E4,1.0881562E3,5.279336E3,8.137716E3,9.765242E3,1.688807E4,1.3495758E4,9.812531E3,1.4978438E3,8.975781E2,3.6972998E2,8.1627344E2,1.1473113E3,1.0399844E3,1.7457754E3,3.7401113E3,1.0796094E2,7.6966815E2,5.5830547E3,4.310078E2,3.6847578E3,1.7840469E3,4.5285625E3,0E0,0E0,0E0,0E0,0E0,0E0,0E0,0E0,0E0,0E0,0E0,0E0,0E0,0E0,0E0,0E0,0E0,0E0,0E0,0E0,0E0,0E0,0E0,0E0,0E0,0E0,0E0,0E0,0E0,0E0],"parents":[2147483647,0,0,1,1,2,2,3,3,4,4,5,5,6,6,7,7,8,8,9,9,10,10,11,11,12,12,13,13,14,14,15,15,16,16,17,17,18,18,19,19,20,20,21,21,22,22,23,23,24,24,25,25,26,26,27,27,28,28],"right_children":[2,4,6,8,10,12,14,16,18,20,22,24,26,28,30,32,34,36,38,40,42,44,46,48,50,52,54,56,58,-1,-1,-1,-1,-1,-1,-1,-1,-1,-1,-1,-1,-1,-1,-1,-1,-1,-1,-1,-1,-1,-1,-1,-1,-1,-1,-1,-1,-1,-1],"split_conditions":[9.1614264E2,4.8619516E2,7.78081E-2,2.8781192E2,6.612965E-2,1.7011191E3,1.520342E3,6.683106E-2,5.1431727E-2,4.3976523E-2,1.08537026E-1,4.42362E-2,4.842329E-2,9.649148E-2,1.8732495E3,1.2382E2,1.8621974E2,3.8326E-2,7.080628E-2,6.673992E2,6.199676E2,7.046359E2,4.905671E2,1.0773665E3,1.1864956E3,3.502484E-2,2.0728984E3,1.1740383E3,1.4453045E-1,1.6184636E0,2.2426348E0,-4.2274377E-1,-3.528816E-1,-3.0695432E-1,-1.704243E-1,-3.053525E-1,-2.3300758E-1,-1.4581287E-1,6.2322067E-3,-1.9238235E-1,-1.0128145E-1,-4.2405017E-2,9.478419E-2,1.663279E-1,3.889004E-1,1.8723764E-1,7.8882366E-1,-1.6958538E-2,1.572431E-1,4.257283E-1,7.048596E-1,4.669401E-1,7.9099065E-1,1.1740776E0,1.9349775E0,7.0577776E-1,1.0429842E0,1.2732818E0,2.1244032E0],"split_indices":[8,8,15,8,15,8,8,15,15,15,15,15,15,15,8,8,8,15,15,8,8,8,8,8,8,15,8,8,15,0,0,0,0,0,0,0,0,0,0,0,0,0,0,0,0,0,0,0,0,0,0,0,0,0,0,0,0,0,0],"split_type":[0,0,0,0,0,0,0,0,0,0,0,0,0,0,0,0,0,0,0,0,0,0,0,0,0,0,0,0,0,0,0,0,0,0,0,0,0,0,0,0,0,0,0,0,0,0,0,0,0,0,0,0,0,0,0,0,0,0,0],"sum_hessian":[3.734E3,3.073E3,6.61E2,1.932E3,1.141E3,4.32E2,2.29E2,1.077E3,8.55E2,8.25E2,3.16E2,3.66E2,6.6E1,1.78E2,5.1E1,9.91E2,8.6E1,6.29E2,2.26E2,4.89E2,3.36E2,2.78E2,3.8E1,9.1E1,2.75E2,2.8E1,3.8E1,8.2E1,9.6E1,3.2E1,1.9E1,2.63E2,7.28E2,5.1E1,3.5E1,3.58E2,2.71E2,1.65E2,6.1E1,3.03E2,1.86E2,1.5E2,1.86E2,1.52E2,1.26E2,1E0,3.7E1,4.1E1,5E1,1.53E2,1.22E2,1.7E1,1.1E1,2.3E1,1.5E1,4E1,4.2E1,8.8E1,8E0],"tree_param":{"num_deleted":"0","num_feature":"18","num_nodes":"59","size_leaf_vector":"1"}},{"base_weights":[1.6548459E-1,-6.347149E0,2.6969612E1,-9.319971E0,1.5915527E0,1.9198736E1,5.1527744E1,-1.1636738E1,-7.040259E0,-6.232473E-1,8.217741E0,1.4792603E1,2.7772072E1,4.596659E1,7.457018E1,-1.2982664E1,-1.0769361E1,-7.796703E0,-3.1079595E0,-3.6672735E0,2.355527E0,5.111903E0,1.4723966E1,1.2596447E1,2.7117128E1,2.5342207E1,1.2477795E0,4.19492E1,2.1661255E0,6.5307766E-1,2.2661974E0,-4.294863E-1,-3.7353674E-1,-3.4508976E-1,-2.6742068E-1,-2.8349468E-1,-1.902394E-1,-1.4151336E-1,1.1493697E-1,-1.550961E-1,-3.8325507E-2,-1.6770414E-3,1.5328483E-1,1.173699E-1,3.820435E-1,3.504364E-1,6.895831E-1,2.3513775E-1,4.4817245E-1,7.190321E-1,1.6334211E0,5.2134603E-1,8.1829625E-1,9.276805E-1,1.3369447E0],"categories":[],"categories_nodes":[],"categories_segments":[],"categories_sizes":[],"default_left":[0,0,0,0,0,0,0,0,0,0,0,0,0,0,0,0,0,0,0,0,0,0,0,0,0,0,0,0,0,0,0,0,0,0,0,0,0,0,0,0,0,0,0,0,0,0,0,0,0,0,0,0,0,0,0],"id":28,"left_children":[1,3,5,7,9,11,13,15,17,19,21,23,25,27,29,31,33,35,37,39,41,43,45,47,49,51,-1,53,-1,-1,-1,-1,-1,-1,-1,-1,-1,-1,-1,-1,-1,-1,-1,-1,-1,-1,-1,-1,-1,-1,-1,-1,-1,-1,-1],"loss_changes":[6.6351994E5,7.21847E4,1.408035E5,1.1669547E4,1.2244642E4,2.0969969E4,1.9381688E4,1.1467031E3,3.3191758E3,5.6848726E3,4.1480527E3,9.835461E3,5.360125E3,1.23604375E4,4.5265625E1,1.2435156E2,8.1758594E2,2.2064648E3,2.0614902E3,1.1065557E3,2.1054814E3,1.2577983E3,1.4158496E3,3.461246E3,3.5151445E3,2.0678203E3,0E0,2.3424531E3,0E0,0E0,0E0,0E0,0E0,0E0,0E0,0E0,0E0,0E0,0E0,0E0,0E0,0E0,0E0,0E0,0E0,0E0,0E0,0E0,0E0,0E0,0E0,0E0,0E0,0E0,0E0],"parents":[2147483647,0,0,1,1,2,2,3,3,4,4,5,5,6,6,7,7,8,8,9,9,10,10,11,11,12,12,13,13,14,14,15,15,16,16,17,17,18,18,19,19,20,20,21,21,22,22,23,23,24,24,25,25,27,27],"right_children":[2,4,6,8,10,12,14,16,18,20,22,24,26,28,30,32,34,36,38,40,42,44,46,48,50,52,-1,54,-1,-1,-1,-1,-1,-1,-1,-1,-1,-1,-1,-1,-1,-1,-1,-1,-1,-1,-1,-1,-1,-1,-1,-1,-1,-1,-1],"split_conditions":[9.1406045E3,3.8655923E3,2.2177416E4,1.3096584E3,7.1389196E-3,1.4999438E4,3.4796625E4,5.1114334E2,9.945478E-3,5.776647E3,6.9291973E3,7.103722E-3,6.2827636E-3,5.802672E-3,4.2506754E-3,2.5576772E2,1.2549956E-2,2.4142205E3,2.709063E3,6.0192966E-3,5.7217525E-3,9.829868E-3,9.096083E-3,5.2690255E-3,1.0121707E-2,4.84076E-3,1.2477795E0,4.535023E-3,2.1661255E0,6.5307766E-1,2.2661974E0,-4.294863E-1,-3.7353674E-1,-3.4508976E-1,-2.6742068E-1,-2.8349468E-1,-1.902394E-1,-1.4151336E-1,1.1493697E-1,-1.550961E-1,-3.8325507E-2,-1.6770414E-3,1.5328483E-1,1.173699E-1,3.820435E-1,3.504364E-1,6.895831E-1,2.3513775E-1,4.4817245E-1,7.190321E-1,1.6334211E0,5.2134603E-1,8.1829625E-1,9.276805E-1,1.3369447E0],"split_indices":[7,7,7,7,13,7,7,7,13,7,7,13,13,13,13,7,13,7,7,13,13,13,13,13,13,13,0,13,0,0,0,0,0,0,0,0,0,0,0,0,0,0,0,0,0,0,0,0,0,0,0,0,0,0,0],"split_type":[0,0,